svm_type c_svc
kernel_type rbf
gamma 2
nr_class 5
total_sv 1030
rho -4.6544584964247759 -4.4351486116661354 -1.0177404608555602 -0.84652044356128475 0.2348556941355906 0.81486644538494624 0.84885377803469664 0.39275296703715806 0.53337146383471812 0.2296472045347141
label 0 1 2 3 4
nr_sv 513 11 66 214 226
SV
0 0 0 89.28711631573222 1:2.3330689e-05 2:2.7507859e-07 3:2.8536015e-05 20:0.0019607843 21:0.0019607843 26:0.99999999 29:0.16078431 30:0.019607843 31:0.12 32:0.05 33:0.05 
0 0 0 0.021217971798659266 2:6.4708965e-07 3:0.00027487753 9:0.99999999 20:0.019607843 21:0.019607843 26:0.99999999 29:0.61176471 30:1 31:0.99999999 33:0.0099999999 34:0.089999999 37:0.46 38:0.60999999 
0 259.17687473097783 0 0 2:2.7217062e-05 9:0.99999999 26:0.99999999 29:1 30:0.31764706 31:0.32 32:0.02 33:0.31 
0 0 0 383.51963872745273 2:4.7942269e-07 20:0.0058823529 21:0.0058823529 26:0.99999999 29:1 30:0.14509804 31:0.15 32:0.0099999999 33:0.16 
0 0 4.2558260819047602 0 2:8.5143375e-07 3:0.002501075 9:0.99999999 20:0.0078431373 21:0.015686275 26:0.99999999 28:0.22 29:0.28235294 30:0.28235294 31:0.99999999 33:0.0099999999 
0 0 0 0.22872839815510343 2:3.6137468e-05 3:0.00057576749 9:0.99999999 20:0.0019607843 21:0.0019607843 24:0.99999999 25:0.99999999 26:0.99999999 29:0.66666667 30:0.37647059 31:0.43 32:0.42 33:0.0099999999 34:0.02 37:0.41 38:0.04 
0 0 0 1024 2:1.6766695e-07 26:0.99999999 29:0.0039215686 30:0.0039215686 31:0.99999999 33:0.99999999 
0 832.07749569527516 0 0 1:0.00062992861 2:2.7953225e-06 3:0.00059809158 7:0.28571429 9:0.99999999 19:0.99999999 26:0.99999999 29:0.99607843 30:0.2745098 31:0.28 32:0.02 
0 0 0 0.066894370180333618 2:7.2830333e-07 3:0.0015448273 9:0.99999999 21:0.0019607843 22:0.99999999 23:0.5 26:0.99999999 28:0.99999999 29:0.011764706 30:1 31:0.99999999 33:0.33 34:0.03 35:0.33 
0 0 0 1024 2:2.1482328e-07 3:1.9412255e-07 26:0.99999999 29:0.0039215686 30:0.0039215686 31:0.99999999 33:0.99999999 
0 0 0 0.026213604102543361 2:5.1609984e-07 3:0.00044182293 9:0.99999999 20:0.0019607843 22:0.5 23:0.99999999 26:0.5 27:0.99999999 29:0.094117647 30:0.035294118 31:0.38 32:0.079999999 33:0.04 35:0.12 36:0.33 37:0.17 38:0.44 
0 0 0.41849224628114112 0.1737294576460692 2:8.121368e-08 21:0.0019607843 26:0.99999999 28:0.99999999 29:0.0078431373 30:0.074509804 31:0.5 32:0.99999999 33:0.5 34:0.11 
0 1024 0 0 2:1.2967991e-06 9:0.99999999 13:0.0051282051 26:0.99999999 29:0.0039215686 30:0.11764706 31:0.99999999 33:0.99999999 34:0.099999999 
0 0 0.033320249022056603 0 1:0.23116047 2:6.900543e-06 3:0.0016715893 9:0.99999999 24:0.99999999 25:0.99999999 26:0.99999999 29:0.043137255 30:0.015686275 31:0.36 32:0.18 33:0.089999999 37:0.36 38:0.99999999 
0 0 0 0.11058766575405768 1:0.018641221 2:1.7709822e-06 3:0.0046434114 9:0.99999999 10:0.0022624434 16:0.125 20:0.0039215686 21:0.0019607843 24:0.66999999 25:0.99999999 26:0.66999999 27:0.66999999 29:1 30:0.062745098 31:0.059999999 32:0.059999999 33:0.0099999999 35:0.66999999 36:0.059999999 37:0.0099999999 38:0.12 
0 0 0 468.76332619033923 1:9.3322757e-05 3:2.9118383e-06 24:0.99999999 25:0.99999999 26:0.99999999 29:0.50980392 30:0.0039215686 31:0.0099999999 32:0.05 33:0.0099999999 37:0.0099999999 38:0.99999999 
0 0 0 16.058380821108162 24:0.99999999 25:0.99999999 26:0.99999999 29:0.070588235 30:0.015686275 31:0.22 32:0.28 33:0.059999999 35:0.059999999 37:0.22 38:0.99999999 
0 2.914782214544553 0 1024 2:8.121368e-08 3:1.7665152e-05 20:0.0039215686 21:0.0039215686 26:0.99999999 29:0.031372549 30:0.078431373 31:0.99999999 33:0.99999999 34:0.099999999 
0 0 0.051588761650551734 0 1:0.2126359 2:2.9367915e-06 3:0.0015527863 9:0.99999999 24:0.99999999 25:0.99999999 26:0.99999999 29:0.11372549 30:0.043137255 31:0.38 32:0.069999999 33:0.03 35:0.14 36:0.36 37:0.17 38:0.45 
0 9.182243566334499 0 0 1:4.6661378e-05 2:0.0057494544 9:0.99999999 20:0.0019607843 21:0.0019607843 26:0.99999999 29:0.039215686 30:0.1372549 31:0.59999999 32:0.4 33:0.59999999 34:0.059999999 
0 1024 0 0 1:0.10424152 2:4.3488616e-07 3:0.0045378088 9:0.99999999 10:0.0011312217 26:0.99999999 29:0.0039215686 30:0.0039215686 31:0.99999999 33:0.99999999 
0 0 0 1024 2:7.8593884e-08 20:0.0019607843 21:0.0019607843 26:0.99999999 29:0.18823529 30:0.18823529 31:0.99999999 33:0.99999999 
0 0 0 0.30266785958064729 2:7.0210537e-07 3:0.00012734439 9:0.99999999 21:0.049019608 26:0.99999999 28:0.079999999 29:0.0039215686 30:1 31:0.99999999 33:0.99999999 34:0.079999999 
0 0 0 0.13154724976366058 2:3.9034962e-07 3:0.0026385137 9:0.99999999 21:0.0019607843 26:0.99999999 28:0.99999999 29:0.0039215686 30:1 31:0.99999999 33:0.99999999 34:0.04 
0 0 0 20.016462294242803 2:1.6766695e-07 26:0.99999999 29:0.30196078 30:0.0039215686 31:0.0099999999 32:0.93999999 33:0.0099999999 37:0.89999999 
0 0 0 0.19117446110194938 1:2.3330689e-05 3:2.9118383e-06 24:0.99999999 25:0.99999999 26:0.99999999 29:0.89019608 30:0.0078431373 32:0.03 34:0.99999999 38:0.5 
0 0 20.789889299191927 0 2:3.9034962e-07 3:0.0014640723 7:0.051948052 9:0.99999999 10:0.0045248869 20:0.039215686 21:0.039215686 26:0.99999999 29:0.61960784 30:1 31:0.99999999 33:0.0099999999 34:0.0099999999 
0 0 0.50470436186635759 54.693599298618132 2:2.3840145e-07 20:0.011764706 21:0.011764706 26:0.99999999 29:0.51764706 30:0.02745098 31:0.05 32:0.02 33:0.05 37:0.11 
0 0 0.22807289236836448 0.17912865235619288 1:0.025570435 2:3.0127656e-07 3:0.00030419004 9:0.99999999 24:0.99999999 25:0.99999999 26:0.99999999 29:0.015686275 30:0.011764706 31:0.74999999 32:0.5 33:0.25 35:0.25 36:0.33 37:0.5 38:0.66999999 
0 0 0 11.561701185468714 2:1.8338573e-08 3:4.3289329e-05 20:0.0019607843 26:0.5 27:0.99999999 29:0.41568627 30:0.019607843 31:0.05 32:0.05 33:0.0099999999 35:0.02 36:0.2 
0 1024 0 0 2:2.6197961e-08 3:7.5707795e-06 9:0.99999999 26:0.99999999 29:0.0039215686 30:0.047058824 31:0.99999999 33:0.99999999 34:0.25 
0 0 1024 0 2:1.3518148e-06 3:7.7649021e-07 20:0.60196078 21:0.60196078 26:0.99999999 29:1 30:1 31:0.99999999 33:0.99999999 
0 0 0 4.6858193470918552 1:2.3330689e-05 2:1.5718777e-08 3:2.6400667e-05 20:0.0039215686 26:0.33 27:0.99999999 29:1 30:0.0078431373 31:0.0099999999 32:0.54999999 
0 0 0 0.12635688943571993 1:0.00083990481 2:3.8327618e-06 3:0.00080599683 7:0.38961039 9:0.99999999 19:0.99999999 26:0.99999999 29:0.0078431373 30:0.0039215686 31:0.5 32:0.99999999 33:0.5 
0 0 0 0.037400956068905422 1:0.00013998414 2:3.9113556e-06 3:7.0854731e-05 9:0.99999999 22:0.99999999 23:0.99999999 26:0.99999999 29:0.51764706 30:0.56862745 31:0.32 32:0.05 33:0.0099999999 34:0.0099999999 35:0.02 36:0.0099999999 
0 0 601.05843237850729 0 2:6.3661046e-07 3:0.0059946985 7:0.012987013 9:0.99999999 10:0.0011312217 20:0.0058823529 21:0.0058823529 26:0.99999999 29:1 30:1 31:0.99999999 
0 47.929705182267128 0 0 2:2.2320663e-06 9:0.99999999 20:0.017647059 21:0.017647059 26:0.99999999 29:1 30:0.32941176 31:0.33 32:0.03 33:0.33 
0 0 0 0.026393554323031275 2:5.6587597e-07 3:0.00059886807 9:0.99999999 20:0.015686275 21:0.015686275 26:0.99999999 29:0.24705882 30:1 31:0.99999999 33:0.02 34:0.05 37:0.85999999 38:0.38 
0 0 1024 0 2:1.3518148e-06 3:7.7649021e-07 20:0.52745098 21:0.52745098 26:0.99999999 29:1 30:1 31:0.99999999 33:0.99999999 
0 0 1024 0 2:7.8593884e-08 26:0.99999999 29:0.99215686 30:0.99215686 31:0.99999999 33:0.99999999 
0 0 0 0.22593383415556553 22:0.99999999 23:0.99999999 26:0.99999999 29:0.16470588 30:0.0039215686 31:0.02 32:0.099999999 33:0.02 35:0.02 36:0.99999999 
0 0 4.7957990087824145 0 1:0.00011665345 2:7.0210537e-07 3:5.4160192e-05 7:0.012987013 9:0.99999999 21:0.0039215686 26:0.99999999 28:0.66999999 29:0.41568627 30:0.4 31:0.95999999 32:0.02 33:0.0099999999 
0 0 0.21217498063477316 0 20:0.0019607843 21:0.0039215686 22:0.5 23:0.33 26:0.99999999 28:0.66999999 29:0.011764706 30:0.047058824 31:0.99999999 33:0.66999999 34:0.33 35:0.33 36:0.079999999 
0 0 1024 0 2:1.3518148e-06 3:7.7649021e-07 20:0.97058824 21:0.97058824 26:0.99999999 29:1 30:1 31:0.99999999 33:0.99999999 
0 0 9.1257190143433995 0 2:3.3009431e-07 3:8.7355148e-06 20:0.1745098 21:0.1745098 26:0.99999999 29:1 30:0.95294118 31:0.94999999 32:0.0099999999 33:0.36 
0 0 0.35928334370698878 0 2:9.1692865e-07 3:2.7759525e-05 9:0.99999999 21:0.019607843 26:0.99999999 28:0.36 29:0.0078431373 30:0.043137255 31:0.99999999 33:0.5 34:0.45 37:0.5 38:0.90999999 
0 0 0 0.075499944411912046 2:4.6894351e-07 3:0.053101253 9:0.99999999 20:0.0019607843 22:0.5 23:0.99999999 26:0.5 27:0.99999999 29:1 30:0.85490196 31:0.84999999 32:0.04 35:0.02 36:0.0099999999 
0 0 0 0.045404483548404213 2:6.9162618e-07 3:0.0028341893 9:0.99999999 21:0.0039215686 22:0.99999999 23:0.33 26:0.99999999 28:0.99999999 29:1 30:1 31:0.99999999 35:0.0099999999 36:0.0099999999 
0 0 0 0.077929289564631493 1:0.06229294 2:4.6108412e-07 3:0.0025371817 9:0.99999999 10:0.0022624434 12:0.5 13:0.0020512821 16:0.125 26:0.99999999 29:1 30:0.25490196 31:0.25 32:0.02 35:0.98999999 36:0.97999999 
0 1.8306312353143557 0 0 2:4.9540345e-06 3:6.5031055e-05 9:0.99999999 26:0.99999999 29:0.72941176 30:0.55294118 31:0.58999999 32:0.02 33:0.0099999999 34:0.0099999999 
0 0 0.03737441834471017 0 2:1.1527103e-07 3:2.5430054e-05 21:0.0039215686 26:0.99999999 28:0.66999999 29:0.011764706 30:0.0039215686 31:0.33 32:0.99999999 33:0.33 
0 0 948.32720896317471 29.9004216822145 2:5.422978e-07 3:4.0183368e-05 20:0.0019607843 21:0.0019607843 26:0.99999999 29:1 30:0.83921569 31:0.83999999 32:0.0099999999 33:0.83999999 
0 0 0 0.0067511383345777443 2:3.0206249e-06 9:0.99999999 21:0.039215686 23:0.94999999 26:0.99999999 28:0.099999999 29:0.30980392 30:0.34117647 31:0.2 32:0.079999999 33:0.2 34:0.03 
0 16.723031274552937 0 0 2:0.00023154282 9:0.99999999 13:0.001025641 20:0.025490196 21:0.025490196 22:0.069999999 23:0.069999999 26:0.99999999 29:0.90980392 30:0.32156863 31:0.35 32:0.03 33:0.35 35:0.02 36:0.04 
0 0 0 0.12323349001784446 2:1.9596075e-06 9:0.99999999 13:0.0092307692 26:0.99999999 29:0.0078431373 30:0.41960784 31:0.5 32:0.99999999 33:0.5 34:0.03 35:0.5 
0 0 0 0.11008978779380163 2:3.8511003e-07 3:0.0031176082 9:0.99999999 21:0.0039215686 22:0.99999999 23:0.33 26:0.99999999 28:0.99999999 29:0.0039215686 30:1 31:0.99999999 33:0.99999999 34:0.059999999 35:0.99999999 36:0.0099999999 
0 0 0 1.6124960542895308 1:0.00097988895 2:2.6197961e-08 3:6.9884119e-06 24:0.99999999 25:0.99999999 26:0.99999999 29:1 30:0.011764706 31:0.0099999999 32:0.02 38:0.33 
0 0 5.7828871039181795 39.339798526707405 2:1.2051062e-07 3:2.5624177e-05 20:0.32156863 21:0.31960784 26:0.98999999 27:0.0099999999 29:0.21176471 30:0.082352941 31:0.39 32:0.04 33:0.02 
0 520.47519865039033 0 0 2:3.6813375e-05 9:0.99999999 20:0.01372549 21:0.01372549 26:0.99999999 29:0.054901961 30:0.054901961 31:0.99999999 33:0.99999999 
0 0 0 0.88108309236305904 2:8.4750405e-06 3:6.4060442e-05 9:0.99999999 20:0.0039215686 26:0.33 27:0.99999999 29:0.68627451 30:0.71764706 31:0.72999999 32:0.03 33:0.0099999999 34:0.0099999999 
0 0 0 0.012448657463916647 2:5.7373535e-07 3:0.00049520663 7:0.012987013 9:0.99999999 11:0.99999999 20:0.019607843 21:0.019607843 26:0.99999999 29:0.043137255 30:1 31:0.99999999 33:0.089999999 34:0.05 
0 348.07574395507027 0 0 1:0.00062992861 2:3.1856721e-06 3:0.00065613422 7:0.31168831 9:0.99999999 19:0.99999999 26:0.99999999 29:1 30:0.2745098 31:0.27 32:0.03 
0 0 14.083517151169524 0 2:8.173764e-07 3:0.00048666524 9:0.99999999 20:0.0098039216 21:0.015686275 25:0.33 26:0.99999999 28:0.44 29:0.32941176 30:0.29411765 31:0.88999999 32:0.02 33:0.0099999999 35:0.0099999999 36:0.0099999999 
0 0 0 2.0650828986685168 1:2.3330689e-05 2:3.636277e-06 3:6.3478074e-05 9:0.99999999 14:0.025 26:0.99999999 29:0.6627451 30:0.65882353 31:0.60999999 32:0.19 33:0.0099999999 34:0.0099999999 35:0.04 36:0.0099999999 
0 0 0 0.089476755109951955 2:1.8390969e-06 3:5.9207378e-05 9:0.99999999 20:0.0019607843 22:0.5 23:0.99999999 26:0.5 27:0.99999999 29:0.34117647 30:0.57647059 31:0.59999999 32:0.069999999 33:0.0099999999 34:0.0099999999 35:0.05 36:0.0099999999 
0 0 0 0.11226062495528132 20:0.0019607843 21:0.0039215686 22:0.5 23:0.33 26:0.99999999 28:0.66999999 29:0.0078431373 30:1 31:0.99999999 33:0.99999999 34:0.05 35:0.5 36:0.0099999999 
0 1024 0 0 2:7.3354292e-07 3:0.00055033743 9:0.99999999 26:0.99999999 29:0.0039215686 30:0.10196078 31:0.99999999 33:0.99999999 34:0.079999999 
0 0 0 0.013224167171839371 1:0.00067658999 2:3.1201772e-06 3:0.00065477537 7:0.31168831 9:0.99999999 19:0.99999999 20:0.0019607843 26:0.5 27:0.99999999 29:1 30:0.14117647 31:0.14 32:0.079999999 35:0.02 
0 0 0.12836899379949626 0 2:8.121368e-08 21:0.0019607843 26:0.99999999 28:0.99999999 29:0.023529412 30:0.094117647 31:0.33 32:0.33 33:0.33 34:0.079999999 
0 0 0.78296378584348947 5.8429261986788763 2:1.5718777e-08 3:5.2218966e-05 26:0.99999999 29:0.90196078 30:0.0078431373 31:0.0099999999 32:0.02 37:0.82999999 
0 731.5855337972954 0 0 1:0.0006532593 2:3.906116e-06 3:0.00080599683 7:0.38961039 9:0.99999999 19:0.99999999 26:0.99999999 29:1 30:0.2 31:0.2 32:0.03 
0 0 0 0.022365370137843864 20:0.0019607843 21:0.011764706 24:0.99999999 25:0.29 26:0.99999999 28:0.29 29:0.043137255 30:1 31:0.99999999 33:0.089999999 34:0.22 37:0.99999999 38:0.88999999 
0 0 0.48236100458170078 0.044107971901894631 22:0.99999999 23:0.99999999 26:0.99999999 29:0.082352941 30:0.011764706 31:0.14 32:0.19 33:0.05 35:0.099999999 36:0.66999999 
0 1024 0 0 1:0.00062992861 2:3.9270744e-06 3:0.00080599683 7:0.38961039 9:0.99999999 19:0.99999999 26:0.99999999 29:1 30:0.16470588 31:0.16 32:0.0099999999 
0 0 0 0.010273289451086985 21:0.0019607843 24:0.99999999 25:0.99999999 26:0.99999999 28:0.99999999 29:0.058823529 30:1 31:0.99999999 33:0.069999999 34:0.22 37:0.99999999 38:0.99999999 
0 5.5982417035375782 0 0.21161005435758268 2:3.3952558e-06 3:6.3089829e-05 9:0.99999999 21:0.0058823529 26:0.99999999 28:0.99999999 29:0.0039215686 30:0.0039215686 31:0.99999999 33:0.99999999 
0 0 0 1.990213051257691 2:4.3978518e-05 20:0.019607843 26:0.089999999 27:0.27 29:0.078431373 30:0.0039215686 31:0.05 32:0.2 33:0.84999999 
0 0.95066246625941897 0 86.161536120426902 1:0.0061826326 2:1.4146899e-07 3:7.7649021e-06 26:0.99999999 29:0.070588235 30:0.070588235 31:0.99999999 33:0.88999999 
0 0 0 0.29323878610001153 2:1.4456035e-05 3:9.1431722e-05 9:0.99999999 26:0.99999999 29:0.27843137 30:0.47843137 31:0.18 32:0.04 33:0.0099999999 34:0.02 35:0.03 37:0.68999999 
0 0 1024 0 2:1.3518148e-06 3:7.7649021e-07 20:0.55490196 21:0.55490196 26:0.99999999 29:1 30:1 31:0.99999999 33:0.99999999 
0 0 185.80054037089297 0 2:6.1565209e-07 3:0.00079532009 7:0.012987013 9:0.99999999 20:0.0019607843 21:0.0019607843 22:0.5 23:0.5 26:0.99999999 29:1 30:1 31:0.99999999 35:0.0099999999 36:0.0099999999 
0 0 0 1024 2:2.3054206e-07 21:0.0019607843 26:0.99999999 28:0.99999999 29:0.015686275 30:0.015686275 31:0.99999999 33:0.99999999 
0 0 0.19714344353844368 0 24:0.99999999 25:0.99999999 26:0.99999999 29:0.5372549 30:0.36470588 31:0.67999999 32:0.02 33:0.0099999999 37:0.67999999 38:0.99999999 
0 0 0 1024 2:1.2575021e-07 3:9.3178825e-06 26:0.99999999 29:0.83529412 30:0.078431373 31:0.089999999 32:0.0099999999 33:0.089999999 
0 0 0.093439201681403072 0.082505565739369457 1:0.013601792 2:2.2215871e-06 3:0.0049157654 7:0.012987013 9:0.99999999 10:0.12104072 11:0.99999999 12:0.5 13:0.1025641 14:0.025 26:0.99999999 29:0.0039215686 30:0.0039215686 31:0.99999999 33:0.99999999 
0 0 16.547453265456177 0 2:6.077927e-07 3:0.00052374264 9:0.99999999 16:0.125 20:0.0019607843 21:0.0039215686 25:0.33 26:0.99999999 28:0.66999999 29:0.21568627 30:0.21568627 31:0.99999999 33:0.02 
0 127.66658462878532 0 0 2:5.0300086e-07 9:0.99999999 20:0.0019607843 21:0.0019607843 26:0.99999999 29:0.99607843 30:0.34117647 31:0.34 32:0.02 33:0.34 34:0.02 37:0.03 
0 23.844130002507413 0 0.056818326991137279 1:0.00051327516 2:8.9335048e-07 3:0.00020809938 7:0.077922078 9:0.99999999 19:0.99999999 26:0.99999999 29:0.0039215686 30:0.0039215686 31:0.99999999 33:0.99999999 
0 0 0 0.156588516605425 1:0.00095655826 2:2.8817758e-07 3:0.0017907805 9:0.99999999 24:0.99999999 25:0.99999999 26:0.99999999 29:0.47058824 30:0.0039215686 31:0.0099999999 32:0.079999999 33:0.0099999999 35:0.0099999999 37:0.0099999999 38:0.99999999 
0 0 1024 0 2:1.3518148e-06 3:7.7649021e-07 20:0.97254902 21:0.97254902 26:0.99999999 29:1 30:1 31:0.99999999 33:0.99999999 
0 0 1024 0 2:1.3518148e-06 3:7.7649021e-07 20:0.50980392 21:0.50980392 26:0.99999999 29:1 30:1 31:0.99999999 33:0.99999999 
0 0 1024 0.42691751489718816 2:1.3518148e-06 3:7.7649021e-07 20:0.86078431 21:0.86078431 26:0.99999999 29:1 30:1 31:0.99999999 33:0.99999999 
0 0 0 0.051085063741017997 1:0.28087817 2:2.0905973e-06 3:0.05371041 9:0.99999999 10:0.52262443 11:0.99999999 12:1 13:0.52512821 16:0.375 26:0.99999999 29:1 30:0.14509804 31:0.15 32:0.059999999 35:0.56999999 36:0.3 37:0.04 38:0.11 
0 0 1024 0 2:1.3518148e-06 3:7.7649021e-07 20:0.59607843 21:0.59607843 26:0.99999999 29:1 30:1 31:0.99999999 33:0.99999999 
0 0 0 0.11168156544834854 2:6.1827189e-07 3:0.0056683785 9:0.99999999 22:0.99999999 23:0.99999999 26:0.99999999 29:0.0039215686 30:1 31:0.99999999 33:0.99999999 34:0.04 35:0.99999999 
0 0 1024 0 2:1.3518148e-06 3:7.7649021e-07 20:0.68039216 21:0.68039216 26:0.99999999 29:1 30:1 31:0.99999999 33:0.99999999 
0 0 0 0.033944779541702795 1:0.063832766 2:5.8290464e-06 3:0.0069575464 9:0.99999999 10:0.12443439 11:0.99999999 12:0.5 13:0.12410256 14:0.325 26:0.99999999 29:1 30:0.0039215686 32:0.02 
0 0 1024 0 2:1.3518148e-06 3:7.7649021e-07 20:0.78823529 21:0.78823529 26:0.99999999 29:1 30:1 31:0.99999999 33:0.99999999 
0 0 0 0.04310309589134903 1:0.024473893 2:1.9910451e-06 3:0.013208293 8:0.5 9:0.99999999 26:0.99999999 29:0.98039216 30:0.43921569 31:0.45 32:0.0099999999 35:0.79999999 36:0.88999999 
0 0 0 0.14966545870721087 21:0.0019607843 24:0.99999999 25:0.99999999 26:0.99999999 28:0.99999999 
79.122932662388962 621.0845128123301 0 0 2:1.0033819e-06 9:0.99999999 26:0.99999999 29:0.011764706 30:0.011764706 31:0.99999999 33:0.99999999 
0 0 1024 0 2:1.3518148e-06 3:7.7649021e-07 20:0.81568627 21:0.81568627 26:0.99999999 29:1 30:1 31:0.99999999 33:0.99999999 
0 0 0 0.032211474100353209 2:9.8504335e-07 3:0.001170559 9:0.99999999 21:0.0098039216 26:0.99999999 28:0.66999999 29:0.035294118 30:0.89803922 31:0.99999999 33:0.11 34:0.12 37:0.55999999 38:0.94999999 
0 0 0 1024 2:1.6792893e-06 20:0.0019607843 21:0.0019607843 26:0.99999999 29:0.14509804 30:0.019607843 31:0.14 32:0.079999999 33:0.14 
0 0 0 10.911357871356019 2:2.6197961e-08 3:3.3583201e-05 26:0.99999999 29:0.0078431373 30:0.0039215686 31:0.5 32:0.99999999 33:0.5 
0 0 0.1500699851734042 0 2:3.8249024e-07 3:8.2113839e-05 9:0.99999999 26:0.99999999 29:0.0078431373 30:0.0078431373 31:0.99999999 33:0.5 37:0.5 38:0.5 
0 0 0 5.2924545081930399 2:1.8370011e-05 20:0.0078431373 22:0.2 26:0.2 27:0.4 29:0.50588235 30:0.0039215686 31:0.0099999999 32:0.05 33:0.12 35:0.0099999999 
0 2.5557730988672587 0 0 1:4.6661378e-05 2:7.0341526e-06 3:6.2701584e-05 9:0.99999999 26:0.99999999 29:1 30:0.18039216 31:0.18 32:0.52999999 
0 0 0 0.0054417447788374798 2:4.2702677e-07 3:0.0028341893 9:0.99999999 22:0.99999999 23:0.99999999 26:0.99999999 29:1 30:1 31:0.99999999 
0 0 0 5.3363968818710523 2:3.7987044e-07 26:0.99999999 29:0.66666667 30:0.0039215686 31:0.0099999999 32:0.50999999 33:0.83999999 
0 13.369006635581453 0 0 2:1.5881204e-05 9:0.99999999 20:0.0058823529 21:0.0058823529 26:0.99999999 29:0.043137255 30:0.20392157 31:0.90999999 32:0.18 33:0.90999999 34:0.04 
0 0 1024 0 2:1.3518148e-06 3:7.7649021e-07 20:0.52941176 21:0.52941176 26:0.99999999 29:1 30:1 31:0.99999999 33:0.99999999 
0 0 0 0.071719730167331991 2:6.1565209e-07 3:0.0042512839 9:0.99999999 21:0.0019607843 22:0.99999999 23:0.5 26:0.99999999 28:0.99999999 29:1 30:1 31:0.99999999 
0 0 0 0.14281722845893297 2:2.6197961e-08 3:2.7565402e-05 21:0.0019607843 26:0.99999999 28:0.99999999 29:1 30:0.015686275 31:0.02 32:0.53999999 
0 0 0 0.02218607958172647 22:0.99999999 23:0.99999999 26:0.99999999 29:0.16862745 30:0.13333333 31:0.78999999 32:0.069999999 33:0.16 35:0.02 36:0.03 37:0.64999999 38:0.81999999 
0 26.92876491186454 0 0 2:0.00010608602 9:0.99999999 20:0.02745098 21:0.02745098 26:0.99999999 29:1 30:0.24313725 31:0.24 32:0.02 33:0.15 35:0.28 36:0.32 
0 1024 0 0 2:3.1437554e-08 9:0.99999999 20:0.0019607843 21:0.0019607843 26:0.99999999 29:0.023529412 30:0.10196078 31:0.99999999 33:0.99999999 34:0.079999999 
0 0 0 1024 2:7.8593884e-08 20:0.0019607843 21:0.0019607843 26:0.99999999 29:0.10980392 30:0.10980392 31:0.99999999 33:0.99999999 
0 0 0 0.094795084487234421 2:8.9597028e-07 3:0.0016001522 9:0.99999999 22:0.99999999 23:0.99999999 26:0.99999999 29:1 30:0.031372549 31:0.03 32:0.69999999 35:0.68999999 36:0.12 
0 0 0 199.36704225665278 2:7.8593884e-08 20:0.0019607843 21:0.0019607843 26:0.99999999 29:1 30:0.015686275 31:0.02 32:0.0099999999 33:0.089999999 
0 0 0 0.20170431206772113 2:3.636277e-06 3:7.5901918e-05 9:0.99999999 20:0.0019607843 24:0.5 26:0.5 27:0.99999999 29:1 30:0.039215686 31:0.04 32:0.089999999 35:0.86999999 37:0.0099999999 
0 0 0.0045237319337512513 0.14574705001185995 20:1 25:0.99999999 29:0.91372549 30:0.76470588 31:0.83999999 32:0.0099999999 37:0.83999999 38:0.99999999 
0 0 0 748.89532782702929 1:0.0002099762 2:2.69839e-07 3:0.00028108945 26:0.99999999 29:0.99215686 30:0.0039215686 32:0.02 
0 0 1.7669687085251635 0 2:1.2575021e-07 3:1.902401e-05 20:0.0039215686 21:0.011764706 26:0.99999999 28:0.43 29:0.011764706 30:0.28627451 31:0.99999999 33:0.99999999 34:0.03 
0 0 18.883698730337887 0 2:4.5584453e-07 3:0.0015019262 9:0.99999999 20:0.0019607843 21:0.011764706 26:0.99999999 28:0.29 29:0.058823529 30:0.058823529 31:0.99999999 33:0.069999999 
0 0 0 0.35147252523085493 2:2.6197961e-08 3:7.1825344e-06 9:0.99999999 20:0.0019607843 26:0.5 27:0.99999999 29:0.0039215686 30:0.054901961 31:0.99999999 33:0.99999999 34:0.21 
0 0 0 0.057940122962487399 2:2.8031819e-07 3:8.2307962e-05 9:0.99999999 19:0.99999999 20:0.0039215686 24:0.33 25:0.99999999 26:0.33 27:0.66999999 29:0.094117647 30:0.019607843 31:0.21 32:0.17 33:0.04 37:0.079999999 38:0.4 
707.79631341552579 0 0 0 1:0.00013998414 2:2.724588e-07 3:0.00030166645 9:0.99999999 26:0.99999999 29:1 30:0.0039215686 32:0.02 
0 0 160.36330259811137 0 2:6.4446985e-07 3:0.0020571167 9:0.99999999 20:0.0078431373 21:0.0078431373 26:0.99999999 29:0.066666667 30:0.066666667 31:0.99999999 33:0.059999999 
0 0 0.019131809118028576 0.70826667186000802 1:0.1132005 2:3.8249024e-07 3:2.0382868e-05 20:0.0019607843 21:0.0019607843 26:0.99999999 29:0.035294118 30:0.0078431373 31:0.22 32:0.66999999 33:0.99999999 
0 91.642839714565184 0 0 1:0.0006532593 2:2.596218e-06 3:0.00059809158 7:0.28571429 9:0.99999999 19:0.99999999 26:0.99999999 29:1 30:0.18431373 31:0.18 32:0.02 37:0.059999999 38:0.13 
0 0 0 1.0273025760652639 2:3.0022864e-06 3:6.54193e-05 9:0.99999999 26:0.99999999 29:0.0078431373 30:0.50588235 31:0.5 32:0.99999999 33:0.5 34:0.02 36:0.02 
0 0 0 0.071754718762623557 2:3.7987044e-07 3:0.0025694061 9:0.99999999 10:0.035067873 11:0.99999999 12:1 13:0.038974359 22:0.99999999 23:0.99999999 26:0.99999999 29:0.11372549 30:0.039215686 31:0.28 32:0.099999999 33:0.03 34:0.2 35:0.069999999 36:0.2 
0 0 0 0.33545291058536192 2:2.043441e-07 20:0.070588235 21:0.011764706 26:0.16 27:0.05 28:0.29 29:1 30:0.11764706 31:0.12 32:0.0099999999 33:0.12 
0 0 0 620.87597248200314 2:1.2575021e-07 3:9.3178825e-06 26:0.99999999 29:0.015686275 30:0.011764706 31:0.74999999 32:0.5 33:0.74999999 
0 5.0987062218751724 0 0 1:9.3322757e-05 2:0.0057494544 9:0.99999999 20:0.0058823529 21:0.0019607843 26:0.5 27:0.5 29:1 30:0.20784314 31:0.21 32:0.35 33:0.21 
0 0 0 0.026132756929518077 2:6.8507669e-06 3:6.3283952e-05 9:0.99999999 20:0.0019607843 21:0.0019607843 26:0.5 27:0.99999999 28:0.99999999 29:1 30:0.054901961 31:0.05 32:0.67999999 
0 0 0 1024 2:4.5060494e-07 26:0.99999999 29:0.16078431 30:0.02745098 31:0.17 32:0.069999999 33:0.17 
0 0 0 3.8182309522749756 2:1.1527103e-07 3:2.1353481e-05 26:0.99999999 29:0.043137255 30:0.88235294 31:0.90999999 32:0.18 33:0.90999999 34:0.0099999999 
0 0 0 3.6885960467966163 1:0.00011665345 2:3.2747452e-07 3:4.5812922e-05 9:0.99999999 26:0.99999999 29:0.4 30:0.34509804 31:0.29 32:0.69999999 33:0.0099999999 34:0.02 37:0.63999999 
0 0 1024 0 2:1.3518148e-06 3:7.7649021e-07 20:0.67254902 21:0.67254902 26:0.99999999 29:1 30:1 31:0.99999999 33:0.99999999 
0 0 0 2.3751600628357457 24:0.99999999 25:0.99999999 26:0.99999999 29:1 30:0.011764706 31:0.0099999999 32:0.059999999 33:0.0099999999 35:0.62999999 37:0.03 38:0.99999999 
0 0 0.31097214699748438 0.055215201343220104 2:7.6498047e-07 3:0.0016067524 9:0.99999999 20:0.021568627 21:0.021568627 24:0.66999999 25:0.66999999 26:0.99999999 29:0.13333333 30:0.70980392 31:0.99999999 33:0.03 34:0.18 37:0.84999999 38:0.96999999 
0 0 0.23220570765052664 0.20508017083897753 1:0.41768933 2:1.5273411e-05 3:0.023749535 7:1 9:0.99999999 10:0.0067873303 13:0.001025641 14:0.475 26:0.99999999 29:1 30:0.14901961 31:0.15 32:0.059999999 35:0.55999999 36:0.29 37:0.04 38:0.11 
0 0 0.032467116339705775 0.36558636883698087 20:0.0019607843 22:0.5 23:0.99999999 26:0.5 27:0.99999999 29:1 30:0.0039215686 32:0.84999999 36:0.99999999 
0 0 0 1024 2:3.8511003e-07 26:0.99999999 29:0.0039215686 30:0.0039215686 31:0.99999999 33:0.99999999 
0 0 0 0.14870271708025262 1:0.051490831 2:8.4357436e-07 3:0.00054237841 9:0.99999999 20:0.01372549 24:0.12 25:0.99999999 26:0.12 27:0.25 29:0.56078431 30:0.082352941 31:0.15 32:0.02 33:0.0099999999 37:0.099999999 38:0.70999999 
0 0 0 0.060929262637127085 2:3.5655425e-06 3:9.4925928e-05 9:0.99999999 21:0.0039215686 26:0.99999999 28:0.99999999 29:0.85098039 30:0.5372549 31:0.49 32:0.0099999999 34:0.0099999999 35:0.91999999 36:0.72999999 
0 0 0 0.031816573773711061 1:0.11761 3:0.99612512 26:0.99999999 29:1 30:0.25490196 31:0.25 32:0.02 35:0.74999999 36:0.84999999 
0 278.73800621684819 0 0 2:1.6792893e-06 9:0.99999999 26:0.99999999 29:1 30:0.22745098 31:0.23 32:0.069999999 33:0.29 36:0.02 
0 231.82297233627861 0 0 1:0.00069992068 2:2.7429266e-06 3:0.00059809158 7:0.28571429 9:0.99999999 19:0.99999999 26:0.99999999 29:0.78039216 30:0.1372549 31:0.18 32:0.04 33:0.0099999999 35:0.02 
0 0 0 1.8566984828648387 20:0.0019607843 21:0.045098039 22:0.5 23:0.04 26:0.99999999 28:0.079999999 29:0.011764706 30:1 31:0.99999999 33:0.66999999 34:0.059999999 35:0.33 36:0.0099999999 38:0.0099999999 
0 0 0 0.10294326161772641 1:0.00067658999 2:3.9401734e-06 3:0.00080599683 7:0.38961039 9:0.99999999 19:0.99999999 26:0.99999999 29:0.70980392 30:0.078431373 31:0.11 32:0.04 33:0.0099999999 35:0.0099999999 
0 0 0.45754137140413348 8.6370788778928862 2:2.043441e-07 20:0.1 21:0.021568627 26:0.23 27:0.04 29:1 30:0.10980392 31:0.11 32:0.0099999999 33:0.11 
0 0 0 0.047140736609731511 1:0.0090289767 2:1.0138611e-06 3:0.00041425752 9:0.99999999 10:0.010180995 20:0.29215686 22:0.98999999 26:0.0099999999 27:0.059999999 29:1 30:0.058823529 31:0.059999999 32:0.079999999 35:0.61999999 36:0.2 37:0.0099999999 38:0.13 
0 0 0 0.043240623782670462 2:1.220825e-05 3:7.1825344e-05 9:0.99999999 21:0.0039215686 26:0.99999999 28:0.99999999 29:0.015686275 30:0.95294118 31:0.74999999 32:0.5 33:0.25 34:0.02 
0 0 0.070223787836436749 0 21:0.090196078 22:0.99999999 23:0.02 26:0.99999999 28:0.13 29:0.011764706 30:1 31:0.99999999 33:0.33 34:0.059999999 35:0.99999999 36:0.0099999999 
0 0 1.4710154437865648 0 2:5.0300086e-07 20:0.0019607843 21:0.0019607843 26:0.99999999 29:0.019607843 30:0.19215686 31:0.79999999 32:0.4 33:0.79999999 34:0.059999999 
0 0 0.072842012482744148 0 2:5.6509003e-06 3:7.5125427e-05 9:0.99999999 26:0.99999999 29:1 30:0.51764706 31:0.51999999 32:0.0099999999 35:0.73999999 36:0.75999999 
0 0 0.086151727160136596 0 24:0.99999999 25:0.99999999 26:0.99999999 29:0.047058824 30:0.047058824 31:0.99999999 33:0.079999999 37:0.99999999 38:0.99999999 
0 0 1024 0 2:1.3518148e-06 3:7.7649021e-07 20:0.74509804 21:0.74509804 26:0.99999999 29:1 30:1 31:0.99999999 33:0.99999999 
0 0 2.9570361316074973 0 1:4.6661378e-05 2:5.3684862e-05 3:0.0030213234 9:0.99999999 26:0.99999999 29:0.02745098 30:0.02745098 31:0.99999999 33:0.14 35:0.14 36:0.14 37:0.14 38:0.14 
0 4.2887437840879379 0 0 2:8.2261599e-07 3:0.0032624236 9:0.99999999 21:0.062745098 26:0.99999999 28:0.12 29:0.0039215686 30:0.18431373 31:0.99999999 33:0.99999999 34:0.059999999 
0 0 0.11506979216877898 0.10119510367887338 22:0.99999999 23:0.99999999 26:0.99999999 29:0.031372549 30:0.49803922 31:0.99999999 33:0.12 34:0.16 35:0.99999999 36:0.059999999 38:0.93999999 
0 0 1024 0 2:1.3518148e-06 3:7.7649021e-07 20:0.78039216 21:0.78039216 26:0.99999999 29:1 30:1 31:0.99999999 33:0.99999999 
0 30.911354487918878 0 0 2:1.0033819e-06 9:0.99999999 20:0.0019607843 21:0.0019607843 26:0.99999999 29:1 30:0.4 31:0.4 32:0.03 33:0.4 35:0.0099999999 36:0.0099999999 
0 0 717.88000238121617 1024 1:2.3330689e-05 2:2.7507859e-07 3:2.8341893e-05 20:0.0019607843 21:0.0019607843 26:0.99999999 29:0.0078431373 30:0.0078431373 31:0.99999999 33:0.99999999 
0 0 0 0.079640742350681581 2:6.9686577e-07 3:0.00047055306 9:0.99999999 21:0.0039215686 25:0.66999999 26:0.99999999 28:0.99999999 29:1 30:0.92156863 31:0.91999999 32:0.02 37:0.0099999999 
0 0 0 0.087441789970244835 1:4.6661378e-05 2:3.251167e-06 3:6.3478074e-05 9:0.99999999 20:0.0078431373 21:0.0019607843 26:0.2 27:0.59999999 28:0.99999999 29:1 30:0.050980392 31:0.05 32:0.59999999 
0 0 0.048625011283841835 0 1:0.15286268 2:2.2477851e-06 3:0.0010682564 9:0.99999999 20:0.023529412 21:0.0098039216 24:0.38 25:0.82999999 26:0.46 27:0.15 29:0.58039216 30:0.10196078 31:0.18 32:0.02 33:0.0099999999 37:0.13 38:0.72999999 
0 0 0.76640264250591705 0 1:0.0006532593 2:2.2399257e-06 3:0.00050200092 7:0.22077922 9:0.99999999 19:0.99999999 26:0.99999999 29:0.031372549 30:0.031372549 31:0.99999999 33:0.12 
0 0 8.7470501546464554 0 1:0.01556157 2:0.0012750548 3:0.044963442 9:0.99999999 20:0.0019607843 21:0.0019607843 26:0.99999999 29:0.015686275 30:0.015686275 31:0.99999999 33:0.25 37:0.25 38:0.25 
0 0 0 0.056315940457914444 22:0.99999999 23:0.99999999 26:0.99999999 29:0.60392157 30:0.0078431373 31:0.0099999999 32:0.12 33:0.0099999999 35:0.0099999999 36:0.5 
0 0 0 0.14770783761792897 2:9.085453e-06 9:0.99999999 20:0.033333333 22:0.059999999 26:0.059999999 27:0.22 29:0.25490196 30:0.0039215686 31:0.02 32:0.089999999 33:0.65999999 35:0.02 
0 0 0 0.1212721592779042 2:4.9435553e-06 3:7.5901918e-05 9:0.99999999 20:0.0019607843 26:0.5 27:0.99999999 29:1 30:0.043137255 31:0.04 32:0.059999999 37:0.94999999 
0 0 0 0.096919633706923317 2:6.2089168e-07 3:7.8813756e-05 9:0.99999999 21:0.049019608 26:0.99999999 28:0.15 29:0.21960784 30:1 31:0.99999999 33:0.02 34:0.069999999 37:0.97999999 38:0.99999999 
0 0 0.70180341435083204 100.39795961133156 2:1.2575021e-07 3:9.3178825e-06 20:0.20980392 26:0.0099999999 27:0.02 29:1 30:0.0039215686 32:0.0099999999 
0 0 0.059512581689354957 0 20:0.047058824 21:0.047058824 24:0.83999999 25:0.83999999 26:0.99999999 29:0.69803922 30:0.74117647 31:0.99999999 33:0.0099999999 34:0.03 35:0.0099999999 36:0.0099999999 37:0.33 38:0.37 
0 0 13.323598067570659 0 2:8.6715252e-07 3:0.0020932235 9:0.99999999 20:0.0019607843 21:0.0039215686 26:0.99999999 28:0.66999999 29:0.21960784 30:0.25098039 31:0.99999999 33:0.02 34:0.05 36:0.02 
0 0 0 83.481320871050812 2:1.6766695e-07 20:0.0019607843 26:0.5 27:0.99999999 29:0.83529412 30:0.0039215686 32:0.069999999 
0 0 1.9235543342383128 0.081231383828870379 2:6.3661046e-07 3:0.0042512839 9:0.99999999 22:0.99999999 23:0.99999999 26:0.99999999 29:0.50196078 30:1 31:0.99999999 33:0.0099999999 34:0.05 35:0.0099999999 37:0.23 38:0.58999999 
300.79547948136388 0 0 0 2:6.4185005e-07 9:0.99999999 13:0.001025641 20:0.0019607843 21:0.0019607843 26:0.99999999 29:0.0078431373 30:0.0078431373 31:0.99999999 33:0.99999999 
0 0 0 0.11364137390094417 1:0.0030096589 2:5.3443841e-07 3:0.0058364886 9:0.99999999 10:0.0011312217 11:0.99999999 13:0.0030769231 26:0.99999999 29:0.0039215686 30:0.011764706 31:0.99999999 33:0.99999999 34:0.99999999 
0 0 0.023839351305115677 0 22:0.99999999 23:0.99999999 26:0.99999999 29:0.34117647 30:0.61568627 31:0.39 32:0.03 33:0.0099999999 34:0.0099999999 35:0.02 36:0.0099999999 
0 0 0 0.075136539881535555 2:1.6504716e-07 9:0.99999999 20:0.29607843 21:0.0019607843 22:0.98999999 26:0.0099999999 27:0.069999999 29:1 30:0.0078431373 31:0.0099999999 32:0.059999999 33:0.0099999999 35:0.98999999 
0 0 0 129.14422202674018 2:1.8338573e-08 3:4.3677574e-05 26:0.99999999 29:1 30:0.02745098 31:0.03 32:0.059999999 35:0.02 
0 0 1024 0 2:1.3518148e-06 3:7.7649021e-07 20:0.79607843 21:0.79607843 26:0.99999999 29:1 30:1 31:0.99999999 33:0.99999999 
0 0 0 0.022250140583067929 1:0.31120806 2:9.6146518e-07 3:0.0014143769 9:0.99999999 26:0.99999999 29:0.81960784 30:0.41176471 31:0.5 32:0.0099999999 35:0.95999999 36:0.94999999 
0 0 0 0.044333466807169541 2:2.3316186e-07 3:0.00054975507 9:0.99999999 22:0.99999999 23:0.99999999 26:0.99999999 29:0.52941176 30:0.090196078 31:0.17 32:0.52999999 33:0.0099999999 35:0.05 36:0.3 37:0.49 38:0.04 
0 0 0 0.097274047700143848 1:0.3243899 2:1.118653e-06 3:0.0092512984 9:0.99999999 10:0.17760181 11:0.99999999 12:1 13:0.18358974 16:0.125 26:0.99999999 29:0.0039215686 30:0.0039215686 31:0.99999999 33:0.99999999 
0 0 1024 0 2:1.3518148e-06 3:7.7649021e-07 20:0.72941176 21:0.72941176 26:0.99999999 29:1 30:1 31:0.99999999 33:0.99999999 
0 0 0 0.15418864605808819 2:4.4012575e-06 3:0.0032872713 9:0.99999999 11:0.99999999 12:1 13:0.0051282051 14:0.1 20:0.0019607843 22:0.5 23:0.99999999 24:0.5 26:0.5 27:0.99999999 29:1 30:0.011764706 31:0.0099999999 32:0.02 36:0.33 37:0.73999999 38:0.33 
0 0 0 1024 2:1.2575021e-07 3:9.3178825e-06 26:0.99999999 29:0.16470588 30:0.14117647 31:0.85999999 32:0.069999999 33:0.85999999 
0 0 1.5472358278670528 0.021648716431003551 2:4.3226636e-07 3:0.0014611604 9:0.99999999 21:0.0039215686 26:0.99999999 28:0.99999999 29:0.32941176 30:0.96470588 31:0.99999999 33:0.0099999999 34:0.13 37:0.32 38:0.50999999 
0 0 1024 0 2:1.3518148e-06 3:7.7649021e-07 20:0.74117647 21:0.74117647 26:0.99999999 29:1 30:1 31:0.99999999 33:0.99999999 
0 0 0 0.072877641762393697 2:2.866057e-06 3:6.5031055e-05 9:0.99999999 20:0.0019607843 26:0.5 27:0.99999999 29:0.20392157 30:0.68627451 31:0.68999999 32:0.079999999 33:0.02 34:0.0099999999 
0 0 26.200500735382878 0 2:6.1827189e-07 3:0.00048666524 9:0.99999999 20:0.0039215686 21:0.0058823529 25:0.25 26:0.99999999 28:0.5 29:1 30:0.94509804 31:0.94999999 32:0.02 37:0.03 38:0.03 
0 1024 0 0 1:0.00069992068 2:3.2144899e-06 3:0.00065613422 7:0.31168831 9:0.99999999 19:0.99999999 26:0.99999999 29:0.95294118 30:0.23529412 31:0.25 32:0.02 
0 0 1024 0 2:1.3518148e-06 3:7.7649021e-07 20:0.89215686 21:0.89215686 26:0.99999999 29:1 30:1 31:0.99999999 33:0.99999999 
0 0 0 0.26505753939595178 1:0.00046661378 2:5.4046394e-06 3:6.4836932e-05 9:0.99999999 20:0.0039215686 26:0.33 27:0.66999999 29:0.49411765 30:0.50980392 31:0.44 32:0.059999999 33:0.0099999999 34:0.02 
0 0 0 0.090015138797748556 22:0.99999999 23:0.99999999 26:0.99999999 29:0.062745098 30:0.0078431373 31:0.059999999 32:0.25 33:0.059999999 34:0.99999999 35:0.059999999 36:0.5 
0 0 17.599201811523162 0 2:3.7463085e-07 3:0.010060013 7:0.038961039 9:0.99999999 21:0.01372549 26:0.99999999 28:0.38 29:1 30:1 31:0.99999999 
0 0 0 0.12160444668887713 1:0.21002286 2:8.2130609e-06 3:0.0015153206 9:0.99999999 24:0.99999999 25:0.99999999 26:0.99999999 29:0.02745098 30:0.0078431373 31:0.29 32:0.29 33:0.14 37:0.29 38:0.99999999 
0 12.414289992773643 0 0 2:6.759074e-07 3:0.00027060684 7:0.012987013 9:0.99999999 11:0.99999999 20:0.033333333 21:0.033333333 26:0.99999999 29:1 30:1 31:0.99999999 
0 0 0 189.81738774042134 1:0.00025663758 2:2.6197961e-08 3:6.7942893e-06 26:0.99999999 29:1 30:0.039215686 31:0.04 32:0.03 
0 0 0 0.17679010965900058 1:0.010078858 2:6.3137087e-07 3:0.0002401296 9:0.99999999 10:0.0011312217 20:0.0019607843 24:0.5 26:0.5 27:0.99999999 29:1 30:0.1254902 31:0.13 32:0.059999999 35:0.66999999 36:0.41 37:0.03 38:0.12 
0 0 0 0.068399543762157386 2:4.1654759e-07 7:0.012987013 9:0.99999999 24:0.99999999 25:0.99999999 26:0.99999999 29:1 30:1 31:0.99999999 
0 0 0 712.22519011640043 2:1.130704e-05 20:0.033333333 21:0.033333333 26:0.99999999 29:0.49411765 30:0.1254902 31:0.25 32:0.03 33:0.25 
0 0 9.3199694280016789 0 2:8.0689721e-07 3:0.00052374264 9:0.99999999 16:0.125 21:0.0019607843 25:0.5 26:0.99999999 28:0.99999999 29:1 30:0.96078431 31:0.95999999 32:0.0099999999 37:0.03 38:0.03 
59.95781975450268 0 0 0 1:0.01488498 2:0.0039818282 3:0.079608105 9:0.99999999 26:0.99999999 29:1 30:0.0039215686 32:0.03 
0 0 1024 0 2:1.3518148e-06 3:7.7649021e-07 20:0.69411765 21:0.69411765 26:0.99999999 29:1 30:1 31:0.99999999 33:0.99999999 
0 0 0.0094722077908867709 0.1028087257612559 2:0.00011733543 3:0.0093378771 9:0.99999999 22:0.99999999 23:0.99999999 26:0.99999999 29:0.019607843 30:0.015686275 31:0.79999999 32:0.4 33:0.2 35:0.4 36:0.5 
0 0 0 15.601906418151074 2:3.8511003e-07 3:2.8536015e-05 20:0.0098039216 21:0.0019607843 26:0.33 27:0.5 29:1 30:0.0078431373 31:0.0099999999 32:0.42 33:0.92999999 
0 0 0 1.4244857497407539 2:1.4854244e-06 20:0.0019607843 26:0.5 27:0.99999999 29:0.090196078 30:0.074509804 31:0.82999999 32:0.13 33:0.82999999 
0 0 2.7890981956834442 0.083281494695126149 1:0.00072325136 2:3.9637516e-06 3:0.00080599683 7:0.38961039 9:0.99999999 19:0.99999999 26:0.99999999 29:0.0039215686 30:0.0039215686 31:0.99999999 33:0.99999999 
0 0 0 906.04004001630153 2:7.8593884e-08 26:0.99999999 29:0.023529412 30:0.02745098 31:0.99999999 33:0.99999999 34:0.29 
0 0 1024 0 2:1.3518148e-06 3:7.7649021e-07 20:0.53529412 21:0.53529412 26:0.99999999 29:1 30:1 31:0.99999999 33:0.99999999 
0 0 0.021181862786967025 0 2:9.085453e-06 9:0.99999999 20:0.043137255 21:0.043137255 26:0.99999999 29:1 30:0.11372549 31:0.11 32:0.02 33:0.11 37:0.75999999 
0 0 0 0.11556023762964104 1:0.010592133 2:1.2889397e-06 3:0.0027825527 7:0.025974026 9:0.99999999 10:0.0022624434 11:0.99999999 24:0.99999999 25:0.99999999 26:0.99999999 29:0.14509804 30:0.047058824 31:0.32 32:0.11 33:0.03 37:0.03 38:0.079999999 
0 1024 0 0 2:3.6677146e-08 3:7.9590246e-06 9:0.99999999 26:0.99999999 29:0.0039215686 30:0.023529412 31:0.99999999 33:0.99999999 34:0.33 
0 0 0.051692696786626226 0 2:1.2575021e-07 3:9.3761192e-05 9:0.99999999 20:0.40588235 27:0.0099999999 29:1 30:0.0039215686 32:0.02 
0 0 0 0.11363453286249221 1:0.24977836 2:2.6433743e-06 3:0.032325287 9:0.99999999 10:0.63122172 11:0.99999999 12:1 13:0.64512821 16:0.625 26:0.99999999 29:1 30:0.20392157 31:0.2 32:0.02 35:0.62999999 36:0.76999999 
0 0 0 10.886833537316816 2:4.3095646e-06 3:6.4448687e-05 9:0.99999999 26:0.99999999 29:0.84705882 30:0.30588235 31:0.29 32:0.33 34:0.03 37:0.31 
0 0 133.23127708068941 0 2:8.0427741e-07 3:7.7066653e-05 9:0.99999999 20:0.0019607843 21:0.0019607843 24:0.5 25:0.5 26:0.99999999 29:1 30:1 31:0.99999999 
0 54.994279740650768 0 0 2:8.802515e-07 3:0.00015355094 9:0.99999999 26:0.99999999 29:0.0039215686 30:0.39607843 31:0.99999999 33:0.99999999 34:0.15 
0 0 0 273.66449822747074 2:3.4012813e-05 20:0.0019607843 21:0.0019607843 26:0.99999999 29:0.011764706 30:0.21568627 31:0.99999999 33:0.99999999 34:0.04 
0 0 0 0.0065630925596749691 1:0.00048994447 2:6.130323e-07 3:0.00014928024 7:0.051948052 9:0.99999999 19:0.99999999 21:0.0019607843 26:0.99999999 28:0.99999999 29:0.68627451 30:0.1254902 31:0.18 32:0.069999999 33:0.0099999999 35:0.02 
0 0 0 1.6869745179424027 24:0.99999999 25:0.99999999 26:0.99999999 29:0.75294118 30:0.062745098 31:0.079999999 32:0.03 33:0.0099999999 37:0.03 38:0.12 
0 0 0 965.04155106026076 2:1.6766695e-07 26:0.99999999 29:0.42352941 30:0.0078431373 31:0.02 32:0.04 33:0.02 35:0.0099999999 
0 12.739152362455634 0 0 2:3.8511003e-06 9:0.99999999 20:0.0058823529 21:0.0058823529 26:0.99999999 29:1 30:0.36078431 31:0.36 32:0.0099999999 33:0.36 
0 0 0 0.027610716684261342 1:0.00074658205 2:3.9375536e-06 3:0.00080599683 7:0.38961039 9:0.99999999 19:0.99999999 21:0.0019607843 26:0.99999999 28:0.99999999 29:0.44313725 30:0.090196078 31:0.2 32:0.04 33:0.0099999999 
0 0 242.21513191841353 0 2:5.7373535e-07 3:0.00023838249 9:0.99999999 20:0.0019607843 21:0.0019607843 26:0.99999999 29:0.050980392 30:0.050980392 31:0.99999999 33:0.079999999 
0 0 0 0.06704820754965192 1:2.3330689e-05 2:6.4866152e-06 3:7.5125427e-05 9:0.99999999 20:0.0019607843 22:0.5 26:0.5 27:0.99999999 29:1 30:0.070588235 31:0.069999999 32:0.85999999 35:0.84999999 
0 0 0 0.059533821441442314 1:0.00062992861 2:3.9925693e-06 3:0.00080599683 7:0.38961039 9:0.99999999 19:0.99999999 26:0.99999999 29:0.29411765 30:0.019607843 31:0.05 32:0.94999999 33:0.0099999999 34:0.4 37:0.86999999 38:0.4 
0 0 0 1024 2:9.4312661e-08 3:1.9606378e-05 20:0.0019607843 21:0.0019607843 26:0.99999999 29:0.0078431373 30:0.0078431373 31:0.99999999 33:0.99999999 
0 0 52.832046920356014 0 2:6.3923026e-07 3:5.9595623e-05 9:0.99999999 26:0.99999999 29:0.31764706 30:0.31764706 31:0.99999999 33:0.0099999999 
0 0 1024 0 2:1.3518148e-06 3:7.7649021e-07 20:0.95294118 21:0.95294118 26:0.99999999 29:1 30:1 31:0.99999999 33:0.99999999 
0 0 0 0.095815629972605912 21:0.0019607843 24:0.99999999 25:0.99999999 26:0.99999999 28:0.99999999 29:0.0039215686 30:0.98039216 31:0.99999999 33:0.99999999 34:0.02 37:0.99999999 38:0.16 
0 5.379201770531802 0 0 2:8.5929313e-07 3:8.0172614e-05 9:0.99999999 20:0.0019607843 21:0.0019607843 26:0.99999999 29:0.0078431373 30:0.14901961 31:0.99999999 33:0.5 34:0.24 
0 0 0 402.19980982841361 2:7.8593884e-08 26:0.99999999 29:0.20784314 30:0.20784314 31:0.99999999 33:0.99999999 
0 0 0 17.240779403733537 2:7.8593884e-08 20:0.0058823529 26:0.25 27:0.74999999 29:1 30:0.011764706 31:0.0099999999 32:0.0099999999 33:0.04 
0 0 0.035051917934355012 0.65893744185964354 1:0.00135318 2:6.8088502e-06 3:9.4149437e-05 9:0.99999999 20:1 29:1 30:0.015686275 31:0.02 32:0.0099999999 
0 0 1024 0 2:1.3518148e-06 3:7.7649021e-07 20:0.83529412 21:0.83529412 26:0.99999999 29:1 30:1 31:0.99999999 33:0.99999999 
0 0 1024 1024 2:2.3578165e-08 3:2.7177157e-05 26:0.99999999 29:0.0039215686 30:0.0039215686 31:0.99999999 33:0.99999999 
0 0 0 1.1629409263659793 24:0.99999999 25:0.99999999 26:0.99999999 29:0.0039215686 30:1 31:0.99999999 33:0.99999999 34:0.03 36:0.02 37:0.99999999 38:0.03 
0 0 0 608.89119284900335 2:3.1437554e-08 20:0.0019607843 21:0.0019607843 26:0.99999999 29:0.5372549 30:0.062745098 31:0.12 32:0.03 33:0.12 35:0.0099999999 
0 0 1024 0 2:1.3518148e-06 3:7.7649021e-07 20:0.95686275 21:0.95686275 26:0.99999999 29:1 30:1 31:0.99999999 33:0.99999999 
0 0 1024 0 2:1.3518148e-06 3:7.7649021e-07 20:0.60588235 21:0.60588235 26:0.99999999 29:1 30:1 31:0.99999999 33:0.99999999 
0 0 0 0.06154149556850657 2:6.7328761e-07 7:0.025974026 9:0.99999999 24:0.99999999 25:0.99999999 26:0.99999999 29:0.55686275 30:1 31:0.99999999 33:0.0099999999 34:0.03 37:0.0099999999 38:0.0099999999 
0 0 1024 0 2:1.3518148e-06 3:7.7649021e-07 20:0.51960784 21:0.51960784 26:0.99999999 29:1 30:1 31:0.99999999 33:0.99999999 
0 0 0.0094555338695218386 0.15332003412514023 4:0.99999999 21:0.0019607843 22:0.99999999 23:0.99999999 26:0.99999999 28:0.99999999 29:0.0039215686 30:0.019607843 31:0.99999999 33:0.99999999 34:0.99999999 35:0.99999999 36:0.99999999 
0 0 0.089503334224286066 843.93209581330427 2:7.8593884e-08 26:0.99999999 29:0.0039215686 30:0.0078431373 31:0.99999999 33:0.99999999 34:0.99999999 
0 0 0.040947289491678064 0 2:3.1123178e-06 3:6.464281e-05 9:0.99999999 21:0.0019607843 26:0.99999999 28:0.99999999 29:0.0039215686 30:0.5372549 31:0.99999999 33:0.99999999 34:0.0099999999 
0 0 0.081122367812211507 0 24:0.99999999 25:0.99999999 26:0.99999999 29:0.02745098 30:0.019607843 31:0.70999999 32:0.29 33:0.14 37:0.70999999 38:0.99999999 
0 0 0 0.081992615118050921 2:2.9839478e-06 9:0.99999999 21:0.0019607843 26:0.99999999 28:0.99999999 29:1 30:0.25490196 31:0.25 32:0.02 33:0.02 35:0.94999999 36:0.93999999 
0 3.4999213899398947 0 0 2:6.9183576e-05 9:0.99999999 20:0.019607843 21:0.019607843 26:0.99999999 29:1 30:0.066666667 31:0.069999999 32:0.77999999 33:0.069999999 
0 0 0.17157757731048995 0 2:1.8338573e-08 3:0.0001308386 26:0.99999999 29:0.094117647 30:0.0078431373 31:0.04 32:0.079999999 33:0.04 34:0.99999999 
0 0 4.0020277000724453 0 2:5.6849576e-07 3:0.00036941522 9:0.99999999 20:0.0078431373 21:0.015686275 26:0.99999999 28:0.33 29:0.039215686 30:0.039215686 31:0.99999999 33:0.099999999 
0 0 1024 0 2:1.3518148e-06 3:7.7649021e-07 20:0.86470588 21:0.86470588 26:0.99999999 29:1 30:1 31:0.99999999 33:0.99999999 
0 0 0.51693978305979238 0 2:5.0300086e-07 26:0.99999999 29:0.019607843 30:0.08627451 31:0.79999999 32:0.4 33:0.79999999 34:0.089999999 
0 1024 0 0 1:0.00062992861 2:3.906116e-06 3:0.00080599683 7:0.38961039 9:0.99999999 19:0.99999999 26:0.99999999 29:0.9254902 30:0.21568627 31:0.23 32:0.02 
0 0 0 0.026690020772031253 2:6.1827189e-07 7:0.025974026 9:0.99999999 22:0.99999999 23:0.99999999 26:0.99999999 29:0.011764706 30:1 31:0.99999999 33:0.33 34:0.04 35:0.33 
0 0 0 0.0088598302190266535 21:0.0019607843 24:0.99999999 25:0.99999999 26:0.99999999 28:0.99999999 29:0.043137255 30:0.16862745 31:0.99999999 33:0.089999999 34:0.37 37:0.99999999 38:0.99999999 
0 0 335.47667246867331 0 2:4.7942269e-07 20:0.011764706 21:0.011764706 26:0.99999999 29:1 30:0.078431373 31:0.079999999 32:0.0099999999 33:0.089999999 
0 0 0 0.20746893937460612 2:2.6197961e-08 3:4.4259942e-05 20:0.0019607843 26:0.5 27:0.99999999 29:0.4745098 30:0.02745098 31:0.02 32:0.03 33:0.0099999999 34:0.29 37:0.0099999999 
0 0 0.014014124735418347 0 24:0.99999999 25:0.99999999 26:0.99999999 29:1 30:0.019607843 31:0.02 32:0.059999999 35:0.52999999 37:0.05 38:0.99999999 
0 1024 0 0 1:0.0006532593 2:4.0292465e-06 3:0.00080599683 7:0.38961039 9:0.99999999 19:0.99999999 26:0.99999999 29:0.94117647 30:0.20784314 31:0.22 32:0.03 
0 0 1.5681977790943098 0.20158263404735224 22:0.99999999 23:0.99999999 26:0.99999999 29:0.0039215686 30:0.0039215686 31:0.99999999 33:0.99999999 35:0.99999999 36:0.99999999 
0 0 1024 0 2:1.3518148e-06 3:7.7649021e-07 20:0.73333333 21:0.73333333 26:0.99999999 29:1 30:1 31:0.99999999 33:0.99999999 
0 0 0 0.012590704361752142 20:1 25:0.99999999 29:0.9372549 30:0.78823529 31:0.83999999 32:0.0099999999 37:0.83999999 38:0.99999999 
0 0 0.93568093134445696 0 2:8.6453273e-08 20:0.0039215686 21:0.025490196 26:0.99999999 28:0.29 29:0.79607843 30:0.058823529 31:0.05 32:0.03 33:0.05 34:0.13 
0 36.451679272706151 0 0 1:0.00055993654 2:6.3661046e-07 3:0.00015044498 7:0.051948052 9:0.99999999 19:0.99999999 26:0.99999999 29:0.62352941 30:0.02745098 31:0.04 32:0.03 33:0.0099999999 
0 0 57.433026998980502 0 2:7.9903782e-07 3:0.00048666524 9:0.99999999 20:0.0098039216 21:0.0098039216 26:0.99999999 29:0.9372549 30:0.91372549 31:0.96999999 32:0.0099999999 37:0.059999999 38:0.059999999 
0 0 0 0.53201793348159321 2:1.2575021e-07 3:9.3178825e-06 20:0.0058823529 26:0.25 27:0.5 29:1 30:0.78823529 31:0.78999999 32:0.0099999999 33:0.78999999 
0 247.53744232938465 0 0 2:5.0300086e-07 9:0.99999999 26:0.99999999 29:1 30:0.38431373 31:0.38 32:0.079999999 33:0.44 35:0.0099999999 36:0.02 
0 0 0.13197239430418781 195.19794445721911 20:0.0039215686 21:0.0039215686 24:0.99999999 25:0.99999999 26:0.99999999 29:1 30:0.015686275 31:0.02 32:0.03 37:0.02 38:0.99999999 
0 0 0 0.054705443866058072 1:0.0006532593 2:2.3866343e-06 3:0.00052801334 7:0.24675325 9:0.99999999 19:0.99999999 21:0.0019607843 26:0.99999999 28:0.99999999 29:0.15294118 30:0.0078431373 31:0.05 32:0.099999999 33:0.03 
0 0 0 0.052845653040479092 2:4.060684e-07 3:0.0026290017 9:0.99999999 21:0.045098039 22:0.99999999 23:0.04 26:0.99999999 28:0.17 29:0.0039215686 30:1 31:0.99999999 33:0.99999999 34:0.059999999 35:0.99999999 
0 0 0 0.021096508613437932 1:0.28969717 2:2.2687435e-06 3:0.028751685 9:0.99999999 10:0.41968326 11:0.99999999 12:1 13:0.42769231 16:0.375 26:0.99999999 29:0.28235294 30:0.023529412 31:0.079999999 32:0.079999999 33:0.0099999999 
0 23.685045373605853 0 1024 2:1.1527103e-07 3:2.5235932e-05 26:0.99999999 29:0.019607843 30:0.019607843 31:0.99999999 33:0.99999999 
0 0 0 143.66841909949849 2:1.2575021e-07 3:9.3178825e-06 26:0.99999999 29:0.015686275 30:0.0078431373 31:0.5 32:0.5 33:0.5 
0 0 15.101252099881695 0 2:2.9603696e-07 20:0.064705882 21:0.062745098 26:0.96999999 27:0.059999999 29:1 30:0.12941176 31:0.13 32:0.51999999 33:0.13 
0 0 0 140.91444208079699 2:7.8593884e-08 26:0.99999999 29:0.7372549 30:0.7372549 31:0.99999999 33:0.99999999 
0 0 0 4.091925964845009 2:2.8817758e-08 9:0.99999999 20:0.0019607843 21:0.0019607843 26:0.99999999 29:0.57647059 30:0.46666667 31:0.4 32:0.48 33:0.39 34:0.02 37:0.46 38:0.0099999999 
0 0 1.1568746003781156 0 2:4.9776127e-07 3:0.00013239158 9:0.99999999 20:0.021568627 21:0.021568627 26:0.99999999 29:0.27843137 30:0.27843137 31:0.99999999 33:0.0099999999 35:0.0099999999 36:0.0099999999 
0 0 1.1117625086637322 0.25103523465388589 2:2.3578165e-08 22:0.99999999 23:0.99999999 26:0.99999999 29:0.015686275 30:0.02745098 31:0.5 32:0.5 33:0.25 34:0.43 35:0.99999999 36:0.29 
0 0 0.062747814368587132 0 7:0.012987013 20:0.0019607843 21:0.0019607843 22:0.99999999 23:0.99999999 26:0.99999999 29:0.08627451 30:0.08627451 31:0.99999999 33:0.089999999 35:0.089999999 36:0.089999999 37:0.05 38:0.05 
0 0 0 127.34831375634418 24:0.99999999 25:0.99999999 26:0.99999999 29:0.65882353 30:0.031372549 31:0.05 32:0.04 33:0.0099999999 35:0.0099999999 37:0.079999999 38:0.99999999 
0 0 0 0.14197360819403668 2:2.1809803e-05 9:0.99999999 22:0.99999999 23:0.99999999 26:0.99999999 29:0.89803922 30:0.0039215686 32:0.12 33:0.42 35:0.0099999999 36:0.99999999 
0 0 0 0.23667784196708477 2:6.2613128e-07 3:0.0014809609 9:0.99999999 26:0.99999999 29:0.0039215686 30:0.99215686 31:0.99999999 33:0.99999999 34:0.19 38:0.98999999 
0 27.982785943126547 0 0.042849813230377072 1:0.014978302 2:3.0127656e-06 3:0.00065613422 7:0.31168831 9:0.99999999 19:0.99999999 26:0.99999999 29:0.83921569 30:0.22352941 31:0.27 32:0.33 37:0.3 38:0.02 
0 0 0 0.21861091424712051 2:1.6331809e-05 3:0.00031603151 9:0.99999999 24:0.99999999 25:0.99999999 26:0.99999999 29:0.35686275 30:0.29411765 31:0.15 32:0.77999999 33:0.0099999999 34:0.03 37:0.73999999 38:0.0099999999 
0 0 0 0.038674466312617083 2:7.492617e-07 3:0.0065186353 9:0.99999999 22:0.99999999 23:0.99999999 26:0.99999999 29:0.074509804 30:1 31:0.99999999 33:0.05 34:0.079999999 35:0.05 
0 0 1024 0 2:7.8593884e-08 26:0.99999999 29:0.99215686 30:0.99215686 31:0.99999999 33:0.99999999 
123.55739857290668 0 0 0 2:3.4012813e-05 9:0.99999999 20:0.0019607843 21:0.0019607843 26:0.99999999 29:0.011764706 30:0.26666667 31:0.99999999 33:0.99999999 34:0.03 
0 0 0 909.22963586582523 2:1.2575021e-07 3:9.3178825e-06 26:0.99999999 29:1 30:0.82352941 31:0.81999999 32:0.0099999999 33:0.81999999 
0 0 0 0.11751001890236037 1:0.092926135 2:1.0217205e-06 3:0.0015281327 9:0.99999999 20:0.0019607843 22:0.5 23:0.99999999 26:0.5 27:0.99999999 29:0.035294118 30:0.019607843 31:0.55999999 32:0.22 33:0.11 35:0.11 36:0.2 37:0.44 38:0.79999999 
0 1024 0 0.012144069475381727 1:0.00074658205 2:3.8249024e-06 3:0.00080599683 7:0.38961039 9:0.99999999 19:0.99999999 26:0.99999999 29:0.89019608 30:0.23137255 31:0.26 32:0.02 
0 0 0 0.11649877138950242 24:0.99999999 25:0.99999999 26:0.99999999 29:0.65490196 30:0.58431373 31:0.68999999 32:0.02 33:0.0099999999 34:0.0099999999 37:0.05 38:0.05 
0 0 0 0.071511014722783137 1:0.0020531006 2:8.8549109e-07 3:4.6201167e-05 9:0.99999999 21:0.023529412 26:0.99999999 28:0.15 29:0.0078431373 30:0.99215686 31:0.99999999 33:0.5 34:0.21 38:0.79999999 
0 0 0 964.25030419254449 2:1.6766695e-07 26:0.99999999 29:0.16078431 30:0.0039215686 31:0.02 32:0.069999999 33:0.02 
0 1024 0 0 2:1.2967991e-06 9:0.99999999 13:0.0051282051 26:0.99999999 29:0.0039215686 30:0.20392157 31:0.99999999 33:0.99999999 34:0.04 
0 1024 0 0 2:4.909498e-06 9:0.99999999 26:0.99999999 29:0.02745098 30:0.02745098 31:0.99999999 33:0.99999999 
0 0 0 389.87409027487735 2:2.8817758e-07 3:8.5413923e-06 26:0.99999999 29:0.11764706 30:0.090196078 31:0.76999999 32:0.069999999 33:0.76999999 
0 0 11.339043701443682 0 2:6.6018863e-07 3:0.00031603151 9:0.99999999 21:0.0019607843 25:0.5 26:0.99999999 28:0.99999999 29:0.16078431 30:0.15686275 31:0.97999999 32:0.05 33:0.02 
0 0 0 0.0038391648068366608 2:4.8204249e-07 3:0.0042512839 9:0.99999999 22:0.99999999 23:0.99999999 26:0.99999999 29:0.039215686 30:0.039215686 31:0.99999999 33:0.099999999 35:0.099999999 36:0.099999999 
0 13.866400176041076 0 0 2:2.4888063e-07 9:0.99999999 20:0.0019607843 21:0.0019607843 26:0.99999999 29:0.08627451 30:0.21568627 31:0.76999999 32:0.089999999 33:0.76999999 34:0.05 36:0.02 
0 0 1024 0 2:1.3518148e-06 3:7.7649021e-07 20:0.73529412 21:0.73529412 26:0.99999999 29:1 30:1 31:0.99999999 33:0.99999999 
0 0 57.5674226428319 0 2:1.3518148e-06 3:7.7649021e-07 20:0.47647059 21:0.47647059 26:0.99999999 29:0.95686275 30:0.95686275 31:0.99999999 33:0.99999999 
0 0 1024 0 2:1.3518148e-06 3:7.7649021e-07 20:0.59215686 21:0.59215686 26:0.99999999 29:1 30:1 31:0.99999999 33:0.99999999 
0 0 0.28216539026019155 0 21:0.0019607843 22:0.99999999 23:0.5 26:0.99999999 28:0.99999999 29:0.38823529 30:0.33333333 31:0.23 32:0.13 33:0.0099999999 34:0.02 35:0.03 36:0.05 
0 0 1024 0 2:1.3518148e-06 3:7.7649021e-07 20:0.57647059 21:0.57647059 26:0.99999999 29:1 30:1 31:0.99999999 33:0.99999999 
10.425171262562595 0 0 0 1:0.2673697 2:8.4540821e-06 3:0.0071539984 7:0.012987013 9:0.99999999 14:0.425 26:0.99999999 29:0.51764706 30:0.050980392 31:0.099999999 32:0.04 33:0.0099999999 35:0.02 36:0.23 
0 0 0.66270087364375985 0 1:0.0006532593 2:3.8825379e-06 3:0.00080599683 7:0.38961039 9:0.99999999 19:0.99999999 26:0.99999999 29:0.76078431 30:0.30980392 31:0.41 32:0.03 33:0.0099999999 
0 0 633.48998618992778 0 2:3.7987044e-07 3:0.0058745367 7:0.012987013 9:0.99999999 26:0.99999999 29:1 30:1 31:0.99999999 
0 4.00240500904005 0 0 24:0.99999999 25:0.99999999 26:0.99999999 29:0.098039216 30:0.10980392 31:0.99999999 33:0.04 34:0.069999999 36:0.069999999 37:0.99999999 38:0.92999999 
0 0 0 0.092919932675671502 2:1.130704e-05 9:0.99999999 15:0.99999999 20:0.019607843 21:0.019607843 26:0.99999999 29:0.066666667 30:0.066666667 31:0.99999999 33:0.99999999 
0 0 0 0.16040483702236308 24:0.99999999 25:0.99999999 26:0.99999999 29:0.035294118 30:1 31:0.99999999 33:0.11 34:0.04 35:0.11 36:0.02 37:0.33 38:0.03 
0 0 0 1024 2:5.2395923e-08 26:0.99999999 29:0.0039215686 30:0.0039215686 31:0.99999999 33:0.99999999 
0 0 0.083363686662777312 0.097893801724736579 9:0.99999999 21:0.0058823529 24:0.99999999 25:0.25 26:0.99999999 28:0.74999999 29:0.031372549 30:1 31:0.99999999 33:0.12 34:0.0099999999 37:0.12 
0 1.0509162247511079 0 0 2:1.4854244e-06 9:0.99999999 13:0.0061538462 20:0.0019607843 26:0.5 27:0.99999999 29:0.81568627 30:0.41568627 31:0.42 32:0.03 33:0.42 34:0.02 
0 0 0 0.19429994201894724 24:0.99999999 25:0.99999999 26:0.99999999 29:1 30:1 31:0.99999999 37:0.04 38:0.04 
0 0 0 0.53606174058465306 1:0.24252251 2:6.117224e-06 3:0.0015846224 9:0.99999999 20:0.0019607843 24:0.5 25:0.99999999 26:0.5 27:0.99999999 29:0.63529412 30:0.062745098 31:0.099999999 32:0.0099999999 33:0.0099999999 37:0.069999999 38:0.74999999 
0 2.463250635969461 0 0 2:2.4364104e-06 3:6.4836932e-05 9:0.99999999 26:0.99999999 29:0.83921569 30:0.61176471 31:0.68999999 32:0.02 34:0.0099999999 36:0.0099999999 
0 0 0 3.7298187169097163 2:1.5433219e-05 20:0.02745098 21:0.02745098 26:0.99999999 29:0.9254902 30:0.2 31:0.22 32:0.02 33:0.22 
0 0 0 0.037547479930662722 24:0.99999999 25:0.99999999 26:0.99999999 29:0.035294118 30:1 31:0.99999999 33:0.11 34:0.05 37:0.11 38:0.03 
0 0 68.42180719871304 0 2:5.8683434e-07 3:0.00027468341 9:0.99999999 26:0.99999999 29:0.18823529 30:0.18823529 31:0.99999999 33:0.02 
0 0 0 0.057721770739763971 21:0.039215686 23:0.94999999 24:0.99999999 25:0.05 26:0.99999999 28:0.099999999 29:0.0078431373 30:0.87843137 31:0.99999999 33:0.5 34:0.079999999 37:0.99999999 38:0.99999999 
0 4.4327049820298328 0 0 2:5.9993332e-06 3:6.5031055e-05 9:0.99999999 26:0.99999999 29:0.74509804 30:0.4627451 31:0.61999999 32:0.03 33:0.0099999999 35:0.0099999999 36:0.0099999999 
0 0 562.95262325375609 0 2:1.362294e-07 3:0.00022576453 9:0.99999999 26:0.99999999 29:0.0039215686 30:0.0039215686 31:0.99999999 33:0.99999999 
0 0 0 1024 1:0.0014698334 2:1.2575021e-07 3:9.3178825e-06 26:0.99999999 29:0.011764706 30:0.015686275 31:0.99999999 33:0.99999999 34:0.5 
0 0 0 0.0071971137750903771 2:2.1220349e-06 3:6.3866319e-05 9:0.99999999 20:0.0019607843 21:0.0019607843 26:0.5 27:0.99999999 28:0.99999999 29:0.41176471 30:0.56078431 31:0.49 32:0.059999999 33:0.0099999999 34:0.0099999999 
0 0 0 5.7945079119114933 2:8.9073069e-08 20:0.0058823529 21:0.029411765 26:0.99999999 28:0.19 29:0.32156863 30:0.043137255 31:0.13 32:0.069999999 33:0.13 
0 0 0 0.090150904514853344 21:0.0039215686 24:0.99999999 25:0.99999999 26:0.99999999 28:0.99999999 29:0.043137255 30:0.9254902 31:0.99999999 33:0.089999999 34:0.0099999999 37:0.99999999 38:0.069999999 
0 0 0.21607002419411325 0 2:7.492617e-07 3:0.00027468341 9:0.99999999 20:0.0039215686 21:0.025490196 22:0.33 23:0.14 25:0.069999999 26:0.99999999 28:0.36 29:0.23529412 30:0.23529412 31:0.99999999 33:0.02 35:0.02 36:0.02 
0 214.58112634534646 0 0 1:4.6661378e-05 2:0.0057494544 9:0.99999999 26:0.99999999 29:1 30:0.31764706 31:0.32 32:0.02 33:0.32 
37.840855241902787 0 18.873787320568791 0 1:0.00023330689 2:6.0936458e-06 3:0.044852404 9:0.99999999 26:0.99999999 29:0.0039215686 30:0.0039215686 31:0.99999999 33:0.99999999 
0 0 0 1.5495161831401332 3:2.9118383e-06 20:0.0058823529 24:0.25 25:0.99999999 26:0.25 27:0.5 29:1 30:0.0078431373 31:0.0099999999 32:0.03 38:0.5 
0 0 0.021758468672728744 0 1:0.28092483 2:3.4528913e-06 3:0.0018948302 20:0.0039215686 24:0.33 25:0.99999999 26:0.33 27:0.66999999 29:0.10588235 30:0.023529412 31:0.22 32:0.069999999 33:0.04 37:0.15 38:0.66999999 
41.167399450172404 276.4619529320953 0 0 2:1.9072116e-05 9:0.99999999 26:0.99999999 29:0.0039215686 30:0.27058824 31:0.99999999 33:0.99999999 34:0.03 36:0.0099999999 
0 0.6144742713822976 0 0 2:9.7718396e-07 9:0.99999999 21:0.0019607843 26:0.99999999 28:0.99999999 29:0.031372549 30:0.27058824 31:0.87999999 32:0.25 33:0.87999999 34:0.03 
0 0 0 72.99152867606611 2:9.4312661e-08 3:1.7859275e-05 20:0.0019607843 21:0.0019607843 26:0.99999999 29:0.023529412 30:0.015686275 31:0.66999999 32:0.33 33:0.66999999 
0 579.63938709473632 0 0 2:7.3092312e-07 3:0.00041192805 9:0.99999999 26:0.99999999 29:0.0039215686 30:0.054901961 31:0.99999999 33:0.99999999 34:0.29 36:0.069999999 
0 0.87064382763972903 0 0 2:6.81147e-08 9:0.99999999 26:0.99999999 29:0.047058824 30:0.031372549 31:0.42 32:0.25 33:0.42 34:0.25 
0 0 412.87866236826017 407.79538077152932 2:1.6766695e-07 20:0.0058823529 21:0.0058823529 26:0.99999999 29:1 30:0.0078431373 31:0.0099999999 32:0.02 33:0.0099999999 
0 0 1024 0 2:1.3518148e-06 3:7.7649021e-07 20:0.63921569 21:0.63921569 26:0.99999999 29:1 30:1 31:0.99999999 33:0.99999999 
0 0 0 0.098457298029956342 1:0.39088237 2:9.3133753e-06 3:0.038469654 7:0.025974026 9:0.99999999 10:0.17081448 11:0.99999999 12:1 13:0.14974359 14:0.025 16:0.125 26:0.99999999 29:0.035294118 30:0.011764706 31:0.22 32:0.33 33:0.11 34:0.66999999 
0 0 0 0.11675842906333798 22:0.99999999 23:0.99999999 26:0.99999999 29:0.0039215686 30:0.47058824 31:0.99999999 33:0.99999999 34:0.17 35:0.99999999 36:0.0099999999 38:0.98999999 
0 0 0.03278368892212348 0 2:1.4854244e-06 9:0.99999999 13:0.0061538462 20:0.0039215686 26:0.33 27:0.66999999 29:0.0039215686 30:0.0039215686 31:0.99999999 33:0.99999999 
0 0 0.3074556512612952 0.12223416403343199 2:1.6766695e-07 20:0.29411765 22:0.98999999 26:0.0099999999 27:0.059999999 29:1 30:0.0039215686 32:0.089999999 35:0.65999999 37:0.0099999999 
0 0 1.1044188524871594 0 2:2.69839e-07 20:0.0019607843 21:0.0039215686 26:0.99999999 28:0.66999999 29:0.039215686 30:0.039215686 31:0.99999999 33:0.99999999 
111.8580530861704 0 0 0 2:1.619034e-06 3:9.5508295e-05 9:0.99999999 26:0.99999999 29:1 30:0.011764706 31:0.0099999999 32:0.0099999999 
0 0 0 0.055230153063255474 1:0.26981942 2:1.4801848e-06 3:0.021715325 9:0.99999999 10:0.24547511 11:0.99999999 12:1 13:0.25333333 16:0.5 26:0.99999999 29:0.031372549 30:0.011764706 31:0.38 32:0.25 33:0.12 37:0.12 38:0.33 
0 0 0 0.077765585305631768 2:4.3750596e-07 3:0.0038488678 9:0.99999999 10:0.093891403 11:0.99999999 12:1 13:0.093333333 22:0.99999999 23:0.99999999 26:0.99999999 29:0.082352941 30:0.031372549 31:0.29 32:0.14 33:0.05 34:0.25 35:0.05 36:0.12 
0 0 0 0.075938443602743613 2:6.0255311e-07 3:0.0085025678 9:0.99999999 22:0.99999999 23:0.99999999 26:0.99999999 29:1 30:1 31:0.99999999 
0 0 0.3210432569874847 0 24:0.99999999 25:0.99999999 26:0.99999999 29:0.76862745 30:0.5372549 31:0.69999999 32:0.02 33:0.0099999999 37:0.69999999 38:0.99999999 
0 0 0 968.09002174984766 1:0.00074658205 2:2.8817758e-07 3:8.5413923e-06 20:0.01372549 21:0.01372549 26:0.99999999 29:0.37647059 30:0.29019608 31:0.76999999 32:0.02 33:0.76999999 
0 0 0 36.165362877273118 2:6.2875107e-08 3:4.6589412e-06 26:0.99999999 29:0.0039215686 30:0.94509804 31:0.99999999 33:0.99999999 34:0.0099999999 
69.408048144343468 1024 0 0 2:4.5060494e-07 9:0.99999999 26:0.99999999 29:0.02745098 30:0.02745098 31:0.99999999 33:0.99999999 
0 0 0.0030227933596784617 0 24:0.99999999 25:0.99999999 26:0.99999999 29:0.031372549 30:0.011764706 31:0.38 32:0.25 33:0.12 37:0.38 38:0.99999999 
0 0 0 1.9379192346951815 1:2.3330689e-05 2:9.1692865e-08 3:2.5235932e-05 9:0.99999999 20:0.0019607843 26:0.5 27:0.99999999 29:0.49019608 30:0.0078431373 31:0.02 32:0.04 33:0.0099999999 
0 0 0 0.17009461911082729 2:7.492617e-07 3:0.00026555965 9:0.99999999 26:0.99999999 29:0.0039215686 30:1 31:0.99999999 33:0.99999999 34:0.069999999 36:0.0099999999 
0 0 0 76.790120938045519 2:2.4102124e-07 21:0.0019607843 26:0.99999999 28:0.99999999 29:0.023529412 30:0.023529412 31:0.99999999 33:0.99999999 
0 0 0 1024 2:1.2575021e-07 3:9.3178825e-06 26:0.99999999 29:0.25490196 30:0.22352941 31:0.87999999 32:0.05 33:0.87999999 
0 0 272.9978279858974 0 2:4.768029e-07 20:0.0098039216 21:0.0098039216 26:0.99999999 29:1 30:0.062745098 31:0.059999999 32:0.0099999999 33:0.069999999 
0 0 0 9.9177622061763557 2:2.3578165e-08 3:2.7177157e-05 26:0.99999999 29:1 30:0.0039215686 32:0.65999999 
0 0 1024 0 2:1.3518148e-06 3:7.7649021e-07 20:0.70980392 21:0.70980392 26:0.99999999 29:1 30:1 31:0.99999999 33:0.99999999 
0 49.065579296205485 0 0 1:0.00088656619 2:3.7751262e-06 3:0.00080599683 7:0.38961039 9:0.99999999 19:0.99999999 26:0.99999999 29:0.65098039 30:0.10588235 31:0.16 32:0.02 33:0.0099999999 35:0.0099999999 
0 0 1024 0 2:1.3518148e-06 3:7.7649021e-07 20:0.55882353 21:0.55882353 26:0.99999999 29:1 30:1 31:0.99999999 33:0.99999999 
0 0 0 1.5353133093559195 1:2.3330689e-05 2:0.0013145089 9:0.99999999 26:0.99999999 29:0.3254902 30:0.30588235 31:0.069999999 32:0.85999999 33:0.059999999 34:0.03 37:0.81999999 38:0.0099999999 
0 0 4.7009020687165357 0 2:6.2875107e-07 3:0.00052374264 9:0.99999999 16:0.125 20:0.0019607843 21:0.0058823529 25:0.5 26:0.99999999 28:0.74999999 29:0.20784314 30:0.20784314 31:0.99999999 33:0.02 
0 3.4820819304057098 0.069812614882130905 0 2:4.1628561e-06 3:6.4836932e-05 9:0.99999999 21:0.0039215686 26:0.99999999 28:0.99999999 29:0.0039215686 30:0.40784314 31:0.99999999 33:0.99999999 34:0.02 
0 0 0 0.10642268099918063 1:0.00011665345 2:4.715633e-07 3:0.00016073347 9:0.99999999 19:0.99999999 20:0.0019607843 24:0.5 25:0.99999999 26:0.5 27:0.99999999 29:0.078431373 30:0.015686275 31:0.2 32:0.2 33:0.05 37:0.05 38:0.25 
0 0 0 608.72545247230846 2:1.3518148e-06 3:7.7649021e-07 20:0.021568627 21:0.021568627 26:0.99999999 29:0.047058824 30:0.047058824 31:0.99999999 33:0.99999999 
0 0 0 460.04281368441821 2:1.9596075e-06 26:0.99999999 29:0.81568627 30:0.10196078 31:0.12 32:0.02 33:0.12 
0 0 0.027030152396384143 0 1:0.3149643 2:3.2747452e-07 3:0.0021033178 9:0.99999999 24:0.99999999 25:0.99999999 26:0.99999999 29:0.10980392 30:0.043137255 31:0.39 32:0.14 33:0.04 35:0.04 36:0.089999999 37:0.04 38:0.089999999 
0 0 0.015057815890915847 0.067235393035392207 2:2.8136611e-06 3:7.531955e-05 9:0.99999999 20:0.35294118 21:0.0019607843 22:0.98999999 26:0.0099999999 27:0.069999999 28:0.99999999 29:1 30:0.050980392 31:0.05 32:0.069999999 35:0.92999999 
0 253.93442421716171 0 0 2:2.2373059e-06 9:0.99999999 26:0.99999999 29:0.86666667 30:0.34509804 31:0.38 32:0.03 33:0.38 34:0.02 35:0.0099999999 36:0.0099999999 
0 0 1024 0 2:1.3518148e-06 3:7.7649021e-07 20:0.65882353 21:0.65882353 26:0.99999999 29:1 30:1 31:0.99999999 33:0.99999999 
0 0 0 0.085867953662203123 21:0.0019607843 23:0.5 24:0.99999999 25:0.5 26:0.99999999 28:0.99999999 29:0.0039215686 30:1 31:0.99999999 33:0.99999999 34:0.18 37:0.99999999 38:0.99999999 
0 0 1024 0 2:1.3518148e-06 3:7.7649021e-07 20:0.52352941 21:0.52352941 26:0.99999999 29:1 30:1 31:0.99999999 33:0.99999999 
780.36024619354225 0 0 0 1:0.0013298493 2:3.1961513e-07 3:0.0014510661 9:0.99999999 26:0.99999999 29:1 30:0.0078431373 31:0.0099999999 32:0.02 
0 0 0.14461496693030745 0.13631454127794493 7:0.012987013 22:0.99999999 23:0.99999999 26:0.99999999 29:0.49803922 30:0.0078431373 31:0.02 32:0.04 33:0.0099999999 35:0.02 36:0.99999999 
0 1.3628307602120524 0 0 2:4.2833667e-06 3:6.464281e-05 9:0.99999999 20:0.0019607843 26:0.5 27:0.99999999 29:1 30:0.30980392 31:0.31 32:0.03 
0 0 0 769.96140377537506 2:2.0958369e-08 3:2.6788912e-05 26:0.99999999 29:0.44313725 30:0.0078431373 31:0.02 32:0.04 33:0.0099999999 
0 0 119.56802123238357 0 1:9.3322757e-05 2:6.5494903e-07 3:0.00032651413 7:0.012987013 9:0.99999999 21:0.0019607843 25:0.5 26:0.99999999 28:0.99999999 29:0.83921569 30:0.83921569 31:0.99999999 
0 0 0.44220385377559651 1024 2:7.8593884e-08 26:0.99999999 29:0.011764706 30:0.015686275 31:0.99999999 33:0.99999999 34:0.5 
0 0 0 0.062118194090223539 22:0.99999999 23:0.99999999 26:0.99999999 29:0.039215686 30:0.40392157 31:0.99999999 33:0.099999999 34:0.02 35:0.099999999 36:0.0099999999 37:0.89999999 38:0.87999999 
0 0 0 0.071560478998623431 2:4.4903306e-06 3:6.3866319e-05 9:0.99999999 26:0.99999999 29:0.0039215686 30:0.0039215686 31:0.99999999 33:0.99999999 
0 0 0 0.12376367754979384 2:2.4364104e-06 3:6.464281e-05 9:0.99999999 20:0.0039215686 21:0.0058823529 26:0.33 27:0.99999999 28:0.99999999 29:0.38431373 30:0.62745098 31:0.78999999 32:0.04 33:0.0099999999 34:0.0099999999 
0 0 0 1.3488622465874247 2:1.8338573e-08 24:0.99999999 25:0.99999999 26:0.99999999 29:0.0039215686 30:0.019607843 31:0.99999999 33:0.99999999 34:0.59999999 37:0.99999999 38:0.2 
0 0 8.5042872118477018 0 2:4.7942269e-07 3:0.0018899772 9:0.99999999 20:0.0078431373 21:0.0078431373 24:0.2 25:0.2 26:0.99999999 29:1 30:1 31:0.99999999 35:0.0099999999 36:0.0099999999 
0 1024 0 0 2:9.9552253e-08 3:2.5235932e-05 9:0.99999999 26:0.99999999 29:0.0039215686 30:0.031372549 31:0.99999999 33:0.99999999 34:0.38 
0 0 0 0.56859232940800541 24:0.99999999 25:0.99999999 26:0.99999999 29:0.0039215686 30:0.60784314 31:0.99999999 33:0.99999999 34:0.059999999 37:0.99999999 38:0.72999999 
0 1.0748284157255104 0 0 24:0.99999999 25:0.99999999 26:0.99999999 29:0.16078431 30:0.14509804 31:0.89999999 32:0.05 33:0.02 37:0.89999999 38:0.99999999 
0 0 0 0.10354861650282225 21:0.0019607843 24:0.99999999 25:0.99999999 26:0.99999999 28:0.99999999 29:0.0039215686 30:0.054901961 31:0.99999999 33:0.99999999 34:0.5 37:0.99999999 38:0.99999999 
0 0 305.16877587623361 1024 2:3.1437554e-08 3:1.0870863e-05 26:0.99999999 29:0.0039215686 30:0.0039215686 31:0.99999999 33:0.99999999 
0 0 0 1024 1:0.0014698334 2:1.2575021e-07 3:9.3178825e-06 26:0.99999999 29:0.066666667 30:0.16470588 31:0.99999999 33:0.99999999 34:0.05 
0 0 0 0.10664158047575592 1:0.31302786 2:2.583119e-06 3:0.028033432 9:0.99999999 10:0.89253394 11:0.99999999 12:1 13:0.88923077 16:0.25 26:0.99999999 29:0.87843137 30:0.14509804 31:0.17 32:0.03 36:0.03 37:0.0099999999 38:0.05 
0 0 0.14599384708378796 0 24:0.99999999 25:0.99999999 26:0.99999999 29:0.0078431373 30:0.12156863 31:0.99999999 33:0.5 34:0.099999999 37:0.99999999 38:0.99999999 
1.4039858987559259 0 0 0 2:4.6789559e-06 3:9.279058e-05 9:0.99999999 26:0.99999999 29:1 30:0.043137255 31:0.04 32:0.0099999999 
0 0 0 0.081005153147674619 21:0.039215686 23:0.94999999 24:0.99999999 25:0.05 26:0.99999999 28:0.099999999 29:0.0078431373 30:0.78039216 31:0.99999999 33:0.5 34:0.27 37:0.99999999 38:0.99999999 
0 0 1024 0 2:1.3518148e-06 3:7.7649021e-07 20:0.63529412 21:0.63529412 26:0.99999999 29:1 30:1 31:0.99999999 33:0.99999999 
0 0 0 0.0073952428212443379 21:0.0019607843 24:0.99999999 25:0.99999999 26:0.99999999 28:0.99999999 29:0.0039215686 30:0.98039216 31:0.99999999 33:0.99999999 34:0.33 37:0.99999999 38:0.99999999 
0 0 1024 0 2:1.3518148e-06 3:7.7649021e-07 20:0.57254902 21:0.57254902 26:0.99999999 29:1 30:1 31:0.99999999 33:0.99999999 
0 0 0 0.014501820223370234 2:0.00010455082 3:0.0083164042 9:0.99999999 22:0.99999999 23:0.99999999 26:0.99999999 29:0.22745098 30:0.035294118 31:0.16 32:0.03 33:0.02 35:0.12 36:0.77999999 
0 0 0 1024 2:3.8249024e-07 26:0.99999999 29:0.0039215686 30:0.0039215686 31:0.99999999 33:0.99999999 
0 0 0 0.062856239133581279 2:6.1879585e-06 3:7.2601834e-05 9:0.99999999 20:0.011764706 21:0.0019607843 26:0.14 27:0.29 28:0.99999999 29:0.3372549 30:0.95686275 31:0.97999999 32:0.02 33:0.0099999999 34:0.0099999999 
0 0 0 0.33029892088627105 1:2.3330689e-05 2:2.8870153e-06 3:6.5031055e-05 9:0.99999999 20:0.047058824 26:0.04 27:0.079999999 29:0.58823529 30:0.49019608 31:0.46 32:0.04 33:0.0099999999 34:0.02 
0 0 0 0.10053978899884296 1:2.3330689e-05 2:5.2002953e-06 3:0.00010172022 9:0.99999999 21:0.0019607843 26:0.99999999 28:0.99999999 29:0.18039216 30:0.53333333 31:0.11 32:0.04 33:0.02 34:0.0099999999 37:0.88999999 
76.306900357913804 0 0 0 2:2.7507859e-07 20:0.0019607843 21:0.0019607843 26:0.99999999 29:0.011764706 30:0.011764706 31:0.99999999 33:0.66999999 
0 0 1024 0 2:1.3518148e-06 3:7.7649021e-07 20:0.78627451 21:0.78627451 26:0.99999999 29:1 30:1 31:0.99999999 33:0.99999999 
0 0 0 0.092668834428302607 1:0.33869161 2:2.0801181e-06 3:0.029527981 9:0.99999999 10:0.58823529 11:0.99999999 12:1 13:0.58666667 16:1 26:0.99999999 29:0.031372549 30:0.011764706 31:0.38 32:0.25 33:0.12 
5.0703580462151727 1024 0 0 2:1.3934696e-05 9:0.99999999 20:0.0058823529 21:0.0058823529 26:0.99999999 29:0.039215686 30:0.039215686 31:0.99999999 33:0.99999999 
0 0 0 165.87573606597584 2:7.8593884e-08 26:0.99999999 29:0.015686275 30:0.35686275 31:0.99999999 33:0.99999999 34:0.49 
0 645.57157975832342 0 0 2:2.9802801e-05 9:0.99999999 20:0.0039215686 21:0.0039215686 26:0.99999999 29:0.89411765 30:0.33333333 31:0.35 32:0.089999999 33:0.4 34:0.02 35:0.0099999999 36:0.02 
0 0 0 152.81670330043255 2:7.8593884e-08 20:0.0039215686 26:0.33 27:0.99999999 29:1 30:0.011764706 31:0.0099999999 32:0.0099999999 33:0.059999999 
0 46.571526132676034 0 1024 2:1.5718777e-08 3:6.9301751e-05 26:0.99999999 29:0.0039215686 30:0.0039215686 31:0.99999999 33:0.99999999 
0 1024 0 0 1:0.0039195558 2:5.6849576e-07 3:0.0075243842 9:0.99999999 26:0.99999999 29:0.0039215686 30:0.019607843 31:0.99999999 33:0.99999999 34:0.4 
0 0 0 8.8517925084040616 2:3.8511003e-07 20:0.0078431373 26:0.2 27:0.59999999 29:1 30:0.0039215686 32:0.45 33:0.92999999 
863.42386396713027 0 0 0 2:2.2163475e-06 3:6.3089829e-05 9:0.99999999 26:0.99999999 29:0.0039215686 30:0.3254902 31:0.99999999 33:0.99999999 34:0.02 
0 0 0 2.7497867136379863 20:0.0019607843 24:0.5 25:0.99999999 26:0.5 27:0.99999999 29:0.45098039 30:0.0039215686 31:0.0099999999 32:0.03 33:0.0099999999 37:0.0099999999 38:0.99999999 
0 0 0 0.28391538259581867 20:0.0019607843 21:0.0019607843 22:0.5 23:0.5 26:0.99999999 29:1 30:0.039215686 31:0.04 32:0.52999999 33:0.0099999999 36:0.099999999 
0 1.1144318469832153 0 0 3:7.7649021e-07 26:0.99999999 29:0.082352941 30:0.082352941 31:0.99999999 33:0.05 35:0.14 36:0.14 
0 0 0 1024 2:1.2575021e-07 3:9.3178825e-06 26:0.99999999 29:0.16862745 30:0.14117647 31:0.83999999 32:0.069999999 33:0.83999999 
0 23.783737966160054 0 0 2:2.2889159e-05 9:0.99999999 20:0.02745098 21:0.029411765 26:0.99999999 28:0.12 29:0.99607843 30:0.23529412 31:0.24 32:0.13 33:0.33 35:0.02 36:0.02 
0 0 0 18.238381276817179 2:4.768029e-07 20:0.0019607843 26:0.5 27:0.99999999 29:0.25490196 30:0.011764706 31:0.05 32:0.05 33:0.079999999 
0 0 0 48.338442276965019 2:7.8593884e-08 26:0.99999999 29:0.74117647 30:0.74117647 31:0.99999999 33:0.99999999 
0 0 0 16.7450755893923 2:3.8511003e-07 26:0.99999999 29:0.023529412 30:0.0039215686 31:0.17 32:0.66999999 33:0.82999999 
0 0 0.15839755472325423 0 24:0.99999999 25:0.99999999 26:0.99999999 29:1 30:1 31:0.99999999 37:0.28 38:0.28 
50.123865799457633 0 0 0 2:2.7507859e-07 3:2.8536015e-05 26:0.99999999 29:0.015686275 30:0.015686275 31:0.99999999 33:0.25 
0 0 13.885242744356894 0 9:0.99999999 24:0.99999999 25:0.99999999 26:0.99999999 29:1 30:0.94901961 31:0.94999999 32:0.0099999999 37:0.05 38:0.059999999 
0 0 1024 0 2:1.3518148e-06 3:7.7649021e-07 20:0.94705882 21:0.94705882 26:0.99999999 29:1 30:1 31:0.99999999 33:0.99999999 
0 0 1024 0 2:1.3518148e-06 3:7.7649021e-07 20:0.60392157 21:0.60392157 26:0.99999999 29:1 30:1 31:0.99999999 33:0.99999999 
0 0 0 0.35378825159325317 2:1.0033819e-06 9:0.99999999 20:0.0019607843 21:0.0019607843 26:0.99999999 29:0.37254902 30:0.36470588 31:0.089999999 32:0.05 33:0.089999999 34:0.02 37:0.03 
0 0 0.010687927318409415 0.12972275678421144 1:6.9992068e-05 9:0.99999999 24:0.99999999 25:0.99999999 26:0.99999999 29:0.0039215686 30:1 31:0.99999999 33:0.99999999 34:0.0099999999 37:0.99999999 38:0.02 
0 0 23.881832227832586 0 1:0.00018664551 2:1.6792893e-06 3:6.4060442e-05 7:0.012987013 9:0.99999999 26:0.99999999 29:0.039215686 30:0.14901961 31:0.99999999 33:0.099999999 34:0.05 
0 0 1024 0 2:1.3518148e-06 3:7.7649021e-07 20:0.91372549 21:0.91372549 26:0.99999999 29:1 30:1 31:0.99999999 33:0.99999999 
0 0 0 0.056784960893817911 2:3.0153854e-06 3:0.0016286882 8:0.25 9:0.99999999 10:0.0045248869 12:0.5 13:0.0030769231 14:0.125 22:0.99999999 23:0.99999999 26:0.99999999 29:0.39607843 30:0.090196078 31:0.23 32:0.059999999 33:0.0099999999 35:0.02 36:0.089999999 37:0.079999999 38:0.35 
0 0 0 0.18076068953705832 1:0.00072325136 2:3.8930171e-06 3:0.00080599683 7:0.38961039 9:0.99999999 19:0.99999999 26:0.99999999 29:0.37254902 30:0.054901961 31:0.15 32:0.03 33:0.0099999999 
0 0 0.30929995302319491 0 2:6.4708965e-07 3:0.00057363214 9:0.99999999 20:0.0039215686 21:0.0039215686 22:0.33 23:0.33 26:0.99999999 29:0.50980392 30:1 31:0.99999999 33:0.0099999999 34:0.05 35:0.0099999999 37:0.23 38:0.58999999 
0 0 0 0.059682708722815843 21:0.0019607843 24:0.99999999 25:0.5 26:0.99999999 28:0.99999999 29:0.031372549 30:1 31:0.99999999 33:0.12 34:0.13 37:0.99999999 38:0.98999999 
0 0 0 0.17908216954747044 1:6.9992068e-05 2:3.6677146e-07 3:0.00054548437 9:0.99999999 26:0.99999999 29:0.0039215686 30:0.02745098 31:0.99999999 33:0.99999999 34:0.99999999 
0 0 0 0.26798122722067269 1:0.00051327516 2:8.5405354e-07 3:0.00020460517 7:0.077922078 9:0.99999999 19:0.99999999 26:0.99999999 29:0.28627451 30:0.011764706 31:0.03 32:0.96999999 33:0.0099999999 34:0.66999999 37:0.88999999 38:0.66999999 
0 0 0.41625266004874634 0 2:3.2668858e-06 3:6.4060442e-05 9:0.99999999 20:0.0019607843 26:0.5 27:0.99999999 29:0.32156863 30:0.23529412 31:0.72999999 32:0.05 33:0.0099999999 
0 0 0 0.02549934778066773 21:0.0019607843 24:0.99999999 25:0.5 26:0.99999999 28:0.99999999 29:0.0039215686 30:1 31:0.99999999 33:0.99999999 34:0.25 37:0.99999999 38:0.94999999 
0 0 0 1024 2:3.507907e-06 26:0.99999999 29:0.42352941 30:0.054901961 31:0.13 32:0.04 33:0.13 
0 0 87.414002239345706 0 1:0.00011665345 2:8.8811089e-07 3:5.4160192e-05 7:0.012987013 9:0.99999999 26:0.99999999 29:1 30:0.99215686 31:0.98999999 32:0.0099999999 
0 0 0.12330649050115595 0 24:0.99999999 25:0.99999999 26:0.99999999 29:0.70588235 30:0.039215686 31:0.059999999 32:0.03 33:0.0099999999 35:0.02 37:0.079999999 38:0.99999999 
0 0 0 0.28113372774713646 1:0.0013998414 2:2.2792226e-07 3:4.3677574e-05 8:0.25 26:0.99999999 29:1 30:0.0039215686 32:0.02 
0 0 0 10.220111709177052 2:8.121368e-08 3:1.7665152e-05 26:0.99999999 29:0.098039216 30:0.71764706 31:0.75999999 32:0.079999999 33:0.75999999 34:0.0099999999 37:0.24 
0 0 0 0.096138403787216595 1:0.0006532593 2:3.9244546e-06 3:0.00080599683 7:0.38961039 9:0.99999999 19:0.99999999 20:0.0019607843 26:0.5 27:0.99999999 29:0.29803922 30:0.039215686 31:0.13 32:0.04 33:0.0099999999 
0 0 0 0.11449270167283558 22:0.99999999 23:0.99999999 26:0.99999999 29:0.10980392 30:1 31:0.99999999 33:0.04 34:0.17 35:0.04 37:0.95999999 38:0.99999999 
5.9619423401860123 0 0 0 1:0.34249452 2:1.2747928e-05 3:0.014126492 9:0.99999999 10:0.0045248869 14:0.5 26:0.99999999 29:1 30:0.12941176 31:0.13 32:0.34 35:0.34 36:0.12 38:0.03 
0 955.63138129416461 0 0 1:0.00062992861 2:3.9296942e-06 3:0.00080599683 7:0.38961039 9:0.99999999 19:0.99999999 26:0.99999999 29:0.80784314 30:0.19215686 31:0.24 32:0.02 
0 0 0 0.012464736516828367 2:9.8716538e-05 3:0.0078417746 9:0.99999999 22:0.99999999 23:0.99999999 26:0.99999999 29:0.34509804 30:0.062745098 31:0.18 32:0.02 33:0.0099999999 35:0.16 36:0.87999999 
0 158.91640436834027 0 0 2:3.1437554e-08 9:0.99999999 26:0.99999999 29:0.92156863 30:0.25098039 31:0.27 32:0.069999999 33:0.32 36:0.02 
0 0 0.029900762320928812 0.90403114098380633 24:0.99999999 25:0.99999999 26:0.99999999 29:0.011764706 30:0.08627451 31:0.99999999 33:0.33 34:0.089999999 36:0.089999999 37:0.99999999 38:0.18 
0 0 0 0.06408996648726549 21:0.0019607843 24:0.99999999 25:0.99999999 26:0.99999999 28:0.99999999 29:0.56862745 30:1 31:0.99999999 33:0.0099999999 34:0.059999999 37:0.99999999 38:0.96999999 
0 0 0 1024 1:0.005179413 2:2.6459941e-07 3:0.00085938054 26:0.99999999 29:0.1254902 30:0.0039215686 31:0.03 32:0.059999999 33:0.03 
0 0 32.132792781420179 0 2:6.0517291e-07 3:8.0949104e-05 9:0.99999999 26:0.99999999 29:0.066666667 30:0.066666667 31:0.99999999 33:0.059999999 
0 1.3420251659652387 0 0 2:5.0300086e-07 9:0.99999999 26:0.99999999 29:0.019607843 30:0.18039216 31:0.79999999 32:0.4 33:0.79999999 34:0.04 
0 0 0 0.075273750883993767 2:0.00015932028 3:7.5125427e-05 9:0.99999999 21:0.0019607843 26:0.99999999 28:0.99999999 29:1 30:0.14117647 31:0.14 32:0.74999999 35:0.73999999 
0 0 1.0660745577367357 0 1:0.00074658205 2:3.8956369e-06 3:0.00080599683 7:0.38961039 9:0.99999999 19:0.99999999 26:0.99999999 29:0.066666667 30:0.043137255 31:0.64999999 32:0.18 33:0.059999999 
0 0 0 0.038333088074309157 1:0.0006532593 2:2.7534057e-06 3:0.00059809158 7:0.28571429 9:0.99999999 19:0.99999999 21:0.0019607843 26:0.99999999 28:0.99999999 29:0.44705882 30:0.0078431373 31:0.02 32:0.04 33:0.0099999999 
0 0 0.40778752593713913 0 2:4.2440697e-07 3:0.0025598941 9:0.99999999 21:0.0019607843 26:0.99999999 28:0.99999999 29:0.30980392 30:0.30980392 31:0.99999999 33:0.0099999999 
0 0 0 5.424425795625849 1:2.3330689e-05 2:1.8338573e-08 3:2.6983035e-05 20:0.0098039216 26:0.17 27:0.33 29:0.2627451 30:0.015686275 31:0.059999999 32:0.059999999 33:0.0099999999 
0 0 0 0.11224972526626847 1:0.35280668 2:3.0232447e-06 3:0.034299514 9:0.99999999 10:1 11:0.99999999 12:1 13:1 16:0.625 26:0.99999999 29:0.058823529 30:0.015686275 31:0.2 32:0.13 33:0.069999999 34:0.5 
0 0 0 284.47377455265377 2:8.6453273e-08 26:0.99999999 29:0.90588235 30:0.10980392 31:0.12 32:0.03 33:0.12 
0 0 0 0.053033871979539793 2:4.1052205e-06 3:9.2402335e-05 9:0.99999999 21:0.0019607843 26:0.99999999 28:0.99999999 29:0.48627451 30:0.41960784 31:0.02 32:0.02 33:0.0099999999 34:0.02 
0 0 12.864695733363297 0 2:4.060684e-07 3:0.00081279112 9:0.99999999 20:0.015686275 21:0.015686275 26:0.99999999 29:0.72156863 30:0.72156863 31:0.99999999 33:0.0099999999 37:0.0099999999 38:0.0099999999 
524.24740865523484 0 58.048331121300876 0 2:7.0996475e-07 3:0.00046938833 9:0.99999999 20:0.0019607843 21:0.0019607843 26:0.99999999 29:0.0039215686 30:0.0039215686 31:0.99999999 33:0.99999999 
0 0 0.1870893261748183 0.10141067746072081 2:1.4110222e-05 3:0.075916283 9:0.99999999 22:0.99999999 23:0.99999999 26:0.99999999 29:1 30:0.0078431373 31:0.0099999999 32:0.069999999 35:0.92999999 36:0.5 
0 0 0 6.0760541573646059 1:4.6661378e-05 2:2.6197961e-08 3:2.7565402e-05 20:0.0058823529 26:0.25 27:0.74999999 29:0.43137255 30:0.019607843 31:0.03 32:0.059999999 33:0.0099999999 34:0.4 35:0.0099999999 37:0.0099999999 
0 0 1024 0 2:1.3518148e-06 3:7.7649021e-07 20:0.58823529 21:0.58823529 26:0.99999999 29:1 30:1 31:0.99999999 33:0.99999999 
0 0 0 97.700238812962169 2:1.0033819e-06 26:0.99999999 29:0.23137255 30:0.12156863 31:0.12 32:0.03 33:0.12 34:0.059999999 
0 0 79.807223265176233 0 2:6.785272e-07 3:0.00042105181 9:0.99999999 21:0.0019607843 25:0.5 26:0.99999999 28:0.99999999 29:1 30:0.99607843 31:0.99999999 32:0.0099999999 
0 0 0 377.34998684980661 2:7.8593884e-08 26:0.99999999 29:0.043137255 30:0.047058824 31:0.99999999 33:0.99999999 34:0.17 
0 0 0 1024 2:7.8593884e-08 26:0.99999999 29:0.011764706 30:0.42745098 31:0.99999999 33:0.99999999 34:0.5 
0 0 0 0.088289950373140677 2:6.5756883e-07 3:0.00020771113 9:0.99999999 22:0.99999999 23:0.99999999 26:0.99999999 29:0.19607843 30:0.054901961 31:0.28 32:0.04 33:0.02 35:0.02 36:0.069999999 37:0.22 38:0.78999999 
0 3.6480973543606883 0 0 2:2.2373059e-06 9:0.99999999 20:0.0019607843 21:0.0039215686 26:0.99999999 28:0.66999999 29:0.031372549 30:0.21176471 31:0.99999999 33:0.99999999 34:0.04 
0 0 0 0.76686827130666058 2:4.2781271e-06 3:9.3761192e-05 9:0.99999999 26:0.99999999 29:0.54901961 30:0.43137255 31:0.28 32:0.03 33:0.0099999999 34:0.02 35:0.0099999999 37:0.35 
0 0 259.2371332424924 0 2:4.2702677e-07 3:0.0037030818 9:0.99999999 26:0.99999999 29:1 30:1 31:0.99999999 37:0.13 38:0.13 
0 0 9.8406300153160959 0 2:1.1265123e-07 3:2.814777e-05 20:0.12156863 21:0.2745098 26:0.99999999 28:0.0099999999 29:0.9372549 30:0.46666667 31:0.5 32:0.02 
0 14.804588754562941 0 0 1:4.6661378e-05 2:0.0057494544 9:0.99999999 20:0.0039215686 21:0.0019607843 26:0.66999999 27:0.66999999 29:0.94509804 30:0.4 31:0.41 32:0.02 33:0.41 34:0.02 
0 0 0 3.3662104353708378 1:0.063109514 2:3.8511003e-07 3:2.0382868e-05 20:0.0019607843 21:0.0019607843 26:0.99999999 29:1 30:0.015686275 31:0.02 32:0.35 33:0.75999999 
0 0 0 0.1470863785984648 1:0.47249312 2:1.9307898e-06 3:0.021771815 9:0.99999999 10:0.51696833 11:0.99999999 12:1 13:0.52102564 16:0.25 24:0.99999999 25:0.99999999 26:0.99999999 29:0.21176471 30:0.054901961 31:0.26 32:0.11 33:0.02 35:0.02 36:0.069999999 37:0.04 38:0.14 
0 1024 0 0 2:6.4185005e-07 9:0.99999999 13:0.001025641 20:0.0019607843 21:0.0019607843 26:0.99999999 29:0.0078431373 30:0.12156863 31:0.99999999 33:0.99999999 34:0.099999999 
20.892786182619009 0 0 0 1:0.32585974 2:5.2657902e-07 3:0.0084146302 9:0.99999999 26:0.99999999 29:1 30:0.1254902 31:0.13 32:0.04 35:0.2 37:0.02 38:0.12 
0 0 0 0.088320829509413862 1:0.00013998414 2:3.4031152e-06 3:7.5513673e-05 9:0.99999999 20:0.46470588 21:0.0058823529 22:0.99999999 27:0.059999999 28:0.99999999 29:1 30:0.20784314 31:0.21 32:0.089999999 35:0.63999999 37:0.0099999999 
0 0 0 1024 2:3.6079832e-05 26:0.99999999 29:0.26666667 30:0.015686275 31:0.059999999 32:0.04 33:0.059999999 
0 0 0 1024 2:7.8593884e-08 26:0.99999999 29:0.0078431373 30:0.42352941 31:0.99999999 33:0.99999999 34:0.5 
0 1024 0 0 2:2.3158998e-06 9:0.99999999 20:0.0019607843 21:0.0019607843 26:0.99999999 29:0.023529412 30:0.21176471 31:0.99999999 33:0.99999999 34:0.04 
0 1.4612076528543059 0 0 2:1.876298e-05 20:0.0098039216 21:0.0098039216 26:0.99999999 29:1 30:0.23921569 31:0.24 32:0.02 33:0.24 35:0.37 
0 0 0 0.22750736860773682 1:9.3322757e-05 2:4.8466229e-07 3:0.0022091146 9:0.99999999 20:0.0019607843 24:0.5 26:0.5 27:0.99999999 29:1 30:0.97647059 31:0.97999999 32:0.0099999999 
0 0 0 0.029690851756405689 1:0.00053660585 2:7.5188149e-07 3:0.00017315732 7:0.064935065 9:0.99999999 19:0.99999999 20:0.0039215686 26:0.33 27:0.66999999 29:0.54117647 30:0.10196078 31:0.19 32:0.089999999 33:0.0099999999 35:0.02 
0 0 0 0.0021953001782269192 2:1.3552205e-05 3:0.0015456038 9:0.99999999 14:0.275 16:0.125 22:0.99999999 23:0.99999999 26:0.99999999 29:0.34509804 30:0.035294118 31:0.099999999 32:0.059999999 33:0.0099999999 35:0.02 36:0.22 
0 0 1024 0 2:1.3518148e-06 3:7.7649021e-07 20:0.79803922 21:0.79803922 26:0.99999999 29:1 30:1 31:0.99999999 33:0.99999999 
0 0 0.055076162965944038 0.060128271254901555 22:0.99999999 23:0.99999999 26:0.99999999 29:0.0039215686 30:1 31:0.99999999 33:0.99999999 34:0.03 35:0.99999999 
0 9.8501177779956404 0 0.032828276364582111 2:8.7501191e-07 3:0.00027060684 7:0.012987013 9:0.99999999 11:0.99999999 20:0.017647059 21:0.017647059 26:0.99999999 29:0.95686275 30:1 31:0.99999999 34:0.0099999999 
0 0 0 0.09979918823131062 1:0.00034996034 2:3.2089883e-05 3:0.00027177157 9:0.99999999 21:0.0019607843 22:0.99999999 23:0.5 26:0.99999999 28:0.99999999 29:0.1254902 30:0.60392157 31:0.28 32:0.059999999 33:0.03 34:0.0099999999 35:0.03 36:0.0099999999 
0 0 0 0.2242623420712164 2:4.8859198e-06 3:7.5125427e-05 9:0.99999999 20:0.0019607843 26:0.5 27:0.99999999 29:0.078431373 30:0.58431373 31:0.4 32:0.15 33:0.05 34:0.0099999999 
0 0 0 0.032395979028864687 1:0.31328449 2:2.6949843e-05 3:0.0032410701 9:0.99999999 10:0.0011312217 14:0.95 26:0.99999999 29:1 30:0.047058824 31:0.05 32:0.059999999 35:0.86999999 37:0.0099999999 38:0.17 
0 0 0.014756025820943217 0 2:3.1437554e-08 9:0.99999999 20:0.29607843 21:0.0039215686 22:0.98999999 26:0.0099999999 27:0.059999999 28:0.66999999 29:1 30:0.070588235 31:0.069999999 32:0.089999999 33:0.089999999 35:0.76999999 37:0.0099999999 
0 0 0.050900808661447694 0.046116801741561839 21:0.0039215686 24:0.99999999 25:0.99999999 26:0.99999999 28:0.99999999 29:0.75294118 30:1 31:0.99999999 33:0.0099999999 34:0.059999999 37:0.38 38:0.52999999 
0 0 0 26.960082562735739 1:0.0018897858 2:3.5891207e-07 3:0.00079609658 24:0.99999999 25:0.99999999 26:0.99999999 29:0.18823529 30:0.0039215686 31:0.02 32:0.099999999 33:0.02 37:0.02 38:0.99999999 
0 0 0 13.87242470603984 2:3.8249024e-07 26:0.99999999 29:0.92156863 30:0.0039215686 32:0.17 33:0.29 
0 0 2.8707464673161334 0 2:9.3002763e-07 3:0.00053597236 9:0.99999999 20:0.0019607843 21:0.0019607843 22:0.5 23:0.5 26:0.99999999 29:0.5254902 30:1 31:0.99999999 33:0.0099999999 34:0.04 35:0.0099999999 37:0.13 38:0.079999999 
42.146804909876813 0 0 0 2:7.9903782e-07 9:0.99999999 13:0.0020512821 20:0.0019607843 21:0.0019607843 26:0.99999999 29:1 30:0.0078431373 31:0.0099999999 32:0.02 33:0.0099999999 
0 0 0.00072555373212375353 0 1:0.14327376 2:2.2608841e-06 3:0.0016935251 20:0.0019607843 24:0.5 25:0.99999999 26:0.5 27:0.99999999 29:0.082352941 30:0.015686275 31:0.19 32:0.14 33:0.05 37:0.19 38:0.99999999 
0 0 0 1024 2:1.9444127e-05 20:0.02745098 21:0.02745098 26:0.99999999 29:0.48235294 30:0.11372549 31:0.24 32:0.03 33:0.24 
0 0 1.8780261170173795 0 2:1.5433219e-05 20:0.031372549 21:0.031372549 26:0.99999999 29:1 30:0.090196078 31:0.089999999 32:0.069999999 33:0.089999999 35:0.84999999 
0 32.233162213001009 0 0 1:0.00023330689 2:3.6415166e-07 3:0.0004381346 9:0.99999999 26:0.99999999 29:0.0039215686 30:0.02745098 31:0.99999999 33:0.99999999 34:0.85999999 
-5.5355840997093946 1.2140820149778768 1.7804642645126523 1.8138310853225657 1:0.0022864075 2:1.6268934e-06 3:0.001622088 6:0.99999999 7:0.012987013 9:0.99999999 10:0.0056561086 11:0.99999999 13:0.014358974 14:0.025 26:0.99999999 29:1 30:0.015686275 31:0.02 32:0.02 
-1024 89.625893777901041 0 1.1109055047630179 3:0.0011057221 9:0.99999999 26:0.99999999 29:0.0039215686 30:0.31764706 31:0.99999999 33:0.99999999 34:0.02 
-1024 1024 701.31738313856204 0.77011020155202237 3:0.0011313462 9:0.99999999 20:0.0019607843 21:0.0019607843 26:0.99999999 29:0.0078431373 30:0.0078431373 31:0.99999999 33:0.99999999 
-2.7463843523718077 0.75517729037874237 0.90036772363221607 0.88006523080220733 1:0.0041761934 2:4.0842622e-06 3:0.00055421988 7:0.038961039 9:0.99999999 10:0.0045248869 11:0.99999999 14:0.025 26:0.99999999 29:0.0078431373 30:0.0078431373 31:0.99999999 33:0.5 
-1024 2.5498216880185587 0.75010180713191665 2.0360841230423588 1:0.016518128 2:4.5243879e-06 3:0.004674471 9:0.99999999 10:0.0067873303 13:0.0071794872 26:0.99999999 29:1 30:0.011764706 31:0.0099999999 32:0.02 
-703.59514000944012 0 1.1077934405061514 0.018349165238758628 1:0.00048994447 2:2.3316186e-07 3:6.697228e-05 7:0.012987013 9:0.99999999 14:0.025 26:0.99999999 29:1 30:0.0039215686 32:0.02 
-1.5951946735441349 0.31959771129263076 1.3092330892630395 0.4569157922808999 1:0.0026363679 2:1.6436601e-05 3:0.0032556293 7:0.064935065 9:0.99999999 10:0.0022624434 11:0.99999999 26:0.99999999 29:0.0039215686 30:0.0039215686 31:0.99999999 33:0.99999999 
-0 0.18359605812378604 0 0 1:0.0039428865 2:4.1052205e-06 3:0.00055460813 7:0.038961039 9:0.99999999 10:0.0045248869 11:0.99999999 14:0.025 26:0.99999999 29:0.0039215686 30:0.0039215686 31:0.99999999 33:0.99999999 
-0.6073943427243369 0 0 0.20895835345714148 1:0.0012365265 2:6.8848243e-06 3:0.00074931305 7:0.038961039 9:0.99999999 10:0.0011312217 11:0.99999999 26:0.99999999 29:0.0078431373 30:0.0078431373 31:0.99999999 33:0.5 
-121.56067354827012 3.7061346610627526 3.3241514057440917 3.8789976921638214 2:1.0479185e-08 20:0.0019607843 21:0.0019607843 26:0.99999999 29:0.0078431373 30:0.0078431373 31:0.99999999 33:0.5 
-4.2272623967122032 1.1584020801645993 1.0579939502010614 1.3307103846525148 3:0.00040222193 7:0.012987013 9:0.99999999 11:0.99999999 20:0.0058823529 21:0.0039215686 26:0.74999999 27:0.5 29:0.011764706 30:0.019607843 31:0.99999999 33:0.99999999 34:0.4 
-6.8463667182902448 -0.68852879203482831 1.2865163626418346 1.3858168520235425 1:0.35366992 2:9.1692865e-07 3:0.00023003522 7:0.077922078 9:0.99999999 19:0.99999999 21:0.0019607843 26:0.99999999 28:0.99999999 29:1 30:0.55686275 31:0.55999999 32:0.02 
-71.781717960862238 -0 0 0 1:4.6661378e-05 2:3.224969e-06 3:0.00047579437 7:0.36363636 9:0.99999999 19:0.99999999 26:0.99999999 29:0.82352941 30:0.14901961 31:0.18 32:0.02 37:0.0099999999 
-1024 -0 0 0 1:4.6661378e-05 2:3.0206249e-06 3:0.00047462964 7:0.36363636 9:0.99999999 19:0.99999999 26:0.99999999 29:0.87843137 30:0.20392157 31:0.23 32:0.02 37:0.0099999999 
-377.2966791102823 -0 0 0 2:8.7501191e-07 9:0.99999999 26:0.99999999 29:0.011764706 30:0.035294118 31:0.99999999 33:0.99999999 34:0.22 
-60.72854885886381 -0 0 0 1:0.1185199 2:2.7298276e-06 3:0.00044240529 7:0.038961039 9:0.99999999 19:0.99999999 26:0.99999999 29:1 30:0.08627451 31:0.089999999 32:0.02 35:0.13 
-1.1774045412332805 -0 0 0 2:3.2223493e-06 3:0.00047540613 7:0.36363636 9:0.99999999 19:0.99999999 26:0.99999999 29:0.67843137 30:0.0039215686 31:0.0099999999 32:0.03 33:0.0099999999 35:0.0099999999 37:0.0099999999 
-28.778642746148417 -0.72314995273754168 1.4787857759713647 1.3295928308785858 1:0.00074658205 2:2.724588e-07 3:8.7161026e-05 7:0.025974026 9:0.99999999 14:0.025 16:0.125 19:0.99999999 26:0.99999999 29:0.0039215686 30:0.0039215686 31:0.99999999 33:0.99999999 
-1024 -0 0 0 2:3.2983233e-06 3:0.00047618262 7:0.36363636 9:0.99999999 19:0.99999999 26:0.99999999 29:1 30:0.21568627 31:0.22 32:0.02 
-5.1557098573868503 -0.7289743983133834 1.3327097360578133 1.4935896997681446 2:8.7501191e-07 9:0.99999999 20:0.0019607843 21:0.0019607843 26:0.5 27:0.99999999 28:0.99999999 29:0.023529412 30:0.094117647 31:0.82999999 32:0.33 33:0.99999999 34:0.12 
-5.4168878779491108 -0.91282961433904342 1.5324681854118203 1.5094550070824813 1:0.016751435 2:3.6991521e-06 3:0.0049035357 7:0.19480519 9:0.99999999 10:0.042986425 11:0.99999999 13:0.055384615 14:0.1 15:0.99999999 16:0.25 26:0.99999999 29:0.0039215686 30:0.0039215686 31:0.99999999 33:0.99999999 
-1024 -0 0 0 1:4.6661378e-05 2:3.2144899e-06 3:0.00047540613 7:0.36363636 9:0.99999999 19:0.99999999 26:0.99999999 29:1 30:0.23529412 31:0.24 32:0.02 
-1.4672013917790239 -0 0 0.25192717533048625 2:6.4446985e-07 9:0.99999999 26:0.99999999 29:0.015686275 30:0.17254902 31:0.99999999 33:0.99999999 34:0.089999999 37:0.25 38:0.02 
-119.37592397173306 -0 0 0 2:8.7501191e-07 9:0.99999999 26:0.99999999 29:0.019607843 30:0.10588235 31:0.99999999 33:0.99999999 34:0.069999999 
-0 -0 0 0.32988039121195989 1:0.11819327 2:0.013449709 9:0.99999999 26:0.99999999 29:0.015686275 30:0.23529412 31:0.99999999 33:0.99999999 34:0.12 35:0.25 36:0.02 
-6.6481488397035253 -0.67993499127753376 1.2915146442380891 1.6801107811481961 2:6.4446985e-07 9:0.99999999 20:0.0019607843 26:0.5 27:0.99999999 29:1 30:0.3254902 31:0.33 32:0.069999999 33:0.35 35:0.02 36:0.05 
-1.3587128182492663 -0 0 0 1:0.00023330689 3:0.99976608 26:0.99999999 29:0.066666667 30:0.066666667 31:0.99999999 33:0.99999999 
-1024 -0 0 0 1:9.3322757e-05 2:3.2485472e-06 3:0.00047540613 7:0.36363636 9:0.99999999 19:0.99999999 26:0.99999999 29:0.83529412 30:0.16078431 31:0.19 32:0.02 37:0.0099999999 
-1024 -0 0 0 2:3.2066305e-06 3:0.00047579437 7:0.36363636 9:0.99999999 19:0.99999999 26:0.99999999 29:0.87058824 30:0.19607843 31:0.23 32:0.02 37:0.0099999999 
-1024 -0 0 0.6465469976712156 2:8.7501191e-07 9:0.99999999 26:0.99999999 29:0.011764706 30:0.035294118 31:0.99999999 33:0.99999999 34:0.44 
-16.452777417282196 -0.11949981851569018 0.92559069655887394 0.20108922506246907 1:0.11809995 2:0.013449709 7:0.038961039 9:0.99999999 26:0.99999999 29:1 30:0.27058824 31:0.27 32:0.079999999 33:0.32 35:0.0099999999 36:0.0099999999 
-846.1658800480576 -0 0 0 2:8.7501191e-07 9:0.99999999 20:0.0019607843 21:0.0019607843 26:0.99999999 29:1 30:0.33333333 31:0.33 32:0.069999999 33:0.35 35:0.0099999999 36:0.04 
-956.42139784969254 -7.9563457612614314 0 0 1:0.1179833 2:0.013454429 9:0.99999999 26:0.99999999 29:0.0039215686 30:0.0039215686 31:0.99999999 33:0.99999999 
-5.0311694568899412 -0.70445822074526154 1.3850029930864407 1.4119152460753641 2:1.336096e-07 3:0.001577634 7:0.025974026 9:0.99999999 11:0.99999999 16:0.125 21:0.0019607843 25:0.5 26:0.99999999 28:0.99999999 29:1 30:1 31:0.99999999 
-26.378427904635316 -0.71210006592319952 1.3819295805400422 1.4039856904995434 1:0.00027996827 2:1.336096e-07 3:0.001577634 7:0.025974026 9:0.99999999 11:0.99999999 16:0.125 26:0.99999999 29:1 30:0.96470588 31:0.95999999 32:0.0099999999 
-1024 -0 0 0 2:8.7501191e-07 9:0.99999999 26:0.99999999 29:0.043137255 30:0.043137255 31:0.99999999 33:0.99999999 
-2.9671613912332604 -0.33611093788956409 0.74717816134671189 0.91630577817744552 7:0.025974026 20:0.0058823529 21:0.24313725 22:0.5 23:0.74999999 25:0.04 26:0.99999999 28:0.36 29:0.039215686 30:0.039215686 31:0.99999999 33:0.79999999 35:0.5 36:0.5 
-5.2787492678372363 -0.74249539094062944 1.3486073250553947 1.4867075687154063 2:6.4446985e-07 9:0.99999999 22:0.99999999 23:0.99999999 26:0.99999999 29:0.0039215686 30:0.22352941 31:0.99999999 33:0.99999999 34:0.12 35:0.99999999 36:0.02 
-1024 -994.91788644045971 10.3654181240166 0 2:8.7501191e-07 9:0.99999999 20:0.0019607843 21:0.0019607843 26:0.99999999 29:0.015686275 30:0.015686275 31:0.99999999 33:0.99999999 
-0 -0.3329642061584635 0.46423302330636074 0.48836909669261802 2:9.4312661e-08 3:3.8242143e-05 9:0.99999999 14:0.025 19:0.99999999 26:0.99999999 29:1 30:0.0039215686 32:0.05 35:0.39 37:0.05 
-30.341812761075879 -0 0 0.30647940770415988 2:8.7501191e-07 9:0.99999999 20:0.0019607843 21:0.0019607843 26:0.99999999 29:0.023529412 30:0.14901961 31:0.66999999 32:0.33 33:0.66999999 34:0.16 
-1024 -0 0 0 2:3.224969e-06 3:0.00047579437 7:0.36363636 9:0.99999999 19:0.99999999 26:0.99999999 29:0.88627451 30:0.21176471 31:0.24 32:0.02 37:0.0099999999 
-15.959165153655501 -0.31642574698729337 0.3273494948616969 1.3224367984466774 1:9.3322757e-05 2:2.1796704e-06 9:0.99999999 21:0.0019607843 26:0.99999999 28:0.99999999 29:0.066666667 30:0.20392157 31:0.99999999 33:0.99999999 34:0.12 36:0.02 
-6.6555461921824666 -0.55811286226027068 1.1372147977124432 1.1520633600045052 2:3.3009431e-07 3:3.4747937e-05 7:0.012987013 8:0.25 20:0.0019607843 21:0.0019607843 24:0.99999999 25:0.99999999 26:0.99999999 29:0.18431373 30:0.18431373 31:0.99999999 33:0.02 35:0.04 36:0.04 37:0.95999999 38:0.95999999 
-0 -0.38979697961620735 0.613465528787699 0.69014210831138478 1:0.0036395875 2:2.4888063e-06 3:0.00049520663 7:0.23376623 9:0.99999999 14:0.525 19:0.99999999 26:0.99999999 29:0.85490196 30:0.0039215686 32:0.03 35:0.0099999999 37:0.069999999 
-1024 -0 0 0 1:0.00027996827 2:1.8456464e-05 9:0.99999999 20:0.0019607843 21:0.0019607843 26:0.99999999 29:0.0078431373 30:0.18039216 31:0.99999999 33:0.99999999 34:0.04 36:0.02 
-0 -0.28827046528582556 0.3252814023022515 0.38281606608509916 1:0.35387989 2:9.5622559e-07 3:0.00023333531 7:0.064935065 9:0.99999999 19:0.99999999 26:0.99999999 29:1 30:0.011764706 31:0.0099999999 32:0.02 35:0.21 
-67.166365697682224 -0 0 0 2:3.135896e-06 3:0.00047501788 7:0.36363636 9:0.99999999 19:0.99999999 26:0.99999999 29:1 30:0.26666667 31:0.27 32:0.02 
-452.62849328708296 -1.5202446830356353 0.015414979247250313 0.97503235622431461 1:0.00027996827 2:1.8456464e-05 9:0.99999999 26:0.99999999 29:1 30:0.24313725 31:0.24 32:0.13 33:0.34 35:0.02 36:0.02 
-3.9204099804688317 -0.55532646011874776 1.0346713486452388 1.1886524526505522 2:3.2747452e-07 3:3.4747937e-05 7:0.012987013 8:0.25 20:0.0019607843 21:0.0019607843 24:0.99999999 25:0.99999999 26:0.99999999 29:0.011764706 30:0.011764706 31:0.99999999 33:0.33 35:0.33 36:0.33 37:0.66999999 38:0.66999999 
-1024 -0 0 0 2:6.4446985e-07 9:0.99999999 26:0.99999999 29:0.0039215686 30:0.047058824 31:0.99999999 33:0.99999999 34:0.17 
-0 -0 15.751529233622049 0 1:0.11812328 2:0.013449709 7:0.064935065 9:0.99999999 26:0.99999999 29:0.015686275 30:0.047058824 31:0.99999999 33:0.99999999 34:0.17 
-0 -0.38445783539682388 0.7358533138758524 0.79643797255222604 1:2.3330689e-05 2:3.2171097e-06 3:0.00047540613 7:0.36363636 9:0.99999999 19:0.99999999 26:0.99999999 29:0.41960784 30:0.019607843 31:0.05 32:0.059999999 33:0.0099999999 35:0.02 37:0.069999999 
-1024 -0 0 0 2:8.7501191e-07 9:0.99999999 20:0.0019607843 21:0.0019607843 26:0.99999999 29:0.047058824 30:0.047058824 31:0.99999999 33:0.99999999 
-1024 -0 0 0 2:8.7501191e-07 9:0.99999999 26:0.99999999 29:0.011764706 30:0.02745098 31:0.99999999 33:0.99999999 34:0.29 
-35.232393574775507 -0.42094943381205102 0.9032921291810323 0.93217917336318379 1:4.6661378e-05 2:3.1987711e-06 3:0.00047540613 7:0.36363636 9:0.99999999 19:0.99999999 26:0.99999999 29:1 30:0.54509804 31:0.54999999 32:0.02 
-5.617498385828811 -1.8744408416510914 1.5582533755862502 1.5707985648734646 1:0.00095655826 2:3.494808e-06 3:3.1447853e-05 26:0.99999999 29:0.019607843 30:0.019607843 31:0.99999999 33:0.2 35:0.4 36:0.4 
-4.3251152242434134 -0.60288544843020375 2.6623162591709999 1.2244702518126636 2:3.9087358e-06 3:0.12602164 22:0.99999999 23:0.99999999 26:0.99999999 29:0.043137255 30:0.043137255 31:0.99999999 33:0.089999999 35:0.54999999 36:0.54999999 
-1.6718505283429348 -0 0 0 2:3.3009431e-07 3:3.4747937e-05 7:0.012987013 8:0.25 20:0.0019607843 21:0.0019607843 24:0.99999999 25:0.99999999 26:0.99999999 29:0.074509804 30:0.074509804 31:0.99999999 33:0.05 35:0.05 36:0.05 37:0.94999999 38:0.94999999 
-1024 -0 0 0 2:8.7501191e-07 9:0.99999999 20:0.0019607843 21:0.0019607843 26:0.99999999 29:0.0078431373 30:0.16470588 31:0.99999999 33:0.99999999 34:0.069999999 
-1024 -0 0 0 2:8.7501191e-07 9:0.99999999 20:0.0019607843 21:0.0019607843 26:0.99999999 29:0.015686275 30:0.17254902 31:0.99999999 33:0.99999999 34:0.069999999 
-811.2311321211439 -0 0 0 1:2.3330689e-05 2:2.981328e-06 3:0.00047424139 7:0.36363636 9:0.99999999 19:0.99999999 26:0.99999999 29:1 30:0.2745098 31:0.27 32:0.02 
-1024 -0 0 0.71194213601657819 2:8.7501191e-07 9:0.99999999 20:0.0019607843 21:0.0019607843 26:0.99999999 29:0.88627451 30:0.34117647 31:0.37 32:0.02 33:0.37 34:0.02 
-77.274890878891313 -2.5762867168328061 62.529575721370215 61.358936358427968 3:0.090843142 26:0.99999999 29:0.0078431373 30:0.0078431373 31:0.99999999 33:0.99999999 
-1024 -0 522.15747011566771 0 2:8.7501191e-07 9:0.99999999 26:0.99999999 29:0.015686275 30:0.015686275 31:0.99999999 33:0.99999999 
-6.5872336262655979 -0.81544561703088458 4.0348994457086471 3.6025890343479308 1:0.0069758761 2:2.9341717e-07 3:0.0001644218 26:0.99999999 29:1 30:0.18823529 31:0.19 32:0.02 35:0.22 36:0.31 
