svm_type c_svc
kernel_type rbf
gamma 1
nr_class 2
total_sv 759
rho 1.3971288197773837
label 1 -1
nr_sv 373 386
SV
2.3112461771903021 1:0.0022864075 2:1.6268934e-06 3:0.001622088 6:0.99999999 7:0.012987013 9:0.99999999 10:0.0056561086 11:0.99999999 13:0.014358974 14:0.025 20:0.0019448806 21:0.0019555812 26:0.99999999 29:1 30:0.015686275 31:0.02 32:0.02 
256 3:0.0011057221 9:0.99999999 20:0.0019448806 21:0.0019555812 26:0.99999999 29:0.0039215686 30:0.31764706 31:0.99999999 33:0.99999999 34:0.02 
256 3:0.0011313462 9:0.99999999 20:0.0039018514 21:0.003912531 26:0.99999999 29:0.0078431373 30:0.0078431373 31:0.99999999 33:0.99999999 
256 1:0.016518128 2:4.5243879e-06 3:0.004674471 9:0.99999999 10:0.0067873303 13:0.0071794872 20:0.0019448806 21:0.0019555812 26:0.99999999 29:1 30:0.011764706 31:0.0099999999 32:0.02 
256 1:0.00048994447 2:2.3316186e-07 3:6.697228e-05 7:0.012987013 9:0.99999999 14:0.025 20:0.0019448806 21:0.0019555812 26:0.99999999 29:1 30:0.0039215686 32:0.02 
1.2773866657330959 1:0.0039428865 2:4.1052205e-06 3:0.00055460813 7:0.038961039 9:0.99999999 10:0.0045248869 11:0.99999999 14:0.025 20:0.0019448806 21:0.0019555812 26:0.99999999 29:0.0039215686 30:0.0039215686 31:0.99999999 33:0.99999999 
256 2:1.0479185e-08 20:0.0039018514 21:0.003912531 26:0.99999999 29:0.0078431373 30:0.0078431373 31:0.99999999 33:0.5 
1.4447782055939919 3:0.00040222193 7:0.012987013 9:0.99999999 11:0.99999999 20:0.0078157931 21:0.0058694809 26:0.74999999 27:0.5 29:0.011764706 30:0.019607843 31:0.99999999 33:0.99999999 34:0.4 
4.5641852438557375 1:0.35366992 2:9.1692865e-07 3:0.00023003522 7:0.077922078 9:0.99999999 19:0.99999999 20:0.0019448806 21:0.003912531 26:0.99999999 28:0.99999999 29:1 30:0.55686275 31:0.55999999 32:0.02 
256 2:3.2747452e-06 3:0.00047579437 7:0.36363636 9:0.99999999 19:0.99999999 20:0.0019448806 21:0.0019555812 26:0.99999999 29:0.92941176 30:0.25490196 31:0.27 32:0.02 37:0.0099999999 
256 2:6.4446985e-07 9:0.99999999 20:0.0019448806 21:0.0019555812 26:0.99999999 29:0.019607843 30:0.062745098 31:0.99999999 33:0.99999999 34:0.12 
256 1:4.6661378e-05 2:3.224969e-06 3:0.00047579437 7:0.36363636 9:0.99999999 19:0.99999999 20:0.0019448806 21:0.0019555812 26:0.99999999 29:0.82352941 30:0.14901961 31:0.18 32:0.02 37:0.0099999999 
256 1:4.6661378e-05 2:3.0206249e-06 3:0.00047462964 7:0.36363636 9:0.99999999 19:0.99999999 20:0.0019448806 21:0.0019555812 26:0.99999999 29:0.87843137 30:0.20392157 31:0.23 32:0.02 37:0.0099999999 
56.58047505797154 1:0.1185199 2:2.7298276e-06 3:0.00044240529 7:0.038961039 9:0.99999999 19:0.99999999 20:0.0019448806 21:0.0019555812 26:0.99999999 29:1 30:0.08627451 31:0.089999999 32:0.02 35:0.13 
110.38301025765959 1:2.3330689e-05 2:3.0651615e-06 3:0.00047501788 7:0.36363636 9:0.99999999 19:0.99999999 20:0.0019448806 21:0.0019555812 26:0.99999999 29:0.47058824 30:0.070588235 31:0.15 32:0.05 33:0.0099999999 35:0.02 37:0.069999999 
165.36557465689802 2:3.2223493e-06 3:0.00047540613 7:0.36363636 9:0.99999999 19:0.99999999 20:0.0019448806 21:0.0019555812 26:0.99999999 29:0.67843137 30:0.0039215686 31:0.0099999999 32:0.03 33:0.0099999999 35:0.0099999999 37:0.0099999999 
67.710191988541709 1:0.00074658205 2:2.724588e-07 3:8.7161026e-05 7:0.025974026 9:0.99999999 14:0.025 16:0.125 19:0.99999999 20:0.0019448806 21:0.0019555812 26:0.99999999 29:0.0039215686 30:0.0039215686 31:0.99999999 33:0.99999999 
256 2:3.2983233e-06 3:0.00047618262 7:0.36363636 9:0.99999999 19:0.99999999 20:0.0019448806 21:0.0019555812 26:0.99999999 29:1 30:0.21568627 31:0.22 32:0.02 
2.4203384822175971 2:8.7501191e-07 9:0.99999999 20:0.0039018514 21:0.003912531 26:0.5 27:0.99999999 28:0.99999999 29:0.023529412 30:0.094117647 31:0.82999999 32:0.33 33:0.99999999 34:0.12 
0.71794451221793976 1:0.016751435 2:3.6991521e-06 3:0.0049035357 7:0.19480519 9:0.99999999 10:0.042986425 11:0.99999999 13:0.055384615 14:0.1 15:0.99999999 16:0.25 20:0.0019448806 21:0.0019555812 26:0.99999999 29:0.0039215686 30:0.0039215686 31:0.99999999 33:0.99999999 
256 1:4.6661378e-05 2:3.2144899e-06 3:0.00047540613 7:0.36363636 9:0.99999999 19:0.99999999 20:0.0019448806 21:0.0019555812 26:0.99999999 29:1 30:0.23529412 31:0.24 32:0.02 
256 2:8.7501191e-07 9:0.99999999 20:0.0039018514 21:0.003912531 26:0.99999999 29:0.054901961 30:0.098039216 31:0.99999999 33:0.99999999 34:0.079999999 
2.8591292276121201 2:6.4446985e-07 9:0.99999999 20:0.0019448806 21:0.0019555812 26:0.99999999 29:0.015686275 30:0.17254902 31:0.99999999 33:0.99999999 34:0.089999999 37:0.25 38:0.02 
256 2:8.7501191e-07 9:0.99999999 20:0.0039018514 21:0.003912531 26:0.99999999 29:0.035294118 30:0.18039216 31:0.99999999 33:0.99999999 34:0.069999999 36:0.02 
256 2:8.7501191e-07 9:0.99999999 20:0.0019448806 21:0.0019555812 26:0.99999999 29:0.019607843 30:0.10588235 31:0.99999999 33:0.99999999 34:0.069999999 
203.77102467761011 2:8.7501191e-07 9:0.99999999 20:0.0039018514 21:0.003912531 26:0.99999999 29:0.023529412 30:0.21176471 31:0.99999999 33:0.99999999 34:0.089999999 
16.516968212092774 2:6.4446985e-07 9:0.99999999 20:0.0039018514 21:0.0019555812 26:0.5 27:0.99999999 29:1 30:0.3254902 31:0.33 32:0.069999999 33:0.35 35:0.02 36:0.05 
1.0242073644259699 1:0.00023330689 3:0.99976608 20:0.0019448806 21:0.0019555812 26:0.99999999 29:0.066666667 30:0.066666667 31:0.99999999 33:0.99999999 
256 1:9.3322757e-05 2:3.2485472e-06 3:0.00047540613 7:0.36363636 9:0.99999999 19:0.99999999 20:0.0019448806 21:0.0019555812 26:0.99999999 29:0.83529412 30:0.16078431 31:0.19 32:0.02 37:0.0099999999 
256 2:8.7501191e-07 9:0.99999999 20:0.0019448806 21:0.0019555812 26:0.99999999 29:0.031372549 30:0.17647059 31:0.99999999 33:0.99999999 34:0.069999999 36:0.02 
256 2:3.2066305e-06 3:0.00047579437 7:0.36363636 9:0.99999999 19:0.99999999 20:0.0019448806 21:0.0019555812 26:0.99999999 29:0.87058824 30:0.19607843 31:0.23 32:0.02 37:0.0099999999 
256 2:8.7501191e-07 9:0.99999999 20:0.0039018514 21:0.003912531 26:0.99999999 29:0.015686275 30:0.18823529 31:0.99999999 33:0.99999999 34:0.079999999 
256 2:8.7501191e-07 9:0.99999999 20:0.0019448806 21:0.0019555812 26:0.99999999 29:0.011764706 30:0.035294118 31:0.99999999 33:0.99999999 34:0.44 
256 2:8.7501191e-07 9:0.99999999 20:0.0039018514 21:0.003912531 26:0.99999999 29:0.0078431373 30:0.058823529 31:0.99999999 33:0.99999999 34:0.13 
10.219103487258561 1:0.11809995 2:0.013449709 7:0.038961039 9:0.99999999 20:0.0019448806 21:0.0019555812 26:0.99999999 29:1 30:0.27058824 31:0.27 32:0.079999999 33:0.32 35:0.0099999999 36:0.0099999999 
256 2:8.7501191e-07 9:0.99999999 20:0.0039018514 21:0.003912531 26:0.99999999 29:1 30:0.33333333 31:0.33 32:0.069999999 33:0.35 35:0.0099999999 36:0.04 
256 1:0.1179833 2:0.013454429 9:0.99999999 20:0.0019448806 21:0.0019555812 26:0.99999999 29:0.0039215686 30:0.0039215686 31:0.99999999 33:0.99999999 
2.1057723514245428 2:1.336096e-07 3:0.001577634 7:0.025974026 9:0.99999999 11:0.99999999 16:0.125 20:0.0019448806 21:0.003912531 25:0.5 26:0.99999999 28:0.99999999 29:1 30:1 31:0.99999999 
217.17045914077312 2:8.7501191e-07 9:0.99999999 20:0.0039018514 21:0.003912531 26:0.99999999 29:0.035294118 30:0.14117647 31:0.99999999 33:0.99999999 34:0.079999999 
44.431024768659555 1:0.00027996827 2:1.336096e-07 3:0.001577634 7:0.025974026 9:0.99999999 11:0.99999999 16:0.125 20:0.0019448806 21:0.0019555812 26:0.99999999 29:1 30:0.96470588 31:0.95999999 32:0.0099999999 
256 2:8.7501191e-07 9:0.99999999 20:0.0019448806 21:0.0019555812 26:0.99999999 29:0.043137255 30:0.043137255 31:0.99999999 33:0.99999999 
2.0593303983611433 7:0.025974026 20:0.0078157931 21:0.24461736 22:0.5 23:0.74999999 25:0.04 26:0.99999999 28:0.36 29:0.039215686 30:0.039215686 31:0.99999999 33:0.79999999 35:0.5 36:0.5 
2.3189489516469131 2:6.4446985e-07 9:0.99999999 20:0.0019448806 21:0.0019555812 22:0.99999999 23:0.99999999 26:0.99999999 29:0.0039215686 30:0.22352941 31:0.99999999 33:0.99999999 34:0.12 35:0.99999999 36:0.02 
256 2:8.7501191e-07 9:0.99999999 20:0.0039018514 21:0.003912531 26:0.99999999 29:0.015686275 30:0.015686275 31:0.99999999 33:0.99999999 
256 2:8.7501191e-07 9:0.99999999 20:0.0039018514 21:0.003912531 26:0.99999999 29:0.023529412 30:0.14901961 31:0.66999999 32:0.33 33:0.66999999 34:0.16 
256 2:3.224969e-06 3:0.00047579437 7:0.36363636 9:0.99999999 19:0.99999999 20:0.0019448806 21:0.0019555812 26:0.99999999 29:0.88627451 30:0.21176471 31:0.24 32:0.02 37:0.0099999999 
21.521446243279694 1:9.3322757e-05 2:2.1796704e-06 9:0.99999999 20:0.0019448806 21:0.003912531 26:0.99999999 28:0.99999999 29:0.066666667 30:0.20392157 31:0.99999999 33:0.99999999 34:0.12 36:0.02 
16.193011506021406 2:3.3009431e-07 3:3.4747937e-05 7:0.012987013 8:0.25 20:0.0039018514 21:0.003912531 24:0.99999999 25:0.99999999 26:0.99999999 29:0.18431373 30:0.18431373 31:0.99999999 33:0.02 35:0.04 36:0.04 37:0.95999999 38:0.95999999 
256 1:0.00027996827 2:1.8456464e-05 9:0.99999999 20:0.0039018514 21:0.003912531 26:0.99999999 29:0.0078431373 30:0.18039216 31:0.99999999 33:0.99999999 34:0.04 36:0.02 
256 2:3.2040107e-06 3:0.00047579437 7:0.36363636 9:0.99999999 19:0.99999999 20:0.0019448806 21:0.0019555812 26:0.99999999 29:0.80392157 30:0.12941176 31:0.16 32:0.02 37:0.0099999999 
256 2:3.135896e-06 3:0.00047501788 7:0.36363636 9:0.99999999 19:0.99999999 20:0.0019448806 21:0.0019555812 26:0.99999999 29:1 30:0.26666667 31:0.27 32:0.02 
256 1:0.00027996827 2:1.8456464e-05 9:0.99999999 20:0.0019448806 21:0.0019555812 26:0.99999999 29:1 30:0.24313725 31:0.24 32:0.13 33:0.34 35:0.02 36:0.02 
256 1:2.3330689e-05 2:3.3088025e-06 3:0.00047579437 7:0.36363636 9:0.99999999 19:0.99999999 20:0.0019448806 21:0.0019555812 26:0.99999999 29:0.94901961 30:0.2745098 31:0.29 32:0.02 37:0.0099999999 
256 2:8.7501191e-07 9:0.99999999 20:0.0039018514 21:0.003912531 26:0.99999999 29:0.047058824 30:0.047058824 31:0.99999999 33:0.99999999 
235.17759630344659 2:8.7501191e-07 9:0.99999999 20:0.0019448806 21:0.0019555812 26:0.99999999 29:0.011764706 30:0.02745098 31:0.99999999 33:0.99999999 34:0.29 
4.9949556820605894 1:0.00095655826 2:3.494808e-06 3:3.1447853e-05 20:0.0019448806 21:0.0019555812 26:0.99999999 29:0.019607843 30:0.019607843 31:0.99999999 33:0.2 35:0.4 36:0.4 
0.65358162145631149 2:3.9087358e-06 3:0.12602164 20:0.0019448806 21:0.0019555812 22:0.99999999 23:0.99999999 26:0.99999999 29:0.043137255 30:0.043137255 31:0.99999999 33:0.089999999 35:0.54999999 36:0.54999999 
1.1086540799124263 2:3.3009431e-07 3:3.4747937e-05 7:0.012987013 8:0.25 20:0.0039018514 21:0.003912531 24:0.99999999 25:0.99999999 26:0.99999999 29:0.074509804 30:0.074509804 31:0.99999999 33:0.05 35:0.05 36:0.05 37:0.94999999 38:0.94999999 
256 2:3.1725731e-06 3:0.00047540613 7:0.36363636 9:0.99999999 19:0.99999999 20:0.0019448806 21:0.0019555812 26:0.99999999 29:0.90980392 30:0.23529412 31:0.26 32:0.02 37:0.0099999999 
256 2:8.7501191e-07 9:0.99999999 20:0.0039018514 21:0.003912531 26:0.99999999 29:0.0078431373 30:0.16470588 31:0.99999999 33:0.99999999 34:0.069999999 
256 2:8.7501191e-07 9:0.99999999 20:0.0039018514 21:0.003912531 26:0.99999999 29:0.015686275 30:0.17254902 31:0.99999999 33:0.99999999 34:0.069999999 
256 1:2.3330689e-05 2:2.981328e-06 3:0.00047424139 7:0.36363636 9:0.99999999 19:0.99999999 20:0.0019448806 21:0.0019555812 26:0.99999999 29:1 30:0.2745098 31:0.27 32:0.02 
49.95356200680834 1:4.6661378e-05 2:3.1909117e-06 3:0.00047501788 7:0.36363636 9:0.99999999 19:0.99999999 20:0.0019448806 21:0.0019555812 26:0.99999999 29:1 30:0.27843137 31:0.28 32:0.02 
256 2:8.7501191e-07 9:0.99999999 20:0.0039018514 21:0.003912531 26:0.99999999 29:0.88627451 30:0.34117647 31:0.37 32:0.02 33:0.37 34:0.02 
25.15460162229169 3:0.090843142 20:0.0019448806 21:0.0019555812 26:0.99999999 29:0.0078431373 30:0.0078431373 31:0.99999999 33:0.99999999 
256 2:8.7501191e-07 9:0.99999999 20:0.0019448806 21:0.0019555812 26:0.99999999 29:0.015686275 30:0.015686275 31:0.99999999 33:0.99999999 
97.429680106406238 1:0.0069758761 2:2.9341717e-07 3:0.0001644218 20:0.0019448806 21:0.0019555812 26:0.99999999 29:1 30:0.18823529 31:0.19 32:0.02 35:0.22 36:0.31 
1.3371285363005962 20:0.0039018514 21:0.24070346 22:0.99999999 23:0.75999999 25:0.04 26:0.99999999 28:0.37 29:0.031372549 30:0.031372549 31:0.99999999 33:0.74999999 35:0.61999999 36:0.61999999 
256 1:4.6661378e-05 2:3.3140421e-06 3:0.00047579437 7:0.36363636 9:0.99999999 19:0.99999999 20:0.0019448806 21:0.0019555812 26:0.99999999 29:1 30:0.22745098 31:0.23 32:0.02 
137.45277213193799 1:0.00027996827 2:1.8456464e-05 9:0.99999999 20:0.0039018514 21:0.003912531 26:0.99999999 29:0.0078431373 30:0.050980392 31:0.99999999 33:0.99999999 34:0.15 
168.23647953777004 1:0.00027996827 2:1.8456464e-05 9:0.99999999 20:0.0058588223 21:0.003912531 26:0.66999999 27:0.66999999 29:1 30:0.3254902 31:0.33 32:0.069999999 33:0.35 35:0.02 36:0.05 
256 2:6.4446985e-07 9:0.99999999 20:0.0019448806 21:0.0019555812 26:0.99999999 29:0.0039215686 30:0.18039216 31:0.99999999 33:0.99999999 34:0.04 36:0.02 
256 2:8.7501191e-07 9:0.99999999 20:0.0039018514 21:0.003912531 26:0.99999999 29:0.0078431373 30:0.054901961 31:0.99999999 33:0.99999999 34:0.43 
10.345710587431221 2:8.7501191e-07 9:0.99999999 20:0.0019448806 21:0.0019555812 26:0.99999999 29:0.019607843 30:0.0039215686 31:0.2 32:0.4 33:0.99999999 
256 2:8.7501191e-07 9:0.99999999 20:0.0019448806 21:0.0019555812 26:0.99999999 29:0.011764706 30:0.16862745 31:0.99999999 33:0.99999999 34:0.069999999 
242.16675301561878 2:3.1699533e-06 3:0.00047501788 7:0.36363636 9:0.99999999 19:0.99999999 20:0.0019448806 21:0.0019555812 26:0.99999999 29:1 30:0.17254902 31:0.17 32:0.02 35:0.05 
256 2:0.00014288368 3:0.0016139349 7:0.025974026 9:0.99999999 10:0.0011312217 20:0.0019448806 21:0.0019555812 26:0.99999999 29:0.98431373 30:0.98431373 31:0.99999999 37:0.02 38:0.02 
256 2:2.7036296e-06 20:0.95107573 21:0.95107625 26:0.99999999 29:1 30:1 31:0.99999999 33:0.99999999 
256 2:0.00014288368 3:0.0016139349 7:0.025974026 9:0.99999999 10:0.0011312217 20:0.0078157931 21:0.0078264307 26:0.99999999 29:0.015686275 30:0.015686275 31:0.99999999 33:0.25 
256 2:1.362294e-06 20:0.55185368 21:0.55185849 26:0.99999999 29:1 30:1 31:0.99999999 33:0.99999999 
256 2:1.477565e-06 20:0.0019448806 21:0.0019555812 26:0.99999999 29:0.0039215686 30:0.0039215686 31:0.99999999 33:0.99999999 
256 2:1.362294e-06 20:0.70058346 21:0.70058667 26:0.99999999 29:1 30:1 31:0.99999999 33:0.99999999 
1.0179652550310705 20:0.099793422 21:0.0058694809 22:0.99999999 23:0.66999999 26:0.04 27:0.099999999 28:0.66999999 29:0.98039216 30:0.023529412 31:0.0099999999 32:0.059999999 34:0.33 35:0.99999999 36:0.33 
256 2:0.00014288368 3:0.0016139349 7:0.025974026 9:0.99999999 10:0.0011312217 20:0.0039018514 21:0.003912531 26:0.99999999 29:0.99607843 30:0.99607843 31:0.99999999 37:0.02 38:0.02 
256 2:0.00014288368 3:0.0016139349 7:0.025974026 9:0.99999999 10:0.0011312217 20:0.0058588223 21:0.0058694809 26:0.99999999 29:0.050980392 30:0.050980392 31:0.99999999 33:0.079999999 
256 2:2.7036296e-06 20:0.69275558 21:0.69275887 26:0.99999999 29:1 30:1 31:0.99999999 33:0.99999999 
256 2:0.00014288368 3:0.001614129 9:0.99999999 20:0.0039018514 21:0.003912531 22:0.5 23:0.5 26:0.99999999 29:1 30:1 31:0.99999999 37:0.04 38:0.04 
256 2:0.00014288368 3:0.0016139349 7:0.025974026 9:0.99999999 10:0.0011312217 20:0.0039018514 21:0.003912531 26:0.99999999 29:0.96470588 30:0.96470588 31:0.99999999 37:0.02 38:0.02 
256 2:2.7036296e-06 20:0.60860584 21:0.60861003 26:0.99999999 29:1 30:1 31:0.99999999 33:0.99999999 
1.7042195659162622 20:0.3424578 21:0.01565423 22:0.99999999 23:0.12 26:0.0099999999 27:0.069999999 28:0.25 29:1 30:0.0039215686 32:0.069999999 35:0.99999999 36:0.99999999 
256 2:2.7036296e-06 20:0.87475387 21:0.87475521 26:0.99999999 29:1 30:1 31:0.99999999 33:0.99999999 
256 2:2.7036296e-06 20:0.94911876 21:0.9491193 26:0.99999999 29:1 30:1 31:0.99999999 33:0.99999999 
256 2:1.362294e-06 20:0.53424094 21:0.53424594 26:0.99999999 29:1 30:1 31:0.99999999 33:0.99999999 
66.033558754964304 2:0.00014288368 3:0.0016139349 9:0.99999999 20:0.011729735 21:0.01369728 24:0.17 25:0.29 26:0.99999999 28:0.29 29:1 30:1 31:0.99999999 37:0.04 38:0.04 
2.7987603978601898 2:3.8772983e-06 5:0.33333333 20:0.0039018514 21:0.003912531 26:0.99999999 29:0.019607843 30:0.60784314 31:0.79999999 32:0.4 33:0.79999999 34:0.0099999999 35:0.2 
256 2:1.362294e-06 20:0.6849277 21:0.68493108 26:0.99999999 29:1 30:1 31:0.99999999 33:0.99999999 
256 2:1.362294e-06 20:0.021514589 21:0.02152508 26:0.99999999 29:1 30:1 31:0.99999999 33:0.99999999 
0.32583923434062767 20:0.20742682 21:0.023482029 22:0.99999999 23:0.99999999 26:0.11 27:0.069999999 29:0.015686275 30:0.0078431373 31:0.5 32:0.74999999 33:0.25 35:0.99999999 36:0.99999999 
221.03064116926308 2:2.7036296e-06 20:0.8727969 21:0.87279826 26:0.99999999 29:1 30:1 31:0.99999999 33:0.99999999 
256 2:1.362294e-06 20:0.66535799 21:0.66536158 26:0.99999999 29:1 30:1 31:0.99999999 33:0.99999999 
44.10416121819032 2:2.7036296e-06 20:0.043041268 21:0.043051528 26:0.99999999 29:1 30:0.08627451 31:0.089999999 32:0.02 33:0.089999999 
256 2:1.362294e-06 20:0.55968156 21:0.55968629 26:0.99999999 29:1 30:1 31:0.99999999 33:0.99999999 
0.24447480376672912 2:3.8772983e-06 5:0.33333333 20:0.0039018514 21:0.0078264307 26:0.99999999 28:0.5 29:0.019607843 30:0.59215686 31:0.79999999 32:0.4 33:0.79999999 34:0.04 35:0.2 
256 2:2.7036296e-06 20:0.71428226 21:0.71428532 26:0.99999999 29:1 30:1 31:0.99999999 33:0.99999999 
256 2:0.00014288368 3:0.0016139349 7:0.025974026 9:0.99999999 10:0.0011312217 20:0.011729735 21:0.01174033 26:0.99999999 29:1 30:1 31:0.99999999 35:0.0099999999 36:0.0099999999 37:0.02 38:0.02 
0.39612585824988905 20:0.19764196 21:0.003912531 24:0.99999999 25:0.99999999 26:0.02 27:0.069999999 29:0.0078431373 30:0.0078431373 31:0.99999999 33:0.5 37:0.99999999 38:0.99999999 
125.34899146553758 2:7.6498047e-05 3:0.00056683785 7:0.012987013 9:0.99999999 20:0.0078157931 21:0.0078264307 24:0.74999999 25:0.74999999 26:0.99999999 29:1 30:1 31:0.99999999 37:0.04 38:0.04 
256 2:1.362294e-06 20:0.031299443 21:0.031309829 26:0.99999999 29:1 30:1 31:0.99999999 33:0.99999999 
256 2:1.362294e-06 20:0.71036832 21:0.71037142 26:0.99999999 29:1 30:1 31:0.99999999 33:0.99999999 
256 2:2.7036296e-06 20:0.033256414 21:0.033266779 26:0.99999999 29:1 30:0.066666667 31:0.069999999 32:0.02 33:0.069999999 
0.37141165400253834 20:0.011729735 21:0.01174033 22:0.99999999 23:0.99999999 26:0.99999999 29:0.25882353 30:0.047058824 31:0.089999999 32:0.059999999 33:0.02 34:0.17 35:0.99999999 36:0.5 
256 2:2.7036296e-06 20:0.68884164 21:0.68884498 26:0.99999999 29:1 30:1 31:0.99999999 33:0.99999999 
2.5002034377766336 2:2.7036296e-06 20:0.091965538 21:0.091975274 26:0.99999999 29:0.94117647 30:0.57254902 31:0.60999999 32:0.03 33:0.60999999 35:0.0099999999 37:0.26 
186.4806654879483 2:0.00014288368 3:0.0016139349 7:0.025974026 9:0.99999999 10:0.0011312217 20:0.0019448806 21:0.003912531 25:0.5 26:0.99999999 28:0.99999999 29:0.70980392 30:0.70980392 31:0.99999999 33:0.0099999999 37:0.0099999999 38:0.0099999999 
0.03892001588190621 20:0.0039018514 21:0.0078264307 22:0.99999999 23:0.5 26:0.99999999 28:0.74999999 29:0.56470588 30:0.49803922 31:0.43 32:0.0099999999 33:0.0099999999 34:0.02 35:0.98999999 36:0.49 
256 2:2.7036296e-06 20:0.0019448806 21:0.0019555812 26:0.99999999 29:1 30:1 31:0.99999999 33:0.99999999 
176.69981883448091 2:1.362294e-06 20:0.054783093 21:0.054793227 26:0.99999999 29:1 30:1 31:0.99999999 33:0.99999999 
256 2:0.00014288368 3:0.0016139349 7:0.025974026 9:0.99999999 10:0.0011312217 20:0.0019448806 21:0.0019555812 26:0.99999999 29:0.0039215686 30:0.0039215686 31:0.99999999 33:0.99999999 
256 2:1.362294e-06 20:0.015643676 21:0.01565423 26:0.99999999 29:1 30:1 31:0.99999999 33:0.99999999 
9.73558062823626 2:7.3354292e-08 5:0.33333333 20:0.0019448806 21:0.0019555812 26:0.99999999 29:1 30:0.0039215686 32:0.0099999999 
0.0028402994686056119 20:0.57338036 21:0.0019555812 22:0.99999999 23:0.99999999 27:0.04 29:1 30:0.0039215686 32:0.05 35:0.99999999 36:0.99999999 
256 2:2.7036296e-06 20:0.68688467 21:0.68688803 26:0.99999999 29:1 30:1 31:0.99999999 33:0.99999999 
256 2:1.362294e-06 20:0.66144405 21:0.66144768 26:0.99999999 29:1 30:1 31:0.99999999 33:0.99999999 
6.6700184280895405 2:3.8772983e-06 5:0.33333333 20:0.0039018514 21:0.0078264307 26:0.99999999 28:0.5 29:0.015686275 30:0.59215686 31:0.99999999 33:0.99999999 34:0.05 
38.225532554239393 2:0.00014288368 3:0.0016139349 7:0.025974026 9:0.99999999 10:0.0011312217 20:0.0039018514 21:0.0058694809 25:0.33 26:0.99999999 28:0.66999999 29:0.17647059 30:0.17647059 31:0.99999999 33:0.02 
256 2:1.362294e-06 20:0.029342472 21:0.029352879 26:0.99999999 29:1 30:1 31:0.99999999 33:0.99999999 
256 2:1.362294e-06 20:0.60273492 21:0.60273918 26:0.99999999 29:1 30:1 31:0.99999999 33:0.99999999 
256 2:2.7036296e-06 20:0.88649569 21:0.88649691 26:0.99999999 29:1 30:1 31:0.99999999 33:0.99999999 
43.862144069665 2:2.7036296e-06 20:0.99412909 21:0.99412915 26:0.99999999 29:1 30:1 31:0.99999999 33:0.99999999 
1.5459417266337365 20:0.0078157931 21:0.0058694809 22:0.5 23:0.66999999 24:0.5 25:0.33 26:0.5 27:0.74999999 28:0.66999999 29:1 30:0.16862745 31:0.17 32:0.04 35:0.99999999 36:0.99999999 
111.03244743985309 2:0.00014288368 3:0.0016139349 7:0.025974026 9:0.99999999 10:0.0011312217 20:0.021514589 21:0.02152508 26:0.99999999 29:1 30:1 31:0.99999999 37:0.04 38:0.04 
256 2:0.00014288368 3:0.0016139349 7:0.025974026 9:0.99999999 10:0.0011312217 20:0.0058588223 21:0.0058694809 26:0.99999999 29:0.97647059 30:0.97647059 31:0.99999999 37:0.02 38:0.02 
256 2:0.00014288368 3:0.0016139349 7:0.025974026 9:0.99999999 10:0.0011312217 20:0.0039018514 21:0.003912531 26:0.99999999 29:0.97254902 30:0.97254902 31:0.99999999 37:0.02 38:0.02 
153.50237385198855 2:0.00014288368 3:0.0016139349 7:0.025974026 9:0.99999999 10:0.0011312217 20:0.0019448806 21:0.003912531 25:0.5 26:0.99999999 28:0.99999999 29:1 30:1 31:0.99999999 35:0.0099999999 36:0.0099999999 37:0.03 38:0.03 
0.40137898605030664 20:0.0039018514 21:0.0019555812 22:0.99999999 23:0.99999999 26:0.5 27:0.99999999 29:1 30:0.0039215686 32:0.069999999 35:0.99999999 36:0.99999999 
0.68366712917659855 20:0.3894251 21:0.0019555812 22:0.99999999 23:0.99999999 26:0.0099999999 27:0.05 29:0.011764706 30:0.0039215686 31:0.33 32:0.66999999 33:0.33 35:0.33 36:0.99999999 
0.0094436749978439819 2:3.8772983e-06 5:0.33333333 20:0.0039018514 21:0.003912531 26:0.99999999 29:0.3372549 30:0.0078431373 31:0.02 32:0.05 33:0.02 
256 2:2.7036296e-06 20:0.59490704 21:0.59491138 26:0.99999999 29:1 30:1 31:0.99999999 33:0.99999999 
256 2:2.7036296e-06 20:0.71232529 21:0.71232837 26:0.99999999 29:1 30:1 31:0.99999999 33:0.99999999 
12.350821629329566 2:0.00014288368 3:0.00085025678 7:0.012987013 9:0.99999999 20:0.0039018514 21:0.003912531 22:0.5 23:0.5 26:0.99999999 29:1 30:1 31:0.99999999 37:0.04 38:0.04 
256 2:2.7036296e-06 20:0.041084297 21:0.041094578 26:0.99999999 29:1 30:1 31:0.99999999 33:0.99999999 
4.1544628842965681 20:0.0039018514 21:0.003912531 22:0.99999999 23:0.99999999 26:0.99999999 29:0.0078431373 30:0.0078431373 31:0.99999999 33:0.5 35:0.99999999 36:0.99999999 
256 2:1.362294e-06 20:0.6379604 21:0.63796428 26:0.99999999 29:1 30:1 31:0.99999999 33:0.99999999 
256 2:2.7036296e-06 20:0.70841135 21:0.70841447 26:0.99999999 29:1 30:1 31:0.99999999 33:0.99999999 
1.795457936442465 20:0.0019448806 21:0.0058694809 22:0.99999999 23:0.33 26:0.99999999 28:0.99999999 29:0.090196078 30:0.52941176 31:0.04 32:0.089999999 33:0.04 34:0.0099999999 35:0.90999999 36:0.0099999999 
5.3023088555784064 2:0.00014288368 3:0.0016139349 7:0.025974026 9:0.99999999 10:0.0011312217 20:0.0039018514 21:0.0078264307 26:0.99999999 28:0.74999999 29:0.023529412 30:0.023529412 31:0.99999999 33:0.17 37:0.17 38:0.17 
181.11502171083202 2:1.362294e-06 20:0.8590981 21:0.85909961 26:0.99999999 29:0.90980392 30:0.90980392 31:0.99999999 33:0.99999999 
256 2:1.477565e-06 20:0.0039018514 21:0.003912531 26:0.99999999 29:0.0078431373 30:0.0078431373 31:0.99999999 33:0.99999999 
256 2:0.00014288368 3:0.0016139349 7:0.025974026 9:0.99999999 10:0.0011312217 20:0.0039018514 21:0.003912531 26:0.99999999 29:0.15294118 30:0.15294118 31:0.99999999 33:0.03 
256 2:0.00014288368 3:0.001614129 7:0.012987013 9:0.99999999 20:0.011729735 21:0.01174033 22:0.17 23:0.17 26:0.99999999 29:1 30:1 31:0.99999999 35:0.0099999999 36:0.0099999999 37:0.04 38:0.04 
32.958306947942638 2:0.00014288368 3:0.0016139349 7:0.025974026 9:0.99999999 10:0.0011312217 20:0.0078157931 21:0.0097833805 26:0.99999999 28:0.4 29:0.22352941 30:0.22352941 31:0.99999999 33:0.02 35:0.02 36:0.02 37:0.02 38:0.02 
7.0031770334740129 2:1.362294e-06 20:0.84931325 21:0.84931486 26:0.99999999 29:0.11372549 30:0.11372549 31:0.99999999 33:0.99999999 
2.2779610539707766 2:0.00013004668 9:0.99999999 20:0.0039018514 21:0.003912531 24:0.5 25:0.5 26:0.99999999 29:1 30:1 31:0.99999999 35:0.0099999999 36:0.0099999999 37:0.05 38:0.05 
0.36653234895835179 20:0.044998239 21:0.0058694809 22:0.99999999 23:0.99999999 26:0.13 27:0.089999999 29:0.090196078 30:0.11764706 31:0.13 32:0.089999999 33:0.04 34:0.069999999 35:0.99999999 36:0.099999999 
256 2:2.7036296e-06 20:0.88845266 21:0.88845386 26:0.99999999 29:1 30:1 31:0.99999999 33:0.99999999 
1.1238544927323793 2:2.7036296e-06 20:1 21:1 26:0.99999999 29:0.39215686 30:0.023529412 31:0.059999999 32:0.069999999 33:0.059999999 35:0.02 37:0.62999999 
256 2:1.362294e-06 20:0.54206883 21:0.54207374 26:0.99999999 29:1 30:1 31:0.99999999 33:0.99999999 
256 2:2.7036296e-06 20:0.02347156 21:0.023482029 26:0.99999999 29:1 30:0.047058824 31:0.05 32:0.02 33:0.05 
2.2844711219333362 4:0.99999999 20:0.0019448806 21:0.0019555812 22:0.99999999 23:0.99999999 26:0.99999999 29:0.0039215686 30:0.031372549 31:0.99999999 33:0.99999999 34:0.38 35:0.99999999 36:0.12 
256 2:2.7036296e-06 20:0.54206883 21:0.54207374 26:0.99999999 29:1 30:1 31:0.99999999 33:0.99999999 
256 2:2.7036296e-06 20:0.57142339 21:0.57142798 26:0.99999999 29:1 30:1 31:0.99999999 33:0.99999999 
256 2:2.7036296e-06 20:0.69666952 21:0.69667277 26:0.99999999 29:1 30:1 31:0.99999999 33:0.99999999 
0.53847233696954688 20:0.57338036 21:0.037180678 24:0.99999999 25:0.99999999 26:0.059999999 27:0.059999999 29:1 30:0.14509804 31:0.15 32:0.059999999 37:0.99999999 38:0.99999999 
0.89048045291669975 20:0.029342472 21:0.003912531 22:0.99999999 23:0.99999999 26:0.13 27:0.13 29:0.16470588 30:0.011764706 31:0.05 32:0.069999999 33:0.02 34:0.66999999 35:0.99999999 36:0.66999999 
256 2:2.7036296e-06 20:0.90802237 21:0.90802336 26:0.99999999 29:1 30:1 31:0.99999999 33:0.99999999 
256 2:1.362294e-06 20:0.61447675 21:0.61448088 26:0.99999999 29:1 30:1 31:0.99999999 33:0.99999999 
256 2:2.7036296e-06 20:0.031299443 21:0.031309829 26:0.99999999 29:1 30:0.062745098 31:0.059999999 32:0.02 33:0.059999999 
256 2:1.362294e-06 20:0.56359551 21:0.56360019 26:0.99999999 29:1 30:1 31:0.99999999 33:0.99999999 
5.2754801810026626 20:0.017600647 21:0.01761118 24:0.99999999 25:0.99999999 26:0.99999999 29:1 30:0.10588235 31:0.11 32:0.059999999 37:0.99999999 38:0.99999999 
0.25334959374970523 20:0.0058588223 21:0.0019555812 22:0.99999999 23:0.99999999 26:0.33 27:0.99999999 29:1 30:0.23921569 31:0.24 32:0.04 33:0.0099999999 35:0.99999999 36:0.99999999 
256 2:2.7036296e-06 20:0.68101376 21:0.68101718 26:0.99999999 29:1 30:1 31:0.99999999 33:0.99999999 
24.166751351367203 2:0.00014288368 3:0.0016139349 7:0.025974026 9:0.99999999 10:0.0011312217 20:0.0058588223 21:0.0058694809 26:0.99999999 29:0.16078431 30:0.16078431 31:0.99999999 33:0.02 35:0.02 36:0.02 37:0.02 38:0.02 
118.30066529232863 2:0.00014288368 3:0.0016139349 7:0.025974026 9:0.99999999 10:0.0011312217 20:0.0058588223 21:0.0058694809 26:0.99999999 29:0.043137255 30:0.043137255 31:0.99999999 33:0.089999999 
256 2:1.362294e-06 20:0.63208949 21:0.63209343 26:0.99999999 29:1 30:1 31:0.99999999 33:0.99999999 
3.271737228483897 2:2.7036296e-06 20:0.32680204 21:0.32680925 26:0.99999999 29:1 30:0.65490196 31:0.64999999 32:0.0099999999 33:0.64999999 
256 2:2.7036296e-06 20:0.54011186 21:0.54011679 26:0.99999999 29:1 30:1 31:0.99999999 33:0.99999999 
57.234667767742678 2:0.00014288368 3:0.0016139349 7:0.025974026 9:0.99999999 10:0.0011312217 20:0.0097727639 21:0.01174033 25:0.17 26:0.99999999 28:0.33 29:1 30:1 31:0.99999999 37:0.02 38:0.02 
25.564573389807389 2:1.362294e-06 20:0.72993803 21:0.72994092 26:0.99999999 29:1 30:1 31:0.99999999 33:0.99999999 
256 2:2.7036296e-06 20:0.02542853 21:0.025438979 26:0.99999999 29:1 30:1 31:0.99999999 33:0.99999999 
2.2164199749959836 20:0.037170355 21:0.041094578 22:0.99999999 23:0.89999999 26:0.99999999 28:0.14 29:0.16078431 30:0.6 31:0.46 32:0.05 33:0.02 34:0.0099999999 35:0.94999999 36:0.12 
256 2:1.362294e-06 20:0.70645438 21:0.70645752 26:0.99999999 29:1 30:1 31:0.99999999 33:0.99999999 
256 2:2.7036296e-06 20:0.92172117 21:0.92172201 26:0.99999999 29:1 30:1 31:0.99999999 33:0.99999999 
166.41420936986825 2:0.00011325903 3:0.0014170946 7:0.012987013 9:0.99999999 20:0.0097727639 21:0.0097833805 24:0.4 25:0.4 26:0.99999999 29:1 30:1 31:0.99999999 37:0.03 38:0.03 
256 2:1.362294e-06 20:0.65948708 21:0.65949073 26:0.99999999 29:1 30:1 31:0.99999999 33:0.99999999 
256 2:2.7036296e-06 20:0.039127326 21:0.039137628 26:0.99999999 29:1 30:0.078431373 31:0.079999999 32:0.02 33:0.079999999 
256 2:2.7036296e-06 20:0.95498967 21:0.95499015 26:0.99999999 29:1 30:1 31:0.99999999 33:0.99999999 
24.87521451119547 1:0.00013998414 2:0.00014288368 3:0.0016139349 7:0.025974026 9:0.99999999 10:0.0011312217 20:0.0058588223 21:0.0058694809 26:0.99999999 29:0.043137255 30:0.043137255 31:0.99999999 33:0.089999999 37:0.45 38:0.45 
1.8866851526566488 2:3.8772983e-06 5:0.33333333 20:0.0019448806 21:0.0058694809 26:0.99999999 28:0.66999999 29:0.011764706 30:0.050980392 31:0.33 32:0.66999999 33:0.33 34:0.53999999 
1.223715884155397 2:3.8772983e-06 5:0.33333333 20:0.0097727639 21:0.0097833805 26:0.99999999 29:1 30:0.023529412 31:0.02 32:0.079999999 33:0.02 35:0.58999999 37:0.0099999999 
1.5720169635445991 2:0.00013939411 3:0.0014170946 7:0.012987013 9:0.99999999 20:0.0078157931 21:0.0058694809 24:0.25 25:0.33 26:0.74999999 27:0.5 29:0.28235294 30:0.28235294 31:0.99999999 33:0.0099999999 37:0.04 38:0.04 
1.9208763373003168 2:7.3354292e-08 5:1 20:0.20351288 21:0.0078264307 22:0.95999999 26:0.04 27:0.069999999 29:1 30:0.015686275 31:0.02 32:0.98999999 33:0.02 35:0.089999999 37:0.89999999 
256 2:2.7036296e-06 20:0.65557314 21:0.65557683 26:0.99999999 29:1 30:1 31:0.99999999 33:0.99999999 
3.0218599399039898 2:3.8772983e-06 5:0.33333333 20:0.0039018514 21:0.003912531 26:0.99999999 29:0.015686275 30:0.023529412 31:0.5 32:0.5 33:0.5 34:0.5 
256 2:2.7036296e-06 20:0.97847332 21:0.97847355 26:0.99999999 29:1 30:1 31:0.99999999 33:0.99999999 
256 2:1.362294e-06 20:0.7181962 21:0.71819922 26:0.99999999 29:1 30:1 31:0.99999999 33:0.99999999 
256 2:0.00014288368 3:0.0016139349 7:0.025974026 9:0.99999999 10:0.0011312217 20:0.0039018514 21:0.003912531 26:0.99999999 29:0.019607843 30:0.019607843 31:0.99999999 33:0.2 
1.222061761503457 20:0.0019448806 21:0.0019555812 22:0.99999999 23:0.99999999 26:0.99999999 29:1 30:0.0039215686 32:0.069999999 35:0.99999999 36:0.99999999 
85.110294339350034 2:2.7036296e-06 20:0.530327 21:0.53033204 26:0.99999999 29:1 30:1 31:0.99999999 33:0.99999999 
256 2:0.00014288368 3:0.0016139349 7:0.025974026 9:0.99999999 10:0.0011312217 20:0.0039018514 21:0.003912531 26:0.99999999 29:0.98823529 30:0.98823529 31:0.99999999 37:0.02 38:0.02 
9.2309721485021612 2:2.7036296e-06 20:0.10175039 21:0.10176002 26:0.99999999 29:0.66666667 30:0.29803922 31:0.45 32:0.04 33:0.45 35:0.0099999999 37:0.37 
256 2:2.7036296e-06 20:0.57925127 21:0.57925578 26:0.99999999 29:1 30:1 31:0.99999999 33:0.99999999 
256 2:2.7036296e-06 20:0.96281755 21:0.96281795 26:0.99999999 29:1 30:1 31:0.99999999 33:0.99999999 
256 2:1.362294e-06 20:0.58903613 21:0.58904053 26:0.99999999 29:1 30:1 31:0.99999999 33:0.99999999 
0.21386018411284427 20:0.0019448806 21:0.0019555812 22:0.99999999 23:0.99999999 26:0.99999999 29:1 30:0.0039215686 32:0.99999999 33:0.99999999 35:0.99999999 36:0.99999999 
0.22087158258365341 20:0.0039018514 21:0.0019555812 24:0.99999999 25:0.99999999 26:0.5 27:0.99999999 29:1 30:0.0039215686 32:0.99999999 33:0.99999999 37:0.99999999 38:0.99999999 
64.328792123861732 20:0.0019448806 21:0.0019555812 24:0.99999999 25:0.99999999 26:0.99999999 29:0.46666667 30:0.0039215686 31:0.0099999999 32:0.13 33:0.0099999999 37:0.03 38:0.99999999 
1.7046084404654289 1:0.83248565 2:1 20:0.0019448806 21:0.0019555812 24:0.99999999 25:0.99999999 26:0.99999999 29:0.30588235 30:0.0078431373 31:0.03 32:0.12 33:0.079999999 37:0.079999999 38:0.5 
6.8762751283292696 2:1.5718777e-08 3:2.3877074e-05 9:0.99999999 20:0.015643676 21:0.0019555812 24:0.38 26:0.12 27:0.99999999 29:0.45098039 30:0.65098039 31:0.50999999 32:0.099999999 33:0.0099999999 34:0.0099999999 36:0.0099999999 37:0.03 
256 2:5.6325617e-07 20:0.0019448806 21:0.0019555812 26:0.99999999 29:0.38823529 30:0.3254902 31:0.83999999 32:0.02 33:0.83999999 
123.8461761334753 2:4.715633e-08 20:0.0019448806 21:0.0019555812 26:0.99999999 29:0.015686275 30:0.47058824 31:0.99999999 33:0.99999999 34:0.25 
111.68999649861874 20:0.0019448806 21:0.0019555812 24:0.99999999 25:0.99999999 26:0.99999999 29:0.19215686 30:0.0039215686 31:0.02 32:0.079999999 33:0.02 35:0.12 37:0.02 38:0.99999999 
13.462935413664859 20:0.0019448806 21:0.0019555812 26:0.99999999 29:0.23529412 30:0.035294118 31:0.02 32:0.99999999 33:0.02 34:0.22 37:0.91999999 
1.3538185992840872 20:0.0039018514 21:0.0019555812 22:0.99999999 23:0.99999999 26:0.5 27:0.99999999 29:0.098039216 30:0.0078431373 31:0.079999999 32:0.71999999 33:0.67999999 35:0.67999999 36:0.99999999 
1.3678779737860209 20:0.0039018514 21:0.0019555812 22:0.99999999 23:0.99999999 26:0.5 27:0.99999999 29:1 30:0.0039215686 32:0.99999999 33:0.99999999 35:0.05 36:0.99999999 37:0.94999999 
256 2:2.0958369e-08 20:0.0019448806 21:0.0019555812 26:0.99999999 29:0.019607843 30:0.011764706 31:0.59999999 32:0.59999999 33:0.59999999 
1.4209868220534219 3:2.5818299e-05 20:0.0019448806 21:0.0019555812 24:0.99999999 25:0.99999999 26:0.99999999 29:0.0078431373 30:0.0078431373 31:0.5 32:0.99999999 33:0.5 34:0.99999999 37:0.99999999 38:0.99999999 
256 2:2.6197961e-07 20:0.0039018514 21:0.003912531 26:0.99999999 29:0.14509804 30:0.02745098 31:0.19 32:0.05 33:0.19 
256 2:5.422978e-07 20:0.0039018514 21:0.003912531 26:0.99999999 29:0.20392157 30:0.17254902 31:0.84999999 32:0.04 33:0.84999999 
256 2:4.715633e-08 20:0.0019448806 21:0.0019555812 26:0.99999999 29:0.015686275 30:0.29803922 31:0.99999999 33:0.99999999 34:0.25 
256 2:5.6325617e-07 20:0.0019448806 21:0.0019555812 26:0.99999999 29:0.10588235 30:0.10588235 31:0.99999999 33:0.99999999 
256 2:2.0958369e-08 20:0.0019448806 21:0.0019555812 26:0.99999999 29:0.0039215686 30:0.51372549 31:0.99999999 33:0.99999999 34:0.5 
131.03933372947628 1:2.3330689e-05 2:4.4798514e-06 3:7.2795957e-05 9:0.99999999 20:0.0039018514 21:0.003912531 26:0.99999999 29:0.69803922 30:0.49019608 31:0.34 32:0.39 33:0.0099999999 34:0.02 37:0.31 
256 2:5.2395923e-08 20:0.0019448806 21:0.0019555812 26:0.99999999 29:0.3372549 30:0.0078431373 31:0.02 32:0.059999999 33:0.02 
3.6888357476961859 2:5.2395923e-08 20:0.0019448806 21:0.0019555812 26:0.99999999 29:0.015686275 30:0.0039215686 31:0.25 32:0.5 33:0.99999999 
256 2:2.0958369e-08 20:0.0019448806 21:0.003912531 26:0.99999999 28:0.99999999 29:0.0078431373 30:0.0078431373 31:0.99999999 33:0.99999999 
14.053206728446163 2:2.0958369e-08 20:0.0019448806 21:0.0058694809 26:0.99999999 28:0.99999999 29:0.015686275 30:0.18823529 31:0.99999999 33:0.99999999 34:0.25 
256 2:2.6197961e-09 20:0.021514589 21:0.02152508 26:0.99999999 29:0.30980392 30:0.043137255 31:0.14 32:0.059999999 33:0.18 
10.071705376260455 1:0.00011665345 3:2.9118383e-06 9:0.99999999 20:0.0019448806 21:0.0019555812 26:0.99999999 29:0.011764706 30:0.0039215686 31:0.33 32:0.99999999 33:0.33 37:0.66999999 
0.88883821709514255 20:0.0039018514 21:0.0019555812 24:0.99999999 25:0.99999999 26:0.5 27:0.99999999 29:1 30:0.0039215686 32:0.15 33:0.069999999 35:0.46 37:0.069999999 38:0.99999999 
256 2:2.6197961e-07 20:0.0058588223 21:0.0058694809 26:0.99999999 29:0.50980392 30:0.078431373 31:0.15 32:0.02 33:0.15 
256 2:2.6197961e-07 20:0.0039018514 21:0.003912531 26:0.99999999 29:0.31372549 30:0.039215686 31:0.12 32:0.03 33:0.12 
8.1872875225197195 1:0.00016331482 20:0.0039018514 21:0.003912531 24:0.99999999 25:0.99999999 26:0.99999999 29:0.62745098 30:0.34117647 31:0.51999999 32:0.14 33:0.25 34:0.02 37:0.25 38:0.02 
256 2:2.0958369e-08 20:0.0019448806 21:0.0019555812 26:0.99999999 29:0.011764706 30:0.011764706 31:0.99999999 33:0.99999999 
256 2:2.6197961e-09 20:0.062610976 21:0.062621026 26:0.99999999 29:0.39215686 30:0.1254902 31:0.32 32:0.05 33:0.35 
0.0024838616147305061 20:0.0019448806 21:0.0019555812 22:0.99999999 23:0.99999999 26:0.99999999 29:1 30:0.0039215686 32:0.99999999 33:0.99999999 35:0.99999999 36:0.99999999 
256 2:4.715633e-08 20:0.0019448806 21:0.0019555812 26:0.99999999 29:0.015686275 30:0.21960784 31:0.99999999 33:0.99999999 34:0.25 
256 1:9.3322757e-05 2:1.5718777e-08 3:2.1159358e-05 20:0.0058588223 21:0.0019555812 26:0.33 27:0.99999999 29:1 30:0.0039215686 32:0.03 
230.23101220539871 2:2.6197961e-09 20:0.0039018514 21:0.0019555812 26:0.5 27:0.99999999 29:0.57254902 30:0.0039215686 31:0.0099999999 32:0.05 33:0.0099999999 35:0.0099999999 
256 2:5.2395923e-08 20:0.0019448806 21:0.0019555812 26:0.99999999 29:0.34509804 30:0.015686275 31:0.05 32:0.059999999 33:0.05 
256 2:2.6197961e-09 20:0.056740064 21:0.056750177 26:0.99999999 29:0.38039216 30:0.11372549 31:0.3 32:0.05 33:0.33 
8.9982366226420698 2:2.6197961e-09 20:0.033256414 21:0.0019555812 26:0.059999999 27:0.18 29:1 30:0.0039215686 32:0.38 33:0.66999999 35:0.16 37:0.18 
256 2:2.0958369e-08 20:0.0019448806 21:0.0019555812 26:0.99999999 29:0.0039215686 30:0.5372549 31:0.99999999 33:0.99999999 34:0.5 
78.360333419320128 2:2.6197961e-09 20:0.0097727639 21:0.003912531 26:0.4 27:0.59999999 29:0.58431373 30:0.0078431373 31:0.0099999999 32:0.05 33:0.03 35:0.0099999999 
256 2:5.2395923e-08 20:0.0019448806 21:0.0019555812 26:0.99999999 29:0.0039215686 30:0.0039215686 31:0.99999999 33:0.99999999 
256 2:5.422978e-07 20:0.0039018514 21:0.003912531 26:0.99999999 29:0.29019608 30:0.25882353 31:0.88999999 32:0.03 33:0.88999999 
0.055750273590590003 20:0.0019448806 21:0.0019555812 22:0.99999999 23:0.99999999 26:0.99999999 29:0.25490196 30:0.0039215686 31:0.02 32:0.84999999 33:0.87999999 35:0.87999999 36:0.99999999 
256 2:5.6325617e-07 20:0.0019448806 21:0.0019555812 26:0.99999999 29:0.37254902 30:0.30980392 31:0.82999999 32:0.02 33:0.82999999 
0.88025264975080109 2:2.6197961e-09 3:1.9412255e-07 20:0.0078157931 21:0.0019555812 26:0.25 27:0.5 29:1 30:0.0039215686 32:0.98999999 33:0.02 35:0.2 37:0.77999999 
0.0046893477669588219 20:0.0039018514 21:0.0019555812 24:0.99999999 25:0.99999999 26:0.5 27:0.99999999 29:1 30:0.0039215686 32:0.99999999 33:0.99999999 37:0.99999999 38:0.99999999 
1.9656566921284528 1:0.00013998414 3:2.9118383e-06 9:0.99999999 20:0.0019448806 21:0.0019555812 24:0.99999999 25:0.99999999 26:0.99999999 29:0.011764706 30:0.0039215686 31:0.33 32:0.99999999 33:0.33 37:0.99999999 38:0.99999999 
0.16090846309034573 20:0.0019448806 21:0.0019555812 24:0.99999999 25:0.99999999 26:0.99999999 29:0.2 30:0.0078431373 31:0.02 32:0.99999999 33:0.02 34:0.99999999 37:0.97999999 38:0.5 
221.92152165988321 2:5.422978e-07 20:0.0039018514 21:0.003912531 26:0.99999999 29:0.4 30:0.3372549 31:0.83999999 32:0.02 33:0.83999999 
0.62995875456206496 1:0.00025663758 2:1.5718777e-08 7:0.012987013 20:0.99608606 21:0.0019555812 22:0.02 24:0.96999999 27:0.99999999 29:1 30:0.0039215686 32:0.99999999 35:0.02 37:0.95999999 
31.606385283103489 1:0.00013998414 3:7.7649021e-07 20:0.0019448806 21:0.0019555812 26:0.99999999 29:0.070588235 30:0.0039215686 31:0.059999999 32:0.99999999 33:0.059999999 37:0.82999999 
256 2:5.6325617e-07 20:0.0019448806 21:0.0019555812 26:0.99999999 29:0.92156863 30:0.76470588 31:0.82999999 32:0.0099999999 33:0.82999999 
256 2:4.715633e-08 20:0.0019448806 21:0.0019555812 26:0.99999999 29:0.035294118 30:0.035294118 31:0.99999999 33:0.99999999 
256 2:2.0958369e-08 20:0.0019448806 21:0.0019555812 26:0.99999999 29:0.0078431373 30:0.14901961 31:0.99999999 33:0.99999999 34:0.5 
2.4325919243050231 1:2.3330689e-05 20:0.011729735 21:0.003912531 22:0.66999999 23:0.5 24:0.33 25:0.5 26:0.33 27:0.5 29:1 30:0.0078431373 31:0.0099999999 32:0.02 33:0.02 35:0.02 36:0.5 37:0.0099999999 38:0.5 
192.95141312032518 2:2.0958369e-08 20:0.0019448806 21:0.082190525 26:0.99999999 28:0.99999999 29:0.0078431373 30:0.0078431373 31:0.99999999 33:0.99999999 
0.47012424982063278 2:2.0958369e-08 20:0.0019448806 21:0.0058694809 26:0.99999999 28:0.99999999 29:0.0078431373 30:0.44705882 31:0.99999999 33:0.99999999 34:0.25 
3.6415929832939615 2:2.0958369e-08 20:0.0019448806 21:0.003912531 26:0.99999999 28:0.99999999 29:0.89019608 30:0.11764706 31:0.0099999999 32:0.03 33:0.0099999999 34:0.96999999 37:0.0099999999 
256 2:9.6932457e-08 20:0.0058588223 21:0.0058694809 26:0.99999999 29:0.023529412 30:0.011764706 31:0.5 32:0.5 33:0.66999999 
256 2:5.6325617e-07 20:0.0019448806 21:0.0019555812 26:0.99999999 29:0.0039215686 30:0.0039215686 31:0.99999999 33:0.99999999 
256 2:4.715633e-08 20:0.0019448806 21:0.0019555812 26:0.99999999 29:0.015686275 30:0.45490196 31:0.99999999 33:0.99999999 34:0.25 
256 2:5.6325617e-07 20:0.0019448806 21:0.0019555812 26:0.99999999 29:0.22352941 30:0.19215686 31:0.85999999 32:0.04 33:0.85999999 
256 2:5.6325617e-07 20:0.0019448806 21:0.0019555812 26:0.99999999 29:0.83529412 30:0.70980392 31:0.84999999 32:0.0099999999 33:0.84999999 
256 2:5.422978e-07 20:0.0039018514 21:0.003912531 26:0.99999999 29:0.22745098 30:0.19607843 31:0.85999999 32:0.03 33:0.85999999 
0.43386476025598425 2:2.0958369e-08 20:0.090008568 21:0.066534926 26:0.02 27:0.04 28:0.99999999 29:0.015686275 30:0.10980392 31:0.99999999 33:0.99999999 34:0.25 
71.223013927022677 2:5.6325617e-07 20:0.0019448806 21:0.0019555812 26:0.99999999 29:0.81176471 30:0.68627451 31:0.84999999 32:0.0099999999 33:0.84999999 
5.1080050068958771 2:1.5718777e-08 3:7.7649021e-07 9:0.99999999 20:0.0039018514 21:0.0019555812 24:0.5 26:0.5 27:0.99999999 29:0.47058824 30:0.0039215686 31:0.0099999999 32:0.13 33:0.0099999999 37:0.03 
1.4223339516089368 2:2.6197961e-09 20:0.0058588223 21:0.0058694809 26:0.99999999 29:1 30:0.023529412 31:0.02 32:0.97999999 33:0.02 35:0.03 37:0.94999999 
26.844353073963585 20:0.0019448806 21:0.0019555812 26:0.99999999 29:0.28627451 30:0.59215686 31:0.23 32:0.36 33:0.34 34:0.02 35:0.079999999 36:0.03 37:0.32 
0.04345170795971337 20:0.99804303 21:0.0019555812 22:0.13 23:0.99999999 24:0.86999999 27:0.99999999 29:1 30:0.0039215686 32:0.99999999 35:0.13 36:0.99999999 37:0.86999999 
1.6092410644999278 20:0.0058588223 21:0.0019555812 24:0.33 25:0.99999999 26:0.33 27:0.66999999 29:1 30:0.0039215686 32:0.079999999 33:0.059999999 37:0.059999999 38:0.99999999 
5.1533684111720959 2:4.715633e-08 20:0.0039018514 21:0.0019555812 24:0.5 26:0.5 27:0.99999999 29:0.054901961 30:0.96078431 31:0.29 32:0.14 33:0.29 34:0.25 37:0.069999999 
132.0586889371038 2:2.0958369e-08 20:0.0019448806 21:0.0019555812 26:0.99999999 29:0.015686275 30:0.0078431373 31:0.5 32:0.74999999 33:0.5 
256 2:5.6325617e-07 20:0.0019448806 21:0.0019555812 26:0.99999999 29:0.19215686 30:0.16078431 31:0.83999999 32:0.04 33:0.83999999 
256 2:2.6197961e-07 20:0.0019448806 21:0.0019555812 26:0.99999999 29:0.89019608 30:0.14509804 31:0.16 32:0.0099999999 33:0.16 
241.48762646810684 2:1.3098981e-08 20:0.24656623 21:0.0019555812 26:0.0099999999 27:0.02 29:1 30:0.039215686 31:0.04 32:0.02 33:0.04 
256 2:5.422978e-07 20:0.0039018514 21:0.003912531 26:0.99999999 29:0.30588235 30:0.2745098 31:0.89999999 32:0.03 33:0.89999999 
163.27271918006579 2:5.2395923e-08 20:0.0019448806 21:0.0019555812 26:0.99999999 29:1 30:0.0039215686 32:0.31 37:0.15 
3.2093927969142149 1:2.3330689e-05 3:2.5818299e-05 20:0.0019448806 21:0.0019555812 24:0.99999999 25:0.99999999 26:0.99999999 29:0.0078431373 30:0.0039215686 31:0.5 32:0.99999999 33:0.5 37:0.99999999 38:0.99999999 
256 2:2.0958369e-08 20:0.0019448806 21:0.0019555812 26:0.99999999 29:0.0078431373 30:0.0078431373 31:0.99999999 33:0.99999999 
1.4625888283634207 20:0.0019448806 21:0.0019555812 22:0.99999999 23:0.99999999 26:0.99999999 29:1 30:0.0039215686 32:0.99999999 33:0.99999999 35:0.0099999999 36:0.99999999 37:0.98999999 
0.66038917816725295 20:0.87671084 21:0.0019555812 24:0.99999999 25:0.99999999 27:0.51999999 29:1 30:0.0039215686 32:0.50999999 33:0.99999999 37:0.99999999 38:0.99999999 
5.0732864911040494 2:4.715633e-08 20:0.0039018514 21:0.0019555812 26:0.5 27:0.99999999 29:0.011764706 30:0.10588235 31:0.99999999 33:0.99999999 34:0.26 
256 2:2.6197961e-07 20:0.0039018514 21:0.003912531 26:0.99999999 29:0.1254902 30:0.0078431373 31:0.059999999 32:0.059999999 33:0.059999999 
256 2:2.6197961e-07 20:0.0058588223 21:0.0058694809 26:0.99999999 29:0.69803922 30:0.10980392 31:0.16 32:0.0099999999 33:0.16 
256 2:2.0958369e-08 20:0.0019448806 21:0.0019555812 26:0.99999999 29:0.023529412 30:0.023529412 31:0.99999999 33:0.99999999 
4.1936507637759401 20:0.017600647 21:0.0019555812 24:0.44 25:0.99999999 26:0.11 27:0.99999999 29:0.64313725 30:0.0039215686 31:0.0099999999 32:0.089999999 33:0.0099999999 35:0.0099999999 37:0.02 38:0.99999999 
256 2:2.0958369e-08 20:0.0019448806 21:0.0019555812 26:0.99999999 29:0.015686275 30:0.015686275 31:0.99999999 33:0.99999999 
256 2:2.0958369e-08 20:0.0019448806 21:0.0019555812 26:0.99999999 29:0.0078431373 30:0.054901961 31:0.99999999 33:0.99999999 34:0.56999999 
256 2:5.6325617e-07 20:0.0019448806 21:0.0019555812 26:0.99999999 29:0.2 30:0.16862745 31:0.83999999 32:0.04 33:0.83999999 
0.99636933373515224 20:0.0039018514 21:0.0019555812 22:0.5 24:0.5 25:0.99999999 26:0.5 27:0.99999999 29:1 30:0.0039215686 32:0.99999999 33:0.99999999 35:0.05 37:0.94999999 38:0.99999999 
256 2:4.715633e-08 20:0.0019448806 21:0.0019555812 26:0.99999999 29:0.015686275 30:0.16862745 31:0.99999999 33:0.99999999 34:0.26 
0.97816047371724024 20:1 21:0.003912531 22:0.33 23:0.99999999 24:0.66999999 27:0.99999999 29:1 30:0.0078431373 31:0.0099999999 32:0.99999999 35:0.16 36:0.99999999 37:0.83999999 
256 2:2.0958369e-08 20:0.0019448806 21:0.0019555812 26:0.99999999 29:0.02745098 30:0.019607843 31:0.70999999 32:0.43 33:0.70999999 
256 2:5.422978e-07 20:0.0039018514 21:0.003912531 26:0.99999999 29:0.023529412 30:0.023529412 31:0.99999999 33:0.99999999 
0.0075869797452177831 2:2.0958369e-08 20:0.0039018514 21:0.064577976 26:0.5 27:0.99999999 28:0.99999999 29:0.011764706 30:0.10588235 31:0.99999999 33:0.99999999 34:0.26 
256 2:4.715633e-08 20:0.0019448806 21:0.0019555812 26:0.99999999 29:0.015686275 30:0.36078431 31:0.99999999 33:0.99999999 34:0.25 
256 2:2.0958369e-08 20:0.0019448806 21:0.0019555812 26:0.99999999 29:0.0078431373 30:0.16470588 31:0.99999999 33:0.99999999 34:0.5 
256 2:2.6197961e-07 20:0.0019448806 21:0.0019555812 26:0.99999999 29:0.30980392 30:0.035294118 31:0.11 32:0.03 33:0.11 
21.6968096860146 2:1.3098981e-08 20:0.066524918 21:0.0019555812 26:0.03 27:0.059999999 29:0.4 30:0.019607843 31:0.0099999999 32:0.059999999 33:0.0099999999 34:0.4 
0.97033733623835638 20:0.69666952 21:0.0019555812 22:0.03 23:0.99999999 24:0.94999999 27:0.99999999 29:1 30:0.0039215686 32:0.99999999 35:0.04 36:0.99999999 37:0.95999999 
248.67784345095066 2:4.715633e-08 20:0.0019448806 21:0.0019555812 26:0.99999999 29:0.0039215686 30:0.054901961 31:0.99999999 33:0.99999999 34:0.99999999 
1.4438579546900505 20:0.0019448806 21:0.0019555812 24:0.99999999 25:0.99999999 26:0.99999999 29:0.0039215686 30:0.15686275 31:0.99999999 33:0.99999999 34:0.079999999 37:0.99999999 38:0.05 
86.19528505436331 2:4.715633e-08 20:0.0019448806 21:0.0019555812 26:0.99999999 29:0.011764706 30:0.24705882 31:0.99999999 33:0.99999999 34:0.25 
6.4867103818979954 20:0.0019448806 21:0.0019555812 24:0.99999999 25:0.99999999 26:0.99999999 29:0.0039215686 30:0.40784314 31:0.99999999 33:0.99999999 34:0.03 37:0.99999999 38:0.02 
256 2:5.2395923e-08 20:0.0019448806 21:0.0019555812 26:0.99999999 29:1 30:0.0039215686 32:0.02 33:0.02 
33.477419570419492 2:2.6197961e-09 20:0.0097727639 21:0.0058694809 26:0.59999999 27:0.59999999 29:1 30:0.011764706 31:0.0099999999 32:0.36 33:0.83999999 37:0.16 
34.058358917623146 2:2.6197961e-09 20:0.02347156 21:0.0019555812 26:0.079999999 27:0.74999999 29:1 30:0.0039215686 32:0.32 33:0.99999999 
256 2:2.6197961e-07 20:0.0019448806 21:0.0019555812 26:0.99999999 29:0.12156863 30:0.0039215686 31:0.03 32:0.059999999 33:0.03 
256 2:2.0958369e-08 20:0.0019448806 21:0.0019555812 26:0.99999999 29:0.0078431373 30:0.047058824 31:0.99999999 33:0.99999999 34:0.5 
256 2:5.6325617e-07 20:0.0019448806 21:0.0019555812 26:0.99999999 29:0.090196078 30:0.090196078 31:0.99999999 33:0.99999999 
0.97149586451027448 1:0.00018664551 2:1.5718777e-08 9:0.99999999 20:0.99608606 21:0.0019555812 22:0.02 24:0.96999999 27:0.99999999 29:1 30:0.0039215686 32:0.99999999 35:0.02 37:0.96999999 
256 2:2.0958369e-08 20:0.0019448806 21:0.0019555812 26:0.99999999 29:0.0039215686 30:0.0039215686 31:0.99999999 33:0.99999999 
256 2:5.6325617e-07 20:0.0019448806 21:0.0019555812 26:0.99999999 29:0.86666667 30:0.74117647 31:0.85999999 32:0.0099999999 33:0.85999999 
248.58847437369425 20:0.0019448806 21:0.0019555812 24:0.99999999 25:0.99999999 26:0.99999999 29:1 30:0.0039215686 32:0.04 33:0.02 37:0.02 38:0.99999999 
2.9881071236202232 2:2.6197961e-09 20:0.031299443 21:0.01565423 26:0.5 27:0.19 29:1 30:0.031372549 31:0.03 32:0.3 33:0.99999999 
256 2:2.6197961e-07 20:0.0058588223 21:0.0058694809 26:0.99999999 29:0.13333333 30:0.015686275 31:0.12 32:0.059999999 33:0.12 
256 2:5.2395923e-08 20:0.0078157931 21:0.0078264307 26:0.99999999 29:0.015686275 30:0.015686275 31:0.99999999 33:0.99999999 
1.3326630718830026 20:0.0019448806 21:0.0019555812 22:0.99999999 23:0.99999999 26:0.99999999 29:1 30:0.0039215686 32:0.99999999 33:0.99999999 35:0.99999999 36:0.99999999 
3.3279463071028434 20:0.0019448806 21:0.0019555812 24:0.99999999 25:0.99999999 26:0.99999999 29:1 30:0.039215686 31:0.04 32:0.11 33:0.099999999 37:0.099999999 38:0.099999999 
2.0682357473410216 2:2.69839e-07 3:5.6683785e-05 7:0.012987013 8:1 14:0.05 19:0.99999999 20:0.0019448806 21:0.0019555812 26:0.99999999 29:0.45882353 30:0.0078431373 31:0.02 32:0.11 33:0.0099999999 37:0.03 
1.5477112931993824 20:0.0019448806 21:0.0019555812 22:0.99999999 23:0.99999999 26:0.99999999 29:0.070588235 30:0.0039215686 31:0.059999999 32:0.71999999 33:0.55999999 35:0.55999999 36:0.99999999 
256 2:5.422978e-07 20:0.0039018514 21:0.003912531 26:0.99999999 29:0.062745098 30:0.062745098 31:0.99999999 33:0.99999999 
256 2:2.0958369e-08 20:0.0019448806 21:0.0019555812 26:0.99999999 29:0.0078431373 30:0.0078431373 31:0.99999999 33:0.99999999 
62.67259591601772 2:4.715633e-08 20:0.0019448806 21:0.0019555812 26:0.99999999 29:0.0078431373 30:0.023529412 31:0.99999999 33:0.99999999 34:0.33 
0.90099661425773259 20:1 21:0.0019555812 22:0.0099999999 24:0.98999999 25:0.99999999 27:0.99999999 29:1 30:0.0039215686 32:0.99999999 35:0.0099999999 37:0.98999999 38:0.99999999 
248.68955276863335 20:0.0019448806 21:0.0019555812 24:0.99999999 25:0.99999999 26:0.99999999 29:0.49019608 30:0.0039215686 31:0.0099999999 32:0.05 33:0.04 37:0.04 38:0.99999999 
102.67968806949654 2:5.422978e-07 20:0.0039018514 21:0.003912531 26:0.99999999 29:0.95686275 30:0.8 31:0.83999999 32:0.0099999999 33:0.83999999 
1.1257861008087211 20:0.021514589 21:0.0019555812 22:0.72999999 23:0.99999999 24:0.27 26:0.089999999 27:0.54999999 29:1 30:0.0039215686 32:0.03 33:0.04 35:0.03 36:0.99999999 37:0.0099999999 
256 2:1.3098981e-08 20:0.0019448806 21:0.0019555812 26:0.99999999 29:1 30:0.02745098 31:0.03 32:0.02 33:0.03 
256 2:5.6325617e-07 20:0.0019448806 21:0.0019555812 26:0.99999999 29:0.38039216 30:0.31764706 31:0.83999999 32:0.02 33:0.83999999 
104.15988135622845 2:4.715633e-08 20:0.0019448806 21:0.0019555812 26:0.99999999 29:0.0039215686 30:0.42352941 31:0.99999999 33:0.99999999 34:0.99999999 
1.1771075720795576 20:1 21:0.0019555812 22:0.44 24:0.55999999 25:0.99999999 27:0.99999999 29:1 30:0.0039215686 32:0.99999999 35:0.51999999 37:0.48 38:0.99999999 
256 2:5.422978e-07 20:0.0039018514 21:0.003912531 26:0.99999999 29:0.36862745 30:0.30588235 31:0.82999999 32:0.02 33:0.82999999 
1.3572620706435012 1:0.00013998414 3:1.5918049e-05 9:0.99999999 20:0.0019448806 21:0.0019555812 26:0.99999999 29:0.023529412 30:0.30980392 31:0.17 32:0.99999999 33:0.17 34:0.04 36:0.0099999999 37:0.66999999 38:0.03 
256 20:0.0019448806 21:0.0019555812 24:0.99999999 25:0.99999999 26:0.99999999 29:0.6745098 30:0.0039215686 31:0.0099999999 32:0.05 33:0.02 37:0.03 38:0.99999999 
256 2:4.715633e-08 20:0.0019448806 21:0.0019555812 26:0.99999999 29:0.011764706 30:0.011764706 31:0.99999999 33:0.99999999 
256 2:4.715633e-08 20:0.0019448806 21:0.0019555812 26:0.99999999 29:0.015686275 30:0.43921569 31:0.99999999 33:0.99999999 34:0.25 
256 2:4.715633e-08 20:0.0019448806 21:0.0019555812 26:0.99999999 29:0.015686275 30:0.20392157 31:0.99999999 33:0.99999999 34:0.25 
1.0524241354785266 1:0.00018664551 2:1.5718777e-08 9:0.99999999 20:0.99804303 21:0.0019555812 22:0.2 24:0.78999999 27:0.99999999 29:1 30:0.0039215686 32:0.99999999 35:0.23 37:0.74999999 
256 2:2.0958369e-08 20:0.0039018514 21:0.003912531 26:0.99999999 29:0.0078431373 30:0.0078431373 31:0.99999999 33:0.99999999 
1.5970061777780884 1:4.6661378e-05 2:1.5718777e-08 3:5.4354314e-06 9:0.99999999 20:0.10957828 21:0.0019555812 22:0.02 24:0.90999999 25:0.99999999 26:0.02 27:0.99999999 29:1 30:0.0039215686 32:0.25 37:0.21 38:0.99999999 
256 2:2.6197961e-07 20:0.0039018514 21:0.003912531 26:0.99999999 29:0.31764706 30:0.043137255 31:0.14 32:0.02 33:0.14 
0.92990962633432905 20:0.28374868 21:0.0019555812 22:0.059999999 23:0.99999999 24:0.93999999 26:0.0099999999 27:0.57999999 29:1 30:0.0039215686 32:0.33 33:0.56999999 35:0.04 36:0.99999999 37:0.52999999 
0.52233321711575487 20:0.0019448806 21:0.0019555812 24:0.99999999 25:0.99999999 26:0.99999999 29:0.019607843 30:0.0078431373 31:0.2 32:0.99999999 33:0.2 34:0.99999999 37:0.59999999 38:0.99999999 
1.0838180956926313 2:4.715633e-08 20:0.0019448806 21:0.0019555812 26:0.99999999 29:0.0078431373 30:0.31372549 31:0.5 32:0.99999999 33:0.5 34:0.99999999 
0.23000053238546664 20:0.15263163 21:0.0019555812 24:0.93999999 25:0.99999999 26:0.0099999999 27:0.99999999 29:0.79607843 30:0.043137255 31:0.03 32:0.43 34:0.18 36:0.089999999 37:0.37 38:0.089999999 
256 2:2.3578165e-08 3:3.804802e-05 7:0.012987013 20:0.0097727639 21:0.0097833805 26:0.99999999 29:0.60784314 30:0.02745098 31:0.05 32:0.059999999 33:0.0099999999 35:0.0099999999 
1.7320254241948165 1:1 2:2.6197961e-09 20:0.0039018514 21:0.003912531 24:0.99999999 25:0.99999999 26:0.99999999 29:0.49411765 30:0.0078431373 31:0.02 32:0.05 33:0.05 37:0.05 38:0.99999999 
2.9614916528866204 1:0.29730297 2:1.0775222e-05 3:0.01002313 9:0.99999999 10:0.0045248869 13:0.0041025641 14:0.45 20:0.0019448806 21:0.0019555812 26:0.99999999 29:0.28235294 30:0.011764706 31:0.03 32:0.98999999 33:0.0099999999 34:0.66999999 37:0.95999999 38:0.66999999 
86.701741866214348 1:6.5152625e-07 2:1.0540004e-10 3:1.9930083e-09 4:0.00056235474 5:0.0002479598 6:0.00029242058 7:0.00089716344 8:0.0060890984 9:0.98255814 10:2.232474e-05 11:0.012424279 12:0.00026144477 13:2.2386627e-06 14:7.6327531e-05 15:0.002245343 16:0.00046744624 17:0.037537869 18:0.013511465 19:0.022201177 20:0.00016911186 21:1.0499647e-05 22:0.017090761 23:0.0067175164 24:0.012644863 25:0.019166767 26:0.99376751 27:0.0051373064 28:0.0082968098 29:0.00032307863 30:0.0004510876 31:0.84864477 32:0.023265656 33:0.86066911 34:0.067041677 35:0.0045176126 36:0.01273276 37:0.0068365786 38:0.019728037 
33.138732564548313 1:2.3069059e-06 2:4.868774e-10 3:1.6889411e-09 4:0.0010596851 5:0.00074358894 6:0.00075153828 7:0.0027079732 8:0.018944465 9:0.94831492 10:5.4362518e-06 11:0.018831663 12:0.00049693307 13:2.6459647e-06 14:0.00018144586 15:0.014694281 16:0.00037586929 17:0.010997115 18:0.02253502 19:0.038083285 20:8.5160917e-05 21:1.4030842e-05 22:0.01927502 23:0.0033263542 24:0.035442814 25:0.065613367 26:0.99438059 27:0.0084506688 28:0.061318695 29:0.00057463844 30:0.00066976087 31:0.89779639 32:0.014806561 33:0.70258563 34:0.5885465 35:0.0086295986 36:0.036666558 37:0.039444228 38:0.061592475 
10.588997174191828 1:4.7210533e-07 2:9.5593616e-11 3:1.2044955e-09 4:0.0046557 5:0.00036030009 6:0.0026081134 7:0.0089117174 8:0.0083755787 9:0.97209461 10:3.547711e-06 11:0.0026709405 12:0.00028748086 13:6.1186289e-06 14:0.00049278567 15:0.002743488 16:0.00062788099 17:0.043317527 18:0.21658329 19:0.19054115 20:0.00013376507 21:9.8857146e-06 22:0.025072874 23:0.021110431 24:0.030932393 25:0.058116492 26:0.99131556 27:0.014514744 28:0.029646525 29:0.0021345787 30:0.00053411731 31:0.45449033 32:0.059512766 33:0.093354524 34:0.075617972 35:0.016662841 36:0.065569379 37:0.011892595 38:0.013262169 
1.070562299333464 1:3.7280921e-07 2:7.5708417e-11 3:1.367664e-09 4:0.00076876515 5:0.00019136004 6:0.001564667 7:0.00077395478 8:0.043641395 9:0.88319855 10:1.0263739e-05 11:0.0056237012 12:0.0013244449 13:4.534842e-06 14:4.9314152e-05 15:0.0031765236 16:0.0020794134 17:0.029472015 18:0.043424688 19:0.13200418 20:0.00048724303 21:3.4537068e-05 22:0.0042505353 23:0.018953163 24:0.035790038 25:0.04712134 26:0.99485909 27:0.011890657 28:0.026550098 29:0.00059110985 30:0.00044370383 31:0.9087352 32:0.021219976 33:0.20350168 34:0.41199372 35:0.009067827 36:0.010540154 37:0.029912652 38:0.018436235 
0.33333193687904222 1:8.5544231e-07 2:9.9011094e-11 3:7.447038e-10 4:0.0032113607 5:0.00025212231 6:0.0024542971 7:0.0075662029 8:0.0015282409 9:0.92852699 10:6.4258577e-06 11:0.0052389069 12:0.0029783159 13:2.5506976e-06 14:7.3166951e-05 15:0.012830417 16:0.0020875405 17:0.04396667 18:0.055776509 19:0.85303036 20:0.00021768706 21:1.6829991e-05 22:0.0064252103 23:0.022617909 24:0.023577437 25:0.06347599 26:0.99040808 27:0.0099070663 28:0.0039434448 29:0.0017456032 30:0.0012130779 31:0.69508234 32:0.032964763 33:0.22863692 34:0.11171056 35:0.012621534 36:0.053188857 37:0.045358483 38:0.04425463 
2.9765421809488246 1:8.0332534e-07 2:2.6046101e-11 3:4.828861e-09 4:0.0042890109 5:0.0025511354 6:0.0011536058 7:0.0070075874 8:0.011245059 9:0.95545261 10:1.7960679e-06 11:0.010616222 12:0.0040861181 13:5.5030675e-06 14:0.00012344001 15:0.003386348 16:0.0015117108 17:0.017522416 18:0.051543009 19:0.14787398 20:0.00012831095 21:5.8492985e-06 22:0.012520182 23:0.027454087 24:0.025279208 25:0.015464855 26:0.95592166 27:0.0083785643 28:0.020324313 29:0.0021575876 30:0.0007216314 31:0.34883197 32:0.013039966 33:0.47445284 34:0.033224925 35:0.042450206 36:0.043196607 37:0.039284592 38:0.024386454 
6.5214012825840113 1:3.0450967e-07 2:2.2875942e-10 3:2.4116781e-09 4:0.0079676871 5:0.00063127148 6:0.0063034467 7:0.0079272701 8:0.027342788 9:0.93440375 10:5.0813942e-06 11:0.0061688268 12:0.0054723813 13:3.6802835e-06 14:0.00033048535 15:0.0044975183 16:0.00037997961 17:0.064127781 18:0.033718406 19:0.73398508 20:0.00021301117 21:3.0804888e-05 22:0.028854155 23:0.010238872 24:0.031362069 25:0.034589743 26:0.98745438 27:0.0088626385 28:0.0063106148 29:0.0030707789 30:0.0020755867 31:0.59312169 32:0.15705975 33:0.25414655 34:0.046195802 35:0.043853118 36:0.087289805 37:0.020680466 38:0.024626816 
33.409870753237264 1:2.5426924e-07 2:1.3000728e-10 3:2.1788958e-09 4:0.00055396 5:0.00077119709 6:0.0011432305 7:0.0032653984 8:0.012300239 9:0.95654496 10:4.8045616e-06 11:0.011467896 12:0.00063959566 13:3.5650102e-06 14:5.3958344e-05 15:0.0044436527 16:0.00022483996 17:0.036923944 18:0.027961241 19:0.067341815 20:0.00071405485 21:9.7866758e-05 22:0.023739463 23:0.023947376 24:0.036021871 25:0.016142834 26:0.97937943 27:0.024268726 28:0.031603534 29:0.0013241957 30:0.00076820085 31:0.83732272 32:0.02958623 33:0.33141482 34:0.14496608 35:0.012400039 36:0.010823877 37:0.02175723 38:0.013672731 
12.550967271755571 1:4.3068873e-07 2:8.5588268e-11 3:2.231183e-09 4:0.0012058423 5:0.00090780531 6:0.0056086551 7:0.0056676122 8:0.0052804029 9:0.89113364 10:3.8624253e-06 11:0.017882477 12:0.001080512 13:3.0294181e-06 14:0.00018433207 15:0.0066613923 16:0.0011050042 17:0.068231236 18:0.025157362 19:0.86698406 20:0.00021792106 21:3.3022046e-05 22:0.025824043 23:0.021729363 24:0.034596874 25:0.012651322 26:0.98511526 27:0.0069916221 28:0.032263722 29:0.002071529 30:0.00086822268 31:0.70946435 32:0.042288487 33:0.2758829 34:0.068217809 35:0.024360719 36:0.015857294 37:0.036928629 38:0.026424669 
5.6945078564507314 1:2.1845215e-08 2:7.7919396e-11 3:4.0055865e-09 4:0.0013387108 5:0.0074586763 6:0.00043562027 7:0.00030423848 8:0.00014280034 9:0.021377118 10:3.7646446e-05 11:0.001008452 12:0.00043002962 13:6.2516728e-07 14:4.1456231e-05 15:0.0022913702 16:0.0001462436 17:0.052065904 18:0.037841607 19:0.00058343439 20:0.0013564989 21:0.00030683706 22:0.015186337 23:0.0045410712 24:0.95580823 25:0.73164364 26:0.86224765 27:0.070304627 28:0.0053354818 29:0.0036781128 30:0.00092086821 31:0.66680058 32:0.028853733 33:0.07104675 34:0.0013224821 35:0.0091668776 36:0.0059180044 37:0.90162197 38:0.93759477 
1.3069658367873347 1:3.0098835e-08 2:1.6186092e-11 3:3.0318786e-09 4:0.0011299555 5:0.0033822938 6:0.00072410084 7:0.00013384389 8:0.00024106154 9:0.042715098 10:5.7554112e-06 11:0.00034609449 12:0.00079938625 13:2.2526533e-06 14:2.8320254e-05 15:0.00030265909 16:8.9630845e-05 17:0.030579701 18:0.024106366 19:0.0027515067 20:0.00073380226 21:0.0001091444 22:0.051673909 23:0.010015434 24:0.80456938 25:0.92901237 26:0.69389208 27:0.036497942 28:0.0031294934 29:0.0036569764 30:0.0015223163 31:0.21753223 32:0.040759393 33:0.059769061 34:0.0019021574 35:0.0038318221 36:0.0097233435 37:0.48025363 38:0.76464626 
0.44124858471944106 1:4.1923949e-08 2:1.2117803e-10 3:2.806491e-08 4:0.0025854967 5:0.0051604131 6:0.00087839584 7:0.00029076182 8:0.00044498711 9:0.027203051 10:2.5035075e-05 11:0.00072264258 12:0.00066639115 13:1.3358015e-06 14:5.1743077e-05 15:0.00080248054 16:0.00025038725 17:0.023013918 18:0.074675572 19:0.0026308822 20:0.0011621789 21:0.00045814213 22:0.00022812929 23:0.0010357307 24:0.973305 25:0.98964836 26:0.81062964 27:0.046637117 28:0.00067721697 29:0.0037421227 30:0.00075076067 31:0.52123104 32:0.04342273 33:0.085191019 34:0.0054556467 35:0.00032546519 36:0.00012791228 37:0.93209249 38:0.99082294 
1.3211201348399173 1:2.6463379e-08 2:8.8852209e-11 3:7.6636266e-09 4:0.0029266119 5:0.01050552 6:0.0011479466 7:0.00037239381 8:0.00017269274 9:0.041349093 10:1.8709487e-05 11:0.0005506011 12:0.0017893936 13:9.5343089e-07 14:0.00016896218 15:0.0033680165 16:7.8678683e-05 17:0.25052815 18:0.079167568 19:0.0012217845 20:0.00092588356 21:8.9300042e-05 22:0.0026945593 23:0.0031713498 24:0.84337712 25:0.94757487 26:0.80092381 27:0.079004247 28:0.00091540379 29:0.0036807995 30:0.0009858113 31:0.69124169 32:0.14005591 33:0.073266667 34:0.0027899014 35:0.0021352188 36:0.0015965537 37:0.87465304 38:0.96760298 
0.083586950370432372 1:4.6531337e-08 2:3.7269286e-11 3:3.1762402e-09 4:0.0017762705 5:0.019741169 6:0.00057452594 7:0.00016281539 8:0.00029443369 9:0.024144953 10:8.7792741e-06 11:0.0014861143 12:0.00056716493 13:2.1618002e-06 14:0.00010738425 15:0.00035035884 16:0.00011222916 17:0.030515245 18:0.093385715 19:0.00064869059 20:0.00074744347 21:0.00038347484 22:0.057384711 23:0.071993568 24:0.13639297 25:0.34737431 26:0.56225705 27:0.059366903 28:0.0046189022 29:0.0038766327 30:0.00042090717 31:0.48727901 32:0.13241673 33:0.043923925 34:0.0018109542 35:0.017308248 36:0.07424686 37:0.40034911 38:0.52364122 
4.3329165773332443 1:3.9412195e-08 2:1.7012106e-10 3:3.6913415e-09 4:0.00030918963 5:0.0096102992 6:0.00086032069 7:0.00046619524 8:0.00038950556 9:0.012827414 10:2.7747319e-05 11:0.00083803857 12:0.00031607512 13:8.1821936e-07 14:6.9316076e-05 15:0.00089605065 16:0.00030126495 17:0.089986942 18:0.038400721 19:0.00092054729 20:0.00028549888 21:0.00034862319 22:0.025773974 23:0.012379819 24:0.75659553 25:0.907204 26:0.55095686 27:0.033132487 28:0.00224271 29:0.0038685918 30:0.00080888582 31:0.55378208 32:0.026281874 33:0.11350009 34:0.0041864714 35:0.010745961 36:0.036601845 37:0.45829316 38:0.8248722 
1.5710534157989882 1:1.9463104e-08 2:2.2468256e-11 3:3.6900863e-09 4:0.0014599688 5:0.0019991207 6:0.0013832883 7:0.0001986009 8:0.00014176025 9:0.010006723 10:1.843483e-05 11:0.00077047032 12:0.00032636937 13:1.754309e-07 14:1.6312257e-05 15:0.00084361986 16:7.9179151e-05 17:0.031838324 18:0.029456277 19:0.0011075173 20:0.00087008567 21:5.5468214e-05 22:0.70312456 23:0.29955951 24:0.014023349 25:0.15048429 26:0.51755075 27:0.021919708 28:0.0015990164 29:0.0038494633 30:0.00084748281 31:0.088168543 32:0.10698208 33:0.027519222 34:0.0037747881 35:0.25774228 36:0.13054003 37:0.057639086 38:0.088065661 
0.23181941471709727 1:2.2540491e-08 2:4.5942004e-12 3:8.2097679e-10 4:0.0033691055 5:0.006906689 6:0.00067465543 7:0.00047091737 8:0.0001015562 9:0.01545379 10:1.2049791e-05 11:0.0028590474 12:0.00023042845 13:2.9102184e-06 14:3.3261457e-05 15:0.0021477068 16:0.0001228692 17:0.058603854 18:0.093484985 19:0.00044445569 20:0.0013217814 21:0.00041182365 22:0.50619334 23:0.15667051 24:0.21508194 25:0.080842084 26:0.20462043 27:0.10132557 28:0.0033410655 29:0.0038805264 30:0.00040128992 31:0.2282447 32:0.074632407 33:0.098441502 34:0.0014504895 35:0.077017916 36:0.34181286 37:0.077554845 38:0.19224498 
7.0694159026078571 1:1.7639993e-08 2:2.1233079e-11 3:6.4307738e-09 4:0.00070247991 5:0.002368655 6:0.0010309844 7:0.00034512006 8:0.0002748222 9:0.030856624 10:3.0625303e-05 11:0.00058085962 12:0.00056963136 13:3.4953046e-07 14:2.2649493e-05 15:0.0005944416 16:0.00021149135 17:0.026358461 18:0.044063732 19:0.00015354682 20:0.00081109186 21:0.00023240331 22:0.14449178 23:0.10405777 24:0.10214066 25:0.16852655 26:0.4291932 27:0.022417548 28:0.0016048162 29:0.0037800148 30:0.00074548362 31:0.42546165 32:0.011121921 33:0.14241725 34:0.00084861931 35:0.05457107 36:0.21715274 37:0.25842151 38:0.072050855 
1.4320420439163659 1:1.2556017e-07 2:3.9611549e-11 3:2.785334e-09 4:0.0067096433 5:0.0091395474 6:0.00064490886 7:0.00027063875 8:0.00019244758 9:0.010177429 10:2.5434381e-05 11:0.0013004333 12:0.00054870633 13:1.194425e-06 14:0.0001312533 15:0.0015545924 16:0.00027781824 17:0.022793921 18:0.065096455 19:0.005638521 20:0.00062244478 21:0.00013022804 22:0.21798534 23:0.13378725 24:0.17346673 25:0.24721304 26:0.57482159 27:0.032225341 28:0.0037094239 29:0.0038691061 30:0.00038646864 31:0.31881653 32:0.075193969 33:0.051291777 34:0.0076963118 35:0.093359044 36:0.16373774 37:0.31173986 38:0.16914205 
1.0908426913796252 1:1.4590636e-08 2:1.7317745e-10 3:2.9031745e-09 4:0.0008095068 5:0.01122099 6:0.00086501308 7:0.00044452045 8:0.00017785749 9:0.031161351 10:1.4108991e-05 11:0.0005513277 12:0.0005649763 13:3.3573772e-06 14:1.9115099e-05 15:0.0012392942 16:0.00013420946 17:0.027497192 18:0.040990697 19:0.0017936464 20:0.00081670742 21:6.4755276e-05 22:0.30560908 23:0.39024591 24:0.068116705 25:0.024903608 26:0.3110356 27:0.049734884 28:0.0011413454 29:0.0038257344 30:0.00056782801 31:0.10155564 32:0.045242657 33:0.030487138 34:0.0030114838 35:0.28488339 36:0.4269922 37:0.066448365 38:0.054668921 
-0.14361981765703202 1:0.025243806 2:3.8511003e-07 3:2.0382868e-05 20:0.0039018514 21:0.003912531 26:0.99999999 29:1 30:0.0078431373 31:0.0099999999 32:0.42 33:0.85999999 
-2.9038633157142928 2:5.9731352e-07 3:0.0013266335 9:0.99999999 20:0.0039018514 21:0.01369728 26:0.99999999 28:0.56999999 29:0.070588235 30:0.074509804 31:0.99999999 33:0.059999999 34:0.11 
-256 2:7.8593884e-08 20:0.0019448806 21:0.0019555812 26:0.99999999 29:0.96862745 30:0.96862745 31:0.99999999 33:0.99999999 
-5.9891935171114206 1:0.00041995241 2:2.7769839e-07 3:0.00028497191 20:0.0019448806 21:0.0019555812 26:0.99999999 29:0.45882353 30:0.0039215686 31:0.0099999999 32:0.04 33:0.0099999999 
-12.342306197047574 2:8.6453273e-08 20:0.015643676 21:0.01565423 26:0.99999999 29:1 30:0.14117647 31:0.14 32:0.03 33:0.14 
-256 2:7.8593884e-08 20:0.0019448806 21:0.0019555812 26:0.99999999 29:0.96862745 30:0.96862745 31:0.99999999 33:0.99999999 
-121.15537031434921 1:9.3322757e-05 2:3.4266933e-06 3:6.3672197e-05 9:0.99999999 20:0.0019448806 21:0.0019555812 26:0.99999999 29:0.0078431373 30:0.054901961 31:0.99999999 33:0.5 34:0.14 
-256 2:1.6766695e-07 20:0.0019448806 21:0.0019555812 26:0.99999999 29:0.0039215686 30:0.0039215686 31:0.99999999 33:0.99999999 
-256 1:0.00062992861 2:2.7953225e-06 3:0.00059809158 7:0.28571429 9:0.99999999 19:0.99999999 20:0.0019448806 21:0.0019555812 26:0.99999999 29:0.99607843 30:0.2745098 31:0.28 32:0.02 
-256 2:2.1482328e-07 3:1.9412255e-07 20:0.0019448806 21:0.0019555812 26:0.99999999 29:0.0039215686 30:0.0039215686 31:0.99999999 33:0.99999999 
-0.35172025896329545 2:8.121368e-08 20:0.0019448806 21:0.003912531 26:0.99999999 28:0.99999999 29:0.0078431373 30:0.074509804 31:0.5 32:0.99999999 33:0.5 34:0.11 
-256 2:1.2967991e-06 9:0.99999999 13:0.0051282051 20:0.0019448806 21:0.0019555812 26:0.99999999 29:0.0039215686 30:0.11764706 31:0.99999999 33:0.99999999 34:0.099999999 
-256 1:9.3322757e-05 3:2.9118383e-06 20:0.0019448806 21:0.0019555812 24:0.99999999 25:0.99999999 26:0.99999999 29:0.50980392 30:0.0039215686 31:0.0099999999 32:0.05 33:0.0099999999 37:0.0099999999 38:0.99999999 
-13.877697010342237 2:5.9993332e-07 3:0.00013239158 9:0.99999999 20:0.013686706 21:0.023482029 26:0.99999999 28:0.17 29:0.99215686 30:1 31:0.99999999 34:0.0099999999 37:0.14 38:0.15 
-256 2:8.121368e-08 3:1.7665152e-05 20:0.0058588223 21:0.0058694809 26:0.99999999 29:0.031372549 30:0.078431373 31:0.99999999 33:0.99999999 34:0.099999999 
-115.22363861830796 1:4.6661378e-05 2:0.0057494544 9:0.99999999 20:0.0039018514 21:0.003912531 26:0.99999999 29:0.039215686 30:0.1372549 31:0.59999999 32:0.4 33:0.59999999 34:0.059999999 
-253.13553491587177 1:0.10424152 2:4.3488616e-07 3:0.0045378088 9:0.99999999 10:0.0011312217 20:0.0019448806 21:0.0019555812 26:0.99999999 29:0.0039215686 30:0.0039215686 31:0.99999999 33:0.99999999 
-256 2:7.8593884e-08 20:0.0039018514 21:0.003912531 26:0.99999999 29:0.18823529 30:0.18823529 31:0.99999999 33:0.99999999 
-256 2:8.6453273e-08 3:1.8053397e-05 20:0.0019448806 21:0.0019555812 26:0.99999999 29:0.16078431 30:0.20392157 31:0.99999999 33:0.99999999 34:0.04 
-42.860511179597609 2:1.6766695e-07 20:0.0019448806 21:0.0019555812 26:0.99999999 29:0.30196078 30:0.0039215686 31:0.0099999999 32:0.93999999 33:0.0099999999 37:0.89999999 
-0.06651724782650216 1:2.3330689e-05 3:2.9118383e-06 20:0.0019448806 21:0.0019555812 24:0.99999999 25:0.99999999 26:0.99999999 29:0.89019608 30:0.0078431373 32:0.03 34:0.99999999 38:0.5 
-31.153448212418205 2:3.9034962e-07 3:0.0014640723 7:0.051948052 9:0.99999999 10:0.0045248869 20:0.041084297 21:0.041094578 26:0.99999999 29:0.61960784 30:1 31:0.99999999 33:0.0099999999 34:0.0099999999 
-224.48224656912356 2:2.3840145e-07 20:0.013686706 21:0.01369728 26:0.99999999 29:0.51764706 30:0.02745098 31:0.05 32:0.02 33:0.05 37:0.11 
-1.2775074235093187 1:0.025570435 2:3.0127656e-07 3:0.00030419004 9:0.99999999 20:0.0019448806 21:0.0019555812 24:0.99999999 25:0.99999999 26:0.99999999 29:0.015686275 30:0.011764706 31:0.74999999 32:0.5 33:0.25 35:0.25 36:0.33 37:0.5 38:0.66999999 
-31.116492123061487 2:1.8338573e-08 3:4.3289329e-05 20:0.0039018514 21:0.0019555812 26:0.5 27:0.99999999 29:0.41568627 30:0.019607843 31:0.05 32:0.05 33:0.0099999999 35:0.02 36:0.2 
-256 2:2.6197961e-08 3:7.5707795e-06 9:0.99999999 20:0.0019448806 21:0.0019555812 26:0.99999999 29:0.0039215686 30:0.047058824 31:0.99999999 33:0.99999999 34:0.25 
-256 2:1.3518148e-06 3:7.7649021e-07 20:0.60273492 21:0.60273918 26:0.99999999 29:1 30:1 31:0.99999999 33:0.99999999 
-256 2:6.3661046e-07 3:0.0059946985 7:0.012987013 9:0.99999999 10:0.0011312217 20:0.0078157931 21:0.0078264307 26:0.99999999 29:1 30:1 31:0.99999999 
-256 2:1.3518148e-06 3:7.7649021e-07 20:0.52837003 21:0.52837509 26:0.99999999 29:1 30:1 31:0.99999999 33:0.99999999 
-256 2:7.8593884e-08 20:0.0019448806 21:0.0019555812 26:0.99999999 29:0.99215686 30:0.99215686 31:0.99999999 33:0.99999999 
-2.5239153010818076 1:0.00011665345 2:7.0210537e-07 3:5.4160192e-05 7:0.012987013 9:0.99999999 20:0.0019448806 21:0.0058694809 26:0.99999999 28:0.66999999 29:0.41568627 30:0.4 31:0.95999999 32:0.02 33:0.0099999999 
-3.4563948506596684 20:0.0039018514 21:0.0058694809 22:0.5 23:0.33 26:0.99999999 28:0.66999999 29:0.011764706 30:0.047058824 31:0.99999999 33:0.66999999 34:0.33 35:0.33 36:0.079999999 
-8.5518669964994984 1:0.00016331482 2:4.62656e-06 9:0.99999999 20:0.0019448806 21:0.0019555812 26:0.99999999 29:0.82745098 30:0.0039215686 32:0.04 33:0.37 
-256 2:1.3518148e-06 3:7.7649021e-07 20:0.97064544 21:0.97064575 26:0.99999999 29:1 30:1 31:0.99999999 33:0.99999999 
-2.6669943353214167 2:9.1692865e-07 3:2.7759525e-05 9:0.99999999 20:0.0019448806 21:0.02152508 26:0.99999999 28:0.36 29:0.0078431373 30:0.043137255 31:0.99999999 33:0.5 34:0.45 37:0.5 38:0.90999999 
-23.326691228279802 1:0.0006532593 2:2.7219682e-06 3:0.00059809158 7:0.28571429 9:0.99999999 19:0.99999999 20:0.0019448806 21:0.0019555812 26:0.99999999 29:0.12941176 30:0.011764706 31:0.089999999 32:0.089999999 33:0.03 
-5.373378346718626 20:0.0019448806 21:0.0019555812 24:0.99999999 25:0.99999999 26:0.99999999 29:0.082352941 30:0.082352941 31:0.99999999 33:0.05 37:0.99999999 38:0.99999999 
-256 2:5.422978e-07 3:4.0183368e-05 20:0.0039018514 21:0.003912531 26:0.99999999 29:1 30:0.83921569 31:0.83999999 32:0.0099999999 33:0.83999999 
-0.59522554407716943 20:0.0039018514 21:0.003912531 22:0.5 23:0.5 26:0.99999999 29:0.0078431373 30:1 31:0.99999999 33:0.99999999 34:0.04 35:0.5 
-5.7647996833941724 1:0.00097988895 2:2.6197961e-08 3:6.9884119e-06 20:0.0019448806 21:0.0019555812 24:0.99999999 25:0.99999999 26:0.99999999 29:1 30:0.011764706 31:0.0099999999 32:0.02 38:0.33 
-54.383823372005132 2:1.2051062e-07 3:2.5624177e-05 20:0.3228881 21:0.32093841 26:0.98999999 27:0.0099999999 29:0.21176471 30:0.082352941 31:0.39 32:0.04 33:0.02 
-256 2:3.6813375e-05 9:0.99999999 20:0.015643676 21:0.01565423 26:0.99999999 29:0.054901961 30:0.054901961 31:0.99999999 33:0.99999999 
-256 1:0.00062992861 2:3.1856721e-06 3:0.00065613422 7:0.31168831 9:0.99999999 19:0.99999999 20:0.0019448806 21:0.0019555812 26:0.99999999 29:1 30:0.2745098 31:0.27 32:0.03 
-231.69598732762324 2:6.2089168e-07 3:0.00011783239 9:0.99999999 20:0.0097727639 21:0.0097833805 22:0.2 23:0.2 26:0.99999999 29:1 30:1 31:0.99999999 37:0.0099999999 38:0.0099999999 
-17.927092400313448 2:8.173764e-07 3:0.00048666524 9:0.99999999 20:0.011729735 21:0.01761118 25:0.33 26:0.99999999 28:0.44 29:0.32941176 30:0.29411765 31:0.88999999 32:0.02 33:0.0099999999 35:0.0099999999 36:0.0099999999 
-256 2:7.3354292e-07 3:0.00055033743 9:0.99999999 20:0.0019448806 21:0.0019555812 26:0.99999999 29:0.0039215686 30:0.10196078 31:0.99999999 33:0.99999999 34:0.079999999 
-0.90925622966570441 2:4.4012575e-07 3:0.00032496115 9:0.99999999 20:0.0039018514 21:0.02152508 22:0.5 23:0.089999999 26:0.99999999 28:0.18 29:0.0078431373 30:0.035294118 31:0.99999999 33:0.5 34:0.33 35:0.5 36:0.11 
-0.027769854172565646 2:1.5718777e-08 3:5.2218966e-05 20:0.0019448806 21:0.0019555812 26:0.99999999 29:0.90196078 30:0.0078431373 31:0.0099999999 32:0.02 37:0.82999999 
-256 1:0.0006532593 2:3.906116e-06 3:0.00080599683 7:0.38961039 9:0.99999999 19:0.99999999 20:0.0019448806 21:0.0019555812 26:0.99999999 29:1 30:0.2 31:0.2 32:0.03 
-1.6371643882302351 20:0.0019448806 21:0.0019555812 22:0.99999999 23:0.99999999 26:0.99999999 29:0.082352941 30:0.011764706 31:0.14 32:0.19 33:0.05 35:0.099999999 36:0.66999999 
-15.332302427384375 2:1.5433219e-05 9:0.99999999 20:0.029342472 21:0.029352879 22:0.069999999 23:0.069999999 26:0.99999999 29:0.95686275 30:0.29019608 31:0.3 32:0.03 33:0.32 35:0.02 36:0.04 
-256 1:0.00062992861 2:3.9270744e-06 3:0.00080599683 7:0.38961039 9:0.99999999 19:0.99999999 20:0.0019448806 21:0.0019555812 26:0.99999999 29:1 30:0.16470588 31:0.16 32:0.0099999999 
-0.72875116321515321 20:0.0039018514 21:0.0097833805 22:0.5 23:0.2 26:0.99999999 28:0.4 29:0.0078431373 30:1 31:0.99999999 33:0.99999999 34:0.04 35:0.5 
-69.696901597151026 2:2.2889159e-05 9:0.99999999 20:0.021514589 21:0.02152508 26:0.99999999 29:0.066666667 30:0.066666667 31:0.99999999 33:0.99999999 
-252.07886877690544 1:0.00072325136 2:4.0030485e-06 3:0.00080599683 7:0.32467532 9:0.99999999 19:0.99999999 20:0.0019448806 21:0.0019555812 26:0.99999999 29:1 30:0.16470588 31:0.16 32:0.02 
-9.3529726617115791 2:3.3952558e-06 3:6.3089829e-05 9:0.99999999 20:0.0019448806 21:0.0078264307 26:0.99999999 28:0.99999999 29:0.0039215686 30:0.0039215686 31:0.99999999 33:0.99999999 
-0.98065450681513311 2:6.2613128e-07 3:0.00062546286 9:0.99999999 20:0.0039018514 21:0.003912531 22:0.5 23:0.5 26:0.99999999 29:0.043137255 30:0.043137255 31:0.99999999 33:0.089999999 35:0.089999999 36:0.089999999 
-256 1:0.0061826326 2:1.4146899e-07 3:7.7649021e-06 20:0.0019448806 21:0.0019555812 26:0.99999999 29:0.070588235 30:0.070588235 31:0.99999999 33:0.88999999 
-256 2:1.3518148e-06 3:7.7649021e-07 20:0.55576762 21:0.55577239 26:0.99999999 29:1 30:1 31:0.99999999 33:0.99999999 
-256 2:6.1565209e-07 3:0.00079532009 7:0.012987013 9:0.99999999 20:0.0039018514 21:0.003912531 22:0.5 23:0.5 26:0.99999999 29:1 30:1 31:0.99999999 35:0.0099999999 36:0.0099999999 
-256 2:2.3054206e-07 20:0.0019448806 21:0.003912531 26:0.99999999 28:0.99999999 29:0.015686275 30:0.015686275 31:0.99999999 33:0.99999999 
-2.3715048740864639 1:0.013601792 2:2.2215871e-06 3:0.0049157654 7:0.012987013 9:0.99999999 10:0.12104072 11:0.99999999 12:0.5 13:0.1025641 14:0.025 20:0.0019448806 21:0.0019555812 26:0.99999999 29:0.0039215686 30:0.0039215686 31:0.99999999 33:0.99999999 
-31.064230388319896 2:6.077927e-07 3:0.00052374264 9:0.99999999 16:0.125 20:0.0039018514 21:0.0058694809 25:0.33 26:0.99999999 28:0.66999999 29:0.21568627 30:0.21568627 31:0.99999999 33:0.02 
-0.17331364552487716 1:0.00095655826 2:2.8817758e-07 3:0.0017907805 9:0.99999999 20:0.0019448806 21:0.0019555812 24:0.99999999 25:0.99999999 26:0.99999999 29:0.47058824 30:0.0039215686 31:0.0099999999 32:0.079999999 33:0.0099999999 35:0.0099999999 37:0.0099999999 38:0.99999999 
-256 2:1.3518148e-06 3:7.7649021e-07 20:0.97260241 21:0.9726027 26:0.99999999 29:1 30:1 31:0.99999999 33:0.99999999 
-5.1977854221628084 1:0.28220802 2:2.5935982e-07 3:0.00054781384 9:0.99999999 20:0.0019448806 21:0.0019555812 26:0.99999999 29:0.011764706 30:0.0078431373 31:0.33 32:0.66999999 33:0.33 34:0.99999999 
-256 2:1.3518148e-06 3:7.7649021e-07 20:0.51075729 21:0.51076254 26:0.99999999 29:1 30:1 31:0.99999999 33:0.99999999 
-256 2:1.3518148e-06 3:7.7649021e-07 20:0.86105507 21:0.86105656 26:0.99999999 29:1 30:1 31:0.99999999 33:0.99999999 
-256 2:1.3518148e-06 3:7.7649021e-07 20:0.59686401 21:0.59686833 26:0.99999999 29:1 30:1 31:0.99999999 33:0.99999999 
-256 2:1.3518148e-06 3:7.7649021e-07 20:0.68101376 21:0.68101718 26:0.99999999 29:1 30:1 31:0.99999999 33:0.99999999 
-1.9045957710024468 1:0.063832766 2:5.8290464e-06 3:0.0069575464 9:0.99999999 10:0.12443439 11:0.99999999 12:0.5 13:0.12410256 14:0.325 20:0.0019448806 21:0.0019555812 26:0.99999999 29:1 30:0.0039215686 32:0.02 
-256 2:1.3518148e-06 3:7.7649021e-07 20:0.78864715 21:0.78864942 26:0.99999999 29:1 30:1 31:0.99999999 33:0.99999999 
-256 2:1.0033819e-06 9:0.99999999 20:0.0019448806 21:0.0019555812 26:0.99999999 29:0.011764706 30:0.011764706 31:0.99999999 33:0.99999999 
-256 2:1.3518148e-06 3:7.7649021e-07 20:0.81604474 21:0.81604671 26:0.99999999 29:1 30:1 31:0.99999999 33:0.99999999 
-256 2:1.6792893e-06 20:0.0039018514 21:0.003912531 26:0.99999999 29:0.14509804 30:0.019607843 31:0.14 32:0.079999999 33:0.14 
-114.20708094730028 2:2.6197961e-08 3:3.3583201e-05 20:0.0019448806 21:0.0019555812 26:0.99999999 29:0.0078431373 30:0.0039215686 31:0.5 32:0.99999999 33:0.5 
-217.77574106707334 1:2.3330689e-05 2:4.1235591e-06 3:7.7649021e-05 9:0.99999999 20:0.0019448806 21:0.0019555812 26:0.99999999 29:0.015686275 30:0.015686275 31:0.99999999 33:0.25 
-20.027426482536693 2:3.8511003e-06 20:0.015643676 21:0.01565423 26:0.99999999 29:0.10980392 30:0.078431373 31:0.70999999 32:0.069999999 33:0.70999999 
-256 1:0.025173814 2:2.9341717e-07 3:8.7355148e-06 20:0.0078157931 21:0.0078264307 26:0.99999999 29:0.42352941 30:0.3254902 31:0.76999999 32:0.02 33:0.76999999 
-10.814515786623078 2:1.8370011e-05 20:0.0097727639 21:0.0019555812 22:0.2 26:0.2 27:0.4 29:0.50588235 30:0.0039215686 31:0.0099999999 32:0.05 33:0.12 35:0.0099999999 
-9.3384884991377923 2:1.8338573e-06 3:6.3283952e-05 9:0.99999999 20:0.0039018514 21:0.0019555812 26:0.5 27:0.99999999 29:1 30:0.30980392 31:0.31 32:0.29 
-256 2:1.6792893e-06 20:0.0039018514 21:0.003912531 26:0.99999999 29:0.2 30:0.019607843 31:0.099999999 32:0.079999999 33:0.099999999 
-201.18038299645386 2:5.8159474e-07 3:0.0002513887 9:0.99999999 20:0.0019448806 21:0.0019555812 26:0.99999999 29:0.08627451 30:0.08627451 31:0.99999999 33:0.05 
-2.2605306472619513 2:1.3518148e-06 3:7.7649021e-07 20:0.035213385 21:0.035223728 26:0.99999999 29:0.070588235 30:0.070588235 31:0.99999999 33:0.99999999 
-256 2:1.3518148e-06 3:7.7649021e-07 20:0.530327 21:0.53033204 26:0.99999999 29:1 30:1 31:0.99999999 33:0.99999999 
-91.627771552177038 2:2.3578165e-08 3:5.2218966e-05 20:0.0019448806 21:0.0019555812 26:0.99999999 29:0.99607843 30:0.023529412 31:0.02 32:0.02 37:0.05 
-9.1925183055238939 2:0.00010608602 9:0.99999999 20:0.029342472 21:0.029352879 26:0.99999999 29:1 30:0.24313725 31:0.24 32:0.02 33:0.15 35:0.28 36:0.32 
-256 2:3.1437554e-08 9:0.99999999 20:0.0039018514 21:0.003912531 26:0.99999999 29:0.023529412 30:0.10196078 31:0.99999999 33:0.99999999 34:0.079999999 
-256 2:7.8593884e-08 20:0.0039018514 21:0.003912531 26:0.99999999 29:0.10980392 30:0.10980392 31:0.99999999 33:0.99999999 
-256 1:0.00067658999 2:2.8817758e-07 3:6.4060442e-06 20:0.0019448806 21:0.0019555812 26:0.99999999 29:0.094117647 30:0.074509804 31:0.78999999 32:0.079999999 33:0.78999999 
-19.240495617332378 2:4.2964657e-07 3:0.0015690926 9:0.99999999 20:0.013686706 21:0.01369728 26:0.99999999 29:1 30:1 31:0.99999999 37:0.29 38:0.29 
-256 2:4.768029e-07 20:0.011729735 21:0.01174033 26:0.99999999 29:1 30:0.066666667 31:0.069999999 32:0.0099999999 33:0.089999999 
-0.17164771759596292 20:1 21:0.0019555812 25:0.99999999 29:0.91372549 30:0.76470588 31:0.83999999 32:0.0099999999 37:0.83999999 38:0.99999999 
-17.563946183932888 2:4.5584453e-07 3:0.0015019262 9:0.99999999 20:0.0039018514 21:0.01369728 26:0.99999999 28:0.29 29:0.058823529 30:0.058823529 31:0.99999999 33:0.069999999 
-1.7482157271241454 2:2.6197961e-08 3:7.1825344e-06 9:0.99999999 20:0.0039018514 21:0.0019555812 26:0.5 27:0.99999999 29:0.0039215686 30:0.054901961 31:0.99999999 33:0.99999999 34:0.21 
-256 1:0.00013998414 2:2.724588e-07 3:0.00030166645 9:0.99999999 20:0.0019448806 21:0.0019555812 26:0.99999999 29:1 30:0.0039215686 32:0.02 
-50.935382643634753 1:0.0006532593 2:2.596218e-06 3:0.00059809158 7:0.28571429 9:0.99999999 19:0.99999999 20:0.0019448806 21:0.0019555812 26:0.99999999 29:1 30:0.18431373 31:0.18 32:0.02 37:0.059999999 38:0.13 
-256 2:1.2575021e-07 3:9.3178825e-06 20:0.0019448806 21:0.0019555812 26:0.99999999 29:0.015686275 30:0.011764706 31:0.74999999 32:0.5 33:0.74999999 
-11.46604038838524 1:9.3322757e-05 2:0.0057494544 9:0.99999999 20:0.0078157931 21:0.003912531 26:0.5 27:0.5 29:1 30:0.20784314 31:0.21 32:0.35 33:0.21 
-256 2:4.5060494e-07 20:0.0019448806 21:0.0019555812 26:0.99999999 29:0.16078431 30:0.02745098 31:0.17 32:0.069999999 33:0.17 
-256 2:1.3518148e-06 3:7.7649021e-07 20:0.67318587 21:0.67318938 26:0.99999999 29:1 30:1 31:0.99999999 33:0.99999999 
-9.7262974912459068 20:0.0019448806 21:0.0019555812 24:0.99999999 25:0.99999999 26:0.99999999 29:1 30:0.011764706 31:0.0099999999 32:0.059999999 33:0.0099999999 35:0.62999999 37:0.03 38:0.99999999 
-0.78760075298904875 2:7.6498047e-07 3:0.0016067524 9:0.99999999 20:0.02347156 21:0.023482029 24:0.66999999 25:0.66999999 26:0.99999999 29:0.13333333 30:0.70980392 31:0.99999999 33:0.03 34:0.18 37:0.84999999 38:0.96999999 
-6.698106193200033 1:0.41768933 2:1.5273411e-05 3:0.023749535 7:1 9:0.99999999 10:0.0067873303 13:0.001025641 14:0.475 20:0.0019448806 21:0.0019555812 26:0.99999999 29:1 30:0.14901961 31:0.15 32:0.059999999 35:0.55999999 36:0.29 37:0.04 38:0.11 
-10.575438180376526 1:4.6661378e-05 2:3.584929e-05 3:0.0030244294 9:0.99999999 20:0.0039018514 21:0.0019555812 26:0.5 27:0.99999999 29:1 30:0.12941176 31:0.13 32:0.03 
-0.055484000430044769 20:0.0039018514 21:0.0019555812 22:0.5 23:0.99999999 26:0.5 27:0.99999999 29:1 30:0.0039215686 32:0.84999999 36:0.99999999 
-256 2:3.8511003e-07 20:0.0019448806 21:0.0019555812 26:0.99999999 29:0.0039215686 30:0.0039215686 31:0.99999999 33:0.99999999 
-216.01162497045911 2:1.3518148e-06 3:7.7649021e-07 20:0.46966091 21:0.46966659 26:0.99999999 29:0.94117647 30:0.94117647 31:0.99999999 33:0.99999999 
-256 2:1.6792893e-06 9:0.99999999 20:0.0019448806 21:0.0019555812 26:0.99999999 29:1 30:0.22745098 31:0.23 32:0.069999999 33:0.29 36:0.02 
-176.86481601579888 1:0.00067658999 2:3.9401734e-06 3:0.00080599683 7:0.38961039 9:0.99999999 19:0.99999999 20:0.0019448806 21:0.0019555812 26:0.99999999 29:0.70980392 30:0.078431373 31:0.11 32:0.04 33:0.0099999999 35:0.0099999999 
-19.075106966277687 2:6.9183576e-05 20:0.017600647 21:0.01761118 26:0.99999999 29:0.19215686 30:0.058823529 31:0.31 32:0.059999999 33:0.31 
-256 2:1.0185767e-05 9:0.99999999 20:0.0058588223 21:0.0058694809 26:0.99999999 29:0.011764706 30:0.27058824 31:0.99999999 33:0.99999999 34:0.03 36:0.0099999999 
-23.782503018706649 2:2.043441e-07 20:0.10175039 21:0.023482029 26:0.23 27:0.04 29:1 30:0.10980392 31:0.11 32:0.0099999999 33:0.11 
-256 2:7.8593884e-08 20:0.0019448806 21:0.0019555812 26:0.99999999 29:0.023529412 30:0.35686275 31:0.99999999 33:0.99999999 34:0.48 
-8.0185173383450081 20:0.0019448806 21:0.0019555812 24:0.99999999 25:0.99999999 26:0.99999999 29:0.047058824 30:0.047058824 31:0.99999999 33:0.079999999 37:0.99999999 38:0.99999999 
-256 2:2.0801181e-05 20:0.019557618 21:0.01956813 26:0.99999999 29:0.32941176 30:0.34509804 31:0.75999999 32:0.059999999 33:0.75999999 34:0.02 
-0.34821161305238707 20:0.0019448806 21:0.0019555812 24:0.99999999 25:0.99999999 26:0.99999999 29:0.23921569 30:0.71764706 31:0.99999999 33:0.02 34:0.03 36:0.0099999999 37:0.99999999 38:0.72999999 
-256 2:1.3518148e-06 3:7.7649021e-07 20:0.74559379 21:0.74559652 26:0.99999999 29:1 30:1 31:0.99999999 33:0.99999999 
-22.844908063581641 1:4.6661378e-05 2:5.3684862e-05 3:0.0030213234 9:0.99999999 20:0.0019448806 21:0.0019555812 26:0.99999999 29:0.02745098 30:0.02745098 31:0.99999999 33:0.14 35:0.14 36:0.14 37:0.14 38:0.14 
-7.1347004570016654 20:0.0019448806 21:0.0019555812 24:0.99999999 25:0.99999999 26:0.99999999 29:0.011764706 30:0.0078431373 31:0.66999999 32:0.66999999 33:0.33 37:0.66999999 38:0.99999999 
-62.703039518159954 2:8.2261599e-07 3:0.0032624236 9:0.99999999 20:0.0019448806 21:0.064577976 26:0.99999999 28:0.12 29:0.0039215686 30:0.18431373 31:0.99999999 33:0.99999999 34:0.059999999 
-0.2045506538470967 20:0.0019448806 21:0.0019555812 22:0.99999999 23:0.99999999 26:0.99999999 29:0.031372549 30:0.49803922 31:0.99999999 33:0.12 34:0.16 35:0.99999999 36:0.059999999 38:0.93999999 
-256 2:1.3518148e-06 3:7.7649021e-07 20:0.78081927 21:0.78082162 26:0.99999999 29:1 30:1 31:0.99999999 33:0.99999999 
-256 1:2.3330689e-05 2:2.7507859e-07 3:2.8341893e-05 20:0.0039018514 21:0.003912531 26:0.99999999 29:0.0078431373 30:0.0078431373 31:0.99999999 33:0.99999999 
-7.3005386798979961 2:6.4185005e-07 9:0.99999999 13:0.001025641 20:0.0058588223 21:0.003912531 26:0.66999999 27:0.66999999 29:0.66666667 30:0.2745098 31:0.2 32:0.12 33:0.28 34:0.03 35:0.0099999999 36:0.03 
-256 2:4.7942269e-07 20:0.011729735 21:0.01174033 26:0.99999999 29:1 30:0.098039216 31:0.099999999 32:0.0099999999 33:0.11 
-256 2:1.6792893e-06 20:0.0039018514 21:0.003912531 26:0.99999999 29:0.19215686 30:0.019607843 31:0.099999999 32:0.079999999 33:0.099999999 
-19.796171281806735 2:7.8593884e-07 3:0.00018189283 9:0.99999999 20:0.011729735 21:0.01174033 26:0.99999999 29:0.023529412 30:0.023529412 31:0.99999999 33:0.17 
-14.429464204820558 2:1.2816043e-05 20:0.035213385 21:0.035223728 26:0.99999999 29:0.61176471 30:0.18823529 31:0.31 32:0.04 33:0.31 
-26.479159303605076 2:5.4753739e-07 20:0.0039018514 21:0.003912531 26:0.99999999 29:0.023529412 30:0.050980392 31:0.66999999 32:0.33 33:0.66999999 34:0.15 36:0.079999999 
-4.7044768593772153 1:0.0006532593 2:2.2399257e-06 3:0.00050200092 7:0.22077922 9:0.99999999 19:0.99999999 20:0.0019448806 21:0.0019555812 26:0.99999999 29:0.031372549 30:0.031372549 31:0.99999999 33:0.12 
-34.7844873463889 1:0.01556157 2:0.0012750548 3:0.044963442 9:0.99999999 20:0.0039018514 21:0.003912531 26:0.99999999 29:0.015686275 30:0.015686275 31:0.99999999 33:0.25 37:0.25 38:0.25 
-256 2:1.4854244e-06 20:0.0019448806 21:0.0019555812 26:0.99999999 29:0.10980392 30:0.16862745 31:0.88999999 32:0.069999999 33:0.88999999 34:0.05 
-256 2:7.8593884e-08 20:0.0019448806 21:0.0019555812 26:0.99999999 29:0.9254902 30:0.9254902 31:0.99999999 33:0.99999999 
-231.24347219478952 2:1.2575021e-07 3:9.3178825e-06 20:0.21134076 21:0.0019555812 26:0.0099999999 27:0.02 29:1 30:0.0039215686 32:0.0099999999 
-247.62478139397703 2:1.6766695e-07 20:0.0039018514 21:0.0019555812 26:0.5 27:0.99999999 29:0.83529412 30:0.0039215686 32:0.069999999 
-5.6002208300021117 2:6.3661046e-07 3:0.0042512839 9:0.99999999 20:0.0019448806 21:0.0019555812 22:0.99999999 23:0.99999999 26:0.99999999 29:0.50196078 30:1 31:0.99999999 33:0.0099999999 34:0.05 35:0.0099999999 37:0.23 38:0.58999999 
-0.79030474700793207 1:0.0030096589 2:5.3443841e-07 3:0.0058364886 9:0.99999999 10:0.0011312217 11:0.99999999 13:0.0030769231 20:0.0019448806 21:0.0019555812 26:0.99999999 29:0.0039215686 30:0.011764706 31:0.99999999 33:0.99999999 34:0.99999999 
-16.756630434925857 2:3.405735e-07 3:4.6589412e-05 9:0.99999999 20:0.0019448806 21:0.0019555812 26:0.99999999 29:0.38431373 30:0.34509804 31:0.28 32:0.71999999 33:0.0099999999 34:0.02 37:0.65999999 
-5.3202209329414165 2:6.4185005e-07 20:0.0039018514 21:0.003912531 26:0.99999999 29:0.56862745 30:0.16078431 31:0.04 32:0.03 33:0.04 34:0.05 
-189.92010300032945 2:1.8338573e-08 3:4.3677574e-05 20:0.0019448806 21:0.0019555812 26:0.99999999 29:1 30:0.02745098 31:0.03 32:0.059999999 35:0.02 
-256 2:1.3518148e-06 3:7.7649021e-07 20:0.79647503 21:0.79647722 26:0.99999999 29:1 30:1 31:0.99999999 33:0.99999999 
-0.34376499201496641 2:5.3863009e-06 9:0.99999999 20:0.0078157931 21:0.0058694809 26:0.74999999 27:0.5 29:0.82745098 30:0.21176471 31:0.19 32:0.03 33:0.19 34:0.04 
-256 2:1.3518148e-06 3:7.7649021e-07 20:0.72993803 21:0.72994092 26:0.99999999 29:1 30:1 31:0.99999999 33:0.99999999 
-256 2:1.2575021e-07 3:9.3178825e-06 20:0.0019448806 21:0.0019555812 26:0.99999999 29:0.16470588 30:0.14117647 31:0.85999999 32:0.069999999 33:0.85999999 
-1.1248398033015539 2:4.3226636e-07 3:0.0014611604 9:0.99999999 20:0.0019448806 21:0.0058694809 26:0.99999999 28:0.99999999 29:0.32941176 30:0.96470588 31:0.99999999 33:0.0099999999 34:0.13 37:0.32 38:0.50999999 
-256 2:1.3518148e-06 3:7.7649021e-07 20:0.74167985 21:0.74168262 26:0.99999999 29:1 30:1 31:0.99999999 33:0.99999999 
-256 1:0.00069992068 2:3.2144899e-06 3:0.00065613422 7:0.31168831 9:0.99999999 19:0.99999999 20:0.0019448806 21:0.0019555812 26:0.99999999 29:0.95294118 30:0.23529412 31:0.25 32:0.02 
-0.37081739492653448 20:0.0019448806 21:0.0058694809 23:0.33 24:0.99999999 25:0.33 26:0.99999999 28:0.66999999 29:0.023529412 30:0.36470588 31:0.99999999 33:0.17 34:0.089999999 37:0.99999999 38:0.99999999 
-62.520786593064777 2:6.0255311e-07 3:0.00017490442 9:0.99999999 20:0.033256414 21:0.058707127 26:0.99999999 28:0.069999999 29:1 30:1 31:0.99999999 37:0.11 38:0.11 
-256 2:1.3518148e-06 3:7.7649021e-07 20:0.8923666 21:0.89236776 26:0.99999999 29:1 30:1 31:0.99999999 33:0.99999999 
-7.4434994347600698 2:3.0748547e-05 3:0.00030069583 9:0.99999999 20:0.0019448806 21:0.0019555812 26:0.99999999 29:1 30:0.47843137 31:0.48 32:0.02 35:0.36 36:0.42 
-54.976709206605676 2:3.7463085e-07 3:0.010060013 7:0.038961039 9:0.99999999 20:0.0019448806 21:0.01565423 26:0.99999999 28:0.38 29:1 30:1 31:0.99999999 
-28.04518218077817 2:6.759074e-07 3:0.00027060684 7:0.012987013 9:0.99999999 11:0.99999999 20:0.035213385 21:0.035223728 26:0.99999999 29:1 30:1 31:0.99999999 
-70.259105252371342 1:0.00060659792 2:9.4574641e-07 3:0.00022925873 7:0.090909091 9:0.99999999 19:0.99999999 20:0.0019448806 21:0.0019555812 26:0.99999999 29:0.0039215686 30:0.0039215686 31:0.99999999 33:0.99999999 
-4.215526665154294 1:0.010078858 2:6.3137087e-07 3:0.0002401296 9:0.99999999 10:0.0011312217 20:0.0039018514 21:0.0019555812 24:0.5 26:0.5 27:0.99999999 29:1 30:0.1254902 31:0.13 32:0.059999999 35:0.66999999 36:0.41 37:0.03 38:0.12 
-256 1:0.0006532593 2:3.8327618e-06 3:0.00080599683 7:0.38961039 9:0.99999999 19:0.99999999 20:0.0019448806 21:0.0019555812 26:0.99999999 29:0.81568627 30:0.23137255 31:0.28 32:0.02 
-256 2:1.130704e-05 20:0.035213385 21:0.035223728 26:0.99999999 29:0.49411765 30:0.1254902 31:0.25 32:0.03 33:0.25 
-15.763782860844277 2:8.0689721e-07 3:0.00052374264 9:0.99999999 16:0.125 20:0.0019448806 21:0.003912531 25:0.5 26:0.99999999 28:0.99999999 29:1 30:0.96078431 31:0.95999999 32:0.0099999999 37:0.03 38:0.03 
-0.25910532642019052 1:0.00074658205 2:4.0344861e-07 3:4.872476e-05 8:0.75 20:0.0019448806 21:0.0019555812 24:0.99999999 25:0.99999999 26:0.99999999 29:0.22352941 30:0.062745098 31:0.28 32:0.11 33:0.02 35:0.02 36:0.059999999 37:0.05 38:0.19 
-6.4455842498430682 1:0.01488498 2:0.0039818282 3:0.079608105 9:0.99999999 20:0.0019448806 21:0.0019555812 26:0.99999999 29:1 30:0.0039215686 32:0.03 
-256 2:1.3518148e-06 3:7.7649021e-07 20:0.69471255 21:0.69471582 26:0.99999999 29:1 30:1 31:0.99999999 33:0.99999999 
-256 2:7.8593884e-08 20:0.0019448806 21:0.0019555812 26:0.99999999 29:0.93333333 30:0.93333333 31:0.99999999 33:0.99999999 
-29.044623962586019 2:3.8511003e-07 3:2.8536015e-05 20:0.011729735 21:0.003912531 26:0.33 27:0.5 29:1 30:0.0078431373 31:0.0099999999 32:0.42 33:0.92999999 
-1.7919494504101769 1:0.00072325136 2:3.9637516e-06 3:0.00080599683 7:0.38961039 9:0.99999999 19:0.99999999 20:0.0019448806 21:0.0019555812 26:0.99999999 29:0.0039215686 30:0.0039215686 31:0.99999999 33:0.99999999 
-256 2:7.8593884e-08 20:0.0019448806 21:0.0019555812 26:0.99999999 29:0.023529412 30:0.02745098 31:0.99999999 33:0.99999999 34:0.29 
-256 2:1.3518148e-06 3:7.7649021e-07 20:0.53619792 21:0.53620289 26:0.99999999 29:1 30:1 31:0.99999999 33:0.99999999 
-122.4972056229858 2:2.9802801e-05 9:0.99999999 20:0.017600647 21:0.01761118 26:0.99999999 29:0.93333333 30:0.26666667 31:0.29 32:0.03 33:0.3 35:0.0099999999 36:0.03 
-0.71219917684954259 20:0.037170355 21:0.037180678 24:0.73999999 25:0.73999999 26:0.99999999 29:0.074509804 30:1 31:0.99999999 33:0.05 34:0.0099999999 37:0.73999999 38:0.069999999 
-256 2:3.6677146e-08 3:7.9590246e-06 9:0.99999999 20:0.0019448806 21:0.0019555812 26:0.99999999 29:0.0039215686 30:0.023529412 31:0.99999999 33:0.99999999 34:0.33 
-98.880926101367464 2:4.3095646e-06 3:6.4448687e-05 9:0.99999999 20:0.0019448806 21:0.0019555812 26:0.99999999 29:0.84705882 30:0.30588235 31:0.29 32:0.33 34:0.03 37:0.31 
-256 2:8.0427741e-07 3:7.7066653e-05 9:0.99999999 20:0.0039018514 21:0.003912531 24:0.5 25:0.5 26:0.99999999 29:1 30:1 31:0.99999999 
-256 2:8.802515e-07 3:0.00015355094 9:0.99999999 20:0.0019448806 21:0.0019555812 26:0.99999999 29:0.0039215686 30:0.39607843 31:0.99999999 33:0.99999999 34:0.15 
-256 2:3.4012813e-05 20:0.0039018514 21:0.003912531 26:0.99999999 29:0.011764706 30:0.21568627 31:0.99999999 33:0.99999999 34:0.04 
-2.7289027878688898 20:0.0019448806 21:0.0019555812 24:0.99999999 25:0.99999999 26:0.99999999 29:0.75294118 30:0.062745098 31:0.079999999 32:0.03 33:0.0099999999 37:0.03 38:0.12 
-256 2:1.6766695e-07 20:0.0019448806 21:0.0019555812 26:0.99999999 29:0.42352941 30:0.0078431373 31:0.02 32:0.04 33:0.02 35:0.0099999999 
-138.50565468652107 2:2.3840145e-07 20:0.0039018514 21:0.003912531 26:0.99999999 29:0.27843137 30:0.17647059 31:0.62999999 32:0.03 33:0.62999999 
-186.3775752090304 2:2.5150043e-06 20:0.0039018514 21:0.003912531 26:0.99999999 29:0.15686275 30:0.023529412 31:0.15 32:0.079999999 33:0.15 
-256 2:5.7373535e-07 3:0.00023838249 9:0.99999999 20:0.0039018514 21:0.003912531 26:0.99999999 29:0.050980392 30:0.050980392 31:0.99999999 33:0.079999999 
-256 2:2.3840145e-07 20:0.0019448806 21:0.0019555812 26:0.99999999 29:0.52941176 30:0.38039216 31:0.71999999 32:0.0099999999 33:0.71999999 
-256 2:9.4312661e-08 3:1.9606378e-05 20:0.0039018514 21:0.003912531 26:0.99999999 29:0.0078431373 30:0.0078431373 31:0.99999999 33:0.99999999 
-81.870335683737252 1:0.00032662965 2:2.9079737e-07 3:6.9884119e-06 20:0.0019448806 21:0.0019555812 26:0.99999999 29:0.015686275 30:0.011764706 31:0.74999999 32:0.5 33:0.74999999 
-256 2:1.3518148e-06 3:7.7649021e-07 20:0.9530327 21:0.9530332 26:0.99999999 29:1 30:1 31:0.99999999 33:0.99999999 
-256 2:7.8593884e-08 20:0.0019448806 21:0.0019555812 26:0.99999999 29:0.20784314 30:0.20784314 31:0.99999999 33:0.99999999 
-23.116361471100404 2:7.8593884e-08 20:0.0078157931 21:0.0019555812 26:0.25 27:0.74999999 29:1 30:0.011764706 31:0.0099999999 32:0.0099999999 33:0.04 
-2.3374088629258298 1:0.00135318 2:6.8088502e-06 3:9.4149437e-05 9:0.99999999 20:1 21:0.0019555812 29:1 30:0.015686275 31:0.02 32:0.0099999999 
-256 2:1.3518148e-06 3:7.7649021e-07 20:0.83561445 21:0.83561621 26:0.99999999 29:1 30:1 31:0.99999999 33:0.99999999 
-164.79772704662969 1:0.00018664551 2:3.5891207e-07 3:0.00031234319 9:0.99999999 20:0.0019448806 21:0.0019555812 26:0.99999999 29:0.0039215686 30:0.0039215686 31:0.99999999 33:0.99999999 
-256 2:2.3578165e-08 3:2.7177157e-05 20:0.0019448806 21:0.0019555812 26:0.99999999 29:0.0039215686 30:0.0039215686 31:0.99999999 33:0.99999999 
-3.2419118485479212 20:0.0019448806 21:0.0019555812 24:0.99999999 25:0.99999999 26:0.99999999 29:0.0039215686 30:1 31:0.99999999 33:0.99999999 34:0.03 36:0.02 37:0.99999999 38:0.03 
-256 2:3.1437554e-08 20:0.0039018514 21:0.003912531 26:0.99999999 29:0.5372549 30:0.062745098 31:0.12 32:0.03 33:0.12 35:0.0099999999 
-256 2:1.3518148e-06 3:7.7649021e-07 20:0.95694664 21:0.9569471 26:0.99999999 29:1 30:1 31:0.99999999 33:0.99999999 
-256 2:1.3518148e-06 3:7.7649021e-07 20:0.60664886 21:0.60665308 26:0.99999999 29:1 30:1 31:0.99999999 33:0.99999999 
-256 2:1.3518148e-06 3:7.7649021e-07 20:0.52054215 21:0.52054729 26:0.99999999 29:1 30:1 31:0.99999999 33:0.99999999 
-2.1073900215689152 20:0.0097727639 21:0.003912531 22:0.2 23:0.5 26:0.4 27:0.4 29:0.39607843 30:0.035294118 31:0.05 32:0.05 33:0.02 34:0.22 35:0.0099999999 36:0.11 
-256 1:0.00023330689 2:6.9686577e-07 3:0.00047055306 7:0.012987013 9:0.99999999 20:0.0019448806 21:0.0019555812 26:0.99999999 29:1 30:0.99215686 31:0.98999999 32:0.0099999999 
-256 2:7.8593884e-08 20:0.0019448806 21:0.0019555812 26:0.99999999 29:0.0039215686 30:0.0078431373 31:0.99999999 33:0.99999999 34:0.99999999 
-256 2:4.2964657e-07 3:0.0059946985 7:0.012987013 9:0.99999999 10:0.0011312217 20:0.0097727639 21:0.0097833805 26:0.99999999 29:1 30:1 31:0.99999999 
-256 2:1.3518148e-06 3:7.7649021e-07 20:0.86496901 21:0.86497046 26:0.99999999 29:1 30:1 31:0.99999999 33:0.99999999 
-256 1:0.00062992861 2:3.906116e-06 3:0.00080599683 7:0.38961039 9:0.99999999 19:0.99999999 20:0.0019448806 21:0.0019555812 26:0.99999999 29:0.9254902 30:0.21568627 31:0.23 32:0.02 
-256 2:2.6881728e-05 9:0.99999999 20:0.015643676 21:0.01565423 26:0.99999999 29:0.054901961 30:0.054901961 31:0.99999999 33:0.99999999 
