svm_type c_svc
kernel_type rbf
gamma 1
nr_class 2
total_sv 789
rho 1.5726243544106004
label 1 -1
nr_sv 403 386
SV
2.374876879813371 1:0.0022864075 2:1.6268934e-06 3:0.001622088 6:0.99999999 7:0.012987013 9:0.99999999 10:0.0056561086 11:0.99999999 13:0.014358974 14:0.025 20:0.0019569359 21:0.0019564894 26:0.99999999 29:1 30:0.015686275 31:0.02 32:0.02 
256 3:0.0011057221 9:0.99999999 20:0.0019569359 21:0.0019564894 26:0.99999999 29:0.0039215686 30:0.31764706 31:0.99999999 33:0.99999999 34:0.02 
256 3:0.0011313462 9:0.99999999 20:0.0039138831 21:0.0039134374 26:0.99999999 29:0.0078431373 30:0.0078431373 31:0.99999999 33:0.99999999 
256 1:0.016518128 2:4.5243879e-06 3:0.004674471 9:0.99999999 10:0.0067873303 13:0.0071794872 20:0.0019569359 21:0.0019564894 26:0.99999999 29:1 30:0.011764706 31:0.0099999999 32:0.02 
256 1:0.00048994447 2:2.3316186e-07 3:6.697228e-05 7:0.012987013 9:0.99999999 14:0.025 20:0.0019569359 21:0.0019564894 26:0.99999999 29:1 30:0.0039215686 32:0.02 
1.9416106209038497 1:0.0039428865 2:4.1052205e-06 3:0.00055460813 7:0.038961039 9:0.99999999 10:0.0045248869 11:0.99999999 14:0.025 20:0.0019569359 21:0.0019564894 26:0.99999999 29:0.0039215686 30:0.0039215686 31:0.99999999 33:0.99999999 
256 2:1.0479185e-08 20:0.0039138831 21:0.0039134374 26:0.99999999 29:0.0078431373 30:0.0078431373 31:0.99999999 33:0.5 
1.0372530000245082 3:0.00040222193 7:0.012987013 9:0.99999999 11:0.99999999 20:0.0078277775 21:0.0058703855 26:0.74999999 27:0.5 29:0.011764706 30:0.019607843 31:0.99999999 33:0.99999999 34:0.4 
4.5934943301565019 1:0.35366992 2:9.1692865e-07 3:0.00023003522 7:0.077922078 9:0.99999999 19:0.99999999 20:0.0019569359 21:0.0039134374 26:0.99999999 28:0.99999999 29:1 30:0.55686275 31:0.55999999 32:0.02 
256 2:3.2747452e-06 3:0.00047579437 7:0.36363636 9:0.99999999 19:0.99999999 20:0.0019569359 21:0.0019564894 26:0.99999999 29:0.92941176 30:0.25490196 31:0.27 32:0.02 37:0.0099999999 
256 2:6.4446985e-07 9:0.99999999 20:0.0019569359 21:0.0019564894 26:0.99999999 29:0.019607843 30:0.062745098 31:0.99999999 33:0.99999999 34:0.12 
256 1:4.6661378e-05 2:3.224969e-06 3:0.00047579437 7:0.36363636 9:0.99999999 19:0.99999999 20:0.0019569359 21:0.0019564894 26:0.99999999 29:0.82352941 30:0.14901961 31:0.18 32:0.02 37:0.0099999999 
256 1:4.6661378e-05 2:3.0206249e-06 3:0.00047462964 7:0.36363636 9:0.99999999 19:0.99999999 20:0.0019569359 21:0.0019564894 26:0.99999999 29:0.87843137 30:0.20392157 31:0.23 32:0.02 37:0.0099999999 
57.33356647910599 1:0.1185199 2:2.7298276e-06 3:0.00044240529 7:0.038961039 9:0.99999999 19:0.99999999 20:0.0019569359 21:0.0019564894 26:0.99999999 29:1 30:0.08627451 31:0.089999999 32:0.02 35:0.13 
110.35465896943336 1:2.3330689e-05 2:3.0651615e-06 3:0.00047501788 7:0.36363636 9:0.99999999 19:0.99999999 20:0.0019569359 21:0.0019564894 26:0.99999999 29:0.47058824 30:0.070588235 31:0.15 32:0.05 33:0.0099999999 35:0.02 37:0.069999999 
170.56930693825572 2:3.2223493e-06 3:0.00047540613 7:0.36363636 9:0.99999999 19:0.99999999 20:0.0019569359 21:0.0019564894 26:0.99999999 29:0.67843137 30:0.0039215686 31:0.0099999999 32:0.03 33:0.0099999999 35:0.0099999999 37:0.0099999999 
66.923591661282018 1:0.00074658205 2:2.724588e-07 3:8.7161026e-05 7:0.025974026 9:0.99999999 14:0.025 16:0.125 19:0.99999999 20:0.0019569359 21:0.0019564894 26:0.99999999 29:0.0039215686 30:0.0039215686 31:0.99999999 33:0.99999999 
256 2:3.2983233e-06 3:0.00047618262 7:0.36363636 9:0.99999999 19:0.99999999 20:0.0019569359 21:0.0019564894 26:0.99999999 29:1 30:0.21568627 31:0.22 32:0.02 
2.2846352897648781 2:8.7501191e-07 9:0.99999999 20:0.0039138831 21:0.0039134374 26:0.5 27:0.99999999 28:0.99999999 29:0.023529412 30:0.094117647 31:0.82999999 32:0.33 33:0.99999999 34:0.12 
0.81870138788884794 1:0.016751435 2:3.6991521e-06 3:0.0049035357 7:0.19480519 9:0.99999999 10:0.042986425 11:0.99999999 13:0.055384615 14:0.1 15:0.99999999 16:0.25 20:0.0019569359 21:0.0019564894 26:0.99999999 29:0.0039215686 30:0.0039215686 31:0.99999999 33:0.99999999 
256 1:4.6661378e-05 2:3.2144899e-06 3:0.00047540613 7:0.36363636 9:0.99999999 19:0.99999999 20:0.0019569359 21:0.0019564894 26:0.99999999 29:1 30:0.23529412 31:0.24 32:0.02 
256 2:8.7501191e-07 9:0.99999999 20:0.0039138831 21:0.0039134374 26:0.99999999 29:0.054901961 30:0.098039216 31:0.99999999 33:0.99999999 34:0.079999999 
0.82186026808839252 2:6.4446985e-07 9:0.99999999 20:0.0019569359 21:0.0019564894 26:0.99999999 29:0.015686275 30:0.17254902 31:0.99999999 33:0.99999999 34:0.089999999 37:0.25 38:0.02 
256 2:8.7501191e-07 9:0.99999999 20:0.0039138831 21:0.0039134374 26:0.99999999 29:0.035294118 30:0.18039216 31:0.99999999 33:0.99999999 34:0.069999999 36:0.02 
256 2:8.7501191e-07 9:0.99999999 20:0.0019569359 21:0.0019564894 26:0.99999999 29:0.019607843 30:0.10588235 31:0.99999999 33:0.99999999 34:0.069999999 
256 2:8.7501191e-07 9:0.99999999 20:0.0039138831 21:0.0039134374 26:0.99999999 29:0.023529412 30:0.21176471 31:0.99999999 33:0.99999999 34:0.089999999 
1.8989595040358247 20:0.0058708303 21:0.2426611 22:0.66999999 23:0.75999999 25:0.04 26:0.99999999 28:0.36 29:0.035294118 30:0.035294118 31:0.99999999 33:0.77999999 35:0.55999999 36:0.55999999 
17.746679932341461 2:6.4446985e-07 9:0.99999999 20:0.0039138831 21:0.0019564894 26:0.5 27:0.99999999 29:1 30:0.3254902 31:0.33 32:0.069999999 33:0.35 35:0.02 36:0.05 
1.7007785816679466 1:0.00023330689 3:0.99976608 20:0.0019569359 21:0.0019564894 26:0.99999999 29:0.066666667 30:0.066666667 31:0.99999999 33:0.99999999 
256 1:9.3322757e-05 2:3.2485472e-06 3:0.00047540613 7:0.36363636 9:0.99999999 19:0.99999999 20:0.0019569359 21:0.0019564894 26:0.99999999 29:0.83529412 30:0.16078431 31:0.19 32:0.02 37:0.0099999999 
256 2:8.7501191e-07 9:0.99999999 20:0.0019569359 21:0.0019564894 26:0.99999999 29:0.031372549 30:0.17647059 31:0.99999999 33:0.99999999 34:0.069999999 36:0.02 
256 2:3.2066305e-06 3:0.00047579437 7:0.36363636 9:0.99999999 19:0.99999999 20:0.0019569359 21:0.0019564894 26:0.99999999 29:0.87058824 30:0.19607843 31:0.23 32:0.02 37:0.0099999999 
256 2:8.7501191e-07 9:0.99999999 20:0.0039138831 21:0.0039134374 26:0.99999999 29:0.015686275 30:0.18823529 31:0.99999999 33:0.99999999 34:0.079999999 
256 2:8.7501191e-07 9:0.99999999 20:0.0019569359 21:0.0019564894 26:0.99999999 29:0.011764706 30:0.035294118 31:0.99999999 33:0.99999999 34:0.44 
256 2:8.7501191e-07 9:0.99999999 20:0.0039138831 21:0.0039134374 26:0.99999999 29:0.0078431373 30:0.058823529 31:0.99999999 33:0.99999999 34:0.13 
14.577920116856493 1:0.11809995 2:0.013449709 7:0.038961039 9:0.99999999 20:0.0019569359 21:0.0019564894 26:0.99999999 29:1 30:0.27058824 31:0.27 32:0.079999999 33:0.32 35:0.0099999999 36:0.0099999999 
256 2:8.7501191e-07 9:0.99999999 20:0.0039138831 21:0.0039134374 26:0.99999999 29:1 30:0.33333333 31:0.33 32:0.069999999 33:0.35 35:0.0099999999 36:0.04 
256 1:0.1179833 2:0.013454429 9:0.99999999 20:0.0019569359 21:0.0019564894 26:0.99999999 29:0.0039215686 30:0.0039215686 31:0.99999999 33:0.99999999 
2.2051157558342633 2:1.336096e-07 3:0.001577634 7:0.025974026 9:0.99999999 11:0.99999999 16:0.125 20:0.0019569359 21:0.0039134374 25:0.5 26:0.99999999 28:0.99999999 29:1 30:1 31:0.99999999 
85.811339806031214 2:8.7501191e-07 9:0.99999999 20:0.0039138831 21:0.0039134374 26:0.99999999 29:0.035294118 30:0.14117647 31:0.99999999 33:0.99999999 34:0.079999999 
44.233290834520481 1:0.00027996827 2:1.336096e-07 3:0.001577634 7:0.025974026 9:0.99999999 11:0.99999999 16:0.125 20:0.0019569359 21:0.0019564894 26:0.99999999 29:1 30:0.96470588 31:0.95999999 32:0.0099999999 
256 2:8.7501191e-07 9:0.99999999 20:0.0019569359 21:0.0019564894 26:0.99999999 29:0.043137255 30:0.043137255 31:0.99999999 33:0.99999999 
2.4982412407117813 2:6.4446985e-07 9:0.99999999 20:0.0019569359 21:0.0019564894 22:0.99999999 23:0.99999999 26:0.99999999 29:0.0039215686 30:0.22352941 31:0.99999999 33:0.99999999 34:0.12 35:0.99999999 36:0.02 
256 2:8.7501191e-07 9:0.99999999 20:0.0039138831 21:0.0039134374 26:0.99999999 29:0.015686275 30:0.015686275 31:0.99999999 33:0.99999999 
256 2:8.7501191e-07 9:0.99999999 20:0.0039138831 21:0.0039134374 26:0.99999999 29:0.023529412 30:0.14901961 31:0.66999999 32:0.33 33:0.66999999 34:0.16 
256 2:3.224969e-06 3:0.00047579437 7:0.36363636 9:0.99999999 19:0.99999999 20:0.0019569359 21:0.0019564894 26:0.99999999 29:0.88627451 30:0.21176471 31:0.24 32:0.02 37:0.0099999999 
22.271021083209416 1:9.3322757e-05 2:2.1796704e-06 9:0.99999999 20:0.0019569359 21:0.0039134374 26:0.99999999 28:0.99999999 29:0.066666667 30:0.20392157 31:0.99999999 33:0.99999999 34:0.12 36:0.02 
16.724336342955311 2:3.3009431e-07 3:3.4747937e-05 7:0.012987013 8:0.25 20:0.0039138831 21:0.0039134374 24:0.99999999 25:0.99999999 26:0.99999999 29:0.18431373 30:0.18431373 31:0.99999999 33:0.02 35:0.04 36:0.04 37:0.95999999 38:0.95999999 
256 1:0.00027996827 2:1.8456464e-05 9:0.99999999 20:0.0039138831 21:0.0039134374 26:0.99999999 29:0.0078431373 30:0.18039216 31:0.99999999 33:0.99999999 34:0.04 36:0.02 
256 2:3.2040107e-06 3:0.00047579437 7:0.36363636 9:0.99999999 19:0.99999999 20:0.0019569359 21:0.0019564894 26:0.99999999 29:0.80392157 30:0.12941176 31:0.16 32:0.02 37:0.0099999999 
256 2:3.135896e-06 3:0.00047501788 7:0.36363636 9:0.99999999 19:0.99999999 20:0.0019569359 21:0.0019564894 26:0.99999999 29:1 30:0.26666667 31:0.27 32:0.02 
256 1:0.00027996827 2:1.8456464e-05 9:0.99999999 20:0.0019569359 21:0.0019564894 26:0.99999999 29:1 30:0.24313725 31:0.24 32:0.13 33:0.34 35:0.02 36:0.02 
256 1:2.3330689e-05 2:3.3088025e-06 3:0.00047579437 7:0.36363636 9:0.99999999 19:0.99999999 20:0.0019569359 21:0.0019564894 26:0.99999999 29:0.94901961 30:0.2745098 31:0.29 32:0.02 37:0.0099999999 
256 2:8.7501191e-07 9:0.99999999 20:0.0039138831 21:0.0039134374 26:0.99999999 29:0.047058824 30:0.047058824 31:0.99999999 33:0.99999999 
203.69311126806005 2:8.7501191e-07 9:0.99999999 20:0.0019569359 21:0.0019564894 26:0.99999999 29:0.011764706 30:0.02745098 31:0.99999999 33:0.99999999 34:0.29 
7.0191301642718829 1:0.00095655826 2:3.494808e-06 3:3.1447853e-05 20:0.0019569359 21:0.0019564894 26:0.99999999 29:0.019607843 30:0.019607843 31:0.99999999 33:0.2 35:0.4 36:0.4 
1.9226788967837496 2:3.9087358e-06 3:0.12602164 20:0.0019569359 21:0.0019564894 22:0.99999999 23:0.99999999 26:0.99999999 29:0.043137255 30:0.043137255 31:0.99999999 33:0.089999999 35:0.54999999 36:0.54999999 
256 2:3.1725731e-06 3:0.00047540613 7:0.36363636 9:0.99999999 19:0.99999999 20:0.0019569359 21:0.0019564894 26:0.99999999 29:0.90980392 30:0.23529412 31:0.26 32:0.02 37:0.0099999999 
256 2:8.7501191e-07 9:0.99999999 20:0.0039138831 21:0.0039134374 26:0.99999999 29:0.0078431373 30:0.16470588 31:0.99999999 33:0.99999999 34:0.069999999 
256 2:8.7501191e-07 9:0.99999999 20:0.0039138831 21:0.0039134374 26:0.99999999 29:0.015686275 30:0.17254902 31:0.99999999 33:0.99999999 34:0.069999999 
256 1:2.3330689e-05 2:2.981328e-06 3:0.00047424139 7:0.36363636 9:0.99999999 19:0.99999999 20:0.0019569359 21:0.0019564894 26:0.99999999 29:1 30:0.2745098 31:0.27 32:0.02 
53.360926302436013 1:4.6661378e-05 2:3.1909117e-06 3:0.00047501788 7:0.36363636 9:0.99999999 19:0.99999999 20:0.0019569359 21:0.0019564894 26:0.99999999 29:1 30:0.27843137 31:0.28 32:0.02 
256 2:8.7501191e-07 9:0.99999999 20:0.0039138831 21:0.0039134374 26:0.99999999 29:0.88627451 30:0.34117647 31:0.37 32:0.02 33:0.37 34:0.02 
18.801185595590354 3:0.090843142 20:0.0019569359 21:0.0019564894 26:0.99999999 29:0.0078431373 30:0.0078431373 31:0.99999999 33:0.99999999 
256 2:8.7501191e-07 9:0.99999999 20:0.0019569359 21:0.0019564894 26:0.99999999 29:0.015686275 30:0.015686275 31:0.99999999 33:0.99999999 
98.786234274840751 1:0.0069758761 2:2.9341717e-07 3:0.0001644218 20:0.0019569359 21:0.0019564894 26:0.99999999 29:1 30:0.18823529 31:0.19 32:0.02 35:0.22 36:0.31 
3.0181058828296554 20:0.0039138831 21:0.24070415 22:0.99999999 23:0.75999999 25:0.04 26:0.99999999 28:0.37 29:0.031372549 30:0.031372549 31:0.99999999 33:0.74999999 35:0.61999999 36:0.61999999 
256 1:4.6661378e-05 2:3.3140421e-06 3:0.00047579437 7:0.36363636 9:0.99999999 19:0.99999999 20:0.0019569359 21:0.0019564894 26:0.99999999 29:1 30:0.22745098 31:0.23 32:0.02 
256 1:0.00027996827 2:1.8456464e-05 9:0.99999999 20:0.0039138831 21:0.0039134374 26:0.99999999 29:0.0078431373 30:0.050980392 31:0.99999999 33:0.99999999 34:0.15 
170.23577053644036 1:0.00027996827 2:1.8456464e-05 9:0.99999999 20:0.0058708303 21:0.0039134374 26:0.66999999 27:0.66999999 29:1 30:0.3254902 31:0.33 32:0.069999999 33:0.35 35:0.02 36:0.05 
256 2:6.4446985e-07 9:0.99999999 20:0.0019569359 21:0.0019564894 26:0.99999999 29:0.0039215686 30:0.18039216 31:0.99999999 33:0.99999999 34:0.04 36:0.02 
256 2:8.7501191e-07 9:0.99999999 20:0.0039138831 21:0.0039134374 26:0.99999999 29:0.0078431373 30:0.054901961 31:0.99999999 33:0.99999999 34:0.43 
13.494788325793211 2:8.7501191e-07 9:0.99999999 20:0.0019569359 21:0.0019564894 26:0.99999999 29:0.019607843 30:0.0039215686 31:0.2 32:0.4 33:0.99999999 
256 2:8.7501191e-07 9:0.99999999 20:0.0019569359 21:0.0019564894 26:0.99999999 29:0.011764706 30:0.16862745 31:0.99999999 33:0.99999999 34:0.069999999 
238.75947583327374 2:3.1699533e-06 3:0.00047501788 7:0.36363636 9:0.99999999 19:0.99999999 20:0.0019569359 21:0.0019564894 26:0.99999999 29:1 30:0.17254902 31:0.17 32:0.02 35:0.05 
256 2:0.00014288368 3:0.0016139349 7:0.025974026 9:0.99999999 10:0.0011312217 20:0.0019569359 21:0.0019564894 26:0.99999999 29:0.98431373 30:0.98431373 31:0.99999999 37:0.02 38:0.02 
256 2:2.7036296e-06 20:0.95107632 21:0.9510763 26:0.99999999 29:1 30:1 31:0.99999999 33:0.99999999 
256 2:0.00014288368 3:0.0016139349 7:0.025974026 9:0.99999999 10:0.0011312217 20:0.0078277775 21:0.0078273336 26:0.99999999 29:0.015686275 30:0.015686275 31:0.99999999 33:0.25 
256 2:1.362294e-06 20:0.55185909 21:0.55185889 26:0.99999999 29:1 30:1 31:0.99999999 33:0.99999999 
256 2:1.477565e-06 20:0.0019569359 21:0.0019564894 26:0.99999999 29:0.0039215686 30:0.0039215686 31:0.99999999 33:0.99999999 
256 2:1.362294e-06 20:0.70058708 21:0.70058695 26:0.99999999 29:1 30:1 31:0.99999999 33:0.99999999 
1.1205794109446228 20:0.099804295 21:0.0058703855 22:0.99999999 23:0.66999999 26:0.04 27:0.099999999 28:0.66999999 29:0.98039216 30:0.023529412 31:0.0099999999 32:0.059999999 34:0.33 35:0.99999999 36:0.33 
256 2:0.00014288368 3:0.0016139349 7:0.025974026 9:0.99999999 10:0.0011312217 20:0.0039138831 21:0.0039134374 26:0.99999999 29:0.99607843 30:0.99607843 31:0.99999999 37:0.02 38:0.02 
256 2:0.00014288368 3:0.0016139349 7:0.025974026 9:0.99999999 10:0.0011312217 20:0.0058708303 21:0.0058703855 26:0.99999999 29:0.050980392 30:0.050980392 31:0.99999999 33:0.079999999 
256 2:2.7036296e-06 20:0.69275929 21:0.69275915 26:0.99999999 29:1 30:1 31:0.99999999 33:0.99999999 
256 2:0.00014288368 3:0.001614129 9:0.99999999 20:0.0039138831 21:0.0039134374 22:0.5 23:0.5 26:0.99999999 29:1 30:1 31:0.99999999 37:0.04 38:0.04 
256 2:0.00014288368 3:0.0016139349 7:0.025974026 9:0.99999999 10:0.0011312217 20:0.0039138831 21:0.0039134374 26:0.99999999 29:0.96470588 30:0.96470588 31:0.99999999 37:0.02 38:0.02 
256 2:2.7036296e-06 20:0.60861056 21:0.60861039 26:0.99999999 29:1 30:1 31:0.99999999 33:0.99999999 
1.6730655982673972 20:0.34246575 21:0.015655126 22:0.99999999 23:0.12 26:0.0099999999 27:0.069999999 28:0.25 29:1 30:0.0039215686 32:0.069999999 35:0.99999999 36:0.99999999 
256 2:2.7036296e-06 20:0.87475538 21:0.87475532 26:0.99999999 29:1 30:1 31:0.99999999 33:0.99999999 
256 2:2.7036296e-06 20:0.94911937 21:0.94911935 26:0.99999999 29:1 30:1 31:0.99999999 33:0.99999999 
256 2:1.362294e-06 20:0.53424657 21:0.53424636 26:0.99999999 29:1 30:1 31:0.99999999 33:0.99999999 
64.884332896392564 2:0.00014288368 3:0.0016139349 9:0.99999999 20:0.011741672 21:0.013698178 24:0.17 25:0.29 26:0.99999999 28:0.29 29:1 30:1 31:0.99999999 37:0.04 38:0.04 
4.7322842741770659 2:3.8772983e-06 5:0.33333333 20:0.0039138831 21:0.0039134374 26:0.99999999 29:0.019607843 30:0.60784314 31:0.79999999 32:0.4 33:0.79999999 34:0.0099999999 35:0.2 
256 2:1.362294e-06 20:0.6849315 21:0.68493136 26:0.99999999 29:1 30:1 31:0.99999999 33:0.99999999 
256 2:1.362294e-06 20:0.021526408 21:0.02152597 26:0.99999999 29:1 30:1 31:0.99999999 33:0.99999999 
0.49121771481419224 20:0.20743639 21:0.023482918 22:0.99999999 23:0.99999999 26:0.11 27:0.069999999 29:0.015686275 30:0.0078431373 31:0.5 32:0.74999999 33:0.25 35:0.99999999 36:0.99999999 
216.95598971983162 2:2.7036296e-06 20:0.87279843 21:0.87279838 26:0.99999999 29:1 30:1 31:0.99999999 33:0.99999999 
256 2:1.362294e-06 20:0.66536203 21:0.66536188 26:0.99999999 29:1 30:1 31:0.99999999 33:0.99999999 
48.90035162571386 2:2.7036296e-06 20:0.043052827 21:0.043052399 26:0.99999999 29:1 30:0.08627451 31:0.089999999 32:0.02 33:0.089999999 
256 2:1.362294e-06 20:0.55968688 21:0.55968669 26:0.99999999 29:1 30:1 31:0.99999999 33:0.99999999 
256 2:2.7036296e-06 20:0.71428571 21:0.71428558 26:0.99999999 29:1 30:1 31:0.99999999 33:0.99999999 
256 2:0.00014288368 3:0.0016139349 7:0.025974026 9:0.99999999 10:0.0011312217 20:0.011741672 21:0.01174123 26:0.99999999 29:1 30:1 31:0.99999999 35:0.0099999999 36:0.0099999999 37:0.02 38:0.02 
0.82161550848975806 20:0.19765165 21:0.0039134374 24:0.99999999 25:0.99999999 26:0.02 27:0.069999999 29:0.0078431373 30:0.0078431373 31:0.99999999 33:0.5 37:0.99999999 38:0.99999999 
125.12872649843331 2:7.6498047e-05 3:0.00056683785 7:0.012987013 9:0.99999999 20:0.0078277775 21:0.0078273336 24:0.74999999 25:0.74999999 26:0.99999999 29:1 30:1 31:0.99999999 37:0.04 38:0.04 
256 2:1.362294e-06 20:0.031311144 21:0.03131071 26:0.99999999 29:1 30:1 31:0.99999999 33:0.99999999 
256 2:1.362294e-06 20:0.71037182 21:0.71037169 26:0.99999999 29:1 30:1 31:0.99999999 33:0.99999999 
256 2:2.7036296e-06 20:0.033268091 21:0.033267658 26:0.99999999 29:1 30:0.066666667 31:0.069999999 32:0.02 33:0.069999999 
0.3698160769840812 20:0.011741672 21:0.01174123 22:0.99999999 23:0.99999999 26:0.99999999 29:0.25882353 30:0.047058824 31:0.089999999 32:0.059999999 33:0.02 34:0.17 35:0.99999999 36:0.5 
256 2:2.7036296e-06 20:0.6888454 21:0.68884526 26:0.99999999 29:1 30:1 31:0.99999999 33:0.99999999 
14.263423986992828 2:2.7036296e-06 20:0.091976506 21:0.0919761 26:0.99999999 29:0.94117647 30:0.57254902 31:0.60999999 32:0.03 33:0.60999999 35:0.0099999999 37:0.26 
186.72503739492652 2:0.00014288368 3:0.0016139349 7:0.025974026 9:0.99999999 10:0.0011312217 20:0.0019569359 21:0.0039134374 25:0.5 26:0.99999999 28:0.99999999 29:0.70980392 30:0.70980392 31:0.99999999 33:0.0099999999 37:0.0099999999 38:0.0099999999 
0.46285719526001429 20:0.0039138831 21:0.0078273336 22:0.99999999 23:0.5 26:0.99999999 28:0.74999999 29:0.56470588 30:0.49803922 31:0.43 32:0.0099999999 33:0.0099999999 34:0.02 35:0.98999999 36:0.49 
0.0050408615139320555 20:0.0019569359 21:0.0019564894 22:0.99999999 23:0.99999999 26:0.99999999 29:1 30:0.0039215686 32:0.069999999 35:0.99999999 36:0.99999999 
256 2:2.7036296e-06 20:0.0019569359 21:0.0019564894 26:0.99999999 29:1 30:1 31:0.99999999 33:0.99999999 
177.89533449627848 2:1.362294e-06 20:0.05479451 21:0.054794087 26:0.99999999 29:1 30:1 31:0.99999999 33:0.99999999 
256 2:0.00014288368 3:0.0016139349 7:0.025974026 9:0.99999999 10:0.0011312217 20:0.0019569359 21:0.0019564894 26:0.99999999 29:0.0039215686 30:0.0039215686 31:0.99999999 33:0.99999999 
256 2:1.362294e-06 20:0.015655566 21:0.015655126 26:0.99999999 29:1 30:1 31:0.99999999 33:0.99999999 
8.7454722094296944 2:7.3354292e-08 5:0.33333333 20:0.0019569359 21:0.0019564894 26:0.99999999 29:1 30:0.0039215686 32:0.0099999999 
0.050222553740843258 20:0.57338551 21:0.0019564894 22:0.99999999 23:0.99999999 27:0.04 29:1 30:0.0039215686 32:0.05 35:0.99999999 36:0.99999999 
256 2:2.7036296e-06 20:0.68688845 21:0.68688831 26:0.99999999 29:1 30:1 31:0.99999999 33:0.99999999 
256 2:1.362294e-06 20:0.66144814 21:0.66144799 26:0.99999999 29:1 30:1 31:0.99999999 33:0.99999999 
7.4862960891261219 2:3.8772983e-06 5:0.33333333 20:0.0039138831 21:0.0078273336 26:0.99999999 28:0.5 29:0.015686275 30:0.59215686 31:0.99999999 33:0.99999999 34:0.05 
43.130492567903225 2:0.00014288368 3:0.0016139349 7:0.025974026 9:0.99999999 10:0.0011312217 20:0.0039138831 21:0.0058703855 25:0.33 26:0.99999999 28:0.66999999 29:0.17647059 30:0.17647059 31:0.99999999 33:0.02 
256 2:1.362294e-06 20:0.029354197 21:0.029353762 26:0.99999999 29:1 30:1 31:0.99999999 33:0.99999999 
256 2:1.362294e-06 20:0.60273972 21:0.60273954 26:0.99999999 29:1 30:1 31:0.99999999 33:0.99999999 
256 2:2.7036296e-06 20:0.88649706 21:0.88649701 26:0.99999999 29:1 30:1 31:0.99999999 33:0.99999999 
46.027155967010998 2:2.7036296e-06 20:0.99412916 21:0.99412916 26:0.99999999 29:1 30:1 31:0.99999999 33:0.99999999 
1.5975282794693781 20:0.0078277775 21:0.0058703855 22:0.5 23:0.66999999 24:0.5 25:0.33 26:0.5 27:0.74999999 28:0.66999999 29:1 30:0.16862745 31:0.17 32:0.04 35:0.99999999 36:0.99999999 
112.38454863799308 2:0.00014288368 3:0.0016139349 7:0.025974026 9:0.99999999 10:0.0011312217 20:0.021526408 21:0.02152597 26:0.99999999 29:1 30:1 31:0.99999999 37:0.04 38:0.04 
256 2:0.00014288368 3:0.0016139349 7:0.025974026 9:0.99999999 10:0.0011312217 20:0.0058708303 21:0.0058703855 26:0.99999999 29:0.97647059 30:0.97647059 31:0.99999999 37:0.02 38:0.02 
256 2:0.00014288368 3:0.0016139349 7:0.025974026 9:0.99999999 10:0.0011312217 20:0.0039138831 21:0.0039134374 26:0.99999999 29:0.97254902 30:0.97254902 31:0.99999999 37:0.02 38:0.02 
153.40767923841267 2:0.00014288368 3:0.0016139349 7:0.025974026 9:0.99999999 10:0.0011312217 20:0.0019569359 21:0.0039134374 25:0.5 26:0.99999999 28:0.99999999 29:1 30:1 31:0.99999999 35:0.0099999999 36:0.0099999999 37:0.03 38:0.03 
0.48464821774842848 20:0.0039138831 21:0.0019564894 22:0.99999999 23:0.99999999 26:0.5 27:0.99999999 29:1 30:0.0039215686 32:0.069999999 35:0.99999999 36:0.99999999 
0.30685916045612832 20:0.38943248 21:0.0019564894 22:0.99999999 23:0.99999999 26:0.0099999999 27:0.05 29:0.011764706 30:0.0039215686 31:0.33 32:0.66999999 33:0.33 35:0.33 36:0.99999999 
1.9273438458712291 2:3.8772983e-06 5:0.33333333 20:0.0039138831 21:0.0039134374 26:0.99999999 29:0.3372549 30:0.0078431373 31:0.02 32:0.05 33:0.02 
256 2:2.7036296e-06 20:0.59491193 21:0.59491175 26:0.99999999 29:1 30:1 31:0.99999999 33:0.99999999 
256 2:2.7036296e-06 20:0.71232876 21:0.71232864 26:0.99999999 29:1 30:1 31:0.99999999 33:0.99999999 
12.582521301252754 2:0.00014288368 3:0.00085025678 7:0.012987013 9:0.99999999 20:0.0039138831 21:0.0039134374 22:0.5 23:0.5 26:0.99999999 29:1 30:1 31:0.99999999 37:0.04 38:0.04 
256 2:2.7036296e-06 20:0.04109588 21:0.041095451 26:0.99999999 29:1 30:1 31:0.99999999 33:0.99999999 
3.2358265717682131 20:0.0039138831 21:0.0039134374 22:0.99999999 23:0.99999999 26:0.99999999 29:0.0078431373 30:0.0078431373 31:0.99999999 33:0.5 35:0.99999999 36:0.99999999 
256 2:1.362294e-06 20:0.63796477 21:0.63796461 26:0.99999999 29:1 30:1 31:0.99999999 33:0.99999999 
256 2:2.7036296e-06 20:0.70841487 21:0.70841474 26:0.99999999 29:1 30:1 31:0.99999999 33:0.99999999 
2.3223921817174311 20:0.0019569359 21:0.0058703855 22:0.99999999 23:0.33 26:0.99999999 28:0.99999999 29:0.090196078 30:0.52941176 31:0.04 32:0.089999999 33:0.04 34:0.0099999999 35:0.90999999 36:0.0099999999 
5.2240165284500693 2:0.00014288368 3:0.0016139349 7:0.025974026 9:0.99999999 10:0.0011312217 20:0.0039138831 21:0.0078273336 26:0.99999999 28:0.74999999 29:0.023529412 30:0.023529412 31:0.99999999 33:0.17 37:0.17 38:0.17 
179.22771499717194 2:1.362294e-06 20:0.8590998 21:0.85909974 26:0.99999999 29:0.90980392 30:0.90980392 31:0.99999999 33:0.99999999 
256 2:1.477565e-06 20:0.0039138831 21:0.0039134374 26:0.99999999 29:0.0078431373 30:0.0078431373 31:0.99999999 33:0.99999999 
256 2:0.00014288368 3:0.0016139349 7:0.025974026 9:0.99999999 10:0.0011312217 20:0.0039138831 21:0.0039134374 26:0.99999999 29:0.15294118 30:0.15294118 31:0.99999999 33:0.03 
256 2:0.00014288368 3:0.001614129 7:0.012987013 9:0.99999999 20:0.011741672 21:0.01174123 22:0.17 23:0.17 26:0.99999999 29:1 30:1 31:0.99999999 35:0.0099999999 36:0.0099999999 37:0.04 38:0.04 
37.853695851088581 2:0.00014288368 3:0.0016139349 7:0.025974026 9:0.99999999 10:0.0011312217 20:0.0078277775 21:0.0097842816 26:0.99999999 28:0.4 29:0.22352941 30:0.22352941 31:0.99999999 33:0.02 35:0.02 36:0.02 37:0.02 38:0.02 
7.6361107053101644 2:1.362294e-06 20:0.84931507 21:0.849315 26:0.99999999 29:0.11372549 30:0.11372549 31:0.99999999 33:0.99999999 
0.081087399171448402 1:9.3322757e-05 2:0.00014288368 3:0.0016139349 7:0.025974026 9:0.99999999 10:0.0011312217 20:0.0078277775 21:0.0078273336 26:0.99999999 29:0.1254902 30:0.1254902 31:0.99999999 33:0.03 37:0.34 38:0.34 
4.4043870208678397 2:0.00013004668 9:0.99999999 20:0.0039138831 21:0.0039134374 24:0.5 25:0.5 26:0.99999999 29:1 30:1 31:0.99999999 35:0.0099999999 36:0.0099999999 37:0.05 38:0.05 
0.62920277710942685 20:0.045009774 21:0.0058703855 22:0.99999999 23:0.99999999 26:0.13 27:0.089999999 29:0.090196078 30:0.11764706 31:0.13 32:0.089999999 33:0.04 34:0.069999999 35:0.99999999 36:0.099999999 
256 2:2.7036296e-06 20:0.88845401 21:0.88845396 26:0.99999999 29:1 30:1 31:0.99999999 33:0.99999999 
0.76771560614293144 2:2.7036296e-06 20:1 21:1 26:0.99999999 29:0.39215686 30:0.023529412 31:0.059999999 32:0.069999999 33:0.059999999 35:0.02 37:0.62999999 
256 2:1.362294e-06 20:0.54207436 21:0.54207415 26:0.99999999 29:1 30:1 31:0.99999999 33:0.99999999 
256 2:2.7036296e-06 20:0.023483355 21:0.023482918 26:0.99999999 29:1 30:0.047058824 31:0.05 32:0.02 33:0.05 
2.4861723919021124 4:0.99999999 20:0.0019569359 21:0.0019564894 22:0.99999999 23:0.99999999 26:0.99999999 29:0.0039215686 30:0.031372549 31:0.99999999 33:0.99999999 34:0.38 35:0.99999999 36:0.12 
256 2:2.7036296e-06 20:0.54207436 21:0.54207415 26:0.99999999 29:1 30:1 31:0.99999999 33:0.99999999 
256 2:2.7036296e-06 20:0.57142857 21:0.57142837 26:0.99999999 29:1 30:1 31:0.99999999 33:0.99999999 
256 2:2.7036296e-06 20:0.69667319 21:0.69667305 26:0.99999999 29:1 30:1 31:0.99999999 33:0.99999999 
0.6130043074691246 20:0.57338551 21:0.037181554 24:0.99999999 25:0.99999999 26:0.059999999 27:0.059999999 29:1 30:0.14509804 31:0.15 32:0.059999999 37:0.99999999 38:0.99999999 
1.0020024326218857 20:0.029354197 21:0.0039134374 22:0.99999999 23:0.99999999 26:0.13 27:0.13 29:0.16470588 30:0.011764706 31:0.05 32:0.069999999 33:0.02 34:0.66999999 35:0.99999999 36:0.66999999 
256 2:2.7036296e-06 20:0.90802348 21:0.90802344 26:0.99999999 29:1 30:1 31:0.99999999 33:0.99999999 
256 2:1.362294e-06 20:0.6144814 21:0.61448123 26:0.99999999 29:1 30:1 31:0.99999999 33:0.99999999 
256 2:2.7036296e-06 20:0.031311144 21:0.03131071 26:0.99999999 29:1 30:0.062745098 31:0.059999999 32:0.02 33:0.059999999 
256 2:1.362294e-06 20:0.56360078 21:0.56360058 26:0.99999999 29:1 30:1 31:0.99999999 33:0.99999999 
5.2841122572767389 20:0.017612513 21:0.017612074 24:0.99999999 25:0.99999999 26:0.99999999 29:1 30:0.10588235 31:0.11 32:0.059999999 37:0.99999999 38:0.99999999 
0.23718354398752539 20:0.0058708303 21:0.0019564894 22:0.99999999 23:0.99999999 26:0.33 27:0.99999999 29:1 30:0.23921569 31:0.24 32:0.04 33:0.0099999999 35:0.99999999 36:0.99999999 
256 2:2.7036296e-06 20:0.68101761 21:0.68101747 26:0.99999999 29:1 30:1 31:0.99999999 33:0.99999999 
39.364059316972472 2:0.00014288368 3:0.0016139349 7:0.025974026 9:0.99999999 10:0.0011312217 20:0.0058708303 21:0.0058703855 26:0.99999999 29:0.16078431 30:0.16078431 31:0.99999999 33:0.02 35:0.02 36:0.02 37:0.02 38:0.02 
124.48740571340808 2:0.00014288368 3:0.0016139349 7:0.025974026 9:0.99999999 10:0.0011312217 20:0.0058708303 21:0.0058703855 26:0.99999999 29:0.043137255 30:0.043137255 31:0.99999999 33:0.089999999 
256 2:1.362294e-06 20:0.63209393 21:0.63209376 26:0.99999999 29:1 30:1 31:0.99999999 33:0.99999999 
0.41989848101830074 2:2.7036296e-06 20:0.32681017 21:0.32680987 26:0.99999999 29:1 30:0.65490196 31:0.64999999 32:0.0099999999 33:0.64999999 
256 2:2.7036296e-06 20:0.54011741 21:0.54011721 26:0.99999999 29:1 30:1 31:0.99999999 33:0.99999999 
53.814007968398734 2:0.00014288368 3:0.0016139349 7:0.025974026 9:0.99999999 10:0.0011312217 20:0.0097847247 21:0.01174123 25:0.17 26:0.99999999 28:0.33 29:1 30:1 31:0.99999999 37:0.02 38:0.02 
32.028304855834087 2:1.362294e-06 20:0.72994129 21:0.72994117 26:0.99999999 29:1 30:1 31:0.99999999 33:0.99999999 
256 2:2.7036296e-06 20:0.025440302 21:0.025439866 26:0.99999999 29:1 30:1 31:0.99999999 33:0.99999999 
2.4678817245859852 20:0.037181985 21:0.041095451 22:0.99999999 23:0.89999999 26:0.99999999 28:0.14 29:0.16078431 30:0.6 31:0.46 32:0.05 33:0.02 34:0.0099999999 35:0.94999999 36:0.12 
256 2:1.362294e-06 20:0.70645792 21:0.70645779 26:0.99999999 29:1 30:1 31:0.99999999 33:0.99999999 
256 2:2.7036296e-06 20:0.92172211 21:0.92172208 26:0.99999999 29:1 30:1 31:0.99999999 33:0.99999999 
163.23220843162659 2:0.00011325903 3:0.0014170946 7:0.012987013 9:0.99999999 20:0.0097847247 21:0.0097842816 24:0.4 25:0.4 26:0.99999999 29:1 30:1 31:0.99999999 37:0.03 38:0.03 
256 2:1.362294e-06 20:0.65949119 21:0.65949104 26:0.99999999 29:1 30:1 31:0.99999999 33:0.99999999 
256 2:2.7036296e-06 20:0.039138932 21:0.039138503 26:0.99999999 29:1 30:0.078431373 31:0.079999999 32:0.02 33:0.079999999 
256 2:2.7036296e-06 20:0.95499021 21:0.95499019 26:0.99999999 29:1 30:1 31:0.99999999 33:0.99999999 
28.248434897340609 1:0.00013998414 2:0.00014288368 3:0.0016139349 7:0.025974026 9:0.99999999 10:0.0011312217 20:0.0058708303 21:0.0058703855 26:0.99999999 29:0.043137255 30:0.043137255 31:0.99999999 33:0.089999999 37:0.45 38:0.45 
1.510986188550782 2:3.8772983e-06 5:0.33333333 20:0.0097847247 21:0.0097842816 26:0.99999999 29:1 30:0.023529412 31:0.02 32:0.079999999 33:0.02 35:0.58999999 37:0.0099999999 
1.0756484123981416 2:0.00013939411 3:0.0014170946 7:0.012987013 9:0.99999999 20:0.0078277775 21:0.0058703855 24:0.25 25:0.33 26:0.74999999 27:0.5 29:0.28235294 30:0.28235294 31:0.99999999 33:0.0099999999 37:0.04 38:0.04 
2.0705366172649402 2:7.3354292e-08 5:1 20:0.2035225 21:0.0078273336 22:0.95999999 26:0.04 27:0.069999999 29:1 30:0.015686275 31:0.02 32:0.98999999 33:0.02 35:0.089999999 37:0.89999999 
256 2:2.7036296e-06 20:0.6555773 21:0.65557714 26:0.99999999 29:1 30:1 31:0.99999999 33:0.99999999 
256 2:2.7036296e-06 20:0.97847358 21:0.97847357 26:0.99999999 29:1 30:1 31:0.99999999 33:0.99999999 
256 2:1.362294e-06 20:0.71819961 21:0.71819948 26:0.99999999 29:1 30:1 31:0.99999999 33:0.99999999 
256 2:0.00014288368 3:0.0016139349 7:0.025974026 9:0.99999999 10:0.0011312217 20:0.0039138831 21:0.0039134374 26:0.99999999 29:0.019607843 30:0.019607843 31:0.99999999 33:0.2 
1.1712493851044214 20:0.0019569359 21:0.0019564894 22:0.99999999 23:0.99999999 26:0.99999999 29:1 30:0.0039215686 32:0.069999999 35:0.99999999 36:0.99999999 
78.916449421221358 2:2.7036296e-06 20:0.53033268 21:0.53033247 26:0.99999999 29:1 30:1 31:0.99999999 33:0.99999999 
256 2:0.00014288368 3:0.0016139349 7:0.025974026 9:0.99999999 10:0.0011312217 20:0.0039138831 21:0.0039134374 26:0.99999999 29:0.98823529 30:0.98823529 31:0.99999999 37:0.02 38:0.02 
14.83142248145624 2:2.7036296e-06 20:0.10176124 21:0.10176084 26:0.99999999 29:0.66666667 30:0.29803922 31:0.45 32:0.04 33:0.45 35:0.0099999999 37:0.37 
256 2:2.7036296e-06 20:0.57925636 21:0.57925617 26:0.99999999 29:1 30:1 31:0.99999999 33:0.99999999 
256 2:2.7036296e-06 20:0.962818 21:0.96281799 26:0.99999999 29:1 30:1 31:0.99999999 33:0.99999999 
256 2:1.362294e-06 20:0.58904109 21:0.58904091 26:0.99999999 29:1 30:1 31:0.99999999 33:0.99999999 
0.0066790087276092187 20:0.0039138831 21:0.0019564894 24:0.5 25:0.99999999 26:0.5 27:0.99999999 29:1 30:0.0039215686 32:0.99999999 33:0.99999999 37:0.98999999 38:0.99999999 
83.91263914869954 20:0.0019569359 21:0.0019564894 24:0.99999999 25:0.99999999 26:0.99999999 29:0.46666667 30:0.0039215686 31:0.0099999999 32:0.13 33:0.0099999999 37:0.03 38:0.99999999 
1.7721673616856928 1:0.83248565 2:1 20:0.0019569359 21:0.0019564894 24:0.99999999 25:0.99999999 26:0.99999999 29:0.30588235 30:0.0078431373 31:0.03 32:0.12 33:0.079999999 37:0.079999999 38:0.5 
7.0773411613711152 2:1.5718777e-08 3:2.3877074e-05 9:0.99999999 20:0.015655566 21:0.0019564894 24:0.38 26:0.12 27:0.99999999 29:0.45098039 30:0.65098039 31:0.50999999 32:0.099999999 33:0.0099999999 34:0.0099999999 36:0.0099999999 37:0.03 
256 2:5.6325617e-07 20:0.0019569359 21:0.0019564894 26:0.99999999 29:0.38823529 30:0.3254902 31:0.83999999 32:0.02 33:0.83999999 
111.21654576281485 2:4.715633e-08 20:0.0019569359 21:0.0019564894 26:0.99999999 29:0.015686275 30:0.47058824 31:0.99999999 33:0.99999999 34:0.25 
112.18310702434997 20:0.0019569359 21:0.0019564894 24:0.99999999 25:0.99999999 26:0.99999999 29:0.19215686 30:0.0039215686 31:0.02 32:0.079999999 33:0.02 35:0.12 37:0.02 38:0.99999999 
14.445786111202843 20:0.0019569359 21:0.0019564894 26:0.99999999 29:0.23529412 30:0.035294118 31:0.02 32:0.99999999 33:0.02 34:0.22 37:0.91999999 
1.0100833728538317 20:0.0039138831 21:0.0019564894 22:0.99999999 23:0.99999999 26:0.5 27:0.99999999 29:0.098039216 30:0.0078431373 31:0.079999999 32:0.71999999 33:0.67999999 35:0.67999999 36:0.99999999 
1.4889730440535069 20:0.0039138831 21:0.0019564894 22:0.99999999 23:0.99999999 26:0.5 27:0.99999999 29:1 30:0.0039215686 32:0.99999999 33:0.99999999 35:0.05 36:0.99999999 37:0.94999999 
256 2:2.0958369e-08 20:0.0019569359 21:0.0019564894 26:0.99999999 29:0.019607843 30:0.011764706 31:0.59999999 32:0.59999999 33:0.59999999 
256 2:2.6197961e-07 20:0.0039138831 21:0.0039134374 26:0.99999999 29:0.14509804 30:0.02745098 31:0.19 32:0.05 33:0.19 
256 2:5.422978e-07 20:0.0039138831 21:0.0039134374 26:0.99999999 29:0.20392157 30:0.17254902 31:0.84999999 32:0.04 33:0.84999999 
256 2:4.715633e-08 20:0.0019569359 21:0.0019564894 26:0.99999999 29:0.015686275 30:0.29803922 31:0.99999999 33:0.99999999 34:0.25 
256 2:5.6325617e-07 20:0.0019569359 21:0.0019564894 26:0.99999999 29:0.10588235 30:0.10588235 31:0.99999999 33:0.99999999 
256 2:2.0958369e-08 20:0.0019569359 21:0.0019564894 26:0.99999999 29:0.0039215686 30:0.51372549 31:0.99999999 33:0.99999999 34:0.5 
132.5595631470226 1:2.3330689e-05 2:4.4798514e-06 3:7.2795957e-05 9:0.99999999 20:0.0039138831 21:0.0039134374 26:0.99999999 29:0.69803922 30:0.49019608 31:0.34 32:0.39 33:0.0099999999 34:0.02 37:0.31 
256 2:5.2395923e-08 20:0.0019569359 21:0.0019564894 26:0.99999999 29:0.3372549 30:0.0078431373 31:0.02 32:0.059999999 33:0.02 
27.70442764678139 2:5.2395923e-08 20:0.0019569359 21:0.0019564894 26:0.99999999 29:0.015686275 30:0.0039215686 31:0.25 32:0.5 33:0.99999999 
256 2:2.0958369e-08 20:0.0019569359 21:0.0039134374 26:0.99999999 28:0.99999999 29:0.0078431373 30:0.0078431373 31:0.99999999 33:0.99999999 
256 2:2.6197961e-09 20:0.021526408 21:0.02152597 26:0.99999999 29:0.30980392 30:0.043137255 31:0.14 32:0.059999999 33:0.18 
70.729733913592469 2:4.715633e-08 20:0.0019569359 21:0.0019564894 26:0.99999999 29:0.0039215686 30:0.4 31:0.99999999 33:0.99999999 34:0.99999999 
9.0437592628927241 1:0.00011665345 3:2.9118383e-06 9:0.99999999 20:0.0019569359 21:0.0019564894 26:0.99999999 29:0.011764706 30:0.0039215686 31:0.33 32:0.99999999 33:0.33 37:0.66999999 
0.99330274644339345 20:0.0039138831 21:0.0019564894 24:0.99999999 25:0.99999999 26:0.5 27:0.99999999 29:1 30:0.0039215686 32:0.15 33:0.069999999 35:0.46 37:0.069999999 38:0.99999999 
256 2:2.6197961e-07 20:0.0058708303 21:0.0058703855 26:0.99999999 29:0.50980392 30:0.078431373 31:0.15 32:0.02 33:0.15 
256 2:2.6197961e-07 20:0.0039138831 21:0.0039134374 26:0.99999999 29:0.31372549 30:0.039215686 31:0.12 32:0.03 33:0.12 
7.7291270593249157 1:0.00016331482 20:0.0039138831 21:0.0039134374 24:0.99999999 25:0.99999999 26:0.99999999 29:0.62745098 30:0.34117647 31:0.51999999 32:0.14 33:0.25 34:0.02 37:0.25 38:0.02 
256 2:2.0958369e-08 20:0.0019569359 21:0.0019564894 26:0.99999999 29:0.011764706 30:0.011764706 31:0.99999999 33:0.99999999 
256 2:2.6197961e-09 20:0.062622299 21:0.062621879 26:0.99999999 29:0.39215686 30:0.1254902 31:0.32 32:0.05 33:0.35 
256 2:4.715633e-08 20:0.0019569359 21:0.0019564894 26:0.99999999 29:0.015686275 30:0.21960784 31:0.99999999 33:0.99999999 34:0.25 
256 1:9.3322757e-05 2:1.5718777e-08 3:2.1159358e-05 20:0.0058708303 21:0.0019564894 26:0.33 27:0.99999999 29:1 30:0.0039215686 32:0.03 
256 2:2.6197961e-09 20:0.0039138831 21:0.0019564894 26:0.5 27:0.99999999 29:0.57254902 30:0.0039215686 31:0.0099999999 32:0.05 33:0.0099999999 35:0.0099999999 
256 2:5.2395923e-08 20:0.0019569359 21:0.0019564894 26:0.99999999 29:0.34509804 30:0.015686275 31:0.05 32:0.059999999 33:0.05 
256 2:2.6197961e-09 20:0.056751457 21:0.056751035 26:0.99999999 29:0.38039216 30:0.11372549 31:0.3 32:0.05 33:0.33 
6.7861923033729177 2:2.6197961e-09 20:0.033268091 21:0.0019564894 26:0.059999999 27:0.18 29:1 30:0.0039215686 32:0.38 33:0.66999999 35:0.16 37:0.18 
256 2:2.0958369e-08 20:0.0019569359 21:0.0019564894 26:0.99999999 29:0.0039215686 30:0.5372549 31:0.99999999 33:0.99999999 34:0.5 
90.492100922697105 2:2.6197961e-09 20:0.0097847247 21:0.0039134374 26:0.4 27:0.59999999 29:0.58431373 30:0.0078431373 31:0.0099999999 32:0.05 33:0.03 35:0.0099999999 
256 2:5.2395923e-08 20:0.0019569359 21:0.0019564894 26:0.99999999 29:0.0039215686 30:0.0039215686 31:0.99999999 33:0.99999999 
256 2:5.422978e-07 20:0.0039138831 21:0.0039134374 26:0.99999999 29:0.29019608 30:0.25882353 31:0.88999999 32:0.03 33:0.88999999 
0.53467098833643889 20:0.0019569359 21:0.0019564894 22:0.99999999 23:0.99999999 26:0.99999999 29:0.25490196 30:0.0039215686 31:0.02 32:0.84999999 33:0.87999999 35:0.87999999 36:0.99999999 
256 2:5.6325617e-07 20:0.0019569359 21:0.0019564894 26:0.99999999 29:0.37254902 30:0.30980392 31:0.82999999 32:0.02 33:0.82999999 
0.091657344600420396 2:2.6197961e-09 3:1.9412255e-07 20:0.0078277775 21:0.0019564894 26:0.25 27:0.5 29:1 30:0.0039215686 32:0.98999999 33:0.02 35:0.2 37:0.77999999 
2.2123681814163549 1:0.00013998414 3:2.9118383e-06 9:0.99999999 20:0.0019569359 21:0.0019564894 24:0.99999999 25:0.99999999 26:0.99999999 29:0.011764706 30:0.0039215686 31:0.33 32:0.99999999 33:0.33 37:0.99999999 38:0.99999999 
256 2:5.422978e-07 20:0.0039138831 21:0.0039134374 26:0.99999999 29:0.4 30:0.3372549 31:0.83999999 32:0.02 33:0.83999999 
0.74200593684189486 1:0.00025663758 2:1.5718777e-08 7:0.012987013 20:0.99608611 21:0.0019564894 22:0.02 24:0.96999999 27:0.99999999 29:1 30:0.0039215686 32:0.99999999 35:0.02 37:0.95999999 
19.020649422615627 1:0.00013998414 3:7.7649021e-07 20:0.0019569359 21:0.0019564894 26:0.99999999 29:0.070588235 30:0.0039215686 31:0.059999999 32:0.99999999 33:0.059999999 37:0.82999999 
256 2:5.6325617e-07 20:0.0019569359 21:0.0019564894 26:0.99999999 29:0.92156863 30:0.76470588 31:0.82999999 32:0.0099999999 33:0.82999999 
256 2:4.715633e-08 20:0.0019569359 21:0.0019564894 26:0.99999999 29:0.035294118 30:0.035294118 31:0.99999999 33:0.99999999 
256 2:2.0958369e-08 20:0.0019569359 21:0.0019564894 26:0.99999999 29:0.0078431373 30:0.14901961 31:0.99999999 33:0.99999999 34:0.5 
2.708130535708106 1:2.3330689e-05 20:0.011741672 21:0.0039134374 22:0.66999999 23:0.5 24:0.33 25:0.5 26:0.33 27:0.5 29:1 30:0.0078431373 31:0.0099999999 32:0.02 33:0.02 35:0.02 36:0.5 37:0.0099999999 38:0.5 
189.93808884867431 2:2.0958369e-08 20:0.0019569359 21:0.08219136 26:0.99999999 28:0.99999999 29:0.0078431373 30:0.0078431373 31:0.99999999 33:0.99999999 
3.1498487716679553 2:2.0958369e-08 20:0.0019569359 21:0.0058703855 26:0.99999999 28:0.99999999 29:0.0078431373 30:0.44705882 31:0.99999999 33:0.99999999 34:0.25 
4.3821338511396579 2:2.0958369e-08 20:0.0019569359 21:0.0039134374 26:0.99999999 28:0.99999999 29:0.89019608 30:0.11764706 31:0.0099999999 32:0.03 33:0.0099999999 34:0.96999999 37:0.0099999999 
256 2:9.6932457e-08 20:0.0058708303 21:0.0058703855 26:0.99999999 29:0.023529412 30:0.011764706 31:0.5 32:0.5 33:0.66999999 
256 2:5.6325617e-07 20:0.0019569359 21:0.0019564894 26:0.99999999 29:0.0039215686 30:0.0039215686 31:0.99999999 33:0.99999999 
256 2:4.715633e-08 20:0.0019569359 21:0.0019564894 26:0.99999999 29:0.015686275 30:0.45490196 31:0.99999999 33:0.99999999 34:0.25 
256 2:5.6325617e-07 20:0.0019569359 21:0.0019564894 26:0.99999999 29:0.22352941 30:0.19215686 31:0.85999999 32:0.04 33:0.85999999 
256 2:5.6325617e-07 20:0.0019569359 21:0.0019564894 26:0.99999999 29:0.83529412 30:0.70980392 31:0.84999999 32:0.0099999999 33:0.84999999 
256 2:5.422978e-07 20:0.0039138831 21:0.0039134374 26:0.99999999 29:0.22745098 30:0.19607843 31:0.85999999 32:0.03 33:0.85999999 
89.132052439048891 2:5.6325617e-07 20:0.0019569359 21:0.0019564894 26:0.99999999 29:0.81176471 30:0.68627451 31:0.84999999 32:0.0099999999 33:0.84999999 
4.5491561447572844 2:1.5718777e-08 3:7.7649021e-07 9:0.99999999 20:0.0039138831 21:0.0019564894 24:0.5 26:0.5 27:0.99999999 29:0.47058824 30:0.0039215686 31:0.0099999999 32:0.13 33:0.0099999999 37:0.03 
1.2880610307768225 2:2.6197961e-09 20:0.0058708303 21:0.0058703855 26:0.99999999 29:1 30:0.023529412 31:0.02 32:0.97999999 33:0.02 35:0.03 37:0.94999999 
28.525358085161653 20:0.0019569359 21:0.0019564894 26:0.99999999 29:0.28627451 30:0.59215686 31:0.23 32:0.36 33:0.34 34:0.02 35:0.079999999 36:0.03 37:0.32 
0.041635846925432804 20:0.99804305 21:0.0019564894 22:0.13 23:0.99999999 24:0.86999999 27:0.99999999 29:1 30:0.0039215686 32:0.99999999 35:0.13 36:0.99999999 37:0.86999999 
0.068089740837943113 20:0.0039138831 21:0.0019564894 24:0.99999999 25:0.99999999 26:0.5 27:0.99999999 29:1 30:0.0039215686 32:0.99999999 33:0.99999999 37:0.99999999 38:0.99999999 
0.83865951209861922 20:0.0058708303 21:0.0019564894 24:0.33 25:0.99999999 26:0.33 27:0.66999999 29:1 30:0.0039215686 32:0.079999999 33:0.059999999 37:0.059999999 38:0.99999999 
4.4778704693763034 2:4.715633e-08 20:0.0039138831 21:0.0019564894 24:0.5 26:0.5 27:0.99999999 29:0.054901961 30:0.96078431 31:0.29 32:0.14 33:0.29 34:0.25 37:0.069999999 
256 2:2.0958369e-08 20:0.0019569359 21:0.0019564894 26:0.99999999 29:0.015686275 30:0.0078431373 31:0.5 32:0.74999999 33:0.5 
256 2:5.6325617e-07 20:0.0019569359 21:0.0019564894 26:0.99999999 29:0.19215686 30:0.16078431 31:0.83999999 32:0.04 33:0.83999999 
256 2:2.6197961e-07 20:0.0019569359 21:0.0019564894 26:0.99999999 29:0.89019608 30:0.14509804 31:0.16 32:0.0099999999 33:0.16 
238.32331248737503 2:1.3098981e-08 20:0.24657533 21:0.0019564894 26:0.0099999999 27:0.02 29:1 30:0.039215686 31:0.04 32:0.02 33:0.04 
256 2:5.422978e-07 20:0.0039138831 21:0.0039134374 26:0.99999999 29:0.30588235 30:0.2745098 31:0.89999999 32:0.03 33:0.89999999 
153.47971759440921 2:5.2395923e-08 20:0.0019569359 21:0.0019564894 26:0.99999999 29:1 30:0.0039215686 32:0.31 37:0.15 
3.8507136055089348 1:2.3330689e-05 3:2.5818299e-05 20:0.0019569359 21:0.0019564894 24:0.99999999 25:0.99999999 26:0.99999999 29:0.0078431373 30:0.0039215686 31:0.5 32:0.99999999 33:0.5 37:0.99999999 38:0.99999999 
256 2:2.0958369e-08 20:0.0019569359 21:0.0019564894 26:0.99999999 29:0.0078431373 30:0.0078431373 31:0.99999999 33:0.99999999 
1.5427082029783699 20:0.0019569359 21:0.0019564894 22:0.99999999 23:0.99999999 26:0.99999999 29:1 30:0.0039215686 32:0.99999999 33:0.99999999 35:0.0099999999 36:0.99999999 37:0.98999999 
0.79040552225876493 20:0.87671233 21:0.0019564894 24:0.99999999 25:0.99999999 27:0.51999999 29:1 30:0.0039215686 32:0.50999999 33:0.99999999 37:0.99999999 38:0.99999999 
3.2226679118982671 2:4.715633e-08 20:0.0039138831 21:0.0019564894 26:0.5 27:0.99999999 29:0.011764706 30:0.10588235 31:0.99999999 33:0.99999999 34:0.26 
256 2:2.6197961e-07 20:0.0039138831 21:0.0039134374 26:0.99999999 29:0.1254902 30:0.0078431373 31:0.059999999 32:0.059999999 33:0.059999999 
256 2:2.6197961e-07 20:0.0058708303 21:0.0058703855 26:0.99999999 29:0.69803922 30:0.10980392 31:0.16 32:0.0099999999 33:0.16 
256 2:2.0958369e-08 20:0.0019569359 21:0.0019564894 26:0.99999999 29:0.023529412 30:0.023529412 31:0.99999999 33:0.99999999 
3.1076812200238386 20:0.017612513 21:0.0019564894 24:0.44 25:0.99999999 26:0.11 27:0.99999999 29:0.64313725 30:0.0039215686 31:0.0099999999 32:0.089999999 33:0.0099999999 35:0.0099999999 37:0.02 38:0.99999999 
256 2:2.0958369e-08 20:0.0019569359 21:0.0019564894 26:0.99999999 29:0.015686275 30:0.015686275 31:0.99999999 33:0.99999999 
1.248821463667251 1:0.00013998414 3:2.5818299e-05 20:0.0019569359 21:0.0019564894 24:0.99999999 25:0.99999999 26:0.99999999 29:0.0078431373 30:0.0078431373 31:0.5 32:0.99999999 33:0.5 34:0.99999999 37:0.99999999 38:0.99999999 
256 2:2.0958369e-08 20:0.0019569359 21:0.0019564894 26:0.99999999 29:0.0078431373 30:0.054901961 31:0.99999999 33:0.99999999 34:0.56999999 
256 2:5.6325617e-07 20:0.0019569359 21:0.0019564894 26:0.99999999 29:0.2 30:0.16862745 31:0.83999999 32:0.04 33:0.83999999 
1.0180662083920442 20:0.0039138831 21:0.0019564894 22:0.5 24:0.5 25:0.99999999 26:0.5 27:0.99999999 29:1 30:0.0039215686 32:0.99999999 33:0.99999999 35:0.05 37:0.94999999 38:0.99999999 
256 2:4.715633e-08 20:0.0019569359 21:0.0019564894 26:0.99999999 29:0.015686275 30:0.16862745 31:0.99999999 33:0.99999999 34:0.26 
1.0520105174824907 20:1 21:0.0039134374 22:0.33 23:0.99999999 24:0.66999999 27:0.99999999 29:1 30:0.0078431373 31:0.0099999999 32:0.99999999 35:0.16 36:0.99999999 37:0.83999999 
256 2:2.0958369e-08 20:0.0019569359 21:0.0019564894 26:0.99999999 29:0.02745098 30:0.019607843 31:0.70999999 32:0.43 33:0.70999999 
0.0022722313305980229 20:0.0039138831 21:0.0019564894 24:0.99999999 25:0.99999999 26:0.5 27:0.99999999 29:1 30:0.0039215686 32:0.99999999 33:0.99999999 37:0.99999999 38:0.99999999 
256 2:5.422978e-07 20:0.0039138831 21:0.0039134374 26:0.99999999 29:0.023529412 30:0.023529412 31:0.99999999 33:0.99999999 
0.010286681038500559 20:0.0019569359 21:0.0019564894 22:0.99999999 23:0.99999999 26:0.99999999 29:1 30:0.0039215686 32:0.99999999 33:0.99999999 35:0.99999999 36:0.99999999 
10.929845018832347 2:5.6325617e-07 20:0.0019569359 21:0.0019564894 26:0.99999999 29:0.96078431 30:0.80392157 31:0.83999999 32:0.0099999999 33:0.83999999 
256 2:4.715633e-08 20:0.0019569359 21:0.0019564894 26:0.99999999 29:0.015686275 30:0.36078431 31:0.99999999 33:0.99999999 34:0.25 
256 2:2.0958369e-08 20:0.0019569359 21:0.0019564894 26:0.99999999 29:0.0078431373 30:0.16470588 31:0.99999999 33:0.99999999 34:0.5 
6.1150220632731456 2:2.6197961e-09 20:0.039138932 21:0.0019564894 26:0.05 27:0.25 29:1 30:0.0039215686 32:0.24 33:0.99999999 
256 2:2.6197961e-07 20:0.0019569359 21:0.0019564894 26:0.99999999 29:0.30980392 30:0.035294118 31:0.11 32:0.03 33:0.11 
26.644109227629141 2:1.3098981e-08 20:0.066536193 21:0.0019564894 26:0.03 27:0.059999999 29:0.4 30:0.019607843 31:0.0099999999 32:0.059999999 33:0.0099999999 34:0.4 
1.0423184594683252 20:0.69667319 21:0.0019564894 22:0.03 23:0.99999999 24:0.94999999 27:0.99999999 29:1 30:0.0039215686 32:0.99999999 35:0.04 36:0.99999999 37:0.95999999 
0.17899714800237024 20:0.0019569359 21:0.0019564894 24:0.99999999 25:0.99999999 26:0.99999999 29:0.02745098 30:0.0039215686 31:0.14 32:0.99999999 33:0.14 37:0.70999999 38:0.99999999 
244.79319139408068 2:4.715633e-08 20:0.0019569359 21:0.0019564894 26:0.99999999 29:0.0039215686 30:0.054901961 31:0.99999999 33:0.99999999 34:0.99999999 
0.12261779728313957 20:0.0019569359 21:0.0019564894 24:0.99999999 25:0.99999999 26:0.99999999 29:0.0039215686 30:0.15686275 31:0.99999999 33:0.99999999 34:0.079999999 37:0.99999999 38:0.05 
15.81967099465226 2:4.715633e-08 20:0.0019569359 21:0.0019564894 26:0.99999999 29:0.011764706 30:0.24705882 31:0.99999999 33:0.99999999 34:0.25 
0.15948935900378186 20:0.0039138831 21:0.0019564894 24:0.99999999 25:0.99999999 26:0.5 27:0.99999999 29:1 30:0.0039215686 32:0.99999999 33:0.99999999 37:0.99999999 38:0.99999999 
7.8393859401575829 20:0.0019569359 21:0.0019564894 24:0.99999999 25:0.99999999 26:0.99999999 29:0.0039215686 30:0.40784314 31:0.99999999 33:0.99999999 34:0.03 37:0.99999999 38:0.02 
256 2:5.2395923e-08 20:0.0019569359 21:0.0019564894 26:0.99999999 29:1 30:0.0039215686 32:0.02 33:0.02 
30.948260621780463 2:2.6197961e-09 20:0.0097847247 21:0.0058703855 26:0.59999999 27:0.59999999 29:1 30:0.011764706 31:0.0099999999 32:0.36 33:0.83999999 37:0.16 
37.357679148534729 2:2.6197961e-09 20:0.023483355 21:0.0019564894 26:0.079999999 27:0.74999999 29:1 30:0.0039215686 32:0.32 33:0.99999999 
256 2:2.6197961e-07 20:0.0019569359 21:0.0019564894 26:0.99999999 29:0.12156863 30:0.0039215686 31:0.03 32:0.059999999 33:0.03 
256 2:2.0958369e-08 20:0.0019569359 21:0.0019564894 26:0.99999999 29:0.0078431373 30:0.047058824 31:0.99999999 33:0.99999999 34:0.5 
256 2:5.6325617e-07 20:0.0019569359 21:0.0019564894 26:0.99999999 29:0.090196078 30:0.090196078 31:0.99999999 33:0.99999999 
1.6110880907485754 20:0.0097847247 21:0.0019564894 24:0.4 25:0.99999999 26:0.2 27:0.59999999 29:0.61960784 30:0.0039215686 31:0.0099999999 32:0.069999999 33:0.0099999999 35:0.0099999999 37:0.0099999999 38:0.99999999 
1.0594358636639112 1:0.00018664551 2:1.5718777e-08 9:0.99999999 20:0.99608611 21:0.0019564894 22:0.02 24:0.96999999 27:0.99999999 29:1 30:0.0039215686 32:0.99999999 35:0.02 37:0.96999999 
3.1622143671522291 2:2.0958369e-08 20:0.0019569359 21:0.0039134374 26:0.99999999 28:0.99999999 29:0.0078431373 30:0.65098039 31:0.99999999 33:0.99999999 34:0.25 
256 2:2.0958369e-08 20:0.0019569359 21:0.0019564894 26:0.99999999 29:0.0039215686 30:0.0039215686 31:0.99999999 33:0.99999999 
256 2:5.6325617e-07 20:0.0019569359 21:0.0019564894 26:0.99999999 29:0.86666667 30:0.74117647 31:0.85999999 32:0.0099999999 33:0.85999999 
247.92790187631255 20:0.0019569359 21:0.0019564894 24:0.99999999 25:0.99999999 26:0.99999999 29:1 30:0.0039215686 32:0.04 33:0.02 37:0.02 38:0.99999999 
256 2:2.6197961e-07 20:0.0058708303 21:0.0058703855 26:0.99999999 29:0.13333333 30:0.015686275 31:0.12 32:0.059999999 33:0.12 
256 2:5.2395923e-08 20:0.0078277775 21:0.0078273336 26:0.99999999 29:0.015686275 30:0.015686275 31:0.99999999 33:0.99999999 
1.5821112440780192 20:0.0019569359 21:0.0019564894 22:0.99999999 23:0.99999999 26:0.99999999 29:1 30:0.0039215686 32:0.99999999 33:0.99999999 35:0.99999999 36:0.99999999 
4.0854529078092732 20:0.0019569359 21:0.0019564894 24:0.99999999 25:0.99999999 26:0.99999999 29:1 30:0.039215686 31:0.04 32:0.11 33:0.099999999 37:0.099999999 38:0.099999999 
2.030919051882917 2:2.69839e-07 3:5.6683785e-05 7:0.012987013 8:1 14:0.05 19:0.99999999 20:0.0019569359 21:0.0019564894 26:0.99999999 29:0.45882353 30:0.0078431373 31:0.02 32:0.11 33:0.0099999999 37:0.03 
0.79907334482048598 20:0.0019569359 21:0.0019564894 22:0.99999999 23:0.99999999 26:0.99999999 29:0.070588235 30:0.0039215686 31:0.059999999 32:0.71999999 33:0.55999999 35:0.55999999 36:0.99999999 
256 2:5.422978e-07 20:0.0039138831 21:0.0039134374 26:0.99999999 29:0.062745098 30:0.062745098 31:0.99999999 33:0.99999999 
256 2:2.0958369e-08 20:0.0019569359 21:0.0019564894 26:0.99999999 29:0.0078431373 30:0.0078431373 31:0.99999999 33:0.99999999 
0.84328476975906452 20:1 21:0.0019564894 22:0.0099999999 24:0.98999999 25:0.99999999 27:0.99999999 29:1 30:0.0039215686 32:0.99999999 35:0.0099999999 37:0.98999999 38:0.99999999 
256 20:0.0019569359 21:0.0019564894 24:0.99999999 25:0.99999999 26:0.99999999 29:0.49019608 30:0.0039215686 31:0.0099999999 32:0.05 33:0.04 37:0.04 38:0.99999999 
78.12819026981046 2:5.422978e-07 20:0.0039138831 21:0.0039134374 26:0.99999999 29:0.95686275 30:0.8 31:0.83999999 32:0.0099999999 33:0.83999999 
1.4245382847778225 20:0.021526408 21:0.0019564894 22:0.72999999 23:0.99999999 24:0.27 26:0.089999999 27:0.54999999 29:1 30:0.0039215686 32:0.03 33:0.04 35:0.03 36:0.99999999 37:0.0099999999 
256 2:1.3098981e-08 20:0.0019569359 21:0.0019564894 26:0.99999999 29:1 30:0.02745098 31:0.03 32:0.02 33:0.03 
256 2:5.6325617e-07 20:0.0019569359 21:0.0019564894 26:0.99999999 29:0.38039216 30:0.31764706 31:0.83999999 32:0.02 33:0.83999999 
31.985263636239036 2:4.715633e-08 20:0.0019569359 21:0.0019564894 26:0.99999999 29:0.0039215686 30:0.42352941 31:0.99999999 33:0.99999999 34:0.99999999 
1.2178549271695447 20:1 21:0.0019564894 22:0.44 24:0.55999999 25:0.99999999 27:0.99999999 29:1 30:0.0039215686 32:0.99999999 35:0.51999999 37:0.48 38:0.99999999 
256 2:5.422978e-07 20:0.0039138831 21:0.0039134374 26:0.99999999 29:0.36862745 30:0.30588235 31:0.82999999 32:0.02 33:0.82999999 
1.4197145286560384 1:0.00013998414 3:1.5918049e-05 9:0.99999999 20:0.0019569359 21:0.0019564894 26:0.99999999 29:0.023529412 30:0.30980392 31:0.17 32:0.99999999 33:0.17 34:0.04 36:0.0099999999 37:0.66999999 38:0.03 
256 20:0.0019569359 21:0.0019564894 24:0.99999999 25:0.99999999 26:0.99999999 29:0.6745098 30:0.0039215686 31:0.0099999999 32:0.05 33:0.02 37:0.03 38:0.99999999 
256 2:4.715633e-08 20:0.0019569359 21:0.0019564894 26:0.99999999 29:0.011764706 30:0.011764706 31:0.99999999 33:0.99999999 
256 2:4.715633e-08 20:0.0019569359 21:0.0019564894 26:0.99999999 29:0.015686275 30:0.43921569 31:0.99999999 33:0.99999999 34:0.25 
256 2:4.715633e-08 20:0.0019569359 21:0.0019564894 26:0.99999999 29:0.015686275 30:0.20392157 31:0.99999999 33:0.99999999 34:0.25 
1.1105890969852876 1:0.00018664551 2:1.5718777e-08 9:0.99999999 20:0.99804305 21:0.0019564894 22:0.2 24:0.78999999 27:0.99999999 29:1 30:0.0039215686 32:0.99999999 35:0.23 37:0.74999999 
256 2:2.0958369e-08 20:0.0039138831 21:0.0039134374 26:0.99999999 29:0.0078431373 30:0.0078431373 31:0.99999999 33:0.99999999 
1.6163082183099966 1:4.6661378e-05 2:1.5718777e-08 3:5.4354314e-06 9:0.99999999 20:0.10958903 21:0.0019564894 22:0.02 24:0.90999999 25:0.99999999 26:0.02 27:0.99999999 29:1 30:0.0039215686 32:0.25 37:0.21 38:0.99999999 
256 2:2.6197961e-07 20:0.0039138831 21:0.0039134374 26:0.99999999 29:0.31764706 30:0.043137255 31:0.14 32:0.02 33:0.14 
0.011572235267485111 20:0.0039138831 21:0.0019564894 24:0.99999999 25:0.99999999 26:0.5 27:0.99999999 29:1 30:0.0039215686 32:0.99999999 33:0.99999999 37:0.99999999 38:0.99999999 
0.95707302935824978 20:0.28375733 21:0.0019564894 22:0.059999999 23:0.99999999 24:0.93999999 26:0.0099999999 27:0.57999999 29:1 30:0.0039215686 32:0.33 33:0.56999999 35:0.04 36:0.99999999 37:0.52999999 
1.0551280145678645 20:0.0019569359 21:0.0019564894 24:0.99999999 25:0.99999999 26:0.99999999 29:0.019607843 30:0.0078431373 31:0.2 32:0.99999999 33:0.2 34:0.99999999 37:0.59999999 38:0.99999999 
1.1190146696200782 2:4.715633e-08 20:0.0019569359 21:0.0019564894 26:0.99999999 29:0.0078431373 30:0.31372549 31:0.5 32:0.99999999 33:0.5 34:0.99999999 
0.14416956615400012 20:0.15264187 21:0.0019564894 24:0.93999999 25:0.99999999 26:0.0099999999 27:0.99999999 29:0.79607843 30:0.043137255 31:0.03 32:0.43 34:0.18 36:0.089999999 37:0.37 38:0.089999999 
256 2:2.3578165e-08 3:3.804802e-05 7:0.012987013 20:0.0097847247 21:0.0097842816 26:0.99999999 29:0.60784314 30:0.02745098 31:0.05 32:0.059999999 33:0.0099999999 35:0.0099999999 
0.9945091038214896 2:2.6197961e-09 20:0.019569461 21:0.0039134374 26:0.2 27:0.69999999 29:1 30:0.0078431373 31:0.0099999999 32:0.29 33:0.93999999 37:0.059999999 
2.0189764641752168 1:1 2:2.6197961e-09 20:0.0039138831 21:0.0039134374 24:0.99999999 25:0.99999999 26:0.99999999 29:0.49411765 30:0.0078431373 31:0.02 32:0.05 33:0.05 37:0.05 38:0.99999999 
3.076509421801751 1:0.29730297 2:1.0775222e-05 3:0.01002313 9:0.99999999 10:0.0045248869 13:0.0041025641 14:0.45 20:0.0019569359 21:0.0019564894 26:0.99999999 29:0.28235294 30:0.011764706 31:0.03 32:0.98999999 33:0.0099999999 34:0.66999999 37:0.95999999 38:0.66999999 
0.42867930006200716 1:3.6206856e-06 2:3.5860716e-10 3:4.6695751e-08 4:0.0034197067 5:0.00030707621 6:0.050291226 7:0.0056749371 8:0.00049451488 9:0.95627418 10:0.00047453424 11:0.88038937 12:0.00062339341 13:0.00017206851 14:0.013809446 15:0.0010049742 16:0.00028268771 17:0.022583917 18:0.017279204 19:0.00069601906 20:0.00020622725 21:0.00042850636 22:0.0022732705 23:0.0015682384 24:0.00054053696 25:0.0010617854 26:0.0011458345 27:0.0014998814 28:0.0011107196 29:3.289224e-05 30:0.00029786717 31:0.85583168 32:0.17828731 33:0.92865287 34:0.02255392 35:0.0021718898 36:0.0009163197 37:0.00049493515 38:0.0020946496 
0.64254723582740436 1:3.7992251e-06 2:1.0626297e-09 3:9.3445082e-08 4:0.0032748195 5:0.00053016832 6:0.085713653 7:0.0027488555 8:0.00089744748 9:0.97699122 10:0.00076059078 11:0.41797234 12:0.00033595326 13:0.00037187773 14:0.0081006879 15:0.0063707656 16:0.0001559485 17:0.027386364 18:0.056138245 19:0.003902919 20:0.00076628301 21:0.00045764107 22:0.0075900462 23:0.0017342614 24:0.0050703734 25:0.0032744393 26:0.0020395427 27:0.0025327223 28:0.0030787575 29:0.0024842213 30:0.00031249779 31:0.16687677 32:0.75601786 33:0.078958519 34:0.047607756 35:0.0024053561 36:0.0020370225 37:0.0043934875 38:0.0015975373 
0.59406692125036742 1:2.2390963e-06 2:5.987629e-10 3:3.2666049e-08 4:0.007295514 5:0.0011986977 6:0.019395113 7:0.0043823793 8:0.00041915335 9:0.9753659 10:0.00044656238 11:0.28599453 12:0.0011316622 13:2.9032129e-05 14:0.012709631 15:0.0026413055 16:9.9621143e-05 17:0.015693314 18:0.030079881 19:0.0023430217 20:0.00052086314 21:0.00064062745 22:0.0062827437 23:0.0018759537 24:0.0012965882 25:0.0027134913 26:0.0034624516 27:0.0020084082 28:0.0014688427 29:0.00064582767 30:0.00012399467 31:0.94621452 32:0.37987268 33:0.89411763 34:0.031203538 35:0.0021634253 36:0.00043836964 37:0.0013244728 38:0.0010742221 
0.12988875822651844 1:3.5689768e-06 2:2.452334e-10 3:4.5900204e-08 4:0.0012770568 5:0.00029314211 6:0.028557876 7:0.0045898488 8:0.0008161536 9:0.96752075 10:0.00070556301 11:0.8845516 12:0.00075286388 13:8.9357229e-05 14:0.0097522787 15:0.00049594779 16:0.00011919563 17:0.027609651 18:0.044156779 19:0.00048825231 20:0.00018130168 21:0.00021639536 22:0.0032296395 23:0.00085803589 24:0.0012042746 25:0.0012695366 26:0.0019617437 27:0.00041928347 28:0.00054034772 29:0.0010531083 30:0.00011894515 31:0.91624493 32:0.094677076 33:0.87577219 34:0.029159779 35:0.0030435041 36:0.0016575571 37:0.00078335432 38:0.0015225739 
0.44032410901995722 1:4.3432742e-06 2:2.2284268e-10 3:3.4998915e-08 4:0.0030683141 5:0.0018308752 6:0.10413852 7:0.003030836 8:0.0016193278 9:0.95583416 10:0.00077773083 11:0.78476095 12:0.0011768189 13:0.00013971272 14:0.022538546 15:0.0045516595 16:0.00022836041 17:0.76803291 18:0.020348476 19:0.0017139757 20:0.00011905672 21:0.00085653713 22:0.0054976311 23:0.0015174131 24:0.0017348888 25:0.0017501236 26:0.0028779588 27:0.00094108184 28:0.016073411 29:0.0031050543 30:0.00068739037 31:0.11141629 32:0.63564517 33:0.53129211 34:0.11015574 35:0.0015343606 36:0.0039665239 37:0.0036415786 38:0.0012681574 
3.5281883459298449 1:4.1565367e-06 2:6.5901537e-10 3:6.6877742e-08 4:0.0032445011 5:0.00012947696 6:0.14500042 7:0.001378294 8:0.0023657878 9:0.98762034 10:0.00047589443 11:0.13384728 12:0.0027811553 13:0.00013875468 14:0.017300944 15:0.00072435495 16:0.00013216394 17:0.087211625 18:0.027643444 19:0.0042449012 20:0.00017040766 21:0.00044594524 22:0.0004608595 23:0.003123681 24:0.0030161361 25:0.0033224864 26:0.0045133867 27:0.0020142063 28:0.0035635611 29:0.0027866102 30:0.00025139889 31:0.17174022 32:0.17058137 33:0.20363739 34:0.061413363 35:0.00094797281 36:0.0051317279 37:0.00092902915 38:0.0018964274 
4.0215960850646884 1:6.4645199e-07 2:2.0432712e-10 3:4.2569122e-09 4:0.0023545687 5:0.00094867076 6:0.0029109292 7:0.0087894279 8:0.0030985199 9:0.97397231 10:6.9757291e-06 11:0.0075692185 12:0.0009554518 13:3.7726488e-06 14:6.6445558e-05 15:0.0090227783 16:0.0010523873 17:0.020817414 18:0.052270396 19:0.8222036 20:0.0001614276 21:2.6211018e-05 22:0.0056431086 23:0.02208262 24:0.050621106 25:0.079685805 26:0.96423406 27:0.018781467 28:0.012842725 29:0.0027124579 30:0.00096861146 31:0.41707621 32:0.11325428 33:0.073818015 34:0.023302386 35:0.028033596 36:0.015140141 37:0.057948549 38:0.037991687 
2.8411230215290764 1:1.9742667e-06 2:1.4626572e-10 3:2.0327946e-09 4:0.0012677447 5:0.00041513162 6:0.00094514777 7:0.00021355242 8:0.013266016 9:0.97763419 10:4.1557317e-06 11:0.030718159 12:0.0011490514 13:5.9027731e-06 14:4.8158317e-05 15:0.0010391751 16:0.00063562143 17:0.025461982 18:0.0061137387 19:0.060179151 20:0.00018223157 21:1.5472617e-05 22:0.010075158 23:0.017775873 24:0.068502057 25:0.065953588 26:0.99145413 27:0.0031524477 28:0.018804268 29:0.00040124783 30:0.00024087013 31:0.97190855 32:0.061968936 33:0.6499841 34:0.68709044 35:0.021170368 36:0.0079276809 37:0.02947042 38:0.014526519 
4.8898806561803871 1:3.1469023e-06 2:8.739382e-11 3:3.4226802e-09 4:0.0022376852 5:0.00086711123 6:0.0012382651 7:0.0041553617 8:0.0051472713 9:0.8845634 10:1.2420039e-05 11:0.0095829928 12:0.00024282059 13:2.7566047e-06 14:0.00032768035 15:0.0058354667 16:0.0006433747 17:0.028070447 18:0.039862605 19:0.86482811 20:0.00013274986 21:5.7884902e-05 22:0.011117968 23:0.018806296 24:0.026588033 25:0.027555621 26:0.99523938 27:0.008519762 28:0.014792997 29:0.0023841218 30:0.00057729505 31:0.40413047 32:0.11309285 33:0.14268575 34:0.1034742 35:0.010728799 36:0.023081674 37:0.035681737 38:0.021309674 
3.196354683792324 1:6.3436685e-07 2:9.0074537e-11 3:1.7109183e-09 4:0.0010642489 5:0.00071047953 6:0.00085053736 7:0.00067275985 8:0.0056687576 9:0.96904729 10:2.753106e-06 11:0.012423087 12:0.00048106962 13:3.5746242e-06 14:0.00012039501 15:0.0064796679 16:0.0019068835 17:0.054997672 18:0.024926429 19:0.068998097 20:5.1869338e-05 21:1.3970852e-05 22:0.01251006 23:0.0060435947 24:0.019494291 25:0.12171448 26:0.99786531 27:0.0057260348 28:0.047693407 29:0.00060307516 30:0.000238005 31:0.95724731 32:0.055211257 33:0.68340751 34:0.048128255 35:0.017344666 36:0.012662898 37:0.027111783 38:0.02012561 
13.403186966508441 1:2.2783923e-07 2:5.496318e-11 3:2.0470423e-09 4:0.001154127 5:0.00065701151 6:0.0022543078 7:0.001160837 8:0.0084814917 9:0.9777648 10:3.2320045e-06 11:0.0052117459 12:0.0022112148 13:1.4002422e-06 14:6.1837994e-05 15:0.0065827862 16:0.0021038003 17:0.039353182 18:0.021000565 19:0.10907087 20:3.4220805e-05 21:5.0969178e-06 22:0.018779491 23:0.0075169485 24:0.087290376 25:0.023395482 26:0.99804665 27:0.027732456 28:0.010952313 29:0.001297143 30:0.00090470948 31:0.42187627 32:0.016937499 33:0.46265679 34:0.046370679 35:0.0065448505 36:0.030555834 37:0.016969661 38:0.042163851 
12.820827997769443 1:1.2679584e-06 2:4.1026271e-10 3:4.4063363e-09 4:0.00085946406 5:0.00045757328 6:0.0036369627 7:0.0026101566 8:0.010129916 9:0.96169034 10:6.8929188e-06 11:0.0061528536 12:0.00049384232 13:8.9120627e-06 14:0.00030401405 15:0.0011026448 16:0.0010621048 17:0.056514224 18:0.014913266 19:0.076615649 20:0.00025441467 21:5.0449018e-05 22:0.0052372644 23:0.0079888761 24:0.0099244783 25:0.023095361 26:0.98751974 27:0.017122159 28:0.0089980995 29:0.00053869285 30:0.00014969163 31:0.77883454 32:0.016233056 33:0.35610713 34:0.5537097 35:0.035427098 36:0.0080722351 37:0.027743362 38:0.015849487 
22.427876318142037 1:9.2910683e-07 2:4.2731837e-11 3:2.1926629e-09 4:0.0015253107 5:0.00042797123 6:0.0028955075 7:0.0053046459 8:0.03535403 9:0.90865515 10:1.4557663e-05 11:0.015444273 12:0.00047448711 13:2.071664e-06 14:0.00022788096 15:0.0032194356 16:0.00044770271 17:0.025072651 18:0.018227483 19:0.85137749 20:0.00018350774 21:1.0317046e-05 22:0.0061506253 23:0.0083003046 24:0.016045077 25:0.019535112 26:0.99004965 27:0.016807152 28:0.014183082 29:0.0021740353 30:0.0009424684 31:0.85637591 32:0.071887713 33:0.13316286 34:0.065396569 35:0.033024413 36:0.0094442072 37:0.016026584 38:0.055825079 
17.224844614980199 1:1.3637549e-06 2:2.6956255e-10 3:4.0820989e-09 4:0.00029660006 5:0.00048129257 6:0.0048801404 7:0.001004999 8:0.017289012 9:0.96427566 10:5.2397678e-06 11:0.014137733 12:0.0002319794 13:1.0688137e-05 14:0.00026950174 15:0.0020623844 16:0.00073463088 17:0.011086168 18:0.0080800234 19:0.073969615 20:0.00015413903 21:1.0454076e-05 22:0.0048377706 23:0.005546959 24:0.016957931 25:0.044057164 26:0.99366066 27:0.0044331029 28:0.013532808 29:0.00039223546 30:0.00052238099 31:0.96112473 32:0.077588272 33:0.79392729 34:0.091673112 35:0.025205354 36:0.017122843 37:0.022683542 38:0.10115826 
6.9736692100796862 1:4.0825725e-07 2:1.6972501e-10 3:1.9181289e-09 4:0.0056666515 5:0.0010777769 6:0.0015423606 7:0.0099958851 8:0.0043725884 9:0.97397606 10:1.4189216e-06 11:0.019113896 12:0.00073237279 13:6.7416787e-06 14:0.00036780669 15:0.0034809154 16:0.00056543632 17:0.053720649 18:0.023231555 19:0.059436971 20:0.00012260244 21:1.1383698e-05 22:0.03859595 23:0.019720717 24:0.024135932 25:0.072417139 26:0.99301264 27:0.0036747852 28:0.014350955 29:0.0024178797 30:0.00076606436 31:0.63558274 32:0.10951713 33:0.28414349 34:0.15489872 35:0.012237473 36:0.10459997 37:0.035155287 38:0.030286619 
5.3184317654630409 1:1.1671461e-06 2:2.687626e-10 3:5.6576164e-09 4:0.00095606062 5:0.00073529909 6:0.001226702 7:0.0044639609 8:0.0058586718 9:0.96280924 10:1.0773122e-05 11:0.014872447 12:0.00034760464 13:1.5232226e-05 14:0.00024325308 15:0.0028836931 16:0.00039280416 17:0.03384474 18:0.032962322 19:0.064734015 20:0.0001642645 21:2.4758093e-05 22:0.022583697 23:0.0080424918 24:0.016193098 25:0.010345341 26:0.99448613 27:0.0096381034 28:0.024687375 29:0.001284598 30:0.00057835063 31:0.8944701 32:0.030423095 33:0.62004033 34:0.72609602 35:0.03148146 36:0.0063478412 37:0.046938164 38:0.021898752 
17.942793223592854 1:1.9402256e-06 2:8.9214575e-11 3:1.9782816e-09 4:0.00086003823 5:0.0011728337 6:0.0015167028 7:0.0046294415 8:0.0048918147 9:0.96063341 10:1.3467703e-06 11:0.011935743 12:0.00024409595 13:1.8547849e-06 14:0.00061017198 15:0.0042359633 16:0.00053521983 17:0.057167479 18:0.046818178 19:0.040102294 20:0.00014184486 21:3.948765e-05 22:0.010618175 23:0.0046852546 24:0.053613342 25:0.052923769 26:0.99498556 27:0.010319639 28:0.043949196 29:0.00081202182 30:0.00034980187 31:0.78521117 32:0.014713091 33:0.16115822 34:0.095146955 35:0.034103416 36:0.013551788 37:0.039406639 38:0.027353345 
12.564599340418457 1:8.1946121e-07 2:1.5836583e-10 3:6.220373e-09 4:0.0017452967 5:0.00044005365 6:0.004872976 7:0.0028044527 8:0.026035479 9:0.96520832 10:1.2160565e-05 11:0.006712361 12:0.0011001659 13:4.6612047e-06 14:6.8116415e-05 15:0.0079102158 16:0.00050272883 17:0.043895647 18:0.013428697 19:0.15374101 20:0.00021963843 21:4.724962e-05 22:0.0058453278 23:0.0090951498 24:0.041705567 25:0.045288876 26:0.99692036 27:0.018280442 28:0.040972895 29:0.000690685 30:0.00071249798 31:0.66089454 32:0.025144719 33:0.1690905 34:0.04973522 35:0.020114495 36:0.051127956 37:0.016297603 38:0.0198329 
20.611334598481886 1:4.3495336e-07 2:1.5834212e-10 3:6.9287789e-09 4:0.0042855143 5:0.00025926005 6:0.0034235902 7:0.00094188374 8:0.010735835 9:0.93546099 10:1.308427e-05 11:0.0025998226 12:0.00038306998 13:3.7320813e-06 14:0.00023633932 15:0.0050251244 16:0.00056710986 17:0.013157392 18:0.029980494 19:0.073317171 20:8.0750471e-05 21:2.9654908e-05 22:0.012079481 23:0.01375454 24:0.030573301 25:0.022391019 26:0.99298779 27:0.013533648 28:0.023841207 29:0.00073449136 30:0.00065361495 31:0.97215275 32:0.029866299 33:0.80739548 34:0.58615626 35:0.02635027 36:0.068861899 37:0.064668632 38:0.082000392 
24.31034893761549 1:2.4665004e-08 2:1.0137434e-10 3:1.9146033e-08 4:0.00076319322 5:0.03014521 6:0.00067418777 7:0.00023146099 8:0.00035387574 9:0.071403332 10:1.8087209e-05 11:0.0011274455 12:0.00096110877 13:2.3448282e-06 14:2.5876499e-05 15:0.00055187121 16:0.00025322548 17:0.017178548 18:0.039278567 19:0.0020193753 20:0.00044601399 21:9.7970462e-05 22:0.0074883076 23:0.0073678831 24:0.8979579 25:0.91336294 26:0.85662635 27:0.035670375 28:0.0027692634 29:0.0037461107 30:0.00030378105 31:0.58775202 32:0.035508134 33:0.038350172 34:0.0015295297 35:0.0070933267 36:0.0079834385 37:0.5614573 38:0.87681336 
0.37511039229139792 1:1.7390131e-08 2:1.226365e-10 3:1.61192e-09 4:0.0013394888 5:0.0080230636 6:0.00060345585 7:0.00024344724 8:0.00028931594 9:0.0136052 10:2.4885939e-05 11:0.00075920973 12:0.00046161101 13:1.1881147e-06 14:4.7097282e-05 15:0.001092153 16:6.8553482e-05 17:0.015894164 18:0.081677636 19:0.0018021459 20:0.0010270319 21:7.8620545e-05 22:0.90388997 23:0.78806773 24:0.019029569 25:0.043375398 26:0.3105474 27:0.049563121 28:0.0043884448 29:0.0036469881 30:0.00014500357 31:0.073716305 32:0.048294776 33:0.025553807 34:0.00065454725 35:0.29135421 36:0.8859722 37:0.063275701 38:0.024052519 
8.3059422253326591 1:1.5016536e-07 2:1.8919499e-12 3:2.4231674e-10 4:0.00091908578 5:0.00021280333 6:0.0014273634 7:2.4163787e-05 8:0.00015734082 9:0.0072415815 10:8.229184e-07 11:0.0003997435 12:0.00030181124 13:2.809978e-07 14:6.9054549e-06 15:0.00027384277 16:3.3926805e-05 17:0.0058130717 18:0.0038372741 19:0.00021993651 20:0.00013808553 21:0.00023511642 22:0.030408815 23:0.040918931 24:0.0014899179 25:0.0042331992 26:0.36883414 27:0.25711227 28:0.021330642 29:0.0030651803 30:0.00056300555 31:0.22385728 32:0.23367222 33:0.14729576 34:0.060742804 35:0.035153437 36:0.19073338 37:0.029941197 38:0.029468409 
37.728414456158212 1:3.4089412e-07 2:8.7743012e-13 3:9.1606917e-11 4:0.00012849448 5:5.2217576e-05 6:0.00018174216 7:4.2777628e-05 8:0.00059719102 9:0.0078661473 10:4.2995997e-07 11:0.00014906261 12:0.0002134853 13:7.5287411e-07 14:3.8850436e-06 15:0.00020537616 16:4.8463732e-05 17:0.0070505927 18:0.027324273 19:0.0011921715 20:7.7717306e-06 21:7.3844818e-05 22:0.0081238935 23:0.010504457 24:0.034692047 25:0.024652568 26:0.94431876 27:0.071349602 28:0.060949822 29:0.00078961613 30:0.00024412858 31:0.032784586 32:0.25235075 33:0.17309269 34:0.082987195 35:0.063848719 36:0.023214816 37:0.10352344 38:0.029108496 
1.1599866342096747 1:2.2199778e-07 2:1.6312744e-12 3:2.0454653e-10 4:0.00053532515 5:0.00015744622 6:0.00049423638 7:4.4463063e-05 8:4.3261075e-05 9:0.0079870028 10:6.0961937e-07 11:0.00023308058 12:8.1062092e-05 13:1.4939103e-07 14:3.594794e-06 15:0.00065359417 16:0.00010678687 17:0.0024071811 18:0.0045546402 19:0.00026951435 20:4.4500912e-05 21:2.7073099e-05 22:0.021598077 23:0.007132631 24:0.014574908 25:0.0022287788 26:0.14726905 27:0.065558657 28:0.11929629 29:0.003330994 30:0.00018793357 31:0.23782717 32:0.064694525 33:0.84208245 34:0.017754612 35:0.022254328 36:0.014608746 37:0.019739579 38:0.0035262072 
0.054203735601870189 1:3.1118049e-07 2:1.090729e-12 3:1.6015697e-10 4:0.00015636202 5:0.00023972818 6:0.000277963 7:4.0036895e-05 8:0.0002104289 9:0.0057247234 10:4.4564091e-07 11:0.00092004018 12:0.00016363469 13:2.3720525e-07 14:3.9344589e-05 15:0.0012031572 16:6.2065609e-05 17:0.028318682 18:0.012068036 19:0.00082493782 20:0.00056321518 21:3.0783134e-05 22:0.073650344 23:0.036685768 24:0.028311946 25:0.043266896 26:0.0077693643 27:0.90816323 28:0.00014675019 29:0.0038794617 30:0.00023148731 31:0.0092500571 32:0.10036397 33:0.16618959 34:0.023266971 35:0.073358006 36:0.042308739 37:0.065830223 38:0.081047097 
5.9335778079964534 1:1.1631874e-07 2:1.1888268e-12 3:1.8501738e-10 4:0.00014193252 5:8.0211258e-05 6:0.00019195365 7:5.950158e-06 8:0.00019266423 9:0.02071248 10:1.9701463e-06 11:8.9667579e-05 12:0.00023458025 13:1.3172039e-07 14:4.8719184e-06 15:0.00021403354 16:5.3386589e-06 17:0.010110919 18:0.0094431182 19:0.00032053605 20:4.2400467e-05 21:4.6103102e-05 22:0.058529049 23:0.11181163 24:0.073819452 25:0.013818635 26:0.73555658 27:0.080020825 28:0.0020352458 29:0.0027712428 30:0.00027182271 31:0.032478401 32:0.59125615 33:0.061961813 34:0.0292666 35:0.02882056 36:0.23936606 37:0.14443662 38:0.041795277 
28.807727469092541 1:3.6981486e-07 2:4.7973611e-12 3:1.3630671e-10 4:0.00016434669 5:0.00033553723 6:0.00045051006 7:6.2551467e-05 8:0.00010912864 9:0.0026171712 10:7.7868779e-07 11:0.00054266955 12:0.00019201907 13:1.4788733e-06 14:1.8179399e-05 15:0.00028119067 16:8.7979913e-05 17:0.0097660829 18:0.0027359563 19:0.00063572267 20:9.0286616e-06 21:0.00011375412 22:0.019560488 23:0.047424032 24:0.046304881 25:0.011324368 26:0.95646364 27:0.0048488068 28:0.022721402 29:0.00026613625 30:0.00024848615 31:0.50906645 32:0.057419654 33:0.43503891 34:0.11122878 35:0.027191392 36:0.027844533 37:0.088013108 38:0.056279216 
35.056171105405717 1:2.5634125e-07 2:1.7811828e-12 3:4.0170326e-10 4:0.00030386962 5:0.00016518001 6:0.00031411459 7:2.221012e-05 8:2.9217987e-05 9:0.0086753071 10:1.0998937e-07 11:0.00058271882 12:6.3398107e-05 13:1.6296742e-07 14:1.9905868e-05 15:0.0006064699 16:0.00014435897 17:0.0029168908 18:0.0018544975 19:0.00047510233 20:9.6306916e-07 21:0.00014443321 22:0.017498874 23:0.02503132 24:0.0017283881 25:0.00076535093 26:0.98471725 27:0.0019814654 28:0.96236703 29:0.00057244197 30:0.001446977 31:0.99305799 32:0.0046773772 33:0.98613336 34:0.082930516 35:0.038436738 36:0.008851093 37:0.0062140772 38:0.00074146185 
4.4423691036978461 1:4.3651703e-08 2:3.2604187e-12 3:6.7199007e-11 4:0.00012724279 5:5.6681692e-05 6:0.00030419593 7:8.7750596e-06 8:6.5536395e-05 9:0.0036786151 10:1.5554385e-07 11:0.0001993435 12:7.2875273e-05 13:1.1920242e-07 14:2.3464509e-05 15:0.00028224298 16:3.7198583e-05 17:0.0021890667 18:0.0047856951 19:0.0001846436 20:5.0441601e-06 21:6.4673955e-05 22:0.056498349 23:0.029882749 24:0.0016409121 25:0.00020714646 26:0.92796561 27:0.0095222401 28:0.16895977 29:0.00055827981 30:0.00096261072 31:0.93905674 32:0.12188025 33:0.82220944 34:0.042462308 35:0.022085019 36:0.013444134 37:0.0032792879 38:0.00026950644 
20.136443453219908 1:9.4312487e-08 2:1.5685004e-12 3:2.9193874e-11 4:0.00015758545 5:0.00012576326 6:0.00025663303 7:3.4825291e-05 8:0.00016556058 9:0.0014408937 10:5.3294494e-07 11:0.00019902881 12:0.00020460945 13:2.4043542e-07 14:2.4044927e-05 15:0.0004228664 16:8.610111e-05 17:0.0040046345 18:0.013192886 19:0.00012100659 20:0.00021390447 21:8.3692274e-05 22:0.076609477 23:0.027130511 24:0.028920566 25:0.0066487277 26:0.13631937 27:0.76896161 28:0.0025449117 29:0.0031474486 30:0.00011102816 31:0.053016047 32:0.28948522 33:0.65875054 34:0.10904406 35:0.021153883 36:0.04432812 37:0.033062907 38:0.015172389 
1.1298433199987623 1:1.6895604e-07 2:2.195424e-12 3:1.2827465e-10 4:0.00041672128 5:0.00017727656 6:0.00023569189 7:1.340656e-05 8:8.8285177e-05 9:0.0046351163 10:1.6170118e-07 11:0.00016600807 12:0.00019000176 13:2.3974393e-07 14:1.2952647e-05 15:0.00038653238 16:9.7712922e-05 17:0.010604117 18:0.0068919387 19:0.00020568029 20:0.00031547846 21:0.00012763834 22:0.019424684 23:0.086358588 24:0.24537393 25:0.14011426 26:0.064545205 27:0.90702228 28:0.0016447226 29:0.0038343741 30:3.3070891e-05 31:0.015718824 32:0.070349597 33:0.45367616 34:0.011702473 35:0.02112081 36:0.046618515 37:0.052634047 38:0.15679324 
5.5300959172178272 1:8.9546563e-08 2:8.1998711e-13 3:3.1769011e-10 4:0.00021229099 5:0.00019454514 6:0.00036542621 7:1.0142385e-05 8:0.00018356178 9:0.0026168085 10:2.8033982e-07 11:0.00022211868 12:7.995239e-05 13:1.6257878e-07 14:5.0266638e-06 15:0.00012029275 16:3.5051285e-05 17:0.0071996403 18:0.0063855996 19:0.00067809003 20:4.8250162e-06 21:0.00028340592 22:0.0040366805 23:0.013807836 24:0.0063067746 25:0.0022135329 26:0.98795872 27:0.0089533962 28:0.19039443 29:0.00023080486 30:0.0011547516 31:0.96646533 32:0.11241835 33:0.88268735 34:0.67051994 35:0.0053836537 36:0.003061998 37:0.039101737 38:0.0046916365 
168.94534167071853 1:6.0531544e-08 2:5.4512827e-13 3:5.6137982e-11 4:0.00015006906 5:9.2028222e-05 6:0.00018257801 7:1.4146645e-05 8:0.00017876745 9:0.0054404271 10:1.0020862e-07 11:0.00022601668 12:0.00012395879 13:7.4224745e-07 14:7.9801421e-06 15:0.000171628 16:2.4313783e-05 17:0.011796824 18:0.010230261 19:0.00049078177 20:3.0155416e-06 21:0.00014966931 22:0.026819528 23:0.017817538 24:0.003669414 25:0.00063493473 26:0.9886635 27:0.016082184 28:0.052583004 29:0.0012661862 30:0.00081568393 31:0.91639869 32:0.21704207 33:0.87141862 34:0.15768981 35:0.0041167597 36:0.016112915 37:0.057428862 38:0.0011983243 
1.1699769218776521 1:1.6201988e-07 2:3.0286621e-13 3:1.7882161e-11 4:5.3145181e-05 5:8.0160866e-05 6:0.00011356559 7:1.1070878e-05 8:0.00021613049 9:0.0047601812 10:5.941106e-07 11:0.00031325194 12:3.2592939e-05 13:3.3677467e-08 14:5.6723615e-06 15:0.00034620198 16:1.1693013e-05 17:0.0015504137 18:0.0031568475 19:0.00020497607 20:4.5094114e-05 21:3.3431034e-05 22:0.035581258 23:0.025265833 24:0.076823638 25:0.0069714868 26:0.15855778 27:0.11545158 28:0.010554627 29:0.0015478207 30:7.3369459e-05 31:0.10259055 32:0.03102859 33:0.16916661 34:0.085393782 35:0.014129365 36:0.082195289 37:0.010279737 38:0.009496005 
20.348811720504855 1:1.9022898e-07 2:8.4549068e-13 3:1.3999614e-10 4:7.0486724e-05 5:6.6558299e-05 6:0.00023704497 7:1.1050883e-05 8:0.00025668375 9:0.0030636017 10:1.7718885e-07 11:0.00042962726 12:9.4129917e-05 13:7.0260205e-08 14:1.5227081e-05 15:0.00028392256 16:5.7695256e-05 17:0.0043665706 18:0.016452621 19:0.00013982187 20:2.6502553e-06 21:0.00010187843 22:0.03936285 23:0.020724571 24:0.0043604538 25:0.0018649446 26:0.99661051 27:0.0037014077 28:0.062174326 29:0.00065945288 30:0.0006200173 31:0.74700575 32:0.2569648 33:0.66616733 34:0.26229358 35:0.024160102 36:0.029934859 37:0.020178692 38:0.0038430636 
1.9546183116745577 1:2.0485433e-08 2:1.3061136e-12 3:1.1005344e-10 4:0.0001445132 5:7.9017281e-05 6:0.00015955274 7:5.3470895e-06 8:5.2625798e-05 9:0.0022173417 10:4.744214e-07 11:0.00096148639 12:0.00010956793 13:4.8785754e-07 14:8.3488579e-06 15:0.00087775897 16:2.2076689e-05 17:0.0087624101 18:0.0074318774 19:0.0007901703 20:1.3938179e-05 21:0.00016829353 22:0.0083847563 23:0.014409258 24:0.0042662955 25:0.0043147161 26:0.85089636 27:0.015786582 28:0.1627086 29:0.000440695 30:0.00021233499 31:0.85291869 32:0.044963949 33:0.52610165 34:0.48159284 35:0.021946475 36:0.012393271 37:0.012243811 38:0.0028140715 
1.3791547714715111 1:8.6444845e-07 2:6.4927754e-13 3:6.0176917e-10 4:0.00043091825 5:8.3235015e-05 6:0.00042830679 7:1.5181364e-05 8:9.4394431e-05 9:0.016953907 10:8.835085e-07 11:0.00087384027 12:0.00031991428 13:1.1031192e-07 14:6.2882788e-05 15:0.00063597644 16:0.00020393817 17:0.0069215826 18:0.0043141134 19:0.00036028001 20:1.6025583e-05 21:2.8215285e-05 22:0.095519995 23:0.10892632 24:0.074519924 25:0.12366086 26:0.97936936 27:0.011913886 28:0.0026615589 29:0.0028188987 30:0.00012792063 31:0.05160925 32:0.84081752 33:0.97515473 34:0.099433961 35:0.015522037 36:0.023616297 37:0.22870487 38:0.2410752 
0.52442381011338879 1:2.8793689e-06 2:3.5570958e-12 3:2.2936897e-10 4:0.00017603001 5:8.2703983e-05 6:0.00045539372 7:8.2062724e-05 8:0.00016180208 9:0.0023813682 10:3.3624578e-06 11:0.00088424911 12:0.00023939247 13:8.5880534e-07 14:2.9830432e-05 15:0.0006495968 16:2.8990335e-05 17:0.0050338746 18:0.025667776 19:0.0013621051 20:0.0019127138 21:4.0697569e-06 22:0.037457627 23:0.040693632 24:0.99531247 25:0.99860218 26:0.014831929 27:0.99297109 28:2.5912966e-07 29:0.0039162557 30:3.8740108e-06 31:2.4722444e-06 32:0.97531288 33:0.0091686836 34:0.0019665438 35:0.10401585 36:0.053280014 37:0.98257443 38:0.99831547 
21.222588609085175 1:2.3126087e-08 2:4.2319106e-12 3:1.4521306e-10 4:0.00014374241 5:6.2071743e-05 6:0.00020339344 7:3.5596903e-05 8:7.8160568e-05 9:0.0036972406 10:1.2241785e-07 11:0.00031128421 12:6.4401788e-05 13:2.7234545e-07 14:2.817905e-05 15:0.00032330272 16:2.3208194e-05 17:0.013236042 18:0.005945475 19:0.00028893971 20:3.8547059e-07 21:0.0006849923 22:0.07236857 23:0.023315162 24:0.00017706831 25:2.4286061e-05 26:0.9771772 27:0.0015274488 28:0.90278186 29:0.00023959879 30:0.0034063356 31:0.98535534 32:0.0091507111 33:0.99183642 34:0.057776781 35:0.044977645 36:0.045729165 37:0.0013812508 38:2.8038353e-05 
8.6635869294286181 1:1.6072936e-06 2:2.4402644e-12 3:1.7284476e-11 4:0.00021124891 5:8.9011786e-05 6:0.0023155124 7:5.487813e-05 8:0.00019836567 9:0.0012399524 10:4.5976875e-07 11:0.001086788 12:0.00025434181 13:9.2225446e-07 14:3.1947904e-05 15:0.00031130103 16:0.00018750344 17:0.02368806 18:0.012660683 19:0.0005523729 20:0.00027642056 21:4.3913897e-05 22:0.11524978 23:0.07848538 24:0.024361086 25:0.020695384 26:0.28997482 27:0.26222092 28:0.0045756718 29:0.0036275377 30:0.00027124892 31:0.031693544 32:0.79824679 33:0.89420553 34:0.037723398 35:0.022880268 36:0.10056368 37:0.099157339 38:0.0076007992 
9.1837685304055476 1:4.8184694e-08 2:1.8600877e-12 3:4.7108939e-11 4:0.00054535815 5:0.00011070142 6:0.0006317144 7:8.2317857e-05 8:9.3028206e-05 9:0.0041186459 10:5.5523727e-07 11:0.00071154437 12:0.00047075315 13:1.4387997e-06 14:3.6895016e-05 15:0.00033591244 16:0.00016876627 17:0.017662289 18:0.0064590196 19:0.00028297794 20:0.0004760779 21:0.00015929234 22:0.17932265 23:0.037486003 24:0.014246966 25:0.0017187016 26:0.014141008 27:0.72219015 28:0.0046766547 29:0.0036042233 30:0.0001803155 31:0.04295695 32:0.149056 33:0.072743797 34:0.017026965 35:0.059694259 36:0.03964475 37:0.042916304 38:0.0023124977 
3.5115077277086959 1:2.7661451e-08 2:9.3211555e-13 3:2.5196711e-10 4:0.0001030908 5:9.6901989e-05 6:0.00024589433 7:2.8146712e-05 8:0.00027337278 9:0.008887489 10:2.6541404e-07 11:0.00045435522 12:5.446476e-05 13:2.725614e-07 14:3.3683396e-06 15:0.00011589606 16:2.0379914e-05 17:0.0118357 18:0.0048887042 19:0.00067613901 20:1.2056467e-06 21:0.00012959882 22:0.01383731 23:0.011446142 24:0.0010143695 25:0.00080308068 26:0.97759612 27:0.0051492106 28:0.92584012 29:0.00033802528 30:0.002216699 31:0.98850867 32:0.067708514 33:0.92831416 34:0.099796139 35:0.017144472 36:0.016789776 37:0.017435278 38:0.00096980507 
1.9747432421850761 1:6.1231578e-08 2:1.5163763e-13 3:8.2355773e-11 4:0.00031823577 5:0.000362289 6:0.00023004047 7:3.1322897e-05 8:5.1163474e-05 9:0.0025148168 10:5.1832676e-07 11:0.00015035875 12:4.9611437e-05 13:3.3935201e-07 14:1.3648626e-05 15:0.00042673682 16:4.0180489e-05 17:0.018311512 18:0.0022399906 19:0.00027396719 20:2.8359452e-05 21:0.00010229427 22:0.10779356 23:0.095372095 24:0.0066763984 25:0.0034273124 26:0.064267641 27:0.29757445 28:0.0035153526 29:0.0030858856 30:3.8756145e-05 31:0.039537906 32:0.18477547 33:0.23600587 34:0.03141301 35:0.023065027 36:0.057346747 37:0.013094013 38:0.0015741595 
0.10887845421198729 1:1.4556195e-07 2:9.7453589e-13 3:5.7984035e-10 4:0.00030257285 5:2.6501136e-05 6:0.00010556235 7:9.3125292e-06 8:0.00017523743 9:0.0078462754 10:9.4469899e-07 11:0.00019775796 12:7.0336288e-05 13:1.5790615e-07 14:5.3781809e-06 15:0.00013494512 16:2.9897182e-05 17:0.0021427577 18:0.011886072 19:0.00019009465 20:9.302099e-05 21:0.00010741027 22:0.015688293 23:0.025124613 24:0.030663272 25:0.01552379 26:0.14390358 27:0.02483759 28:0.0016517595 29:0.0035501398 30:0.00011233844 31:0.041253786 32:0.67560017 33:0.84987153 34:0.14078252 35:0.014700275 36:0.057114065 37:0.026760193 38:0.07427185 
0.36439308064648185 1:1.1624565e-06 2:1.437258e-12 3:1.1194986e-10 4:0.00023715186 5:0.00012647791 6:0.00024017732 7:3.7160749e-05 8:0.00017788505 9:0.016411865 10:3.3464594e-07 11:0.00036470922 12:0.00011537833 13:5.3308408e-07 14:1.0379763e-05 15:0.00024936584 16:6.7557987e-05 17:0.013059702 18:0.031774985 19:0.0012080609 20:0.0016430085 21:4.6476523e-06 22:0.086917595 23:0.02630456 24:0.95995287 25:0.90581615 26:0.0077703878 27:0.99191903 28:2.5964255e-05 29:0.0038616202 30:1.4363876e-05 31:7.2762836e-05 32:0.84742517 33:0.0126852 34:0.022741689 35:0.085771599 36:0.02975156 37:0.17695857 38:0.87868493 
0.38448748391076903 1:2.672483e-07 2:4.6549213e-13 3:5.1471638e-11 4:0.00045995679 5:2.3317135e-05 6:0.00015022072 7:3.0388574e-05 8:1.953901e-05 9:0.00087864857 10:5.6956821e-07 11:0.00042222947 12:0.00015042932 13:6.0528371e-07 14:1.1357115e-05 15:0.00028558178 16:6.6304437e-05 17:0.0035738929 18:0.011350332 19:0.00013285428 20:6.19148e-05 21:4.5015682e-05 22:0.17904516 23:0.030489288 24:0.047115619 25:0.056054699 26:0.92013774 27:0.074950182 28:0.0035135227 29:0.0020934547 30:0.00017628758 31:0.014095635 32:0.63637486 33:0.9174055 34:0.033633981 35:0.035565035 36:0.41074922 37:0.14975729 38:0.064035772 
6.2829140754279509 1:4.5162913e-08 2:3.0679156e-13 3:1.5841127e-10 4:0.00034482466 5:0.00012079695 6:0.00018515518 7:4.0810449e-05 8:0.00015590252 9:0.003092503 10:3.0947907e-07 11:0.00031355218 12:9.1455822e-05 13:2.8673336e-07 14:1.5049652e-05 15:0.00028856019 16:7.2170376e-05 17:0.01233842 18:0.0073305364 19:0.00028866692 20:4.0094581e-06 21:9.0478365e-05 22:0.024978445 23:0.041472336 24:0.0026326716 25:0.0021282866 26:0.8596132 27:0.021920953 28:0.022731826 29:0.0024325887 30:0.0010158934 31:0.82282885 32:0.11497952 33:0.7377149 34:0.040350845 35:0.018874214 36:0.13447088 37:0.013730984 38:0.0019183675 
0.77349332346493993 1:6.2578159e-07 2:1.5275491e-12 3:6.4467055e-10 4:0.00041885098 5:0.00022718304 6:0.00022993733 7:3.1484612e-05 8:0.00015408454 9:0.019325142 10:7.4388775e-08 11:8.430047e-05 12:0.00023042918 13:1.0691953e-07 14:5.8519457e-06 15:0.0007749879 16:2.2118873e-05 17:0.007555232 18:0.0054265524 19:0.0020899385 20:0.0017965399 22:0.53977038 23:0.10464847 24:0.94380949 25:0.97740561 26:0.0055434539 27:0.9897338 28:3.8354586e-07 29:0.0039137392 30:3.188391e-06 31:2.1236424e-06 32:0.96285309 33:0.0062208941 34:0.0047068303 35:0.087741466 36:0.13382428 37:0.78459207 38:0.98219727 
8.0767396088337851 1:1.0042991e-07 2:1.1765759e-12 3:5.0182621e-11 4:0.00076570218 5:0.00023249476 6:0.00016331083 7:1.0928441e-05 8:0.00011945101 9:0.0040690351 10:5.8626192e-07 11:0.00067419824 12:0.00010582384 13:7.5092901e-07 14:5.5490897e-06 15:0.00023119682 16:8.8410736e-05 17:0.027541068 18:0.002402197 19:0.00022066628 20:0.00021941254 21:2.6356969e-05 22:0.060325423 23:0.084730226 24:0.0091968902 25:0.0089554467 26:0.047801894 27:0.6386766 28:0.0011843676 29:0.003759458 30:0.00057876615 31:0.01589766 32:0.13577835 33:0.26534026 34:0.014726294 35:0.061489244 36:0.038646435 37:0.030576104 38:0.006331614 
-3.8817611487075299 2:5.9731352e-07 3:0.0013266335 9:0.99999999 20:0.0039138831 21:0.013698178 26:0.99999999 28:0.56999999 29:0.070588235 30:0.074509804 31:0.99999999 33:0.059999999 34:0.11 
-256 2:7.8593884e-08 20:0.0019569359 21:0.0019564894 26:0.99999999 29:0.96862745 30:0.96862745 31:0.99999999 33:0.99999999 
-49.246603294713374 2:8.3571497e-07 20:0.0039138831 21:0.0039134374 26:0.99999999 29:0.023529412 30:0.0078431373 31:0.33 32:0.5 33:0.33 
-256 2:7.8593884e-08 20:0.0019569359 21:0.0019564894 26:0.99999999 29:0.96862745 30:0.96862745 31:0.99999999 33:0.99999999 
-120.4044773875048 1:9.3322757e-05 2:3.4266933e-06 3:6.3672197e-05 9:0.99999999 20:0.0019569359 21:0.0019564894 26:0.99999999 29:0.0078431373 30:0.054901961 31:0.99999999 33:0.5 34:0.14 
-256 2:1.6766695e-07 20:0.0019569359 21:0.0019564894 26:0.99999999 29:0.0039215686 30:0.0039215686 31:0.99999999 33:0.99999999 
-256 1:0.00062992861 2:2.7953225e-06 3:0.00059809158 7:0.28571429 9:0.99999999 19:0.99999999 20:0.0019569359 21:0.0019564894 26:0.99999999 29:0.99607843 30:0.2745098 31:0.28 32:0.02 
-256 2:2.1482328e-07 3:1.9412255e-07 20:0.0019569359 21:0.0019564894 26:0.99999999 29:0.0039215686 30:0.0039215686 31:0.99999999 33:0.99999999 
-1.8371496999074626 2:8.121368e-08 20:0.0019569359 21:0.0039134374 26:0.99999999 28:0.99999999 29:0.0078431373 30:0.074509804 31:0.5 32:0.99999999 33:0.5 34:0.11 
-256 2:1.2967991e-06 9:0.99999999 13:0.0051282051 20:0.0019569359 21:0.0019564894 26:0.99999999 29:0.0039215686 30:0.11764706 31:0.99999999 33:0.99999999 34:0.099999999 
-256 1:9.3322757e-05 3:2.9118383e-06 20:0.0019569359 21:0.0019564894 24:0.99999999 25:0.99999999 26:0.99999999 29:0.50980392 30:0.0039215686 31:0.0099999999 32:0.05 33:0.0099999999 37:0.0099999999 38:0.99999999 
-13.474988303588507 2:5.9993332e-07 3:0.00013239158 9:0.99999999 20:0.013698619 21:0.023482918 26:0.99999999 28:0.17 29:0.99215686 30:1 31:0.99999999 34:0.0099999999 37:0.14 38:0.15 
-256 2:8.121368e-08 3:1.7665152e-05 20:0.0058708303 21:0.0058703855 26:0.99999999 29:0.031372549 30:0.078431373 31:0.99999999 33:0.99999999 34:0.099999999 
-114.9910432473678 1:4.6661378e-05 2:0.0057494544 9:0.99999999 20:0.0039138831 21:0.0039134374 26:0.99999999 29:0.039215686 30:0.1372549 31:0.59999999 32:0.4 33:0.59999999 34:0.059999999 
-252.86383511835936 1:0.10424152 2:4.3488616e-07 3:0.0045378088 9:0.99999999 10:0.0011312217 20:0.0019569359 21:0.0019564894 26:0.99999999 29:0.0039215686 30:0.0039215686 31:0.99999999 33:0.99999999 
-256 2:7.8593884e-08 20:0.0039138831 21:0.0039134374 26:0.99999999 29:0.18823529 30:0.18823529 31:0.99999999 33:0.99999999 
-256 2:8.6453273e-08 3:1.8053397e-05 20:0.0019569359 21:0.0019564894 26:0.99999999 29:0.16078431 30:0.20392157 31:0.99999999 33:0.99999999 34:0.04 
-35.261144616984708 2:1.6766695e-07 20:0.0019569359 21:0.0019564894 26:0.99999999 29:0.30196078 30:0.0039215686 31:0.0099999999 32:0.93999999 33:0.0099999999 37:0.89999999 
-31.415568459571279 2:3.9034962e-07 3:0.0014640723 7:0.051948052 9:0.99999999 10:0.0045248869 20:0.04109588 21:0.041095451 26:0.99999999 29:0.61960784 30:1 31:0.99999999 33:0.0099999999 34:0.0099999999 
-256 2:2.3840145e-07 20:0.013698619 21:0.013698178 26:0.99999999 29:0.51764706 30:0.02745098 31:0.05 32:0.02 33:0.05 37:0.11 
-2.237229962372361 1:0.025570435 2:3.0127656e-07 3:0.00030419004 9:0.99999999 20:0.0019569359 21:0.0019564894 24:0.99999999 25:0.99999999 26:0.99999999 29:0.015686275 30:0.011764706 31:0.74999999 32:0.5 33:0.25 35:0.25 36:0.33 37:0.5 38:0.66999999 
-31.839151362559917 2:1.8338573e-08 3:4.3289329e-05 20:0.0039138831 21:0.0019564894 26:0.5 27:0.99999999 29:0.41568627 30:0.019607843 31:0.05 32:0.05 33:0.0099999999 35:0.02 36:0.2 
-256 2:2.6197961e-08 3:7.5707795e-06 9:0.99999999 20:0.0019569359 21:0.0019564894 26:0.99999999 29:0.0039215686 30:0.047058824 31:0.99999999 33:0.99999999 34:0.25 
-3.1924949279165671 2:2.3054206e-07 20:0.0039138831 21:0.013698178 26:0.99999999 28:0.29 29:0.31372549 30:0.23529412 31:0.74999999 32:0.03 33:0.74999999 
-256 2:1.3518148e-06 3:7.7649021e-07 20:0.60273972 21:0.60273954 26:0.99999999 29:1 30:1 31:0.99999999 33:0.99999999 
-256 2:6.3661046e-07 3:0.0059946985 7:0.012987013 9:0.99999999 10:0.0011312217 20:0.0078277775 21:0.0078273336 26:0.99999999 29:1 30:1 31:0.99999999 
-256 2:1.3518148e-06 3:7.7649021e-07 20:0.52837573 21:0.52837552 26:0.99999999 29:1 30:1 31:0.99999999 33:0.99999999 
-256 2:7.8593884e-08 20:0.0019569359 21:0.0019564894 26:0.99999999 29:0.99215686 30:0.99215686 31:0.99999999 33:0.99999999 
-2.7636486066481591 1:0.00011665345 2:7.0210537e-07 3:5.4160192e-05 7:0.012987013 9:0.99999999 20:0.0019569359 21:0.0058703855 26:0.99999999 28:0.66999999 29:0.41568627 30:0.4 31:0.95999999 32:0.02 33:0.0099999999 
-14.996108665866879 20:0.0039138831 21:0.0058703855 22:0.5 23:0.33 26:0.99999999 28:0.66999999 29:0.011764706 30:0.047058824 31:0.99999999 33:0.66999999 34:0.33 35:0.33 36:0.079999999 
-9.313891402980115 1:0.00016331482 2:4.62656e-06 9:0.99999999 20:0.0019569359 21:0.0019564894 26:0.99999999 29:0.82745098 30:0.0039215686 32:0.04 33:0.37 
-256 2:1.3518148e-06 3:7.7649021e-07 20:0.97064579 21:0.97064578 26:0.99999999 29:1 30:1 31:0.99999999 33:0.99999999 
-3.2283479624445057 2:9.1692865e-07 3:2.7759525e-05 9:0.99999999 20:0.0019569359 21:0.02152597 26:0.99999999 28:0.36 29:0.0078431373 30:0.043137255 31:0.99999999 33:0.5 34:0.45 37:0.5 38:0.90999999 
-22.632390968603474 1:0.0006532593 2:2.7219682e-06 3:0.00059809158 7:0.28571429 9:0.99999999 19:0.99999999 20:0.0019569359 21:0.0019564894 26:0.99999999 29:0.12941176 30:0.011764706 31:0.089999999 32:0.089999999 33:0.03 
-256 2:5.422978e-07 3:4.0183368e-05 20:0.0039138831 21:0.0039134374 26:0.99999999 29:1 30:0.83921569 31:0.83999999 32:0.0099999999 33:0.83999999 
-1.7461216903935302 20:0.0039138831 21:0.0039134374 22:0.5 23:0.5 26:0.99999999 29:0.0078431373 30:1 31:0.99999999 33:0.99999999 34:0.04 35:0.5 
-0.51203730251299762 2:1.9596075e-06 9:0.99999999 13:0.0092307692 20:0.0019569359 21:0.0019564894 26:0.99999999 29:0.0078431373 30:0.41960784 31:0.5 32:0.99999999 33:0.5 34:0.03 35:0.5 
-0.78414282898152432 20:0.0039138831 21:0.0039134374 24:0.99999999 25:0.99999999 26:0.99999999 29:0.078431373 30:0.078431373 31:0.99999999 33:0.05 37:0.99999999 38:0.99999999 
-2.9137954264073618 1:0.058583361 2:3.8249024e-07 3:2.0382868e-05 20:0.0039138831 21:0.0039134374 26:0.99999999 29:0.23137255 30:0.0078431373 31:0.03 32:0.49 33:0.68999999 
-6.2648186340292131 1:0.00097988895 2:2.6197961e-08 3:6.9884119e-06 20:0.0019569359 21:0.0019564894 24:0.99999999 25:0.99999999 26:0.99999999 29:1 30:0.011764706 31:0.0099999999 32:0.02 38:0.33 
-49.98151461811716 2:1.2051062e-07 3:2.5624177e-05 20:0.32289627 21:0.32093902 26:0.98999999 27:0.0099999999 29:0.21176471 30:0.082352941 31:0.39 32:0.04 33:0.02 
-256 2:3.6813375e-05 9:0.99999999 20:0.015655566 21:0.015655126 26:0.99999999 29:0.054901961 30:0.054901961 31:0.99999999 33:0.99999999 
-256 1:0.00062992861 2:3.1856721e-06 3:0.00065613422 7:0.31168831 9:0.99999999 19:0.99999999 20:0.0019569359 21:0.0019564894 26:0.99999999 29:1 30:0.2745098 31:0.27 32:0.03 
-232.31215058980041 2:6.2089168e-07 3:0.00011783239 9:0.99999999 20:0.0097847247 21:0.0097842816 22:0.2 23:0.2 26:0.99999999 29:1 30:1 31:0.99999999 37:0.0099999999 38:0.0099999999 
-24.133342647378861 2:8.173764e-07 3:0.00048666524 9:0.99999999 20:0.011741672 21:0.017612074 25:0.33 26:0.99999999 28:0.44 29:0.32941176 30:0.29411765 31:0.88999999 32:0.02 33:0.0099999999 35:0.0099999999 36:0.0099999999 
-256 2:7.3354292e-07 3:0.00055033743 9:0.99999999 20:0.0019569359 21:0.0019564894 26:0.99999999 29:0.0039215686 30:0.10196078 31:0.99999999 33:0.99999999 34:0.079999999 
-0.80314041539199776 2:4.4012575e-07 3:0.00032496115 9:0.99999999 20:0.0039138831 21:0.02152597 22:0.5 23:0.089999999 26:0.99999999 28:0.18 29:0.0078431373 30:0.035294118 31:0.99999999 33:0.5 34:0.33 35:0.5 36:0.11 
-256 1:0.0006532593 2:3.906116e-06 3:0.00080599683 7:0.38961039 9:0.99999999 19:0.99999999 20:0.0019569359 21:0.0019564894 26:0.99999999 29:1 30:0.2 31:0.2 32:0.03 
-1.2773903557234854 20:0.0019569359 21:0.0019564894 22:0.99999999 23:0.99999999 26:0.99999999 29:0.082352941 30:0.011764706 31:0.14 32:0.19 33:0.05 35:0.099999999 36:0.66999999 
-14.736672840791014 2:1.5433219e-05 9:0.99999999 20:0.029354197 21:0.029353762 22:0.069999999 23:0.069999999 26:0.99999999 29:0.95686275 30:0.29019608 31:0.3 32:0.03 33:0.32 35:0.02 36:0.04 
-256 1:0.00062992861 2:3.9270744e-06 3:0.00080599683 7:0.38961039 9:0.99999999 19:0.99999999 20:0.0019569359 21:0.0019564894 26:0.99999999 29:1 30:0.16470588 31:0.16 32:0.0099999999 
-0.20003661200301504 20:0.0039138831 21:0.0097842816 22:0.5 23:0.2 26:0.99999999 28:0.4 29:0.0078431373 30:1 31:0.99999999 33:0.99999999 34:0.04 35:0.5 
-102.5578918788586 2:2.2889159e-05 9:0.99999999 20:0.021526408 21:0.02152597 26:0.99999999 29:0.066666667 30:0.066666667 31:0.99999999 33:0.99999999 
-248.74820247904179 1:0.00072325136 2:4.0030485e-06 3:0.00080599683 7:0.32467532 9:0.99999999 19:0.99999999 20:0.0019569359 21:0.0019564894 26:0.99999999 29:1 30:0.16470588 31:0.16 32:0.02 
-10.400396608576127 2:3.3952558e-06 3:6.3089829e-05 9:0.99999999 20:0.0019569359 21:0.0078273336 26:0.99999999 28:0.99999999 29:0.0039215686 30:0.0039215686 31:0.99999999 33:0.99999999 
-20.727431823449869 2:4.3978518e-05 20:0.021526408 21:0.0019564894 26:0.089999999 27:0.27 29:0.078431373 30:0.0039215686 31:0.05 32:0.2 33:0.84999999 
-256 1:0.0061826326 2:1.4146899e-07 3:7.7649021e-06 20:0.0019569359 21:0.0019564894 26:0.99999999 29:0.070588235 30:0.070588235 31:0.99999999 33:0.88999999 
-256 2:1.3518148e-06 3:7.7649021e-07 20:0.55577299 21:0.55577279 26:0.99999999 29:1 30:1 31:0.99999999 33:0.99999999 
-256 2:6.1565209e-07 3:0.00079532009 7:0.012987013 9:0.99999999 20:0.0039138831 21:0.0039134374 22:0.5 23:0.5 26:0.99999999 29:1 30:1 31:0.99999999 35:0.0099999999 36:0.0099999999 
-256 2:2.3054206e-07 20:0.0019569359 21:0.0039134374 26:0.99999999 28:0.99999999 29:0.015686275 30:0.015686275 31:0.99999999 33:0.99999999 
-2.2555688899278756 1:0.013601792 2:2.2215871e-06 3:0.0049157654 7:0.012987013 9:0.99999999 10:0.12104072 11:0.99999999 12:0.5 13:0.1025641 14:0.025 20:0.0019569359 21:0.0019564894 26:0.99999999 29:0.0039215686 30:0.0039215686 31:0.99999999 33:0.99999999 
-30.375403175767609 2:6.077927e-07 3:0.00052374264 9:0.99999999 16:0.125 20:0.0039138831 21:0.0058703855 25:0.33 26:0.99999999 28:0.66999999 29:0.21568627 30:0.21568627 31:0.99999999 33:0.02 
-0.5220164186629267 1:0.00095655826 2:2.8817758e-07 3:0.0017907805 9:0.99999999 20:0.0019569359 21:0.0019564894 24:0.99999999 25:0.99999999 26:0.99999999 29:0.47058824 30:0.0039215686 31:0.0099999999 32:0.079999999 33:0.0099999999 35:0.0099999999 37:0.0099999999 38:0.99999999 
-256 2:1.3518148e-06 3:7.7649021e-07 20:0.97260274 21:0.97260273 26:0.99999999 29:1 30:1 31:0.99999999 33:0.99999999 
-5.311930229622738 1:0.28220802 2:2.5935982e-07 3:0.00054781384 9:0.99999999 20:0.0019569359 21:0.0019564894 26:0.99999999 29:0.011764706 30:0.0078431373 31:0.33 32:0.66999999 33:0.33 34:0.99999999 
-256 2:1.3518148e-06 3:7.7649021e-07 20:0.5107632 21:0.51076298 26:0.99999999 29:1 30:1 31:0.99999999 33:0.99999999 
-256 2:1.3518148e-06 3:7.7649021e-07 20:0.86105675 21:0.86105669 26:0.99999999 29:1 30:1 31:0.99999999 33:0.99999999 
-256 2:1.3518148e-06 3:7.7649021e-07 20:0.59686888 21:0.5968687 26:0.99999999 29:1 30:1 31:0.99999999 33:0.99999999 
-256 2:1.3518148e-06 3:7.7649021e-07 20:0.68101761 21:0.68101747 26:0.99999999 29:1 30:1 31:0.99999999 33:0.99999999 
-1.8323564639197389 1:0.063832766 2:5.8290464e-06 3:0.0069575464 9:0.99999999 10:0.12443439 11:0.99999999 12:0.5 13:0.12410256 14:0.325 20:0.0019569359 21:0.0019564894 26:0.99999999 29:1 30:0.0039215686 32:0.02 
-256 2:1.3518148e-06 3:7.7649021e-07 20:0.7886497 21:0.78864961 26:0.99999999 29:1 30:1 31:0.99999999 33:0.99999999 
-256 2:1.0033819e-06 9:0.99999999 20:0.0019569359 21:0.0019564894 26:0.99999999 29:0.011764706 30:0.011764706 31:0.99999999 33:0.99999999 
-256 2:1.3518148e-06 3:7.7649021e-07 20:0.81604696 21:0.81604688 26:0.99999999 29:1 30:1 31:0.99999999 33:0.99999999 
-256 2:1.6792893e-06 20:0.0039138831 21:0.0039134374 26:0.99999999 29:0.14509804 30:0.019607843 31:0.14 32:0.079999999 33:0.14 
-151.41853981553857 2:2.6197961e-08 3:3.3583201e-05 20:0.0019569359 21:0.0019564894 26:0.99999999 29:0.0078431373 30:0.0039215686 31:0.5 32:0.99999999 33:0.5 
-203.55448314665193 1:2.3330689e-05 2:4.1235591e-06 3:7.7649021e-05 9:0.99999999 20:0.0019569359 21:0.0019564894 26:0.99999999 29:0.015686275 30:0.015686275 31:0.99999999 33:0.25 
-256 1:0.025173814 2:2.9341717e-07 3:8.7355148e-06 20:0.0078277775 21:0.0078273336 26:0.99999999 29:0.42352941 30:0.3254902 31:0.76999999 32:0.02 33:0.76999999 
-14.545097031250647 2:1.8370011e-05 20:0.0097847247 21:0.0019564894 22:0.2 26:0.2 27:0.4 29:0.50588235 30:0.0039215686 31:0.0099999999 32:0.05 33:0.12 35:0.0099999999 
-8.8101447653389133 2:1.8338573e-06 3:6.3283952e-05 9:0.99999999 20:0.0039138831 21:0.0019564894 26:0.5 27:0.99999999 29:1 30:0.30980392 31:0.31 32:0.29 
-256 2:1.6792893e-06 20:0.0039138831 21:0.0039134374 26:0.99999999 29:0.2 30:0.019607843 31:0.099999999 32:0.079999999 33:0.099999999 
-233.62478960047406 2:5.8159474e-07 3:0.0002513887 9:0.99999999 20:0.0019569359 21:0.0019564894 26:0.99999999 29:0.08627451 30:0.08627451 31:0.99999999 33:0.05 
-44.674643216813095 2:1.5881204e-05 9:0.99999999 20:0.0078277775 21:0.0078273336 26:0.99999999 29:0.043137255 30:0.20392157 31:0.90999999 32:0.18 33:0.90999999 34:0.04 
-0.6946930793657301 1:0.0006532593 2:1.1527103e-07 3:8.5413923e-06 20:0.0097847247 21:0.0097842816 26:0.2 27:0.4 28:0.4 29:0.082352941 30:0.078431373 31:0.94999999 32:0.099999999 33:0.05 
-256 2:1.3518148e-06 3:7.7649021e-07 20:0.53033268 21:0.53033247 26:0.99999999 29:1 30:1 31:0.99999999 33:0.99999999 
-60.354539809460142 2:2.3578165e-08 3:5.2218966e-05 20:0.0019569359 21:0.0019564894 26:0.99999999 29:0.99607843 30:0.023529412 31:0.02 32:0.02 37:0.05 
-6.3984910201930001 2:0.00010608602 9:0.99999999 20:0.029354197 21:0.029353762 26:0.99999999 29:1 30:0.24313725 31:0.24 32:0.02 33:0.15 35:0.28 36:0.32 
-256 2:3.1437554e-08 9:0.99999999 20:0.0039138831 21:0.0039134374 26:0.99999999 29:0.023529412 30:0.10196078 31:0.99999999 33:0.99999999 34:0.079999999 
-256 2:7.8593884e-08 20:0.0039138831 21:0.0039134374 26:0.99999999 29:0.10980392 30:0.10980392 31:0.99999999 33:0.99999999 
