svm_type c_svc
kernel_type rbf
gamma 1
nr_class 5
total_sv 854
rho -5.2754904965843838 -7.2950315296518617 -2.7988991009066884 -1.4568474972071497 -0.28170796919105862 0.72661788592469922 0.7283443418959975 0.53836054050040738 0.4872816010539055 0.10592477080283612
label 0 1 2 3 4
nr_sv 349 38 90 179 198
SV
0 0 0 178.62883173606093 1:0.00041995241 2:2.7769839e-07 3:0.00028497191 20:0.0019552649 21:0.0019547466 26:0.99999999 29:0.45882353 30:0.0039215686 31:0.0099999999 32:0.04 33:0.0099999999 
0 0 0 0.034280863104340968 2:3.6137468e-05 3:0.00057576749 9:0.99999999 20:0.0039122153 21:0.0039116981 24:0.99999999 25:0.99999999 26:0.99999999 29:0.66666667 30:0.37647059 31:0.43 32:0.42 33:0.0099999999 34:0.02 37:0.41 38:0.04 
0 0 0 1024 2:1.6766695e-07 20:0.0019552649 21:0.0019547466 26:0.99999999 29:0.0039215686 30:0.0039215686 31:0.99999999 33:0.99999999 
0 1024 0 0 1:0.00062992861 2:2.7953225e-06 3:0.00059809158 7:0.28571429 9:0.99999999 19:0.99999999 20:0.0019552649 21:0.0019547466 26:0.99999999 29:0.99607843 30:0.2745098 31:0.28 32:0.02 
0 0 0 1024 2:2.1482328e-07 3:1.9412255e-07 20:0.0019552649 21:0.0019547466 26:0.99999999 29:0.0039215686 30:0.0039215686 31:0.99999999 33:0.99999999 
0 0 0 748.22261592701136 2:2.0958369e-08 3:4.3483452e-05 20:0.0019552649 21:0.0019547466 26:0.99999999 29:0.56862745 30:0.019607843 31:0.03 32:0.02 33:0.0099999999 
0 1024 0 0 2:1.2967991e-06 9:0.99999999 13:0.0051282051 20:0.0019552649 21:0.0019547466 26:0.99999999 29:0.0039215686 30:0.11764706 31:0.99999999 33:0.99999999 34:0.099999999 
0 0 0 1024 1:9.3322757e-05 3:2.9118383e-06 20:0.0019552649 21:0.0019547466 24:0.99999999 25:0.99999999 26:0.99999999 29:0.50980392 30:0.0039215686 31:0.0099999999 32:0.05 33:0.0099999999 37:0.0099999999 38:0.99999999 
0 0 0 35.964462859112693 20:0.0019552649 21:0.0019547466 24:0.99999999 25:0.99999999 26:0.99999999 29:0.070588235 30:0.015686275 31:0.22 32:0.28 33:0.059999999 35:0.059999999 37:0.22 38:0.99999999 
0 1.209480748515426 0 1024 2:8.121368e-08 3:1.7665152e-05 20:0.0058691658 21:0.0058686496 26:0.99999999 29:0.031372549 30:0.078431373 31:0.99999999 33:0.99999999 34:0.099999999 
0 85.471690197847082 0 0 1:4.6661378e-05 2:0.0057494544 9:0.99999999 20:0.0039122153 21:0.0039116981 26:0.99999999 29:0.039215686 30:0.1372549 31:0.59999999 32:0.4 33:0.59999999 34:0.059999999 
0 1024 0 0 1:0.10424152 2:4.3488616e-07 3:0.0045378088 9:0.99999999 10:0.0011312217 20:0.0019552649 21:0.0019547466 26:0.99999999 29:0.0039215686 30:0.0039215686 31:0.99999999 33:0.99999999 
0 0 0 1024 2:7.8593884e-08 20:0.0039122153 21:0.0039116981 26:0.99999999 29:0.18823529 30:0.18823529 31:0.99999999 33:0.99999999 
0 1.8426966932474478 0 0 2:2.7507859e-07 20:0.0039122153 21:0.0039116981 26:0.99999999 29:1 30:0.36078431 31:0.36 32:0.0099999999 33:0.0099999999 
0 0 0 45.821307601821289 2:1.6766695e-07 20:0.0019552649 21:0.0019547466 26:0.99999999 29:0.30196078 30:0.0039215686 31:0.0099999999 32:0.93999999 33:0.0099999999 37:0.89999999 
0 0 42.120121495998539 0 2:3.9034962e-07 3:0.0014640723 7:0.051948052 9:0.99999999 10:0.0045248869 20:0.041094274 21:0.041093776 26:0.99999999 29:0.61960784 30:1 31:0.99999999 33:0.0099999999 34:0.0099999999 
0 0 0 216.06015800475572 2:2.3840145e-07 20:0.013696968 21:0.013696455 26:0.99999999 29:0.51764706 30:0.02745098 31:0.05 32:0.02 33:0.05 37:0.11 
0 0 0 24.42727543900812 2:1.8338573e-08 3:4.3289329e-05 20:0.0039122153 21:0.0019547466 26:0.5 27:0.99999999 29:0.41568627 30:0.019607843 31:0.05 32:0.05 33:0.0099999999 35:0.02 36:0.2 
0 1024 0 0 2:2.6197961e-08 3:7.5707795e-06 9:0.99999999 20:0.0019552649 21:0.0019547466 26:0.99999999 29:0.0039215686 30:0.047058824 31:0.99999999 33:0.99999999 34:0.25 
0 0 1024 0 2:1.3518148e-06 3:7.7649021e-07 20:0.60273906 21:0.60273885 26:0.99999999 29:1 30:1 31:0.99999999 33:0.99999999 
0 8.9339211772631462 0 0 2:2.4442698e-06 3:6.4448687e-05 9:0.99999999 20:0.0019552649 21:0.0019547466 26:0.99999999 29:1 30:0.48627451 31:0.49 32:0.03 35:0.0099999999 36:0.02 
0 0 0 12.5567236110601 1:2.3330689e-05 2:1.5718777e-08 3:2.6400667e-05 20:0.0058691658 21:0.0019547466 26:0.33 27:0.99999999 29:1 30:0.0078431373 31:0.0099999999 32:0.54999999 
0 0 1024 0 2:6.3661046e-07 3:0.0059946985 7:0.012987013 9:0.99999999 10:0.0011312217 20:0.0078261163 21:0.0078256011 26:0.99999999 29:1 30:1 31:0.99999999 
0 0 1024 0 2:1.3518148e-06 3:7.7649021e-07 20:0.52837494 21:0.52837469 26:0.99999999 29:1 30:1 31:0.99999999 33:0.99999999 
0 0 1024 0 2:7.8593884e-08 20:0.0019552649 21:0.0019547466 26:0.99999999 29:0.99215686 30:0.99215686 31:0.99999999 33:0.99999999 
0 0.86058315802735841 0.45480965642472593 0 20:0.0039122153 21:0.0058686496 22:0.5 23:0.33 26:0.99999999 28:0.66999999 29:0.011764706 30:0.047058824 31:0.99999999 33:0.66999999 34:0.33 35:0.33 36:0.079999999 
0 0 1024 0 2:1.3518148e-06 3:7.7649021e-07 20:0.97064574 21:0.97064573 26:0.99999999 29:1 30:1 31:0.99999999 33:0.99999999 
0 1.2902839974415208 0 0 1:0.00051327516 2:6.0255311e-07 3:0.00014928024 7:0.051948052 9:0.99999999 19:0.99999999 20:0.0019552649 21:0.0019547466 26:0.99999999 29:0.30196078 30:0.058823529 31:0.19 32:0.04 33:0.0099999999 35:0.05 36:0.13 37:0.0099999999 
0 0 0 3.53147749001453 1:2.3330689e-05 2:3.6391588e-05 3:6.3672197e-05 9:0.99999999 20:0.0019552649 21:0.0019547466 26:0.99999999 29:0.098039216 30:0.51372549 31:0.12 32:0.079999999 33:0.04 34:0.02 
0 0 914.77934031187544 1024 2:5.422978e-07 3:4.0183368e-05 20:0.0039122153 21:0.0039116981 26:0.99999999 29:1 30:0.83921569 31:0.83999999 32:0.0099999999 33:0.83999999 
0 0 0 1.7880665529058277 1:0.00097988895 2:2.6197961e-08 3:6.9884119e-06 20:0.0019552649 21:0.0019547466 24:0.99999999 25:0.99999999 26:0.99999999 29:1 30:0.011764706 31:0.0099999999 32:0.02 38:0.33 
0 0 27.815235512513098 67.003034761225379 2:1.2051062e-07 3:2.5624177e-05 20:0.32289514 21:0.32093784 26:0.98999999 27:0.0099999999 29:0.21176471 30:0.082352941 31:0.39 32:0.04 33:0.02 
0 1024 0 0 2:3.6813375e-05 9:0.99999999 20:0.015653918 21:0.015653407 26:0.99999999 29:0.054901961 30:0.054901961 31:0.99999999 33:0.99999999 
0 0 18.131755491299614 0 2:1.9910451e-07 3:8.7355148e-06 20:0.26418663 21:0.26418624 26:0.99999999 29:1 30:0.65098039 31:0.64999999 32:0.0099999999 33:0.28 
0 1024 0 0 1:0.00062992861 2:3.1856721e-06 3:0.00065613422 7:0.31168831 9:0.99999999 19:0.99999999 20:0.0019552649 21:0.0019547466 26:0.99999999 29:1 30:0.2745098 31:0.27 32:0.03 
0 0 27.428449588960529 0 2:8.173764e-07 3:0.00048666524 9:0.99999999 20:0.011740017 21:0.017610358 25:0.33 26:0.99999999 28:0.44 29:0.32941176 30:0.29411765 31:0.88999999 32:0.02 33:0.0099999999 35:0.0099999999 36:0.0099999999 
0 0 0 0.64429985267133061 20:0.0039122153 21:0.0058686496 22:0.5 23:0.33 26:0.99999999 28:0.66999999 29:0.0078431373 30:1 31:0.99999999 33:0.99999999 34:0.05 35:0.5 36:0.0099999999 
0 1024 0 0 2:7.3354292e-07 3:0.00055033743 9:0.99999999 20:0.0019552649 21:0.0019547466 26:0.99999999 29:0.0039215686 30:0.10196078 31:0.99999999 33:0.99999999 34:0.079999999 
0 4.7746538754695864 0 0 2:4.4012575e-07 3:0.00032496115 9:0.99999999 20:0.0039122153 21:0.021524261 22:0.5 23:0.089999999 26:0.99999999 28:0.18 29:0.0078431373 30:0.035294118 31:0.99999999 33:0.5 34:0.33 35:0.5 36:0.11 
0 0 4.1110221203406994 0 2:1.5718777e-08 3:5.2218966e-05 20:0.0019552649 21:0.0019547466 26:0.99999999 29:0.90196078 30:0.0078431373 31:0.0099999999 32:0.02 37:0.82999999 
0 1024 0 0 1:0.0006532593 2:3.906116e-06 3:0.00080599683 7:0.38961039 9:0.99999999 19:0.99999999 20:0.0019552649 21:0.0019547466 26:0.99999999 29:1 30:0.2 31:0.2 32:0.03 
0 0 0.78179309819634391 0 20:0.0019552649 21:0.0019547466 22:0.99999999 23:0.99999999 26:0.99999999 29:0.082352941 30:0.011764706 31:0.14 32:0.19 33:0.05 35:0.099999999 36:0.66999999 
0 0.66230014613133303 0 0 2:1.5433219e-05 9:0.99999999 20:0.029352571 21:0.029352067 22:0.069999999 23:0.069999999 26:0.99999999 29:0.95686275 30:0.29019608 31:0.3 32:0.03 33:0.32 35:0.02 36:0.04 
0 1024 0 0 1:0.00062992861 2:3.9270744e-06 3:0.00080599683 7:0.38961039 9:0.99999999 19:0.99999999 20:0.0019552649 21:0.0019547466 26:0.99999999 29:1 30:0.16470588 31:0.16 32:0.0099999999 
0 0 0 0.042932750164647718 20:0.0039122153 21:0.0097825525 22:0.5 23:0.2 26:0.99999999 28:0.4 29:0.0078431373 30:1 31:0.99999999 33:0.99999999 34:0.04 35:0.5 
0 1.5966942059474538 0 0 2:3.3952558e-06 3:6.3089829e-05 9:0.99999999 20:0.0019552649 21:0.0078256011 26:0.99999999 28:0.99999999 29:0.0039215686 30:0.0039215686 31:0.99999999 33:0.99999999 
0 0 0 4.267583777259091 2:4.3978518e-05 20:0.021524769 21:0.0019547466 26:0.089999999 27:0.27 29:0.078431373 30:0.0039215686 31:0.05 32:0.2 33:0.84999999 
0 0 1024 0 2:1.3518148e-06 3:7.7649021e-07 20:0.55577225 21:0.55577201 26:0.99999999 29:1 30:1 31:0.99999999 33:0.99999999 
0 0 607.17208906707549 0 2:6.1565209e-07 3:0.00079532009 7:0.012987013 9:0.99999999 20:0.0039122153 21:0.0039116981 22:0.5 23:0.5 26:0.99999999 29:1 30:1 31:0.99999999 35:0.0099999999 36:0.0099999999 
0 0 0 1024 2:2.3054206e-07 20:0.0019552649 21:0.0039116981 26:0.99999999 28:0.99999999 29:0.015686275 30:0.015686275 31:0.99999999 33:0.99999999 
0 0 0.67043059771228397 0 20:0.0019552649 21:0.0019547466 24:0.99999999 25:0.99999999 26:0.99999999 29:0.5372549 30:0.36470588 31:0.67999999 32:0.02 33:0.0099999999 37:0.67999999 38:0.99999999 
0 0 0 474.96228092949019 2:1.2575021e-07 3:9.3178825e-06 20:0.0019552649 21:0.0019547466 26:0.99999999 29:0.83529412 30:0.078431373 31:0.089999999 32:0.0099999999 33:0.089999999 
1.1007612853737696 0 0 0 1:0.013601792 2:2.2215871e-06 3:0.0049157654 7:0.012987013 9:0.99999999 10:0.12104072 11:0.99999999 12:0.5 13:0.1025641 14:0.025 20:0.0019552649 21:0.0019547466 26:0.99999999 29:0.0039215686 30:0.0039215686 31:0.99999999 33:0.99999999 
0 0 13.611127377768842 0 2:6.077927e-07 3:0.00052374264 9:0.99999999 16:0.125 20:0.0039122153 21:0.0058686496 25:0.33 26:0.99999999 28:0.66999999 29:0.21568627 30:0.21568627 31:0.99999999 33:0.02 
0 415.0814678766489 0 0 2:5.0300086e-07 9:0.99999999 20:0.0039122153 21:0.0039116981 26:0.99999999 29:0.99607843 30:0.34117647 31:0.34 32:0.02 33:0.34 34:0.02 37:0.03 
0 44.276443474006633 0 0 1:0.00051327516 2:8.9335048e-07 3:0.00020809938 7:0.077922078 9:0.99999999 19:0.99999999 20:0.0019552649 21:0.0019547466 26:0.99999999 29:0.0039215686 30:0.0039215686 31:0.99999999 33:0.99999999 
0 0 0 0.14757194671611734 1:0.00095655826 2:2.8817758e-07 3:0.0017907805 9:0.99999999 20:0.0019552649 21:0.0019547466 24:0.99999999 25:0.99999999 26:0.99999999 29:0.47058824 30:0.0039215686 31:0.0099999999 32:0.079999999 33:0.0099999999 35:0.0099999999 37:0.0099999999 38:0.99999999 
0 0 1024 0 2:1.3518148e-06 3:7.7649021e-07 20:0.97260269 21:0.97260268 26:0.99999999 29:1 30:1 31:0.99999999 33:0.99999999 
0 0 0 44.277672391220115 2:4.741831e-07 20:0.0058691658 21:0.0058686496 26:0.99999999 29:1 30:0.49803922 31:0.5 32:0.0099999999 33:0.64999999 
0 0 1024 0 2:1.3518148e-06 3:7.7649021e-07 20:0.51076238 21:0.51076213 26:0.99999999 29:1 30:1 31:0.99999999 33:0.99999999 
0 0 1024 0 2:1.3518148e-06 3:7.7649021e-07 20:0.86105652 21:0.86105645 26:0.99999999 29:1 30:1 31:0.99999999 33:0.99999999 
0 0 1024 0 2:1.3518148e-06 3:7.7649021e-07 20:0.59686821 21:0.596868 26:0.99999999 29:1 30:1 31:0.99999999 33:0.99999999 
0 0 1024 0 2:1.3518148e-06 3:7.7649021e-07 20:0.68101707 21:0.68101691 26:0.99999999 29:1 30:1 31:0.99999999 33:0.99999999 
0 0 2.5458955083139743 0 3:0.00012423843 20:0.0019552649 21:0.013696455 26:0.99999999 28:0.29 29:0.18823529 30:0.023529412 31:0.02 32:0.099999999 33:0.02 34:0.33 
2.2495148529523137 0 0 0 1:0.063832766 2:5.8290464e-06 3:0.0069575464 9:0.99999999 10:0.12443439 11:0.99999999 12:0.5 13:0.12410256 14:0.325 20:0.0019552649 21:0.0019547466 26:0.99999999 29:1 30:0.0039215686 32:0.02 
0 0 1024 0 2:1.3518148e-06 3:7.7649021e-07 20:0.78864935 21:0.78864924 26:0.99999999 29:1 30:1 31:0.99999999 33:0.99999999 
0 0 0 0.0038810331133313919 20:0.0019552649 21:0.0039116981 24:0.99999999 25:0.99999999 26:0.99999999 28:0.99999999 
109.31823840499322 909.56576790099007 0 0 2:1.0033819e-06 9:0.99999999 20:0.0019552649 21:0.0019547466 26:0.99999999 29:0.011764706 30:0.011764706 31:0.99999999 33:0.99999999 
0 0 1024 0 2:1.3518148e-06 3:7.7649021e-07 20:0.81604666 21:0.81604656 26:0.99999999 29:1 30:1 31:0.99999999 33:0.99999999 
0 0 0 1024 2:1.6792893e-06 20:0.0039122153 21:0.0039116981 26:0.99999999 29:0.14509804 30:0.019607843 31:0.14 32:0.079999999 33:0.14 
0 0 0 128.00548085866583 2:2.6197961e-08 3:3.3583201e-05 20:0.0019552649 21:0.0019547466 26:0.99999999 29:0.0078431373 30:0.0039215686 31:0.5 32:0.99999999 33:0.5 
0 0 0 887.10977125217596 1:0.025173814 2:2.9341717e-07 3:8.7355148e-06 20:0.0078261163 21:0.0078256011 26:0.99999999 29:0.42352941 30:0.3254902 31:0.76999999 32:0.02 33:0.76999999 
0 0 0 15.814532586699068 2:1.8370011e-05 20:0.0097830667 21:0.0019547466 22:0.2 26:0.2 27:0.4 29:0.50588235 30:0.0039215686 31:0.0099999999 32:0.05 33:0.12 35:0.0099999999 
0 0 0 8.3885618231892334 2:3.7987044e-07 20:0.0019552649 21:0.0019547466 26:0.99999999 29:0.66666667 30:0.0039215686 31:0.0099999999 32:0.50999999 33:0.83999999 
0 112.90905658371125 0 0 2:1.5881204e-05 9:0.99999999 20:0.0078261163 21:0.0078256011 26:0.99999999 29:0.043137255 30:0.20392157 31:0.90999999 32:0.18 33:0.90999999 34:0.04 
0 0 29.919984173003098 0 2:6.4185005e-07 3:0.00022188208 9:0.99999999 20:0.013696968 21:0.013696455 26:0.99999999 29:0.047058824 30:0.047058824 31:0.99999999 33:0.079999999 
0 0 1024 0 2:1.3518148e-06 3:7.7649021e-07 20:0.53033189 21:0.53033165 26:0.99999999 29:1 30:1 31:0.99999999 33:0.99999999 
0 0 0 113.88037976015957 2:2.3578165e-08 3:5.2218966e-05 20:0.0019552649 21:0.0019547466 26:0.99999999 29:0.99607843 30:0.023529412 31:0.02 32:0.02 37:0.05 
0 36.318522054668499 0 0 2:0.00010608602 9:0.99999999 20:0.029352571 21:0.029352067 26:0.99999999 29:1 30:0.24313725 31:0.24 32:0.02 33:0.15 35:0.28 36:0.32 
0 1024 0 0 2:3.1437554e-08 9:0.99999999 20:0.0039122153 21:0.0039116981 26:0.99999999 29:0.023529412 30:0.10196078 31:0.99999999 33:0.99999999 34:0.079999999 
0 0 0.058678622322446118 0 2:1.7290655e-07 3:3.4942059e-06 20:0.0019552649 21:0.0019547466 26:0.99999999 29:0.18823529 30:0.043137255 31:0.23 32:0.04 33:0.02 37:0.15 38:0.63999999 
0 0 0 1024 2:7.8593884e-08 20:0.0039122153 21:0.0039116981 26:0.99999999 29:0.10980392 30:0.10980392 31:0.99999999 33:0.99999999 
0 0 0 427.25166055707308 1:0.00067658999 2:2.8817758e-07 3:6.4060442e-06 20:0.0019552649 21:0.0019547466 26:0.99999999 29:0.094117647 30:0.074509804 31:0.78999999 32:0.079999999 33:0.78999999 
0 0 0 286.99519323784187 2:7.8593884e-08 20:0.0039122153 21:0.0039116981 26:0.99999999 29:1 30:0.015686275 31:0.02 32:0.0099999999 33:0.089999999 
0 0 0 0.040352179042475275 2:3.636277e-06 3:7.5901918e-05 9:0.99999999 20:0.0039122153 21:0.0019547466 24:0.5 26:0.5 27:0.99999999 29:1 30:0.039215686 31:0.04 32:0.089999999 35:0.86999999 37:0.0099999999 
0 0 13.61160100740805 0 2:4.5584453e-07 3:0.0015019262 9:0.99999999 20:0.0039122153 21:0.013696455 26:0.99999999 28:0.29 29:0.058823529 30:0.058823529 31:0.99999999 33:0.069999999 
0 0 0 0.13660163696209837 2:2.6197961e-08 3:7.1825344e-06 9:0.99999999 20:0.0039122153 21:0.0019547466 26:0.5 27:0.99999999 29:0.0039215686 30:0.054901961 31:0.99999999 33:0.99999999 34:0.21 
1024 0 0 0 1:0.00013998414 2:2.724588e-07 3:0.00030166645 9:0.99999999 20:0.0019552649 21:0.0019547466 26:0.99999999 29:1 30:0.0039215686 32:0.02 
0 0 1.2586420638052296 0 1:0.1132005 2:3.8249024e-07 3:2.0382868e-05 20:0.0039122153 21:0.0039116981 26:0.99999999 29:0.035294118 30:0.0078431373 31:0.22 32:0.66999999 33:0.99999999 
0 121.0361548266944 0 0 1:0.0006532593 2:2.596218e-06 3:0.00059809158 7:0.28571429 9:0.99999999 19:0.99999999 20:0.0019552649 21:0.0019547466 26:0.99999999 29:1 30:0.18431373 31:0.18 32:0.02 37:0.059999999 38:0.13 
0 0 0 2.6114454292644353 2:3.0022864e-06 3:6.54193e-05 9:0.99999999 20:0.0019552649 21:0.0019547466 26:0.99999999 29:0.0078431373 30:0.50588235 31:0.5 32:0.99999999 33:0.5 34:0.02 36:0.02 
0 0 5.9395298671189645 0 2:6.81147e-07 3:8.1337349e-05 9:0.99999999 20:0.0019552649 21:0.011739504 26:0.99999999 28:0.33 29:0.015686275 30:0.015686275 31:0.99999999 33:0.25 
0 0 0 627.46642229088241 2:1.2575021e-07 3:9.3178825e-06 20:0.0019552649 21:0.0019547466 26:0.99999999 29:0.015686275 30:0.011764706 31:0.74999999 32:0.5 33:0.74999999 
0 14.072041208123018 0 0 1:9.3322757e-05 2:0.0057494544 9:0.99999999 20:0.0078261163 21:0.0039116981 26:0.5 27:0.5 29:1 30:0.20784314 31:0.21 32:0.35 33:0.21 
0 0 0 1024 2:4.5060494e-07 20:0.0019552649 21:0.0019547466 26:0.99999999 29:0.16078431 30:0.02745098 31:0.17 32:0.069999999 33:0.17 
0 0 0 38.008947747297839 2:1.1527103e-07 3:2.1353481e-05 20:0.0019552649 21:0.0019547466 26:0.99999999 29:0.043137255 30:0.88235294 31:0.90999999 32:0.18 33:0.90999999 34:0.0099999999 
0 0 1024 0 2:1.3518148e-06 3:7.7649021e-07 20:0.67318927 21:0.6731891 26:0.99999999 29:1 30:1 31:0.99999999 33:0.99999999 
0 0 0 6.2308449937850714 20:0.0019552649 21:0.0019547466 24:0.99999999 25:0.99999999 26:0.99999999 29:1 30:0.011764706 31:0.0099999999 32:0.059999999 33:0.0099999999 35:0.62999999 37:0.03 38:0.99999999 
0.36684621997558475 0 4.2124301010600655 0 1:0.41768933 2:1.5273411e-05 3:0.023749535 7:1 9:0.99999999 10:0.0067873303 13:0.001025641 14:0.475 20:0.0019552649 21:0.0019547466 26:0.99999999 29:1 30:0.14901961 31:0.15 32:0.059999999 35:0.55999999 36:0.29 37:0.04 38:0.11 
0 0 0 0.20611587246720792 20:0.0039122153 21:0.0019547466 22:0.5 23:0.99999999 26:0.5 27:0.99999999 29:1 30:0.0039215686 32:0.84999999 36:0.99999999 
0 0 0 1024 2:3.8511003e-07 20:0.0019552649 21:0.0019547466 26:0.99999999 29:0.0039215686 30:0.0039215686 31:0.99999999 33:0.99999999 
0 663.06212717989195 0 0 2:1.6792893e-06 9:0.99999999 20:0.0019552649 21:0.0019547466 26:0.99999999 29:1 30:0.22745098 31:0.23 32:0.069999999 33:0.29 36:0.02 
0 0 0 123.38192104698184 2:6.9183576e-05 20:0.017610869 21:0.017610358 26:0.99999999 29:0.19215686 30:0.058823529 31:0.31 32:0.059999999 33:0.31 
0 0 0 10.441247504649569 2:2.043441e-07 20:0.10175974 21:0.023481213 26:0.23 27:0.04 29:1 30:0.10980392 31:0.11 32:0.0099999999 33:0.11 
0 0 0 724.54134554059044 2:7.8593884e-08 20:0.0019552649 21:0.0019547466 26:0.99999999 29:0.023529412 30:0.35686275 31:0.99999999 33:0.99999999 34:0.48 
0 0 1024 0 2:1.3518148e-06 3:7.7649021e-07 20:0.74559644 21:0.74559631 26:0.99999999 29:1 30:1 31:0.99999999 33:0.99999999 
0 0 7.0811040154934934 0 1:4.6661378e-05 2:5.3684862e-05 3:0.0030213234 9:0.99999999 20:0.0019552649 21:0.0019547466 26:0.99999999 29:0.02745098 30:0.02745098 31:0.99999999 33:0.14 35:0.14 36:0.14 37:0.14 38:0.14 
0 6.9816659034519244 0 0 2:8.2261599e-07 3:0.0032624236 9:0.99999999 20:0.0019552649 21:0.064577194 26:0.99999999 28:0.12 29:0.0039215686 30:0.18431373 31:0.99999999 33:0.99999999 34:0.059999999 
0 0 1024 0 2:1.3518148e-06 3:7.7649021e-07 20:0.78082155 21:0.78082143 26:0.99999999 29:1 30:1 31:0.99999999 33:0.99999999 
0 0 0 1024 1:2.3330689e-05 2:2.7507859e-07 3:2.8341893e-05 20:0.0039122153 21:0.0039116981 26:0.99999999 29:0.0078431373 30:0.0078431373 31:0.99999999 33:0.99999999 
0 0 0 568.08592077347498 2:1.6792893e-06 20:0.0039122153 21:0.0039116981 26:0.99999999 29:0.19215686 30:0.019607843 31:0.099999999 32:0.079999999 33:0.099999999 
0 0 7.8001274208666205 0 2:6.9686577e-07 3:0.00047055306 9:0.99999999 20:0.0019552649 21:0.0058686496 25:0.66999999 26:0.99999999 28:0.99999999 29:1 30:0.92156863 31:0.91999999 32:0.02 37:0.0099999999 
0 0 29.881684167071814 0 2:1.1527103e-07 3:2.5818299e-05 20:0.14481265 21:0.29745442 26:0.99999999 28:0.0099999999 29:0.98039216 30:0.50980392 31:0.51999999 32:0.02 
0 0 30.380825514288407 0 1:0.01556157 2:0.0012750548 3:0.044963442 9:0.99999999 20:0.0039122153 21:0.0039116981 26:0.99999999 29:0.015686275 30:0.015686275 31:0.99999999 33:0.25 37:0.25 38:0.25 
0 0 0.64777760924454297 0 20:0.0019552649 21:0.0019547466 24:0.99999999 25:0.99999999 26:0.99999999 29:0.34117647 30:0.22745098 31:0.66999999 32:0.069999999 33:0.0099999999 35:0.02 37:0.65999999 38:0.96999999 
0 0 0 646.32762466640327 2:1.4854244e-06 20:0.0019552649 21:0.0019547466 26:0.99999999 29:0.10980392 30:0.16862745 31:0.88999999 32:0.069999999 33:0.88999999 34:0.05 
0 0 2.5333058445274728 250.60679932724651 2:1.2575021e-07 3:9.3178825e-06 20:0.21134896 21:0.0019547466 26:0.0099999999 27:0.02 29:1 30:0.0039215686 32:0.0099999999 
0 0 0 316.3951554335045 2:1.6766695e-07 20:0.0039122153 21:0.0019547466 26:0.5 27:0.99999999 29:0.83529412 30:0.0039215686 32:0.069999999 
0 0 9.5175022245756349 0 2:6.3661046e-07 3:0.0042512839 9:0.99999999 20:0.0019552649 21:0.0019547466 22:0.99999999 23:0.99999999 26:0.99999999 29:0.50196078 30:1 31:0.99999999 33:0.0099999999 34:0.05 35:0.0099999999 37:0.23 38:0.58999999 
0 0 0 38.564100814173948 2:1.2451891e-05 20:0.035223423 21:0.035222922 26:0.99999999 29:1 30:0.094117647 31:0.089999999 32:0.57999999 33:0.089999999 
295.02255752805883 0 0 0 2:6.4185005e-07 9:0.99999999 13:0.001025641 20:0.0039122153 21:0.0039116981 26:0.99999999 29:0.0078431373 30:0.0078431373 31:0.99999999 33:0.99999999 
0 1.7662681384530512 0 0 1:0.0030096589 2:5.3443841e-07 3:0.0058364886 9:0.99999999 10:0.0011312217 11:0.99999999 13:0.0030769231 20:0.0019552649 21:0.0019547466 26:0.99999999 29:0.0039215686 30:0.011764706 31:0.99999999 33:0.99999999 34:0.99999999 
0 0 0 14.939437268504454 2:3.405735e-07 3:4.6589412e-05 9:0.99999999 20:0.0019552649 21:0.0019547466 26:0.99999999 29:0.38431373 30:0.34509804 31:0.28 32:0.71999999 33:0.0099999999 34:0.02 37:0.65999999 
0 0 1024 0 2:1.3518148e-06 3:7.7649021e-07 20:0.79647715 21:0.79647705 26:0.99999999 29:1 30:1 31:0.99999999 33:0.99999999 
0 0 1024 0 2:1.3518148e-06 3:7.7649021e-07 20:0.72994084 21:0.7299407 26:0.99999999 29:1 30:1 31:0.99999999 33:0.99999999 
0 0 0 1024 2:1.2575021e-07 3:9.3178825e-06 20:0.0019552649 21:0.0019547466 26:0.99999999 29:0.16470588 30:0.14117647 31:0.85999999 32:0.069999999 33:0.85999999 
0 0 1.4153352975761688 0 2:4.3226636e-07 3:0.0014611604 9:0.99999999 20:0.0019552649 21:0.0058686496 26:0.99999999 28:0.99999999 29:0.32941176 30:0.96470588 31:0.99999999 33:0.0099999999 34:0.13 37:0.32 38:0.50999999 
0 0 1024 0 2:1.3518148e-06 3:7.7649021e-07 20:0.74168254 21:0.7416824 26:0.99999999 29:1 30:1 31:0.99999999 33:0.99999999 
0 1024 0 0 1:0.00069992068 2:3.2144899e-06 3:0.00065613422 7:0.31168831 9:0.99999999 19:0.99999999 20:0.0019552649 21:0.0019547466 26:0.99999999 29:0.95294118 30:0.23529412 31:0.25 32:0.02 
0 0 1024 0 2:1.3518148e-06 3:7.7649021e-07 20:0.89236772 21:0.89236767 26:0.99999999 29:1 30:1 31:0.99999999 33:0.99999999 
0 0.14975324409649443 0.063998863941580858 0 2:3.0748547e-05 3:0.00030069583 9:0.99999999 20:0.0019552649 21:0.0019547466 26:0.99999999 29:1 30:0.47843137 31:0.48 32:0.02 35:0.36 36:0.42 
0 0 55.014611884344674 0 2:3.7463085e-07 3:0.010060013 7:0.038961039 9:0.99999999 20:0.0019552649 21:0.015653407 26:0.99999999 28:0.38 29:1 30:1 31:0.99999999 
0 37.301733576663636 0 0 2:6.759074e-07 3:0.00027060684 7:0.012987013 9:0.99999999 11:0.99999999 20:0.035223423 21:0.035222922 26:0.99999999 29:1 30:1 31:0.99999999 
0 0 0 612.00297172531202 1:0.00025663758 2:2.6197961e-08 3:6.7942893e-06 20:0.0019552649 21:0.0019547466 26:0.99999999 29:1 30:0.039215686 31:0.04 32:0.03 
0 0 0 0.290993930227048 20:0.0019552649 21:0.0019547466 24:0.99999999 25:0.99999999 26:0.99999999 29:0.0078431373 30:1 31:0.99999999 33:0.5 34:0.03 36:0.02 37:0.99999999 38:0.03 
0 1023.7043549286775 0 0 1:0.0006532593 2:3.8327618e-06 3:0.00080599683 7:0.38961039 9:0.99999999 19:0.99999999 20:0.0019552649 21:0.0019547466 26:0.99999999 29:0.81568627 30:0.23137255 31:0.28 32:0.02 
0 0 0 1024 2:1.130704e-05 20:0.035223423 21:0.035222922 26:0.99999999 29:0.49411765 30:0.1254902 31:0.25 32:0.03 33:0.25 
0 0 6.0120211730106821 0 2:8.0689721e-07 3:0.00052374264 9:0.99999999 16:0.125 20:0.0019552649 21:0.0039116981 25:0.5 26:0.99999999 28:0.99999999 29:1 30:0.96078431 31:0.95999999 32:0.0099999999 37:0.03 38:0.03 
61.462234615567041 0 0 0 1:0.01488498 2:0.0039818282 3:0.079608105 9:0.99999999 20:0.0019552649 21:0.0019547466 26:0.99999999 29:1 30:0.0039215686 32:0.03 
0 0 0 2.4455103783060483 2:6.4315995e-06 3:6.464281e-05 9:0.99999999 20:0.0019552649 21:0.0019547466 26:0.99999999 29:0.96862745 30:0.60392157 31:0.61999999 32:0.089999999 
0 0 1024 0 2:1.3518148e-06 3:7.7649021e-07 20:0.69471573 21:0.69471557 26:0.99999999 29:1 30:1 31:0.99999999 33:0.99999999 
0 0 0 49.128375658012011 2:3.8511003e-07 3:2.8536015e-05 20:0.011740017 21:0.0039116981 26:0.33 27:0.5 29:1 30:0.0078431373 31:0.0099999999 32:0.42 33:0.92999999 
0 0 7.7523612610067243 0 1:0.00072325136 2:3.9637516e-06 3:0.00080599683 7:0.38961039 9:0.99999999 19:0.99999999 20:0.0019552649 21:0.0019547466 26:0.99999999 29:0.0039215686 30:0.0039215686 31:0.99999999 33:0.99999999 
0 0 0 1024 2:7.8593884e-08 20:0.0019552649 21:0.0019547466 26:0.99999999 29:0.023529412 30:0.02745098 31:0.99999999 33:0.99999999 34:0.29 
0 0 1024 0 2:1.3518148e-06 3:7.7649021e-07 20:0.53620274 21:0.5362025 26:0.99999999 29:1 30:1 31:0.99999999 33:0.99999999 
0 1024 0 0 2:3.6677146e-08 3:7.9590246e-06 9:0.99999999 20:0.0019552649 21:0.0019547466 26:0.99999999 29:0.0039215686 30:0.023529412 31:0.99999999 33:0.99999999 34:0.33 
0 0 0 32.747100846501233 2:4.3095646e-06 3:6.4448687e-05 9:0.99999999 20:0.0019552649 21:0.0019547466 26:0.99999999 29:0.84705882 30:0.30588235 31:0.29 32:0.33 34:0.03 37:0.31 
0 0 222.11040980619501 0 2:8.0427741e-07 3:7.7066653e-05 9:0.99999999 20:0.0039122153 21:0.0039116981 24:0.5 25:0.5 26:0.99999999 29:1 30:1 31:0.99999999 
0 0 0 1024 2:3.4012813e-05 20:0.0039122153 21:0.0039116981 26:0.99999999 29:0.011764706 30:0.21568627 31:0.99999999 33:0.99999999 34:0.04 
0 0 0 2.5759490863067267 20:0.0019552649 21:0.0019547466 24:0.99999999 25:0.99999999 26:0.99999999 29:0.75294118 30:0.062745098 31:0.079999999 32:0.03 33:0.0099999999 37:0.03 38:0.12 
0 0 0 1024 2:1.6766695e-07 20:0.0019552649 21:0.0019547466 26:0.99999999 29:0.42352941 30:0.0078431373 31:0.02 32:0.04 33:0.02 35:0.0099999999 
0 0 0 1024 2:2.5150043e-06 20:0.0039122153 21:0.0039116981 26:0.99999999 29:0.15686275 30:0.023529412 31:0.15 32:0.079999999 33:0.15 
0 0 614.08781236790242 0 2:5.7373535e-07 3:0.00023838249 9:0.99999999 20:0.0039122153 21:0.0039116981 26:0.99999999 29:0.050980392 30:0.050980392 31:0.99999999 33:0.079999999 
0 0 0 1024 2:2.3840145e-07 20:0.0019552649 21:0.0019547466 26:0.99999999 29:0.52941176 30:0.38039216 31:0.71999999 32:0.0099999999 33:0.71999999 
0 0 0 1024 2:9.4312661e-08 3:1.9606378e-05 20:0.0039122153 21:0.0039116981 26:0.99999999 29:0.0078431373 30:0.0078431373 31:0.99999999 33:0.99999999 
0 0 1024 0 2:1.3518148e-06 3:7.7649021e-07 20:0.95303319 21:0.95303316 26:0.99999999 29:1 30:1 31:0.99999999 33:0.99999999 
0 53.737578375377829 0 0 2:8.5929313e-07 3:8.0172614e-05 9:0.99999999 20:0.0039122153 21:0.0039116981 26:0.99999999 29:0.0078431373 30:0.14901961 31:0.99999999 33:0.5 34:0.24 
0 0 0 1024 2:7.8593884e-08 20:0.0019552649 21:0.0019547466 26:0.99999999 29:0.20784314 30:0.20784314 31:0.99999999 33:0.99999999 
0 0 0 86.4948005492855 2:7.8593884e-08 20:0.0078261163 21:0.0019547466 26:0.25 27:0.74999999 29:1 30:0.011764706 31:0.0099999999 32:0.0099999999 33:0.04 
0 0 0.22917645005703383 2.7571619636245179 1:0.00135318 2:6.8088502e-06 3:9.4149437e-05 9:0.99999999 20:1 21:0.0019547466 29:1 30:0.015686275 31:0.02 32:0.0099999999 
0 0 1024 0 2:1.3518148e-06 3:7.7649021e-07 20:0.83561616 21:0.83561608 26:0.99999999 29:1 30:1 31:0.99999999 33:0.99999999 
0 0 0.88323947026652794 0 2:1.6766695e-07 20:0.0019552649 21:0.0019547466 26:0.99999999 29:0.11764706 30:0.0039215686 31:0.03 32:0.13 33:0.03 35:0.03 
0 0 1010.2884015721164 1024 2:2.3578165e-08 3:2.7177157e-05 20:0.0019552649 21:0.0019547466 26:0.99999999 29:0.0039215686 30:0.0039215686 31:0.99999999 33:0.99999999 
0 0 0 2.8800916110715153 20:0.0019552649 21:0.0019547466 24:0.99999999 25:0.99999999 26:0.99999999 29:0.0039215686 30:1 31:0.99999999 33:0.99999999 34:0.03 36:0.02 37:0.99999999 38:0.03 
0 0 0 1024 2:3.1437554e-08 20:0.0039122153 21:0.0039116981 26:0.99999999 29:0.5372549 30:0.062745098 31:0.12 32:0.03 33:0.12 35:0.0099999999 
0 0 1024 0 2:1.3518148e-06 3:7.7649021e-07 20:0.95694709 21:0.95694707 26:0.99999999 29:1 30:1 31:0.99999999 33:0.99999999 
0 0 1024 0 2:1.3518148e-06 3:7.7649021e-07 20:0.60665296 21:0.60665275 26:0.99999999 29:1 30:1 31:0.99999999 33:0.99999999 
0 0 1024 0 2:1.3518148e-06 3:7.7649021e-07 20:0.52054714 21:0.52054689 26:0.99999999 29:1 30:1 31:0.99999999 33:0.99999999 
0 1.2461111961519191 0 0 2:4.3978518e-05 20:0.021524769 21:0.021524261 26:0.99999999 29:1 30:0.21568627 31:0.22 32:0.46 33:0.22 35:0.46 
0 0 0 1024 2:7.8593884e-08 20:0.0019552649 21:0.0019547466 26:0.99999999 29:0.0039215686 30:0.0078431373 31:0.99999999 33:0.99999999 34:0.99999999 
0 0 327.29294196435586 0 2:4.2964657e-07 3:0.0059946985 7:0.012987013 9:0.99999999 10:0.0011312217 20:0.0097830667 21:0.0097825525 26:0.99999999 29:1 30:1 31:0.99999999 
0 2.7746228425955666 0 0 1:0.00046661378 2:6.104125e-07 3:0.00014869787 7:0.051948052 9:0.99999999 19:0.99999999 20:0.0019552649 21:0.0019547466 26:0.99999999 29:0.57254902 30:0.090196078 31:0.16 32:0.49 33:0.0099999999 37:0.45 38:0.04 
0 3.5995719335558318 0 0 2:6.9183576e-05 9:0.99999999 20:0.021524769 21:0.021524261 26:0.99999999 29:1 30:0.066666667 31:0.069999999 32:0.77999999 33:0.069999999 
0 0 1024 0 2:1.3518148e-06 3:7.7649021e-07 20:0.86497042 21:0.86497035 26:0.99999999 29:1 30:1 31:0.99999999 33:0.99999999 
0 0 2.7436849410744504 0 2:5.0300086e-07 20:0.0019552649 21:0.0019547466 26:0.99999999 29:0.019607843 30:0.08627451 31:0.79999999 32:0.4 33:0.79999999 34:0.089999999 
0 1024 0 0.26219339512333972 1:0.00062992861 2:3.906116e-06 3:0.00080599683 7:0.38961039 9:0.99999999 19:0.99999999 20:0.0019552649 21:0.0019547466 26:0.99999999 29:0.9254902 30:0.21568627 31:0.23 32:0.02 
0 132.69155454118535 0 0 2:2.6881728e-05 9:0.99999999 20:0.015653918 21:0.015653407 26:0.99999999 29:0.054901961 30:0.054901961 31:0.99999999 33:0.99999999 
0 764.5680397597464 0 0 1:0.00069992068 2:2.7769839e-06 3:0.00059809158 7:0.28571429 9:0.99999999 19:0.99999999 20:0.0019552649 21:0.0019547466 26:0.99999999 29:0.9372549 30:0.25098039 31:0.27 32:0.02 
0 0 779.75853404733152 0 2:4.7942269e-07 20:0.013696968 21:0.013696455 26:0.99999999 29:1 30:0.078431373 31:0.079999999 32:0.0099999999 33:0.089999999 
0 0 0 5.9606940857422526 20:0.0019552649 21:0.0019547466 24:0.99999999 25:0.99999999 26:0.99999999 29:1 30:0.019607843 31:0.02 32:0.059999999 35:0.52999999 37:0.05 38:0.99999999 
0 1024 0 0 1:0.0006532593 2:4.0292465e-06 3:0.00080599683 7:0.38961039 9:0.99999999 19:0.99999999 20:0.0019552649 21:0.0019547466 26:0.99999999 29:0.94117647 30:0.20784314 31:0.22 32:0.03 
0 0 2.8066711428356919 0 20:0.0019552649 21:0.0019547466 22:0.99999999 23:0.99999999 26:0.99999999 29:0.0039215686 30:0.0039215686 31:0.99999999 33:0.99999999 35:0.99999999 36:0.99999999 
0 0 1024 0 2:1.3518148e-06 3:7.7649021e-07 20:0.73385474 21:0.7338546 26:0.99999999 29:1 30:1 31:0.99999999 33:0.99999999 
0 162.29001737655452 0 0 1:0.00055993654 2:6.3661046e-07 3:0.00015044498 7:0.051948052 9:0.99999999 19:0.99999999 20:0.0019552649 21:0.0019547466 26:0.99999999 29:0.62352941 30:0.02745098 31:0.04 32:0.03 33:0.0099999999 
0 0 0 1.9160624205677768 2:1.2575021e-07 3:9.3178825e-06 20:0.0078261163 21:0.0019547466 26:0.25 27:0.5 29:1 30:0.78823529 31:0.78999999 32:0.0099999999 33:0.78999999 
0 558.33581494888438 0 0 2:5.0300086e-07 9:0.99999999 20:0.0019552649 21:0.0019547466 26:0.99999999 29:1 30:0.38431373 31:0.38 32:0.079999999 33:0.44 35:0.0099999999 36:0.02 
0 0 0 328.81779456672331 20:0.0058691658 21:0.0058686496 24:0.99999999 25:0.99999999 26:0.99999999 29:1 30:0.015686275 31:0.02 32:0.03 37:0.02 38:0.99999999 
0 0 0 11.775917479728617 2:3.8511003e-07 20:0.0097830667 21:0.0019547466 26:0.2 27:0.59999999 29:1 30:0.015686275 31:0.02 32:0.50999999 33:0.94999999 
0 8.5483057693063262 0 0 2:3.2186815e-05 9:0.99999999 20:0.0058691658 21:0.0078256011 26:0.99999999 28:0.5 29:0.035294118 30:0.21176471 31:0.99999999 33:0.99999999 34:0.04 
0 24.609281032411548 0 1024 2:1.1527103e-07 3:2.5235932e-05 20:0.0019552649 21:0.0019547466 26:0.99999999 29:0.019607843 30:0.019607843 31:0.99999999 33:0.99999999 
0 0 33.543051984820167 22.812598594015245 2:2.9603696e-07 20:0.06653463 21:0.064577194 26:0.96999999 27:0.059999999 29:1 30:0.12941176 31:0.13 32:0.51999999 33:0.13 
0 0 0 364.78567036684154 2:7.8593884e-08 20:0.0019552649 21:0.0019547466 26:0.99999999 29:0.7372549 30:0.7372549 31:0.99999999 33:0.99999999 
0 0 0 15.747793013762664 2:2.8817758e-08 9:0.99999999 20:0.0039122153 21:0.0039116981 26:0.99999999 29:0.57647059 30:0.46666667 31:0.4 32:0.48 33:0.39 34:0.02 37:0.46 38:0.0099999999 
0 0 2.3523838711875573 0 2:2.3578165e-08 20:0.0019552649 21:0.0019547466 22:0.99999999 23:0.99999999 26:0.99999999 29:0.015686275 30:0.02745098 31:0.5 32:0.5 33:0.25 34:0.43 35:0.99999999 36:0.29 
0 0 0 253.29298452117564 20:0.0019552649 21:0.0019547466 24:0.99999999 25:0.99999999 26:0.99999999 29:0.65882353 30:0.031372549 31:0.05 32:0.04 33:0.0099999999 35:0.0099999999 37:0.079999999 38:0.99999999 
0 61.472241031893155 0 0 1:0.014978302 2:3.0127656e-06 3:0.00065613422 7:0.31168831 9:0.99999999 19:0.99999999 20:0.0019552649 21:0.0019547466 26:0.99999999 29:0.83921569 30:0.22352941 31:0.27 32:0.33 37:0.3 38:0.02 
0 0 0 1.3095221532493206 2:1.6331809e-05 3:0.00031603151 9:0.99999999 20:0.0019552649 21:0.0019547466 24:0.99999999 25:0.99999999 26:0.99999999 29:0.35686275 30:0.29411765 31:0.15 32:0.77999999 33:0.0099999999 34:0.03 37:0.73999999 38:0.0099999999 
0 0 1024 0 2:7.8593884e-08 20:0.0019552649 21:0.0019547466 26:0.99999999 29:0.99215686 30:0.99215686 31:0.99999999 33:0.99999999 
4.3460377927608818 0 0 0 2:3.7172287e-05 9:0.99999999 20:0.02348172 21:0.023481213 26:0.99999999 29:0.078431373 30:0.070588235 31:0.89999999 32:0.099999999 33:0.89999999 
167.8207062750532 1024 0 0 2:3.4012813e-05 9:0.99999999 20:0.0039122153 21:0.0039116981 26:0.99999999 29:0.011764706 30:0.26666667 31:0.99999999 33:0.99999999 34:0.03 
0 0 0 1024 2:1.2575021e-07 3:9.3178825e-06 20:0.0019552649 21:0.0019547466 26:0.99999999 29:1 30:0.82352941 31:0.81999999 32:0.0099999999 33:0.81999999 
0 1024 0 0 1:0.00074658205 2:3.8249024e-06 3:0.00080599683 7:0.38961039 9:0.99999999 19:0.99999999 20:0.0019552649 21:0.0019547466 26:0.99999999 29:0.89019608 30:0.23137255 31:0.26 32:0.02 
0 0 0 753.55639357118321 2:1.6766695e-07 20:0.0019552649 21:0.0019547466 26:0.99999999 29:0.16078431 30:0.0039215686 31:0.02 32:0.069999999 33:0.02 
5.3761210151651211 1024 0 0 2:1.2967991e-06 9:0.99999999 13:0.0051282051 20:0.0019552649 21:0.0019547466 26:0.99999999 29:0.0039215686 30:0.20392157 31:0.99999999 33:0.99999999 34:0.04 
0 1024 0 0 2:4.909498e-06 9:0.99999999 20:0.0019552649 21:0.0019547466 26:0.99999999 29:0.02745098 30:0.02745098 31:0.99999999 33:0.99999999 
0 0 0 1024 2:2.8817758e-07 3:8.5413923e-06 20:0.0019552649 21:0.0019547466 26:0.99999999 29:0.11764706 30:0.090196078 31:0.76999999 32:0.069999999 33:0.76999999 
0 0 24.300070323779618 0 2:6.6018863e-07 3:0.00031603151 9:0.99999999 20:0.0019552649 21:0.0039116981 25:0.5 26:0.99999999 28:0.99999999 29:0.16078431 30:0.15686275 31:0.97999999 32:0.05 33:0.02 
0 0 1024 0 2:1.3518148e-06 3:7.7649021e-07 20:0.73581169 21:0.73581155 26:0.99999999 29:1 30:1 31:0.99999999 33:0.99999999 
0 0 160.7686736054545 0 2:1.3518148e-06 3:7.7649021e-07 20:0.47749423 21:0.47749396 26:0.99999999 29:0.95686275 30:0.95686275 31:0.99999999 33:0.99999999 
0 0 1024 0 2:1.3518148e-06 3:7.7649021e-07 20:0.5929543 21:0.59295409 26:0.99999999 29:1 30:1 31:0.99999999 33:0.99999999 
0 0 1024 0 2:1.3518148e-06 3:7.7649021e-07 20:0.5772987 21:0.57729848 26:0.99999999 29:1 30:1 31:0.99999999 33:0.99999999 
14.561322468008282 0 0 0 1:0.2673697 2:8.4540821e-06 3:0.0071539984 7:0.012987013 9:0.99999999 14:0.425 20:0.0019552649 21:0.0019547466 26:0.99999999 29:0.51764706 30:0.050980392 31:0.099999999 32:0.04 33:0.0099999999 35:0.02 36:0.23 
0 0 4.5747613001152283 0 1:0.0006532593 2:3.8825379e-06 3:0.00080599683 7:0.38961039 9:0.99999999 19:0.99999999 20:0.0019552649 21:0.0019547466 26:0.99999999 29:0.76078431 30:0.30980392 31:0.41 32:0.03 33:0.0099999999 
0 0 856.81083057274907 0 2:3.7987044e-07 3:0.0058745367 7:0.012987013 9:0.99999999 20:0.0019552649 21:0.0019547466 26:0.99999999 29:1 30:1 31:0.99999999 
0 7.2968725281005495 0 0 20:0.0019552649 21:0.0019547466 24:0.99999999 25:0.99999999 26:0.99999999 29:0.098039216 30:0.10980392 31:0.99999999 33:0.04 34:0.069999999 36:0.069999999 37:0.99999999 38:0.92999999 
0 0 0 1024 2:5.2395923e-08 20:0.0019552649 21:0.0019547466 26:0.99999999 29:0.0039215686 30:0.0039215686 31:0.99999999 33:0.99999999 
0 0 0 21.071414899940908 2:2.043441e-07 20:0.021524769 21:0.0039116981 26:0.18 27:0.18 29:0.54901961 30:0.0078431373 31:0.0099999999 32:0.0099999999 33:0.0099999999 
0 0 0.63855051760227022 0 2:2.5804992e-06 3:7.5707795e-05 9:0.99999999 20:0.0019552649 21:0.0019547466 26:0.99999999 29:1 30:0.50588235 31:0.50999999 32:0.02 35:0.57999999 36:0.61999999 
5.01394943800981 0 0 0 2:5.2395923e-07 3:0.00028128358 9:0.99999999 20:0.0039122153 21:0.0039116981 26:0.99999999 29:0.0078431373 30:0.0078431373 31:0.99999999 33:0.5 
0 0 0 0.24331965309795359 1:0.24252251 2:6.117224e-06 3:0.0015846224 9:0.99999999 20:0.0039122153 21:0.0019547466 24:0.5 25:0.99999999 26:0.5 27:0.99999999 29:0.63529412 30:0.062745098 31:0.099999999 32:0.0099999999 33:0.0099999999 37:0.069999999 38:0.74999999 
0 0.89057995358552822 0 0 1:4.6661378e-05 2:1.5718777e-08 3:2.8536015e-05 20:0.0019552649 21:0.0019547466 26:0.99999999 29:1 30:0.14901961 31:0.15 32:0.02 35:0.45 36:0.78999999 
0 0 0 1024 1:0.0014698334 2:1.2575021e-07 3:9.3178825e-06 20:0.0019552649 21:0.0019547466 26:0.99999999 29:0.011764706 30:0.015686275 31:0.99999999 33:0.99999999 34:0.5 
0 0 0 10.555081759257257 2:8.9073069e-08 20:0.0078261163 21:0.031309019 26:0.99999999 28:0.19 29:0.32156863 30:0.043137255 31:0.13 32:0.069999999 33:0.13 
0 91.646429610007019 0 0 1:4.6661378e-05 2:0.0057494544 9:0.99999999 20:0.0019552649 21:0.0019547466 26:0.99999999 29:1 30:0.31764706 31:0.32 32:0.02 33:0.32 
0 0 1.2709849115582494 0 2:2.8817758e-08 20:0.0039122153 21:0.0058686496 26:0.99999999 28:0.66999999 29:0.21960784 30:0.015686275 31:0.069999999 32:0.11 33:0.069999999 35:0.04 37:0.05 
38.040151171617744 0 12.387452566289143 0 1:0.00023330689 2:6.0936458e-06 3:0.044852404 9:0.99999999 20:0.0019552649 21:0.0019547466 26:0.99999999 29:0.0039215686 30:0.0039215686 31:0.99999999 33:0.99999999 
0 0 0 2.090725142726289 3:2.9118383e-06 20:0.0078261163 21:0.0019547466 24:0.25 25:0.99999999 26:0.25 27:0.5 29:1 30:0.0078431373 31:0.0099999999 32:0.03 38:0.5 
15.056901281223428 334.76339970361244 0 0 2:1.9072116e-05 9:0.99999999 20:0.0019552649 21:0.0019547466 26:0.99999999 29:0.0039215686 30:0.27058824 31:0.99999999 33:0.99999999 34:0.03 36:0.0099999999 
0 1024 0 0 2:7.3092312e-07 3:0.00041192805 9:0.99999999 20:0.0019552649 21:0.0019547466 26:0.99999999 29:0.0039215686 30:0.054901961 31:0.99999999 33:0.99999999 34:0.29 36:0.069999999 
0 55.387428842416057 0 0 2:6.81147e-08 9:0.99999999 20:0.0019552649 21:0.0019547466 26:0.99999999 29:0.047058824 30:0.031372549 31:0.42 32:0.25 33:0.42 34:0.25 
0 0 669.9531659766352 239.54904565861648 2:1.6766695e-07 20:0.0078261163 21:0.0078256011 26:0.99999999 29:1 30:0.0078431373 31:0.0099999999 32:0.02 33:0.0099999999 
0 0 1024 0 2:1.3518148e-06 3:7.7649021e-07 20:0.63992112 21:0.63992093 26:0.99999999 29:1 30:1 31:0.99999999 33:0.99999999 
0 0 0 2.4710289148215261 2:3.0127656e-07 3:6.6001668e-06 20:0.0039122153 21:0.0019547466 24:0.5 26:0.5 27:0.99999999 29:0.64313725 30:0.019607843 31:0.03 32:0.02 33:0.78999999 37:0.16 
0 0 0.73652575992422686 0 2:1.6766695e-07 20:0.29549783 21:0.0019547466 22:0.98999999 26:0.0099999999 27:0.059999999 29:1 30:0.0039215686 32:0.089999999 35:0.65999999 37:0.0099999999 
0 0 6.5395924132305314 0 2:2.69839e-07 20:0.0039122153 21:0.0058686496 26:0.99999999 28:0.66999999 29:0.039215686 30:0.039215686 31:0.99999999 33:0.99999999 
370.30593793351062 0 0 0 2:1.619034e-06 3:9.5508295e-05 9:0.99999999 20:0.0019552649 21:0.0019547466 26:0.99999999 29:1 30:0.011764706 31:0.0099999999 32:0.0099999999 
0 0 0 1024 1:0.00074658205 2:2.8817758e-07 3:8.5413923e-06 20:0.015653918 21:0.015653407 26:0.99999999 29:0.37647059 30:0.29019608 31:0.76999999 32:0.02 33:0.76999999 
0 0 0 333.45230862045429 2:1.6792893e-06 20:0.0039122153 21:0.0039116981 26:0.99999999 29:1 30:0.058823529 31:0.059999999 32:0.03 33:0.059999999 37:0.0099999999 
0 0 0 77.25939872051859 2:6.2875107e-08 3:4.6589412e-06 20:0.0019552649 21:0.0019547466 26:0.99999999 29:0.0039215686 30:0.94509804 31:0.99999999 33:0.99999999 34:0.0099999999 
0 1024 0 0 2:4.5060494e-07 9:0.99999999 20:0.0019552649 21:0.0019547466 26:0.99999999 29:0.02745098 30:0.02745098 31:0.99999999 33:0.99999999 
0 0 0 3.9997003357617529 1:2.3330689e-05 2:9.1692865e-08 3:2.5235932e-05 9:0.99999999 20:0.0039122153 21:0.0019547466 26:0.5 27:0.99999999 29:0.49019608 30:0.0078431373 31:0.02 32:0.04 33:0.0099999999 
0 0 0.55492740870779489 0 2:1.8338573e-08 3:2.8536015e-05 20:0.0019552649 21:0.0019547466 26:0.99999999 29:0.14901961 30:0.02745098 31:0.03 32:0.079999999 33:0.03 34:0.29 35:0.39 
0 0 0 217.34791124632861 2:2.4102124e-07 20:0.0019552649 21:0.0039116981 26:0.99999999 28:0.99999999 29:0.023529412 30:0.023529412 31:0.99999999 33:0.99999999 
0 0 0 1024 2:1.2575021e-07 3:9.3178825e-06 20:0.0019552649 21:0.0019547466 26:0.99999999 29:0.25490196 30:0.22352941 31:0.87999999 32:0.05 33:0.87999999 
0 0 562.90554566691128 1024 2:4.768029e-07 20:0.011740017 21:0.011739504 26:0.99999999 29:1 30:0.062745098 31:0.059999999 32:0.0099999999 33:0.069999999 
0 807.91935090761001 0 0 1:0.00062992861 2:3.9375536e-06 3:0.00080599683 7:0.38961039 9:0.99999999 19:0.99999999 20:0.0019552649 21:0.0019547466 26:0.99999999 29:0.89803922 30:0.18431373 31:0.21 32:0.03 
0 1024 0 0 1:0.00072325136 2:3.9427932e-06 3:0.00080599683 7:0.38961039 9:0.99999999 19:0.99999999 20:0.0019552649 21:0.0019547466 26:0.99999999 29:1 30:0.16862745 31:0.17 32:0.02 
0 101.08602795970657 0 0 2:1.6504716e-07 9:0.99999999 20:0.0019552649 21:0.0019547466 26:0.99999999 29:1 30:0.2745098 31:0.27 32:0.04 33:0.27 35:0.17 37:0.02 
0 0 1024 0 2:1.3518148e-06 3:7.7649021e-07 20:0.71037133 21:0.71037118 26:0.99999999 29:1 30:1 31:0.99999999 33:0.99999999 
0 492.14455545616715 0 0.0012052862279080378 1:0.00088656619 2:3.7751262e-06 3:0.00080599683 7:0.38961039 9:0.99999999 19:0.99999999 20:0.0019552649 21:0.0019547466 26:0.99999999 29:0.65098039 30:0.10588235 31:0.16 32:0.02 33:0.0099999999 35:0.0099999999 
0 0 1024 0 2:1.3518148e-06 3:7.7649021e-07 20:0.55968615 21:0.55968592 26:0.99999999 29:1 30:1 31:0.99999999 33:0.99999999 
0 0.88946465875670333 0 0 20:0.0019552649 21:0.0019547466 24:0.99999999 25:0.99999999 26:0.99999999 29:0.066666667 30:0.08627451 31:0.99999999 33:0.059999999 34:0.089999999 36:0.089999999 37:0.99999999 38:0.81999999 
0 0 14.171197868122535 0 2:6.2875107e-07 3:0.00052374264 9:0.99999999 16:0.125 20:0.0039122153 21:0.0078256011 25:0.5 26:0.99999999 28:0.74999999 29:0.20784314 30:0.20784314 31:0.99999999 33:0.02 
0 0 0 250.07143084148413 2:1.3518148e-06 3:7.7649021e-07 20:0.02348172 21:0.023481213 26:0.99999999 29:0.047058824 30:0.047058824 31:0.99999999 33:0.99999999 
0 2.5804584066371672 0 0 2:2.6459941e-06 20:0.0019552649 21:0.0019547466 26:0.99999999 29:0.058823529 30:0.035294118 31:0.59999999 32:0.2 33:0.59999999 35:0.069999999 36:0.11 
0 0 1024 0 2:1.3518148e-06 3:7.7649021e-07 20:0.65949062 21:0.65949044 26:0.99999999 29:1 30:1 31:0.99999999 33:0.99999999 
0 0 1024 0 2:1.3518148e-06 3:7.7649021e-07 20:0.52446104 21:0.52446079 26:0.99999999 29:1 30:1 31:0.99999999 33:0.99999999 
365.29693398624045 0 0 0 1:0.0013298493 2:3.1961513e-07 3:0.0014510661 9:0.99999999 20:0.0019552649 21:0.0019547466 26:0.99999999 29:1 30:0.0078431373 31:0.0099999999 32:0.02 
0 0 0 0.88119455874579422 7:0.012987013 20:0.0019552649 21:0.0019547466 22:0.99999999 23:0.99999999 26:0.99999999 29:0.49803922 30:0.0078431373 31:0.02 32:0.04 33:0.0099999999 35:0.02 36:0.99999999 
0 2.9098390332633648 0 0 2:4.2833667e-06 3:6.464281e-05 9:0.99999999 20:0.0039122153 21:0.0019547466 26:0.5 27:0.99999999 29:1 30:0.30980392 31:0.31 32:0.03 
0 0 493.17507996052427 0 1:9.3322757e-05 2:6.5494903e-07 3:0.00032651413 7:0.012987013 9:0.99999999 20:0.0019552649 21:0.0039116981 25:0.5 26:0.99999999 28:0.99999999 29:0.83921569 30:0.83921569 31:0.99999999 
0 0 0 648.46336747143619 2:9.2203725e-05 20:0.039137324 21:0.039136825 26:0.99999999 29:0.15686275 30:0.1254902 31:0.79999999 32:0.05 33:0.79999999 
0 0 0 1024 2:7.8593884e-08 20:0.0019552649 21:0.0019547466 26:0.99999999 29:0.011764706 30:0.015686275 31:0.99999999 33:0.99999999 34:0.5 
0 0 489.28305967258041 0 2:4.4903306e-06 3:6.3866319e-05 9:0.99999999 20:0.0019552649 21:0.0019547466 26:0.99999999 29:0.0039215686 30:0.0039215686 31:0.99999999 33:0.99999999 
0 0 0 2.8364825562361466 2:1.8338573e-08 20:0.0019552649 21:0.0019547466 24:0.99999999 25:0.99999999 26:0.99999999 29:0.0039215686 30:0.019607843 31:0.99999999 33:0.99999999 34:0.59999999 37:0.99999999 38:0.2 
0 1024 0 0 2:9.9552253e-08 3:2.5235932e-05 9:0.99999999 20:0.0019552649 21:0.0019547466 26:0.99999999 29:0.0039215686 30:0.031372549 31:0.99999999 33:0.99999999 34:0.38 
0 0 0 0.33736795124588831 20:0.0019552649 21:0.0019547466 24:0.99999999 25:0.99999999 26:0.99999999 29:0.0039215686 30:0.60784314 31:0.99999999 33:0.99999999 34:0.059999999 37:0.99999999 38:0.72999999 
0 2.538829915374897 0 0 20:0.0019552649 21:0.0019547466 24:0.99999999 25:0.99999999 26:0.99999999 29:0.16078431 30:0.14509804 31:0.89999999 32:0.05 33:0.02 37:0.89999999 38:0.99999999 
0 0 0 1024 2:3.1437554e-08 3:1.0870863e-05 20:0.0019552649 21:0.0019547466 26:0.99999999 29:0.0039215686 30:0.0039215686 31:0.99999999 33:0.99999999 
0 0 0 1024 1:0.0014698334 2:1.2575021e-07 3:9.3178825e-06 20:0.0019552649 21:0.0019547466 26:0.99999999 29:0.066666667 30:0.16470588 31:0.99999999 33:0.99999999 34:0.05 
0 0 1024 0 2:1.3518148e-06 3:7.7649021e-07 20:0.63600721 21:0.63600703 26:0.99999999 29:1 30:1 31:0.99999999 33:0.99999999 
0 0 1024 0 2:1.3518148e-06 3:7.7649021e-07 20:0.5733848 21:0.57338458 26:0.99999999 29:1 30:1 31:0.99999999 33:0.99999999 
0 0 0 1024 2:3.8249024e-07 20:0.0019552649 21:0.0019547466 26:0.99999999 29:0.0039215686 30:0.0039215686 31:0.99999999 33:0.99999999 
0 0 0 0.83494502819921246 1:2.3330689e-05 2:2.8870153e-06 3:6.5031055e-05 9:0.99999999 20:0.048922076 21:0.0019547466 26:0.04 27:0.079999999 29:0.58823529 30:0.49019608 31:0.46 32:0.04 33:0.0099999999 34:0.02 
0 0 0 1024 2:7.8593884e-08 20:0.0019552649 21:0.0019547466 26:0.99999999 29:0.015686275 30:0.43137255 31:0.99999999 33:0.99999999 34:0.49 
328.06056861678576 0 0 0 2:2.7507859e-07 20:0.0039122153 21:0.0039116981 26:0.99999999 29:0.011764706 30:0.011764706 31:0.99999999 33:0.66999999 
0 0 1024 0 2:1.3518148e-06 3:7.7649021e-07 20:0.7866924 21:0.78669229 26:0.99999999 29:1 30:1 31:0.99999999 33:0.99999999 
0 1024 0 0 2:1.3934696e-05 9:0.99999999 20:0.0078261163 21:0.0078256011 26:0.99999999 29:0.039215686 30:0.039215686 31:0.99999999 33:0.99999999 
0 0 0 1024 2:7.8593884e-08 20:0.0019552649 21:0.0019547466 26:0.99999999 29:0.015686275 30:0.35686275 31:0.99999999 33:0.99999999 34:0.49 
0 739.08106700848407 0 0 2:2.9802801e-05 9:0.99999999 20:0.0058691658 21:0.0058686496 26:0.99999999 29:0.89411765 30:0.33333333 31:0.35 32:0.089999999 33:0.4 34:0.02 35:0.0099999999 36:0.02 
0 0 0 434.76692295092175 2:7.8593884e-08 20:0.0058691658 21:0.0019547466 26:0.33 27:0.99999999 29:1 30:0.011764706 31:0.0099999999 32:0.0099999999 33:0.059999999 
0 102.19051140183463 1024 1024 2:1.5718777e-08 3:6.9301751e-05 20:0.0019552649 21:0.0019547466 26:0.99999999 29:0.0039215686 30:0.0039215686 31:0.99999999 33:0.99999999 
0 1024 0 0 1:0.0039195558 2:5.6849576e-07 3:0.0075243842 9:0.99999999 20:0.0019552649 21:0.0019547466 26:0.99999999 29:0.0039215686 30:0.019607843 31:0.99999999 33:0.99999999 34:0.4 
846.30144899091056 0 0 0 2:2.2163475e-06 3:6.3089829e-05 9:0.99999999 20:0.0019552649 21:0.0019547466 26:0.99999999 29:0.0039215686 30:0.3254902 31:0.99999999 33:0.99999999 34:0.02 
71.827502395895834 0 0 0 1:0.00046661378 2:3.0651615e-07 3:0.0015863695 9:0.99999999 20:0.0019552649 21:0.0019547466 26:0.99999999 29:1 30:0.0039215686 32:0.03 
0 0 0 870.18043127193073 2:4.62656e-06 20:0.0019552649 21:0.0019547466 26:0.99999999 29:0.023529412 30:0.27843137 31:0.99999999 33:0.99999999 34:0.03 
0 0 0 2.999964640786855 20:0.0039122153 21:0.0019547466 24:0.5 25:0.99999999 26:0.5 27:0.99999999 29:0.45098039 30:0.0039215686 31:0.0099999999 32:0.03 33:0.0099999999 37:0.0099999999 38:0.99999999 
0 0 0 0.2182193421577584 20:0.0039122153 21:0.0039116981 22:0.5 23:0.5 26:0.99999999 29:1 30:0.039215686 31:0.04 32:0.52999999 33:0.0099999999 36:0.099999999 
0 3.9640328452142137 0 0 3:7.7649021e-07 20:0.0019552649 21:0.0019547466 26:0.99999999 29:0.082352941 30:0.082352941 31:0.99999999 33:0.05 35:0.14 36:0.14 
0 0 0 1024 2:1.2575021e-07 3:9.3178825e-06 20:0.0019552649 21:0.0019547466 26:0.99999999 29:0.16862745 30:0.14117647 31:0.83999999 32:0.069999999 33:0.83999999 
0 33.527087523709731 0 0 2:2.2889159e-05 9:0.99999999 20:0.029352571 21:0.031309019 26:0.99999999 28:0.12 29:0.99607843 30:0.23529412 31:0.24 32:0.13 33:0.33 35:0.02 36:0.02 
0 0 0 75.774754547422447 2:4.768029e-07 20:0.0039122153 21:0.0019547466 26:0.5 27:0.99999999 29:0.25490196 30:0.011764706 31:0.05 32:0.05 33:0.079999999 
0 0 0 689.87563298642237 2:2.0801181e-05 20:0.0019552649 21:0.0019547466 26:0.99999999 29:0.45490196 30:0.082352941 31:0.18 32:0.03 33:0.18 
0 0 0 57.974944939096211 2:3.8511003e-07 20:0.0019552649 21:0.0019547466 26:0.99999999 29:0.023529412 30:0.0039215686 31:0.17 32:0.66999999 33:0.82999999 
211.81037290276484 0 0 0 2:2.7507859e-07 3:2.8536015e-05 20:0.0019552649 21:0.0019547466 26:0.99999999 29:0.015686275 30:0.015686275 31:0.99999999 33:0.25 
0 0 32.090278200483013 0 9:0.99999999 20:0.0019552649 21:0.0019547466 24:0.99999999 25:0.99999999 26:0.99999999 29:1 30:0.94901961 31:0.94999999 32:0.0099999999 37:0.05 38:0.059999999 
0 0 1024 0 2:1.3518148e-06 3:7.7649021e-07 20:0.94716234 21:0.94716231 26:0.99999999 29:1 30:1 31:0.99999999 33:0.99999999 
0 0 1024 0 2:1.3518148e-06 3:7.7649021e-07 20:0.60469601 21:0.6046958 26:0.99999999 29:1 30:1 31:0.99999999 33:0.99999999 
0 0 0 1024 2:7.8593884e-08 20:0.0019552649 21:0.0019547466 26:0.99999999 29:0.019607843 30:0.35686275 31:0.99999999 33:0.99999999 34:0.48 
0 0 0.34913597150134801 0 20:0.0019552649 21:0.0019547466 24:0.99999999 25:0.99999999 26:0.99999999 29:0.89803922 30:1 31:0.99999999 33:0.0099999999 34:0.03 37:0.37 38:0.43 
0 0 37.827626917355325 0 1:0.00018664551 2:1.6792893e-06 3:6.4060442e-05 7:0.012987013 9:0.99999999 20:0.0019552649 21:0.0019547466 26:0.99999999 29:0.039215686 30:0.14901961 31:0.99999999 33:0.099999999 34:0.05 
0 0 1024 0 2:1.3518148e-06 3:7.7649021e-07 20:0.91389418 21:0.91389413 26:0.99999999 29:1 30:1 31:0.99999999 33:0.99999999 
0 47.954480692666422 0 0 2:5.0300086e-07 9:0.99999999 20:0.0019552649 21:0.0019547466 26:0.99999999 29:0.16862745 30:0.20392157 31:0.78999999 32:0.05 33:0.78999999 34:0.04 
0 0 0 0.25778422972494802 1:0.00072325136 2:3.8930171e-06 3:0.00080599683 7:0.38961039 9:0.99999999 19:0.99999999 20:0.0019552649 21:0.0019547466 26:0.99999999 29:0.37254902 30:0.054901961 31:0.15 32:0.03 33:0.0099999999 
0 0 4.8537679248269043 0 2:6.4708965e-07 3:0.00057363214 9:0.99999999 20:0.0058691658 21:0.0058686496 22:0.33 23:0.33 26:0.99999999 29:0.50980392 30:1 31:0.99999999 33:0.0099999999 34:0.05 35:0.0099999999 37:0.23 38:0.58999999 
0 64.366370129697984 0 0 1:6.9992068e-05 2:3.6677146e-07 3:0.00054548437 9:0.99999999 20:0.0019552649 21:0.0019547466 26:0.99999999 29:0.0039215686 30:0.02745098 31:0.99999999 33:0.99999999 34:0.99999999 
0 0 0 0.25729129415000729 1:0.00051327516 2:8.5405354e-07 3:0.00020460517 7:0.077922078 9:0.99999999 19:0.99999999 20:0.0019552649 21:0.0019547466 26:0.99999999 29:0.28627451 30:0.011764706 31:0.03 32:0.96999999 33:0.0099999999 34:0.66999999 37:0.88999999 38:0.66999999 
0 0 0 1024 2:3.507907e-06 20:0.0019552649 21:0.0019547466 26:0.99999999 29:0.42352941 30:0.054901961 31:0.13 32:0.04 33:0.13 
0 0 467.79678374525736 0 1:0.00011665345 2:8.8811089e-07 3:5.4160192e-05 7:0.012987013 9:0.99999999 20:0.0019552649 21:0.0019547466 26:0.99999999 29:1 30:0.99215686 31:0.98999999 32:0.0099999999 
0 0 0 0.75472963295262774 1:0.0013998414 2:2.2792226e-07 3:4.3677574e-05 8:0.25 20:0.0019552649 21:0.0019547466 26:0.99999999 29:1 30:0.0039215686 32:0.02 
0 0 0 26.744747547416534 2:8.121368e-08 3:1.7665152e-05 20:0.0019552649 21:0.0019547466 26:0.99999999 29:0.098039216 30:0.71764706 31:0.75999999 32:0.079999999 33:0.75999999 34:0.0099999999 37:0.24 
0 0 1024 0 2:7.8593884e-08 20:0.0019552649 21:0.0019547466 26:0.99999999 29:0.98431373 30:0.98431373 31:0.99999999 33:0.99999999 
0 0 1.466791298751714 0 2:1.6766695e-07 20:0.0019552649 21:0.0019547466 26:0.99999999 29:0.074509804 30:0.0039215686 31:0.05 32:0.16 33:0.05 
16.275267517182851 0 0 0 1:0.34249452 2:1.2747928e-05 3:0.014126492 9:0.99999999 10:0.0045248869 14:0.5 20:0.0019552649 21:0.0019547466 26:0.99999999 29:1 30:0.12941176 31:0.13 32:0.34 35:0.34 36:0.12 38:0.03 
0 1024 0 0 1:0.00062992861 2:3.9296942e-06 3:0.00080599683 7:0.38961039 9:0.99999999 19:0.99999999 20:0.0019552649 21:0.0019547466 26:0.99999999 29:0.80784314 30:0.19215686 31:0.24 32:0.02 
0 434.82417012195191 0 0 2:3.1437554e-08 9:0.99999999 20:0.0019552649 21:0.0019547466 26:0.99999999 29:0.92156863 30:0.25098039 31:0.27 32:0.069999999 33:0.32 36:0.02 
0 0 0 1024 1:0.005179413 2:2.6459941e-07 3:0.00085938054 20:0.0019552649 21:0.0019547466 26:0.99999999 29:0.1254902 30:0.0039215686 31:0.03 32:0.059999999 33:0.03 
0 0 1.8628849152954836 0 1:0.00074658205 2:3.8956369e-06 3:0.00080599683 7:0.38961039 9:0.99999999 19:0.99999999 20:0.0019552649 21:0.0019547466 26:0.99999999 29:0.066666667 30:0.043137255 31:0.64999999 32:0.18 33:0.059999999 
0 1.6326083951505408 0 0 20:0.0039122153 21:0.0039116981 22:0.5 23:0.5 26:0.99999999 29:0.039215686 30:0.039215686 31:0.99999999 33:0.2 35:0.099999999 36:0.099999999 
0 0 2.5587632038121324 0 2:4.2440697e-07 3:0.0025598941 9:0.99999999 20:0.0019552649 21:0.0039116981 26:0.99999999 28:0.99999999 29:0.30980392 30:0.30980392 31:0.99999999 33:0.0099999999 
0 0 0 21.856085918234221 1:2.3330689e-05 2:1.8338573e-08 3:2.6983035e-05 20:0.011740017 21:0.0019547466 26:0.17 27:0.33 29:0.2627451 30:0.015686275 31:0.059999999 32:0.059999999 33:0.0099999999 
0 0 58.262613869358319 0 2:4.060684e-07 3:0.00081279112 9:0.99999999 20:0.017610869 21:0.017610358 26:0.99999999 29:0.72156863 30:0.72156863 31:0.99999999 33:0.0099999999 37:0.0099999999 38:0.0099999999 
556.83114071114937 0 516.49888405861952 0 2:7.0996475e-07 3:0.00046938833 9:0.99999999 20:0.0039122153 21:0.0039116981 26:0.99999999 29:0.0039215686 30:0.0039215686 31:0.99999999 33:0.99999999 
0 0 0 23.032652319605596 1:4.6661378e-05 2:2.6197961e-08 3:2.7565402e-05 20:0.0078261163 21:0.0019547466 26:0.25 27:0.74999999 29:0.43137255 30:0.019607843 31:0.03 32:0.059999999 33:0.0099999999 34:0.4 35:0.0099999999 37:0.0099999999 
0 0 1024 0 2:1.3518148e-06 3:7.7649021e-07 20:0.5890404 21:0.58904019 26:0.99999999 29:1 30:1 31:0.99999999 33:0.99999999 
0 0 0 116.27135715887702 2:1.0033819e-06 20:0.0019552649 21:0.0019547466 26:0.99999999 29:0.23137255 30:0.12156863 31:0.12 32:0.03 33:0.12 34:0.059999999 
0 52.680155564695617 0 1024 2:7.8593884e-08 20:0.0019552649 21:0.0019547466 26:0.99999999 29:0.043137255 30:0.047058824 31:0.99999999 33:0.99999999 34:0.17 
3.1842850776834526 0 0 0 2:1.2575021e-07 3:9.3178825e-06 20:0.011740017 21:0.0019547466 26:0.17 27:0.33 29:0.25882353 30:0.10980392 31:0.42 32:0.05 33:0.42 
0 0 0 1024 2:7.8593884e-08 20:0.0019552649 21:0.0019547466 26:0.99999999 29:0.011764706 30:0.42745098 31:0.99999999 33:0.99999999 34:0.5 
0 23.80928265760814 0 0 2:2.2373059e-06 9:0.99999999 20:0.0039122153 21:0.0058686496 26:0.99999999 28:0.66999999 29:0.031372549 30:0.21176471 31:0.99999999 33:0.99999999 34:0.04 
0 0 4.5885536248982408 0 1:0.00011665345 2:4.715633e-07 3:0.00038378028 7:0.012987013 9:0.99999999 20:0.0019552649 21:0.0019547466 26:0.99999999 29:1 30:0.95686275 31:0.95999999 32:0.02 
0 0 694.51542841862556 0 2:4.2702677e-07 3:0.0037030818 9:0.99999999 20:0.0019552649 21:0.0019547466 26:0.99999999 29:1 30:1 31:0.99999999 37:0.13 38:0.13 
0 47.164007693928092 0 0 1:4.6661378e-05 2:0.0057494544 9:0.99999999 20:0.0058691658 21:0.0039116981 26:0.66999999 27:0.66999999 29:0.94509804 30:0.4 31:0.41 32:0.02 33:0.41 34:0.02 
0 1024 0 0 2:6.4185005e-07 9:0.99999999 13:0.001025641 20:0.0039122153 21:0.0039116981 26:0.99999999 29:0.0078431373 30:0.12156863 31:0.99999999 33:0.99999999 34:0.099999999 
0 0 0.62523816496572082 0 2:1.2816043e-05 9:0.99999999 20:0.035223423 21:0.035222922 26:0.99999999 29:1 30:0.21176471 31:0.21 32:0.02 33:0.21 37:0.68999999 
9.6282052414759534 0 0 0 1:0.32585974 2:5.2657902e-07 3:0.0084146302 9:0.99999999 20:0.0019552649 21:0.0019547466 26:0.99999999 29:1 30:0.1254902 31:0.13 32:0.04 35:0.2 37:0.02 38:0.12 
0 0 0 1024 2:3.6079832e-05 20:0.0019552649 21:0.0019547466 26:0.99999999 29:0.26666667 30:0.015686275 31:0.059999999 32:0.04 33:0.059999999 
0 0 0 1024 2:7.8593884e-08 20:0.0019552649 21:0.0019547466 26:0.99999999 29:0.0078431373 30:0.42352941 31:0.99999999 33:0.99999999 34:0.5 
0 1024 0 0 2:2.3158998e-06 9:0.99999999 20:0.0039122153 21:0.0039116981 26:0.99999999 29:0.023529412 30:0.21176471 31:0.99999999 33:0.99999999 34:0.04 
0 2.8377600054679029 0 0 2:1.876298e-05 20:0.011740017 21:0.011739504 26:0.99999999 29:1 30:0.23921569 31:0.24 32:0.02 33:0.24 35:0.37 
0 0 0 641.48200289084184 2:9.6932457e-08 3:2.2906461e-05 20:0.0019552649 21:0.0019547466 26:0.99999999 29:0.21960784 30:0.21960784 31:0.99999999 33:0.99999999 
0 0 1024 0 2:1.3518148e-06 3:7.7649021e-07 20:0.7984341 21:0.798434 26:0.99999999 29:1 30:1 31:0.99999999 33:0.99999999 
0.097990262026290659 0 0 0 1:0.0002099762 2:3.5891207e-07 3:0.00032088458 9:0.99999999 20:0.0019552649 21:0.0019547466 26:0.99999999 29:0.0039215686 30:0.0039215686 31:0.99999999 33:0.99999999 
0 0 0.34161052846971202 0 20:0.0019552649 21:0.0058686496 24:0.99999999 25:0.99999999 26:0.99999999 28:0.99999999 29:0.75294118 30:1 31:0.99999999 33:0.0099999999 34:0.059999999 37:0.38 38:0.52999999 
0 0 0 0.28740637500124427 20:0.0019552649 21:0.0019547466 24:0.99999999 25:0.99999999 26:0.99999999 29:0.0039215686 30:0.22352941 31:0.99999999 33:0.99999999 34:0.089999999 36:0.04 37:0.99999999 38:0.95999999 
0 0 0 113.95067642522037 2:3.8249024e-07 20:0.0019552649 21:0.0019547466 26:0.99999999 29:0.92156863 30:0.0039215686 32:0.17 33:0.29 
124.96300630735843 0 0 0 2:7.9903782e-07 9:0.99999999 13:0.0020512821 20:0.0039122153 21:0.0039116981 26:0.99999999 29:1 30:0.0078431373 31:0.0099999999 32:0.02 33:0.0099999999 
0 0 0 1024 2:1.9444127e-05 20:0.029352571 21:0.029352067 26:0.99999999 29:0.48235294 30:0.11372549 31:0.24 32:0.03 33:0.24 
0 0 3.3183478807355313 0 2:1.5433219e-05 20:0.033266472 21:0.03326597 26:0.99999999 29:1 30:0.090196078 31:0.089999999 32:0.069999999 33:0.089999999 35:0.84999999 
-5.8693968088944981 0.68438390029619023 1.4528047412110252 1.474044676472861 1:0.0022864075 2:1.6268934e-06 3:0.001622088 6:0.99999999 7:0.012987013 9:0.99999999 10:0.0056561086 11:0.99999999 13:0.014358974 14:0.025 20:0.0019552649 21:0.0019547466 26:0.99999999 29:1 30:0.015686275 31:0.02 32:0.02 
-1024 214.26326334195579 0 1.6451976234582713 3:0.0011057221 9:0.99999999 20:0.0019552649 21:0.0019547466 26:0.99999999 29:0.0039215686 30:0.31764706 31:0.99999999 33:0.99999999 34:0.02 
-1024 1024 1024 0.2160915100809517 3:0.0011313462 9:0.99999999 20:0.0039122153 21:0.0039116981 26:0.99999999 29:0.0078431373 30:0.0078431373 31:0.99999999 33:0.99999999 
-0 0.42314094926975016 0 0.1855659328598524 1:0.0041761934 2:4.0842622e-06 3:0.00055421988 7:0.038961039 9:0.99999999 10:0.0045248869 11:0.99999999 14:0.025 20:0.0019552649 21:0.0019547466 26:0.99999999 29:0.0078431373 30:0.0078431373 31:0.99999999 33:0.5 
-1024 3.694799973013053 0 2.7591174325813506 1:0.016518128 2:4.5243879e-06 3:0.004674471 9:0.99999999 10:0.0067873303 13:0.0071794872 20:0.0019552649 21:0.0019547466 26:0.99999999 29:1 30:0.011764706 31:0.0099999999 32:0.02 
-1024 0 2.1352807226288881 0 1:0.00048994447 2:2.3316186e-07 3:6.697228e-05 7:0.012987013 9:0.99999999 14:0.025 20:0.0019552649 21:0.0019547466 26:0.99999999 29:1 30:0.0039215686 32:0.02 
-0 0 2.9107360961162283 0.39542728737334559 1:0.0026363679 2:1.6436601e-05 3:0.0032556293 7:0.064935065 9:0.99999999 10:0.0022624434 11:0.99999999 20:0.0019552649 21:0.0019547466 26:0.99999999 29:0.0039215686 30:0.0039215686 31:0.99999999 33:0.99999999 
-1.4046990166694704 0 0 0 1:0.0039428865 2:4.1052205e-06 3:0.00055460813 7:0.038961039 9:0.99999999 10:0.0045248869 11:0.99999999 14:0.025 20:0.0019552649 21:0.0019547466 26:0.99999999 29:0.0039215686 30:0.0039215686 31:0.99999999 33:0.99999999 
-2.60026811480662 0 0 0 1:0.0012365265 2:6.8848243e-06 3:0.00074931305 7:0.038961039 9:0.99999999 10:0.0011312217 11:0.99999999 20:0.0019552649 21:0.0019547466 26:0.99999999 29:0.0078431373 30:0.0078431373 31:0.99999999 33:0.5 
-521.26773347545054 7.9065475403561676 7.4876317827323442 7.0752013198354966 2:1.0479185e-08 20:0.0039122153 21:0.0039116981 26:0.99999999 29:0.0078431373 30:0.0078431373 31:0.99999999 33:0.5 
-4.0316785633636751 2.9240964228586197 0 1.0171295798142517 3:0.00040222193 7:0.012987013 9:0.99999999 11:0.99999999 20:0.0078261163 21:0.0058686496 26:0.74999999 27:0.5 29:0.011764706 30:0.019607843 31:0.99999999 33:0.99999999 34:0.4 
-0.48375249650196739 0 0.13873990010728926 0 1:4.1683129e-06 2:1.1225065e-09 3:2.8341192e-08 4:0.0085625886 5:0.0017027077 6:0.6819809 7:0.0014461699 8:0.00065072613 9:0.0012097443 10:0.00068483438 11:0.20973699 12:0.0017506173 13:0.0004336643 14:0.010232072 15:0.0011333162 16:0.00026347762 17:0.033531903 18:0.012010252 19:0.002289993 20:0.00039467906 21:0.00049410043 22:0.016159306 23:0.0020422883 24:0.0057829443 25:0.0035037757 26:0.0035028612 27:0.0079128905 28:0.0035423676 29:0.00075272148 30:0.00090895762 31:0.41386998 32:0.31662779 33:0.78940441 34:0.57172878 35:0.0039605504 36:0.0068371829 37:0.0019131181 38:0.0024294486 
-2.5978563816069573 0.2078683433897329 0.61169379163625115 0.63032525996207356 1:5.1643512e-06 2:1.302947e-09 3:9.6539338e-08 4:0.020778023 5:0.0034292969 6:0.18357384 7:0.0019906189 8:0.0051612621 9:0.010738948 10:0.00050442757 11:0.1562661 12:0.0044296675 13:0.00064265961 14:0.00491691 15:0.014615281 16:0.00087284925 17:0.028168105 18:0.0044153172 19:0.011366803 20:0.00027172612 21:0.00024978954 22:0.0076256093 23:0.016641203 24:0.011401431 25:0.0065422128 26:0.004396193 27:0.0095191853 28:0.006345205 29:0.0025905098 30:0.0016559212 31:0.25692063 32:0.81333966 33:0.075674987 34:0.19679668 35:0.015886634 36:0.0054367274 37:0.0094402443 38:0.013724904 
-0 0 0.26807664402338049 0.15274402995475611 1:5.4015746e-06 2:7.031136e-10 3:9.1548611e-08 4:0.010655263 5:0.0021151823 6:0.46468365 7:0.0043318703 8:0.0061377192 9:0.0023055666 10:0.00044359498 11:0.13475413 12:0.0017414007 13:0.00026372814 14:0.0038376141 15:0.0067713288 16:0.00098032436 17:0.03970412 18:0.2937483 19:0.0035658032 20:0.00032421092 21:0.00032323659 22:0.0050802339 23:0.0025345349 24:0.0051046001 25:0.0026434563 26:0.0038385365 27:0.005309539 28:0.0061639427 29:0.0010475224 30:0.00090975939 31:0.89777673 32:0.52254058 33:0.83657707 34:0.091055563 35:0.0020885028 36:0.0041783313 37:0.00169925 38:0.0038787657 
-0.082263122220085527 0 0.13619008480968853 0.047493944504964601 1:8.1039621e-06 2:1.5058703e-09 3:9.3495952e-08 4:0.0022862652 5:0.0006214495 6:0.19846835 7:0.0055677174 8:0.00034817953 9:0.0011298929 10:0.0009740802 11:0.81689992 12:0.0018891522 13:0.00046942238 14:0.0058643148 15:0.0042283724 16:0.0020004437 17:0.065550637 18:0.056858649 19:0.0018882438 20:0.00029287832 21:6.4694048e-05 22:0.0066582726 23:0.0060409354 24:0.0032508035 25:0.004862556 26:0.0060983653 27:0.0037827972 28:0.0050290341 29:0.0010968647 30:0.00045752211 31:0.27500547 32:0.82494215 33:0.61573526 34:0.066062332 35:0.0052685611 36:0.0015111536 37:0.0029399558 38:0.0038867234 
-0.93823833851887617 0.14429231358360209 0.42531553314687132 0.32471214222048878 1:8.5688409e-06 2:1.4246991e-09 3:4.0543008e-08 4:0.0073303469 5:0.00076390679 6:0.64018526 7:0.0014440654 8:0.00072591304 9:0.001697052 10:0.00081552455 11:0.63559329 12:0.001010925 13:0.0006036993 14:0.013280261 15:0.017393809 16:0.00096451737 17:0.020277593 18:0.020152704 19:0.0070429254 20:0.00023734798 21:0.00019622857 22:0.005460556 23:0.0031303217 24:0.012052343 25:0.005796021 26:0.0036312858 27:0.0046745067 28:0.0012083377 29:0.0024874581 30:0.00022206587 31:0.40328635 32:0.92959951 33:0.26337016 34:0.064706055 35:0.003975078 36:0.0029114262 37:0.009348085 38:0.002170574 
-0 0 0.032753851187469145 0 1:6.3370846e-06 2:1.6131207e-09 3:8.8977567e-08 4:0.0063931972 5:0.0015462529 6:0.087949395 7:0.00390918 8:0.0023986587 9:0.014173226 10:0.00058357583 11:0.69103878 12:0.0019432342 13:0.00049158297 14:0.016434059 15:0.0037549538 16:0.0011073785 17:0.024354909 18:0.0040099447 19:0.0071699463 20:0.00023510271 21:0.00024670853 22:0.0088911384 23:0.0092138077 24:0.0013518949 25:0.0031958653 26:0.0038782744 27:0.00090690559 28:0.01395009 29:0.002368042 30:0.00058300523 31:0.71085798 32:0.86041718 33:0.31946164 34:0.50569506 35:0.010020988 36:0.0030516977 37:0.0064514879 38:0.017973946 
-0.93788787711576016 0 0.19709949007261837 0.25873988104352746 1:3.233508e-06 2:1.0021915e-09 3:3.219578e-08 4:0.0088042456 5:0.00053585067 6:0.60456999 7:0.0031425753 8:0.00069509627 9:0.0049492948 10:0.00037138776 11:0.80460302 12:0.0032610346 13:0.00021980558 14:0.010619365 15:0.0025706446 16:0.0009160271 17:0.073094025 18:0.020220789 19:0.0043985814 20:0.00010918617 21:0.00031222644 22:0.0018409581 23:0.0033234221 24:0.0019387526 25:0.016952011 26:0.0036659061 27:0.0089439705 28:0.010935157 29:0.0018805043 30:0.00062326085 31:0.66023238 32:0.47719034 33:0.87586135 34:0.12929495 35:0.0014941285 36:0.00055293024 37:0.0059922859 38:0.0015788524 
-0 0 0.0050727027678518213 0 1:3.2567597e-06 2:2.6959614e-10 3:5.1572718e-08 4:0.0054879877 5:0.001389124 6:0.094344037 7:0.0014855549 8:0.0013689679 9:0.0026152252 10:0.00028364496 11:0.41447716 12:0.0046280199 13:0.00026952759 14:0.0049757609 15:0.007275957 16:0.000922378 17:0.068925785 18:0.01532479 19:0.0066605105 20:0.0002173203 21:0.00055234483 22:0.0087196625 23:0.0035542525 24:0.0025020251 25:0.0068542856 26:0.00078147678 27:0.0095731225 28:0.0067720836 29:0.00061503541 30:0.0015290535 31:0.89051681 32:0.14761888 33:0.80416111 34:0.68948959 35:0.00084267884 36:0.016403511 37:0.0018913952 38:0.0017144485 
-1.3053171003972168 0 0.28705652798178005 0 1:1.1289782e-05 2:1.7980663e-09 3:9.5084131e-08 4:0.002342886 5:0.0014813477 6:0.306937 7:0.0051974239 8:0.0012587529 9:0.013077181 10:0.00042876236 11:0.61675727 12:0.0021738121 13:0.00039301784 14:0.012806875 15:0.0046728407 16:0.00088007822 17:0.03021488 18:0.029853914 19:0.0094283163 20:0.00044675777 21:0.00019927332 22:0.010165143 23:0.0022227959 24:0.0051018287 25:0.0020806789 26:0.0020390012 27:0.0080036636 28:0.0067583634 29:0.0028449881 30:0.00024556246 31:0.16423737 32:0.13498009 33:0.1540758 34:0.11608838 35:0.0037276755 36:0.00090908873 37:0.0027099093 38:0.0072855396 
-1.9383496122384636 0.013697695733415956 0.65140136784338298 0.82539739939871459 1:2.7198695e-06 2:1.4630467e-09 3:8.8376856e-08 4:0.00094061784 5:0.001350359 6:0.10686339 7:0.00049495637 8:0.00018850546 9:0.0027876886 10:0.00022299246 11:0.057791615 12:0.003059115 13:0.00028932258 14:0.0014789208 15:0.0085808255 16:0.00035071829 17:0.017910738 18:0.0072591469 19:0.0032000275 20:0.0005154371 21:0.00049888835 22:0.0035628489 23:0.0023791259 24:0.0017052014 25:0.012640708 26:0.0017588508 27:0.0057985185 28:0.0056859443 29:0.0018817335 30:0.0011165019 31:0.32493802 32:0.080294166 33:0.87471088 34:0.21692485 35:0.0065357564 36:0.0027754178 37:0.001689102 38:0.010407029 
-0 0.07921076282381409 0 0 1:4.408531e-06 2:7.8443725e-10 3:1.3226761e-07 4:0.0010467414 5:0.00066544906 6:0.12921117 7:0.0014800701 8:0.00058925264 9:0.0025819761 10:0.00055247557 11:0.13021335 12:0.0022805385 13:0.00028140075 14:0.0035900824 15:0.0035405993 16:0.00045165055 17:0.0089886353 18:0.077309614 19:0.0070241324 20:0.00050040856 21:0.0006073792 22:0.011800878 23:0.013264784 24:0.0021940645 25:0.0027796773 26:0.0027265672 27:0.0023763018 28:0.0053797591 29:0.0023363069 30:0.001693915 31:0.34240042 32:0.610177 33:0.88573779 34:0.43867938 35:0.00091092506 36:0.013479416 37:0.0026311556 38:0.010800197 
-0.36920876366358463 0 0 0 1:3.7391448e-06 2:1.4197705e-09 3:1.0251409e-08 4:0.0046834162 5:0.0004626851 6:0.508451 7:0.0051662594 8:0.0011567014 9:0.0041263476 10:0.0004211396 11:0.18250387 12:0.00088351253 13:0.00020532183 14:0.012095834 15:0.0023747682 16:0.00037917997 17:0.043877054 18:0.030788576 19:0.007910281 20:0.00018777398 21:0.00017623707 22:0.024243586 23:0.0036535893 24:0.005563937 25:0.0032276075 26:0.0065742864 27:0.0051521507 28:0.0074868142 29:0.001685139 30:0.00032056551 31:0.84679204 32:0.19320262 33:0.13245628 34:0.13357072 35:0.0096895934 36:0.0029973166 37:0.038457954 38:0.020809363 
-0 0.71258995270553338 0.16379930626320544 0.27729444080066667 1:3.0975274e-06 2:1.084723e-09 3:5.3240554e-08 4:0.013649233 5:0.0016866404 6:0.29498376 7:0.0035268598 8:0.00058098221 9:0.0055952982 10:0.00021550317 11:0.099726258 12:0.0021847079 13:0.00012908826 14:0.0044493129 15:0.01255657 16:0.00052110099 17:0.025280164 18:0.012294638 19:0.0049953069 20:0.00029241089 21:0.0002739779 22:0.0026834093 23:0.0065277709 24:0.0043015799 25:0.004009677 26:0.021132168 27:0.0062328342 28:0.0094903906 29:0.0016507495 30:0.00033659546 31:0.88775354 32:0.11653875 33:0.86539268 34:0.56165943 35:0.0042203097 36:0.015218334 37:0.009631824 38:0.0038799273 
-0.75946845523287565 0 0.28903313549799631 0.39057754264109457 1:3.3726018e-06 2:1.7276726e-09 3:3.7146852e-08 4:0.0094774921 5:0.0019289534 6:0.10490923 7:0.00088668374 8:0.00081793552 9:0.0036329124 10:0.00045547403 11:0.1149929 12:0.0013976762 13:0.00045123199 14:0.0095305813 15:0.0031330768 16:0.00057462801 17:0.027971247 18:0.011153982 19:0.004211059 20:0.00048023861 21:0.00097988533 22:0.019784387 23:0.0067146072 24:0.0091622046 25:0.0082309276 26:0.002608213 27:0.0042926411 28:0.0043858253 29:0.001886806 30:0.00065912006 31:0.64640718 32:0.27247707 33:0.28981081 34:0.80691284 35:0.0066649146 36:0.0035458761 37:0.0031299922 38:0.0051807855 
-0 0 0 0.29821539026166571 1:6.2369059e-06 2:8.8016174e-10 3:3.8027634e-08 4:0.011103556 5:0.0033797455 6:0.087102178 7:0.0031715154 8:0.00084975614 9:0.0022244727 10:0.00070302686 11:0.25436509 12:0.00052638453 13:9.3614787e-05 14:0.0052159429 15:0.0053435507 16:0.00036852 17:0.027025709 18:0.021344638 19:0.001262471 20:0.00052180135 21:0.00038732378 22:0.0027542805 23:0.0022125353 24:0.0028444148 25:0.0019439504 26:0.0049744405 27:0.0015365676 28:0.0063787249 29:0.001250387 30:0.00083204123 31:0.77338138 32:0.69283008 33:0.8767547 34:0.07195483 35:0.0034021355 36:0.0065783107 37:0.0034708457 38:0.0035358426 
-1.2131238028929427 0 0 0 1:6.9795725e-06 2:2.0350482e-09 3:4.4841669e-08 4:0.0020171622 5:0.0010027516 6:0.32324678 7:0.0029688967 8:0.00013228312 9:0.0010446259 10:0.00066745612 11:0.63582589 12:0.0022919953 13:0.00062832089 14:0.019954563 15:0.013644248 16:0.00057793227 17:0.015643734 18:0.011776661 19:0.0085397004 20:6.7910151e-05 21:3.4503177e-05 22:0.0034624364 23:0.0015355825 24:0.0085081134 25:0.0012435964 26:0.0032166632 27:0.0014938311 28:0.0028452775 29:0.0028741738 30:0.0014255008 31:0.84913387 32:0.78887836 33:0.075623797 34:0.17226854 35:0.0020399612 36:0.004388502 37:0.0057898289 38:0.005710256 
-2.1221371543032368 0 0 0 1:3.7251813e-06 2:4.7983583e-10 3:3.9690209e-08 4:0.0083695146 5:0.00095372474 6:0.052631629 7:0.0011630244 8:0.00066187821 9:0.0011895682 10:0.00033811115 11:0.24525656 12:0.0025910427 13:0.00014727829 14:0.0028646237 15:0.0021503331 16:0.00030780053 17:0.0080763268 18:0.0063226734 19:0.0026808298 20:0.00030785706 21:7.653423e-05 22:0.010659658 23:0.0039565034 24:0.00071982377 25:0.0055170933 26:0.0027789075 27:0.020249348 28:0.010257378 29:0.001104563 30:0.0012169424 31:0.85559398 32:0.14246358 33:0.95712871 34:0.14093924 35:0.0019010102 36:0.012214359 37:0.0035069828 38:0.0021370976 
-0 0 0.0285776709888549 0.068848632467276363 1:2.0294537e-06 2:7.3267007e-10 3:2.5682967e-08 4:0.0033252384 5:0.0018693637 6:0.17554941 7:0.002062554 8:0.0022464505 9:0.0034196151 10:0.00025787261 11:0.85660182 12:0.0017287549 13:8.1785718e-05 14:0.013577731 15:0.003079791 16:0.00016938649 17:0.036824912 18:0.0027165396 19:0.0042216137 20:0.00010309165 21:0.00043182639 22:0.0013545779 23:0.0075025707 24:0.0058001066 25:0.0027489569 26:0.0055449936 27:0.012321048 28:0.0077500236 29:0.00045471907 30:0.00153196 31:0.75318205 32:0.165917 33:0.90118432 34:0.32853192 35:0.0021945177 36:0.0064553314 37:0.002649264 38:0.0036035454 
-0.024871810574593152 0 0 0 1:9.8294556e-06 2:9.0222965e-10 3:4.2130612e-08 4:0.0029700377 5:0.00099047363 6:0.16759024 7:0.0017664351 8:0.0011360352 9:0.0025426431 10:0.00058672845 11:0.34739072 12:0.00047104651 13:0.00015611976 14:0.015765403 15:0.0036819271 16:0.00069801074 17:0.052583537 18:0.024791591 19:0.016376786 20:0.00033457779 21:0.00072901399 22:0.012684959 23:0.0025022875 24:0.017922143 25:0.0025068272 26:0.0067721111 27:0.0024545796 28:0.0011927591 29:0.0018243241 30:0.00063677094 31:0.36034259 32:0.18094438 33:0.10944037 34:0.58374794 35:0.0060922727 36:0.0034872998 37:0.0042243148 38:0.0029940128 
-0.68845649692443922 0 0.054946400779603416 1.5856375673432892 1:9.3509576e-06 2:1.9737932e-09 3:5.8465589e-08 4:0.0054689528 5:0.001175731 6:0.14222564 7:0.0039295179 8:0.00032416979 9:0.0044510773 10:0.00067094745 11:0.14013437 12:0.0031902749 13:0.00016453468 14:0.007560125 15:0.0030115671 16:0.00017080374 17:0.029923897 18:0.018450057 19:0.0097162011 20:0.00011782539 21:0.00061843039 22:0.0092606302 23:0.004961343 24:0.0013999016 25:0.0033119455 26:0.0041083119 27:0.0072361786 28:0.0037957409 29:0.0023860275 30:0.00052526215 31:0.16704611 32:0.15058334 33:0.22290987 34:0.11390116 35:0.011248073 36:0.0018364958 37:0.0038142651 38:0.0048626027 
-0.0013209765044956373 0.18891371779765151 0 0 1:1.1726982e-05 2:1.4200158e-09 3:4.5081637e-08 4:0.0048041141 5:0.0020866416 6:0.31224288 7:0.0056667018 8:0.00073198353 9:0.0020254688 10:0.00087034833 11:0.82931143 12:0.0016567369 13:0.00029099331 14:0.011075881 15:0.0097196055 16:0.00038055913 17:0.066771489 18:0.0044083545 19:0.0045226865 20:0.00019394713 21:0.00012006233 22:0.0035324263 23:0.0048976271 24:0.0037673615 25:0.0080596683 26:0.0078168389 27:0.0051248867 28:0.0048227551 29:0.0020352885 30:0.0009084102 31:0.23880144 32:0.77845515 33:0.17597374 34:0.094431109 35:0.0075076657 36:0.0089767955 37:0.003511254 38:0.0031845477 
-0 1.0474692953972464 0 0.048098487266946092 1:4.4562893e-06 2:1.2601619e-09 3:3.3865435e-08 4:0.010532783 5:0.00069827601 6:0.078143799 7:0.0058494911 8:0.0022661129 9:0.0036240009 10:0.00064367149 11:0.16423059 12:0.0025581188 13:0.00012969972 14:0.0038762027 15:0.0052952523 16:0.00049892746 17:0.022671191 18:0.016696646 19:0.0019696638 20:0.00040815763 21:0.00077125431 22:0.034766961 23:0.0018677465 24:0.00064807044 25:0.0014408025 26:0.0017733589 27:0.0038358251 28:0.0073335721 29:0.00027320789 30:0.0004069805 31:0.81882714 32:0.10873059 33:0.92710646 34:0.47223032 35:0.0036059472 36:0.013751603 37:0.0048085985 38:0.00093096559 
-0 0 0.13795680178868328 0 1:6.1257159e-06 2:6.5332569e-10 3:2.0770647e-08 4:0.0033820446 5:0.0059611285 6:0.084358783 7:0.00097975856 8:0.00051893792 9:0.0033044568 10:0.00046151333 11:0.13770674 12:0.0020154567 13:0.00035109977 14:0.0036744243 15:0.00074017209 16:0.00090164043 17:0.068102467 18:0.013585607 19:0.0031374155 20:0.00040079368 21:0.00047015728 22:0.0063920411 23:0.014751457 24:0.0057520877 25:0.0032873188 26:0.014587293 27:0.0014715239 28:0.0064282255 29:0.0014129816 30:0.0014442754 31:0.44093506 32:0.58782689 33:0.89789133 34:0.47750145 35:0.0096017393 36:0.0042554909 37:0.008443095 38:0.011397677 
-3.0218111621642141 0 0.57281614089257393 0.39803482178441546 1:1.86096e-06 2:4.6402623e-10 3:4.8177889e-08 4:0.0075311076 5:0.0013057453 6:0.070417907 7:0.0062998239 8:0.0029920427 9:0.00097895921 10:0.00014509008 11:0.12724278 12:0.00071942655 13:3.7146985e-05 14:0.0028313751 15:0.0047132468 16:0.00057685327 17:0.011933825 18:0.064707021 19:0.0012472921 20:0.00056611175 21:0.00045592571 22:0.0057014761 23:0.017889911 24:0.0028388582 25:0.0042052164 26:0.0038685108 27:0.0065104083 28:0.0048856167 29:0.00073579833 30:0.0015252004 31:0.86484303 32:0.084344833 33:0.91889792 34:0.13164628 35:0.0038496507 36:0.0026725608 37:0.0026443258 38:0.0026625507 
-0 0.012370681169214904 0 0 1:1.910536e-06 2:1.7663706e-09 3:6.1935208e-08 4:0.0041697831 5:0.00077973526 6:0.44241799 7:0.0063694774 8:0.0012709436 9:0.0040544236 10:0.00082546189 11:0.48232706 12:0.0019939389 13:0.00023047036 14:0.016797421 15:0.0057880684 16:0.00038859634 17:0.016185401 18:0.014290569 19:0.0024216461 20:0.00023538658 21:0.00072964126 22:0.0042449826 23:0.0079765246 24:0.011760373 25:0.0040770451 26:0.0051936854 27:0.0019053569 28:0.0028714071 29:0.0018192789 30:0.00051352869 31:0.047091158 32:0.5593403 33:0.16200235 34:0.14415089 35:0.0075602952 36:0.0034888733 37:0.0037084348 38:0.013007917 
-0.66016276169943244 0.026501856252006142 0.34026622265315226 0.31014270779452469 1:8.4208469e-06 2:1.4488586e-09 3:7.8101993e-08 4:0.0034954054 5:0.0017081935 6:0.1690123 7:0.0022432518 8:0.00080533012 9:0.0028797375 10:0.00043096905 11:0.75964377 12:0.00062782613 13:0.00048340275 14:0.012573677 15:0.020733695 16:0.00018670422 17:0.042679812 18:0.024570673 19:0.012593771 20:0.00046082116 21:0.00021607041 22:0.023871478 23:0.0013264111 24:0.01291423 25:0.0024775275 26:0.0060392538 27:0.02024867 28:0.0057267217 29:0.0026352495 30:0.0009874169 31:0.26802978 32:0.7189895 33:0.24747026 34:0.58642621 35:0.009346817 36:0.0011160328 37:0.007059176 38:0.0039042597 
-0 0 0 0.48841336922995876 1:3.5935987e-06 2:1.6713471e-09 3:9.3199133e-08 4:0.007022471 5:0.00075503565 6:0.19997891 7:0.0034497956 8:0.00069933883 9:0.003496022 10:0.00018606903 11:0.25867874 12:0.002070202 13:0.00022189664 14:0.002026903 15:0.01066736 16:0.00035206833 17:0.01786955 18:0.045243196 19:0.0070864939 20:0.00029470478 21:0.00030929539 22:0.0030327098 23:0.0043590909 24:0.0086755985 25:0.0066608957 26:0.0066749097 27:0.0074346083 28:0.0020042912 29:0.0017449725 30:0.00036563456 31:0.143222 32:0.19732979 33:0.25770925 34:0.4830162 35:0.0020485532 36:0.0054839951 37:0.0023510551 38:0.0042268365 
-8.7044054415326997 -0.83791476495457851 1.0951563111195795 1.0242346110757277 1:0.35366992 2:9.1692865e-07 3:0.00023003522 7:0.077922078 9:0.99999999 19:0.99999999 20:0.0019552649 21:0.0039116981 26:0.99999999 28:0.99999999 29:1 30:0.55686275 31:0.55999999 32:0.02 
-1024 -0 0 0 1:4.6661378e-05 2:3.224969e-06 3:0.00047579437 7:0.36363636 9:0.99999999 19:0.99999999 20:0.0019552649 21:0.0019547466 26:0.99999999 29:0.82352941 30:0.14901961 31:0.18 32:0.02 37:0.0099999999 
-1024 -0 0 0 1:4.6661378e-05 2:3.0206249e-06 3:0.00047462964 7:0.36363636 9:0.99999999 19:0.99999999 20:0.0019552649 21:0.0019547466 26:0.99999999 29:0.87843137 30:0.20392157 31:0.23 32:0.02 37:0.0099999999 
-66.582041164340524 -0 0 0 2:8.7501191e-07 9:0.99999999 20:0.0019552649 21:0.0019547466 26:0.99999999 29:0.011764706 30:0.035294118 31:0.99999999 33:0.99999999 34:0.22 
-143.49940931700544 -0 0 0 1:0.1185199 2:2.7298276e-06 3:0.00044240529 7:0.038961039 9:0.99999999 19:0.99999999 20:0.0019552649 21:0.0019547466 26:0.99999999 29:1 30:0.08627451 31:0.089999999 32:0.02 35:0.13 
-46.806572760624633 -0.52024122782423454 0.67371273962791267 0.23911480939078217 1:0.00074658205 2:2.724588e-07 3:8.7161026e-05 7:0.025974026 9:0.99999999 14:0.025 16:0.125 19:0.99999999 20:0.0019552649 21:0.0019547466 26:0.99999999 29:0.0039215686 30:0.0039215686 31:0.99999999 33:0.99999999 
-1024 -0 0 0 2:3.2983233e-06 3:0.00047618262 7:0.36363636 9:0.99999999 19:0.99999999 20:0.0019552649 21:0.0019547466 26:0.99999999 29:1 30:0.21568627 31:0.22 32:0.02 
-6.0745738151270059 -1.11300847137512 1.106832260156656 1.3952988011338723 2:8.7501191e-07 9:0.99999999 20:0.0039122153 21:0.0039116981 26:0.5 27:0.99999999 28:0.99999999 29:0.023529412 30:0.094117647 31:0.82999999 32:0.33 33:0.99999999 34:0.12 
-5.7223417171049222 -1.7435593803210816 2.4227806604064619 1.0665691636921586 1:0.016751435 2:3.6991521e-06 3:0.0049035357 7:0.19480519 9:0.99999999 10:0.042986425 11:0.99999999 13:0.055384615 14:0.1 15:0.99999999 16:0.25 20:0.0019552649 21:0.0019547466 26:0.99999999 29:0.0039215686 30:0.0039215686 31:0.99999999 33:0.99999999 
-1024 -0 0 0 1:4.6661378e-05 2:3.2144899e-06 3:0.00047540613 7:0.36363636 9:0.99999999 19:0.99999999 20:0.0019552649 21:0.0019547466 26:0.99999999 29:1 30:0.23529412 31:0.24 32:0.02 
-1024 -0 0 0 2:8.7501191e-07 9:0.99999999 20:0.0039122153 21:0.0039116981 26:0.99999999 29:0.035294118 30:0.18039216 31:0.99999999 33:0.99999999 34:0.069999999 36:0.02 
-1024 -0 0 0 2:8.7501191e-07 9:0.99999999 20:0.0019552649 21:0.0019547466 26:0.99999999 29:0.019607843 30:0.10588235 31:0.99999999 33:0.99999999 34:0.069999999 
-12.258921145558011 -0.90967716501265905 0.81610686477060845 2.0888385927326252 2:6.4446985e-07 9:0.99999999 20:0.0039122153 21:0.0019547466 26:0.5 27:0.99999999 29:1 30:0.3254902 31:0.33 32:0.069999999 33:0.35 35:0.02 36:0.05 
-1024 -0 0 0 1:9.3322757e-05 2:3.2485472e-06 3:0.00047540613 7:0.36363636 9:0.99999999 19:0.99999999 20:0.0019552649 21:0.0019547466 26:0.99999999 29:0.83529412 30:0.16078431 31:0.19 32:0.02 37:0.0099999999 
-149.86790605353201 -0 0 0 2:8.7501191e-07 9:0.99999999 20:0.0019552649 21:0.0019547466 26:0.99999999 29:0.031372549 30:0.17647059 31:0.99999999 33:0.99999999 34:0.069999999 36:0.02 
-1024 -0 0 0 2:3.2066305e-06 3:0.00047579437 7:0.36363636 9:0.99999999 19:0.99999999 20:0.0019552649 21:0.0019547466 26:0.99999999 29:0.87058824 30:0.19607843 31:0.23 32:0.02 37:0.0099999999 
-159.38303374035007 -0 0 0 2:8.7501191e-07 9:0.99999999 20:0.0039122153 21:0.0039116981 26:0.99999999 29:0.015686275 30:0.18823529 31:0.99999999 33:0.99999999 34:0.079999999 
-1024 -0 0 0 2:8.7501191e-07 9:0.99999999 20:0.0019552649 21:0.0019547466 26:0.99999999 29:0.011764706 30:0.035294118 31:0.99999999 33:0.99999999 34:0.44 
-1024 -0 0 0 2:8.7501191e-07 9:0.99999999 20:0.0039122153 21:0.0039116981 26:0.99999999 29:0.0078431373 30:0.058823529 31:0.99999999 33:0.99999999 34:0.13 
-7.7592086120369759 -0 0 0 1:0.11809995 2:0.013449709 7:0.038961039 9:0.99999999 20:0.0019552649 21:0.0019547466 26:0.99999999 29:1 30:0.27058824 31:0.27 32:0.079999999 33:0.32 35:0.0099999999 36:0.0099999999 
-1024 -0 0 0 2:8.7501191e-07 9:0.99999999 20:0.0039122153 21:0.0039116981 26:0.99999999 29:1 30:0.33333333 31:0.33 32:0.069999999 33:0.35 35:0.0099999999 36:0.04 
-996.68908479533684 -5.7459158787752598 0 0 1:0.1179833 2:0.013454429 9:0.99999999 20:0.0019552649 21:0.0019547466 26:0.99999999 29:0.0039215686 30:0.0039215686 31:0.99999999 33:0.99999999 
-6.1650854158577699 -0.94549577029079668 1.4851922814625775 1.0969727100955518 2:1.336096e-07 3:0.001577634 7:0.025974026 9:0.99999999 11:0.99999999 16:0.125 20:0.0019552649 21:0.0039116981 25:0.5 26:0.99999999 28:0.99999999 29:1 30:1 31:0.99999999 
-42.869593134701219 -1.2840887629563691 1.5431378013516284 1.1187356184189865 1:0.00027996827 2:1.336096e-07 3:0.001577634 7:0.025974026 9:0.99999999 11:0.99999999 16:0.125 20:0.0019552649 21:0.0019547466 26:0.99999999 29:1 30:0.96470588 31:0.95999999 32:0.0099999999 
-1024 -0 0 0 2:8.7501191e-07 9:0.99999999 20:0.0019552649 21:0.0019547466 26:0.99999999 29:0.043137255 30:0.043137255 31:0.99999999 33:0.99999999 
-2.4463558100216614 -0 0.57829602511376688 0.52127583662558918 7:0.025974026 20:0.0078261163 21:0.24461673 22:0.5 23:0.74999999 25:0.04 26:0.99999999 28:0.36 29:0.039215686 30:0.039215686 31:0.99999999 33:0.79999999 35:0.5 36:0.5 
-6.6235220815739462 -1.0276585235399653 1.0195791907883263 1.1047130634320501 2:6.4446985e-07 9:0.99999999 20:0.0019552649 21:0.0019547466 22:0.99999999 23:0.99999999 26:0.99999999 29:0.0039215686 30:0.22352941 31:0.99999999 33:0.99999999 34:0.12 35:0.99999999 36:0.02 
-1024 -907.92180661794362 108.82199698754047 0 2:8.7501191e-07 9:0.99999999 20:0.0039122153 21:0.0039116981 26:0.99999999 29:0.015686275 30:0.015686275 31:0.99999999 33:0.99999999 
-0 -0.48393484862766178 0 0.03670329118020646 2:9.4312661e-08 3:3.8242143e-05 9:0.99999999 14:0.025 19:0.99999999 20:0.0019552649 21:0.0019547466 26:0.99999999 29:1 30:0.0039215686 32:0.05 35:0.39 37:0.05 
-179.84652352667894 -0 0 0 2:8.7501191e-07 9:0.99999999 20:0.0039122153 21:0.0039116981 26:0.99999999 29:0.023529412 30:0.14901961 31:0.66999999 32:0.33 33:0.66999999 34:0.16 
-1024 -0 0 0 2:3.224969e-06 3:0.00047579437 7:0.36363636 9:0.99999999 19:0.99999999 20:0.0019552649 21:0.0019547466 26:0.99999999 29:0.88627451 30:0.21176471 31:0.24 32:0.02 37:0.0099999999 
-24.421077842016647 -0 0 0.3493530286780368 1:9.3322757e-05 2:2.1796704e-06 9:0.99999999 20:0.0019552649 21:0.0039116981 26:0.99999999 28:0.99999999 29:0.066666667 30:0.20392157 31:0.99999999 33:0.99999999 34:0.12 36:0.02 
-12.365617843047339 -0.87148096560673216 1.5932387631250842 1.2030213464816377 2:3.3009431e-07 3:3.4747937e-05 7:0.012987013 8:0.25 20:0.0039122153 21:0.0039116981 24:0.99999999 25:0.99999999 26:0.99999999 29:0.18431373 30:0.18431373 31:0.99999999 33:0.02 35:0.04 36:0.04 37:0.95999999 38:0.95999999 
-0 -0.56540037996029835 0.47380700280982357 0.60357446297290562 1:0.0036395875 2:2.4888063e-06 3:0.00049520663 7:0.23376623 9:0.99999999 14:0.525 19:0.99999999 20:0.0019552649 21:0.0019547466 26:0.99999999 29:0.85490196 30:0.0039215686 32:0.03 35:0.0099999999 37:0.069999999 
-1024 -0 0 0 1:0.00027996827 2:1.8456464e-05 9:0.99999999 20:0.0039122153 21:0.0039116981 26:0.99999999 29:0.0078431373 30:0.18039216 31:0.99999999 33:0.99999999 34:0.04 36:0.02 
-0 -0.47508521493246986 0 0.14715465174981057 1:0.35387989 2:9.5622559e-07 3:0.00023333531 7:0.064935065 9:0.99999999 19:0.99999999 20:0.0019552649 21:0.0019547466 26:0.99999999 29:1 30:0.011764706 31:0.0099999999 32:0.02 35:0.21 
-1024 -0 0 0 2:3.2040107e-06 3:0.00047579437 7:0.36363636 9:0.99999999 19:0.99999999 20:0.0019552649 21:0.0019547466 26:0.99999999 29:0.80392157 30:0.12941176 31:0.16 32:0.02 37:0.0099999999 
-1024 -0 0 0 2:3.135896e-06 3:0.00047501788 7:0.36363636 9:0.99999999 19:0.99999999 20:0.0019552649 21:0.0019547466 26:0.99999999 29:1 30:0.26666667 31:0.27 32:0.02 
-1024 -1.0049492838047029 0 2.3026958991378903 1:0.00027996827 2:1.8456464e-05 9:0.99999999 20:0.0019552649 21:0.0019547466 26:0.99999999 29:1 30:0.24313725 31:0.24 32:0.13 33:0.34 35:0.02 36:0.02 
-4.5307251893515295 -0.6872170717416165 1.0334464678078958 1.3199866895415249 2:3.2747452e-07 3:3.4747937e-05 7:0.012987013 8:0.25 20:0.0039122153 21:0.0039116981 24:0.99999999 25:0.99999999 26:0.99999999 29:0.011764706 30:0.011764706 31:0.99999999 33:0.33 35:0.33 36:0.33 37:0.66999999 38:0.66999999 
-283.92147644768283 -0 0 0 2:6.4446985e-07 9:0.99999999 20:0.0019552649 21:0.0019547466 26:0.99999999 29:0.0039215686 30:0.047058824 31:0.99999999 33:0.99999999 34:0.17 
-0 -0 28.149457407275317 0 1:0.11812328 2:0.013449709 7:0.064935065 9:0.99999999 20:0.0019552649 21:0.0019547466 26:0.99999999 29:0.015686275 30:0.047058824 31:0.99999999 33:0.99999999 34:0.17 
-0 -0 0.5584918927257656 0 1:2.3330689e-05 2:3.2171097e-06 3:0.00047540613 7:0.36363636 9:0.99999999 19:0.99999999 20:0.0019552649 21:0.0019547466 26:0.99999999 29:0.41960784 30:0.019607843 31:0.05 32:0.059999999 33:0.0099999999 35:0.02 37:0.069999999 
-1024 -0 0 0 2:8.7501191e-07 9:0.99999999 20:0.0039122153 21:0.0039116981 26:0.99999999 29:0.047058824 30:0.047058824 31:0.99999999 33:0.99999999 
-1024 -0 0 0 2:8.7501191e-07 9:0.99999999 20:0.0019552649 21:0.0019547466 26:0.99999999 29:0.011764706 30:0.02745098 31:0.99999999 33:0.99999999 34:0.29 
-0 -0.068614859366419784 1.0687421934700887 0.47891534115609119 1:4.6661378e-05 2:3.1987711e-06 3:0.00047540613 7:0.36363636 9:0.99999999 19:0.99999999 20:0.0019552649 21:0.0019547466 26:0.99999999 29:1 30:0.54509804 31:0.54999999 32:0.02 
-7.9515687114918219 -2.658988220864166 1.2213875430171506 1.2864677901193817 1:0.00095655826 2:3.494808e-06 3:3.1447853e-05 20:0.0019552649 21:0.0019547466 26:0.99999999 29:0.019607843 30:0.019607843 31:0.99999999 33:0.2 35:0.4 36:0.4 
-5.2357521909751963 -0.84364027754297244 4.3210869064795059 0.78070453320967959 2:3.9087358e-06 3:0.12602164 20:0.0019552649 21:0.0019547466 22:0.99999999 23:0.99999999 26:0.99999999 29:0.043137255 30:0.043137255 31:0.99999999 33:0.089999999 35:0.54999999 36:0.54999999 
-2.9138199245071825 -0 0 0 2:3.3009431e-07 3:3.4747937e-05 7:0.012987013 8:0.25 20:0.0039122153 21:0.0039116981 24:0.99999999 25:0.99999999 26:0.99999999 29:0.074509804 30:0.074509804 31:0.99999999 33:0.05 35:0.05 36:0.05 37:0.94999999 38:0.94999999 
-1024 -0 0 0 2:3.1725731e-06 3:0.00047540613 7:0.36363636 9:0.99999999 19:0.99999999 20:0.0019552649 21:0.0019547466 26:0.99999999 29:0.90980392 30:0.23529412 31:0.26 32:0.02 37:0.0099999999 
-1024 -0 0 0 2:8.7501191e-07 9:0.99999999 20:0.0039122153 21:0.0039116981 26:0.99999999 29:0.0078431373 30:0.16470588 31:0.99999999 33:0.99999999 34:0.069999999 
-1024 -0 0 0 2:8.7501191e-07 9:0.99999999 20:0.0039122153 21:0.0039116981 26:0.99999999 29:0.015686275 30:0.17254902 31:0.99999999 33:0.99999999 34:0.069999999 
-1024 -0 0 0 1:2.3330689e-05 2:2.981328e-06 3:0.00047424139 7:0.36363636 9:0.99999999 19:0.99999999 20:0.0019552649 21:0.0019547466 26:0.99999999 29:1 30:0.2745098 31:0.27 32:0.02 
-949.65292359193825 -0 0 0 1:4.6661378e-05 2:3.1909117e-06 3:0.00047501788 7:0.36363636 9:0.99999999 19:0.99999999 20:0.0019552649 21:0.0019547466 26:0.99999999 29:1 30:0.27843137 31:0.28 32:0.02 
-1024 -0 0 0 2:8.7501191e-07 9:0.99999999 20:0.0039122153 21:0.0039116981 26:0.99999999 29:0.88627451 30:0.34117647 31:0.37 32:0.02 33:0.37 34:0.02 
-174.91995855180687 -5.8874209664976487 128.33200603058125 121.89016584142524 3:0.090843142 20:0.0019552649 21:0.0019547466 26:0.99999999 29:0.0078431373 30:0.0078431373 31:0.99999999 33:0.99999999 
-1024 -0 886.61072331905905 0 2:8.7501191e-07 9:0.99999999 20:0.0019552649 21:0.0019547466 26:0.99999999 29:0.015686275 30:0.015686275 31:0.99999999 33:0.99999999 
-12.78819893940438 -1.3974070178892559 8.2701829584364646 6.2231899798575947 1:0.0069758761 2:2.9341717e-07 3:0.0001644218 20:0.0019552649 21:0.0019547466 26:0.99999999 29:1 30:0.18823529 31:0.19 32:0.02 35:0.22 36:0.31 
-2.8432699664860563 -0.2738904514561234 1.0459827635595156 0.50999505112526122 20:0.0039122153 21:0.24070283 22:0.99999999 23:0.75999999 25:0.04 26:0.99999999 28:0.37 29:0.031372549 30:0.031372549 31:0.99999999 33:0.74999999 35:0.61999999 36:0.61999999 
-1024 -0 0 0 1:4.6661378e-05 2:3.3140421e-06 3:0.00047579437 7:0.36363636 9:0.99999999 19:0.99999999 20:0.0019552649 21:0.0019547466 26:0.99999999 29:1 30:0.22745098 31:0.23 32:0.02 
-1024 -0 0 0 1:0.00027996827 2:1.8456464e-05 9:0.99999999 20:0.0039122153 21:0.0039116981 26:0.99999999 29:0.0078431373 30:0.050980392 31:0.99999999 33:0.99999999 34:0.15 
-51.78198898209159 -0 0 0 1:0.00027996827 2:1.8456464e-05 9:0.99999999 20:0.0058691658 21:0.0039116981 26:0.66999999 27:0.66999999 29:1 30:0.3254902 31:0.33 32:0.069999999 33:0.35 35:0.02 36:0.05 
-1024 -315.03991878404361 0 0 2:6.4446985e-07 9:0.99999999 20:0.0019552649 21:0.0019547466 26:0.99999999 29:0.0039215686 30:0.18039216 31:0.99999999 33:0.99999999 34:0.04 36:0.02 
-651.90680350621722 -0 0 0 2:8.7501191e-07 9:0.99999999 20:0.0039122153 21:0.0039116981 26:0.99999999 29:0.0078431373 30:0.054901961 31:0.99999999 33:0.99999999 34:0.43 
-14.883149697480119 -0.50798415465529889 0.7694976168678489 0.10144299836641757 2:8.7501191e-07 9:0.99999999 20:0.0019552649 21:0.0019547466 26:0.99999999 29:0.019607843 30:0.0039215686 31:0.2 32:0.4 33:0.99999999 
-1024 -0 0 0 2:8.7501191e-07 9:0.99999999 20:0.0019552649 21:0.0019547466 26:0.99999999 29:0.011764706 30:0.16862745 31:0.99999999 33:0.99999999 34:0.069999999 
-0 -0.87077938532939481 0 0 1:0.00023330689 3:1 20:0.0019552649 21:0.0019547466 26:0.99999999 29:0.019607843 30:0.019607843 31:0.99999999 33:0.99999999 
-213.31288011150312 -0 0 0 2:3.1699533e-06 3:0.00047501788 7:0.36363636 9:0.99999999 19:0.99999999 20:0.0019552649 21:0.0019547466 26:0.99999999 29:1 30:0.17254902 31:0.17 32:0.02 35:0.05 
-1024 -0 0 0 2:8.7501191e-07 9:0.99999999 20:0.0039122153 21:0.0039116981 26:0.99999999 29:0.0078431373 30:0.031372549 31:0.99999999 33:0.99999999 34:0.25 
-0 -0.18640618558788669 0 0.34706484190660503 1:7.158991e-07 2:7.7473035e-12 3:1.7651765e-09 4:0.0014413502 5:0.0001332861 6:0.0018209877 7:0.012941508 8:0.00041667807 9:0.98470077 10:2.5182862e-06 11:0.0154271 12:0.00013060632 13:4.4466344e-06 14:0.00022596375 15:0.0022256426 16:0.0030087887 17:0.023895261 18:0.0067999979 19:0.99787767 20:2.5731643e-05 21:1.1615985e-05 22:0.02713666 23:0.0047016369 24:0.0027926175 25:0.0055858113 26:0.99056924 27:0.0047081096 28:0.030792596 29:0.0039153575 30:0.0018629715 31:0.015103839 32:0.53909013 33:0.0021393131 34:0.0047033923 35:0.040000136 36:0.0048573809 37:0.24142234 38:0.0018709199 
-0 -0 0 0.91886847790769033 1:8.7301822e-07 2:2.6151827e-10 3:1.3428014e-08 4:0.003105185 5:0.00018861209 6:0.0042784329 7:0.011301965 8:0.0012959552 9:0.96142412 10:2.6537658e-05 11:0.065337535 12:0.0016339068 13:1.7351577e-05 14:0.00063036737 15:0.023927339 16:0.0011350244 17:0.019175538 18:0.020077782 19:0.32113182 20:2.4619834e-05 21:0.00011113424 22:0.020821643 23:0.013809112 24:0.00051232272 25:0.02820962 26:0.9825778 27:0.0046961139 28:0.06991512 29:0.0036260895 30:0.0011404615 31:0.18221188 32:0.22845979 33:0.072372922 34:0.059690919 35:0.039666898 36:0.015874856 37:0.089307945 38:0.002722142 
-0 -0.4711749719425255 0 0 1:4.6192686e-06 2:6.822832e-10 3:5.394409e-09 4:0.00093126503 5:0.00053940713 6:0.0012897483 7:0.0072464871 8:0.00014055191 9:0.93133791 10:1.4551205e-05 11:0.12244678 12:0.00040087091 13:5.3635821e-06 14:0.0005574108 15:0.023382461 16:0.0046259161 17:0.0047051542 18:0.0029904668 19:0.30966136 20:3.7176404e-05 21:5.542031e-05 22:0.0056182678 23:0.012215269 24:0.0018612166 25:0.0089043382 26:0.9828241 27:0.0087909138 28:0.027850789 29:0.00079657056 30:0.00074069709 31:0.8978011 32:0.050899997 33:0.33298744 34:0.0089735063 35:0.055372138 36:0.015651787 37:0.079924747 38:0.0013632223 
-0 -0.39514156442309134 0.41262630785547388 0.74260746335200145 1:8.8885996e-07 2:1.7994151e-11 3:5.1670529e-09 4:0.00029512025 5:0.00021728671 6:0.0031764512 7:0.01125114 8:8.6631733e-05 9:0.99301876 10:3.1168861e-06 11:0.021016286 12:0.00081364342 13:9.5940941e-06 14:0.00011608302 15:0.0072821898 16:0.0083574938 17:0.0048024582 18:0.0099328461 19:0.99563031 20:7.9400636e-05 21:1.0884794e-05 22:0.002239496 23:0.01197591 24:0.0011958447 25:0.012665677 26:0.98717137 27:0.010948538 28:0.044003963 29:0.0038815204 30:0.0007595001 31:0.037549354 32:0.21280007 33:0.012827769 34:0.010498046 35:0.014557203 36:0.0028562447 37:0.63475181 38:0.0004570464 
-0 -0 1.0165090284009977 0 1:1.5335309e-06 2:1.6604639e-09 3:1.6533958e-08 4:0.0073563125 5:0.0011456303 6:0.00060616569 7:0.00015913595 8:8.7240179e-05 9:0.37615841 10:1.0357333e-05 11:0.078260046 12:0.00027682867 13:1.7373423e-05 14:0.00014656323 15:0.043843551 16:0.0035923921 17:0.0044152742 18:0.012583661 19:0.0074394835 20:8.0678421e-05 21:0.00011189829 22:0.023899236 23:0.02037151 24:0.00093105891 25:0.009715689 26:0.99387133 27:0.022085909 28:0.028972567 29:0.00027138654 30:0.00096026942 31:0.96166704 32:0.071641934 33:0.95831643 34:0.13736256 35:0.099047024 36:0.012513862 37:0.026949104 38:0.00081624757 
-0 -0.77180932221883713 0 0 1:8.4847368e-07 2:7.3422912e-10 3:4.7474984e-09 4:0.00037996573 5:0.0003385412 6:0.0013550842 7:0.0052474053 8:1.843652e-05 9:0.91869864 10:1.4544397e-05 11:0.049882219 12:0.00086266356 13:5.616796e-06 14:0.0002311803 15:0.01019517 16:0.0018844096 17:0.0050376442 18:0.0060942931 19:0.17716907 20:8.8915016e-05 21:2.5372589e-05 22:0.0089508965 23:0.013304641 24:0.0019765338 25:0.002398269 26:0.99248648 27:0.013039246 28:0.01033637 29:0.0014741516 30:0.00077974803 31:0.37986273 32:0.1097794 33:0.10004223 34:0.039188738 35:0.045735499 36:0.011796172 37:0.1505325 38:0.00099678018 
-27.88205504695393 -0 0 0 1:8.4203263e-07 2:9.3411946e-12 3:2.3277307e-09 4:0.0008329721 5:0.00015726237 6:0.0014293282 7:0.012315514 8:0.00026635288 9:0.99673062 10:1.2991673e-05 11:0.026094118 12:0.00019248964 13:1.0463263e-05 14:0.00021443467 15:0.0030517272 16:0.00055125414 17:0.0015315361 18:0.0015983802 19:0.98612561 20:4.568955e-05 21:2.5316727e-05 22:0.0032969053 23:0.0054621486 24:0.0014857552 25:0.01402818 26:0.98168441 27:0.0088443489 28:0.041664489 29:0.0038679885 30:0.0010263643 31:0.19581648 32:0.54442655 33:0.0064314003 34:0.012548714 35:0.027113542 36:0.0094975741 37:0.047680323 38:0.00052466335 
-29.876685493405216 -0 0 0 1:3.6932007e-06 2:7.4578925e-10 3:2.2171933e-08 4:0.0016086799 5:0.0001401828 6:0.00056992401 7:0.0012910406 8:0.00016632127 9:0.97244855 10:4.2232527e-06 11:0.018397969 12:0.0010207694 13:1.0315798e-05 14:0.00012671449 15:0.0064986472 16:0.0026762289 17:0.0095970512 18:0.0086343671 19:0.040061702 20:9.8928807e-06 21:1.2030649e-05 22:0.0062759987 23:0.025702493 24:0.00035933666 25:0.015924021 26:0.99623383 27:0.0070128627 28:0.085103998 29:0.00094880188 30:0.00023236009 31:0.93905652 32:0.069760922 33:0.62986423 34:0.27574263 35:0.040297924 36:0.055840543 37:0.032067918 38:0.0010287482 
-0 -0 0 8.0484246408344422 1:4.7410201e-06 2:1.6416923e-09 3:7.2135053e-08 4:0.0019730611 5:0.00054728571 6:0.00030594013 7:0.00014816651 8:0.00021959225 9:0.32728825 10:8.0424562e-06 11:0.044389765 12:0.00038604309 13:5.0437432e-06 14:0.00024610127 15:0.016686021 16:0.00087120132 17:0.0059704027 18:0.003927985 19:0.0047551959 20:2.6154983e-05 21:0.00010754563 22:0.04417757 23:0.0096997696 24:0.00018226463 25:0.0052531799 26:0.9966407 27:0.0057181761 28:0.01663203 29:0.00024574394 30:0.00015013526 31:0.96874591 32:0.050551652 33:0.97738989 34:0.30823677 35:0.022301971 36:0.014660644 37:0.040845211 38:0.0011554693 
-0 -0 0 0.0078912376386759842 1:1.333813e-06 2:1.4671642e-10 3:1.2027153e-08 4:0.0013033205 5:0.00040526696 6:0.0024925856 7:0.0075609713 8:0.00069071084 9:0.83918046 10:1.2730584e-05 11:0.010999557 12:0.0006986549 13:8.941162e-06 14:0.00011641138 15:0.0073632733 16:0.0050910835 17:0.0029006799 18:0.0018930555 19:0.26478839 20:3.8965134e-05 21:0.00011676713 22:0.020639228 23:0.01647155 24:0.0014366257 25:0.0089074788 26:0.98185703 27:0.0063831135 28:0.018956607 29:0.0026917481 30:0.00091232476 31:0.7347474 32:0.45936031 33:0.10493753 34:0.12075447 35:0.046648072 36:0.041076563 37:0.069789056 38:0.0005333923 
-3.5061971104315477 -0 3.8513905613587829 0 1:7.6460004e-07 2:2.4099711e-10 3:1.7051608e-08 4:0.00097717826 5:0.00015426266 6:0.00092556261 7:0.0027753863 8:0.00041617827 9:0.94771222 10:1.3898481e-05 11:0.03946202 12:0.00028775171 13:6.762208e-06 14:0.0025947464 15:0.015102968 16:0.0011720061 17:0.0021526525 18:0.011001246 19:0.12921484 20:5.6777732e-05 21:5.2422676e-05 22:0.0038648906 23:0.013772291 24:0.0004997863 25:0.0055339017 26:0.99131248 27:0.0053951958 28:0.04267312 29:0.0015771352 30:0.00087202425 31:0.80817742 32:0.067666751 33:0.11786548 34:0.089240613 35:0.017348249 36:0.024168622 37:0.026659563 38:0.00080693152 
