svm_type c_svc
kernel_type rbf
gamma 0.5
nr_class 5
total_sv 1456
rho -1.3108027533182294 -1.4271369587073834 -1.5414517237248053 -0.014356365471438365 0.74377413254435043 0.72302049843573912 0.70418224559110776 0.41100830096462238 0.3567375091595259 0.053306411967591776
label 0 1 2 3 4
nr_sv 724 11 133 318 270
SV
0 0 0 4.4772014906056867 2:3.8249024e-07 20:0.023529412 26:0.079999999 27:0.15 29:1 30:0.0039215686 32:0.59999999 33:0.87999999 
0 0 0 8 1:0.025243806 2:3.8511003e-07 3:2.0382868e-05 20:0.0019607843 21:0.0019607843 26:0.99999999 29:1 30:0.0078431373 31:0.0099999999 32:0.42 33:0.85999999 
0 0 8 0 2:7.8593884e-08 26:0.99999999 29:0.96862745 30:0.96862745 31:0.99999999 33:0.99999999 
0 0 0 8 1:0.00041995241 2:2.7769839e-07 3:0.00028497191 26:0.99999999 29:0.45882353 30:0.0039215686 31:0.0099999999 32:0.04 33:0.0099999999 
0 0 8 0 2:8.6453273e-08 20:0.01372549 21:0.01372549 26:0.99999999 29:1 30:0.14117647 31:0.14 32:0.03 33:0.14 
0 0 8 0 2:7.8593884e-08 26:0.99999999 29:0.96862745 30:0.96862745 31:0.99999999 33:0.99999999 
0 0 8 0 2:6.759074e-07 3:0.00083511522 9:0.99999999 26:0.99999999 29:0.12156863 30:0.13333333 31:0.99999999 33:0.03 34:0.059999999 36:0.059999999 38:0.03 
0 0 8 0 2:8.5143375e-07 3:0.002501075 9:0.99999999 20:0.0078431373 21:0.015686275 26:0.99999999 28:0.22 29:0.28235294 30:0.28235294 31:0.99999999 33:0.0099999999 
0 0 0 8 2:1.6766695e-07 26:0.99999999 29:0.0039215686 30:0.0039215686 31:0.99999999 33:0.99999999 
0 8 0 0 1:0.00062992861 2:2.7953225e-06 3:0.00059809158 7:0.28571429 9:0.99999999 19:0.99999999 26:0.99999999 29:0.99607843 30:0.2745098 31:0.28 32:0.02 
0 0 8 0 2:7.8855864e-07 3:0.00052374264 9:0.99999999 16:0.125 20:0.01372549 21:0.015686275 25:0.11 26:0.99999999 28:0.22 29:0.33333333 30:0.32941176 31:0.98999999 32:0.02 33:0.0099999999 
0 0 0.010130391275062312 8 2:2.1482328e-07 3:1.9412255e-07 26:0.99999999 29:0.0039215686 30:0.0039215686 31:0.99999999 33:0.99999999 
0 0 0 2.749113363940034 2:7.8593884e-08 20:0.0058823529 26:0.25 27:0.5 29:1 30:0.11372549 31:0.11 32:0.0099999999 33:0.53999999 
0 8 0 0 1:0.00072325136 2:3.1987711e-06 3:0.00065613422 7:0.31168831 9:0.99999999 19:0.99999999 26:0.99999999 29:1 30:0.16078431 31:0.16 32:0.02 
0 0 8 0 2:1.3518148e-06 3:7.7649021e-07 20:0.37254902 21:0.37254902 26:0.99999999 29:0.74901961 30:0.74901961 31:0.99999999 33:0.99999999 
0 0 8 0 2:5.6849576e-07 3:0.00020091684 9:0.99999999 20:0.064705882 21:0.064705882 26:0.99999999 29:1 30:1 31:0.99999999 37:0.32 38:0.32 
0 0 0.32011110347281257 2.101546031012349 2:8.121368e-08 21:0.0019607843 26:0.99999999 28:0.99999999 29:0.0078431373 30:0.074509804 31:0.5 32:0.99999999 33:0.5 34:0.11 
0 0 8 0 2:7.9903782e-07 3:0.00052374264 9:0.99999999 16:0.125 20:0.0039215686 21:0.0058823529 25:0.25 26:0.99999999 28:0.5 29:1 30:0.98431373 31:0.97999999 32:0.0099999999 
0 8 0 0 2:1.2967991e-06 9:0.99999999 13:0.0051282051 26:0.99999999 29:0.0039215686 30:0.11764706 31:0.99999999 33:0.99999999 34:0.099999999 
0 0 0 8 1:9.3322757e-05 3:2.9118383e-06 24:0.99999999 25:0.99999999 26:0.99999999 29:0.50980392 30:0.0039215686 31:0.0099999999 32:0.05 33:0.0099999999 37:0.0099999999 38:0.99999999 
0 0 0 8 24:0.99999999 25:0.99999999 26:0.99999999 29:0.070588235 30:0.015686275 31:0.22 32:0.28 33:0.059999999 35:0.059999999 37:0.22 38:0.99999999 
0 0 8 0 2:5.9993332e-07 3:0.00013239158 9:0.99999999 20:0.011764706 21:0.021568627 26:0.99999999 28:0.17 29:0.99215686 30:1 31:0.99999999 34:0.0099999999 37:0.14 38:0.15 
0 0 0 8 2:8.121368e-08 3:1.7665152e-05 20:0.0039215686 21:0.0039215686 26:0.99999999 29:0.031372549 30:0.078431373 31:0.99999999 33:0.99999999 34:0.099999999 
0 0 8 0 2:6.3399067e-07 3:0.0032649472 9:0.99999999 20:0.011764706 21:0.011764706 24:0.43 25:0.43 26:0.99999999 29:0.50196078 30:1 31:0.99999999 33:0.0099999999 34:0.0099999999 37:0.03 38:0.02 
0 0 8 0 1:0.0013765107 2:6.785272e-07 3:5.3383702e-05 9:0.99999999 20:0.043137255 21:0.043137255 26:0.99999999 29:0.64313725 30:0.64313725 31:0.99999999 33:0.0099999999 
0 0 5.7861419667049416 0 2:7.492617e-07 3:0.00027662464 9:0.99999999 20:0.0019607843 21:0.0019607843 26:0.99999999 29:0.86666667 30:0.88235294 31:0.99999999 34:0.0099999999 35:0.0099999999 36:0.0099999999 
0 0 2.4310947712284499 0 2:1.1789083e-07 3:2.7177157e-05 20:0.13333333 21:0.42745098 26:0.99999999 28:0.02 29:0.81960784 30:0.76862745 31:0.80999999 32:0.0099999999 33:0.72999999 34:0.0099999999 37:0.069999999 
0 0 8 0 2:8.6453273e-07 3:0.0026222074 9:0.99999999 20:0.011764706 21:0.011764706 26:0.99999999 29:0.094117647 30:0.094117647 31:0.99999999 33:0.04 
0 8 0 0 1:0.10424152 2:4.3488616e-07 3:0.0045378088 9:0.99999999 10:0.0011312217 26:0.99999999 29:0.0039215686 30:0.0039215686 31:0.99999999 33:0.99999999 
0 0 0 8 2:7.8593884e-08 20:0.0019607843 21:0.0019607843 26:0.99999999 29:0.18823529 30:0.18823529 31:0.99999999 33:0.99999999 
0 0 8 0 2:3.1254168e-06 3:6.464281e-05 9:0.99999999 26:0.99999999 29:0.14509804 30:0.15294118 31:0.96999999 32:0.05 33:0.03 34:0.05 37:0.05 38:0.05 
0 0 0 8 2:7.8593884e-08 26:0.99999999 29:0.074509804 30:0.49019608 31:0.99999999 33:0.99999999 34:0.43 
0 0 0 8 2:8.6453273e-08 3:1.8053397e-05 26:0.99999999 29:0.16078431 30:0.20392157 31:0.99999999 33:0.99999999 34:0.04 
0 0 0 3.0169801294973495 2:7.8593884e-08 20:0.0019607843 26:0.5 27:0.99999999 29:1 30:0.14509804 31:0.15 32:0.0099999999 33:0.65999999 
0 0 0 1.3726221405126728 2:6.4185005e-07 20:0.0019607843 21:0.0019607843 26:0.99999999 29:0.031372549 30:0.34117647 31:0.25 32:0.38 33:0.25 34:0.02 
0 0 0 8 2:7.8593884e-08 26:0.99999999 29:0.12156863 30:0.51372549 31:0.99999999 33:0.99999999 34:0.39 
0 0 0 8 2:1.6766695e-07 26:0.99999999 29:0.30196078 30:0.0039215686 31:0.0099999999 32:0.93999999 33:0.0099999999 37:0.89999999 
0 0 0 2.0864226977295894 22:0.99999999 23:0.99999999 26:0.99999999 29:0.49411765 30:0.0039215686 31:0.0099999999 32:0.05 33:0.0099999999 35:0.0099999999 36:0.99999999 
0 8 0 0 2:9.1692865e-08 9:0.99999999 20:0.0019607843 21:0.0019607843 26:0.99999999 29:0.0078431373 30:0.35686275 31:0.99999999 33:0.99999999 34:0.02 
0 0 0 0.27200077804694334 1:2.3330689e-05 3:2.9118383e-06 24:0.99999999 25:0.99999999 26:0.99999999 29:0.89019608 30:0.0078431373 32:0.03 34:0.99999999 38:0.5 
0 0 8 0 2:8.5405354e-07 3:5.3577824e-05 9:0.99999999 20:0.0019607843 21:0.0039215686 25:0.33 26:0.99999999 28:0.66999999 29:1 30:0.92941176 31:0.92999999 32:0.0099999999 
0 8 0 0 2:2.2965133e-05 9:0.99999999 20:0.0058823529 21:0.0058823529 26:0.99999999 29:0.039215686 30:0.38039216 31:0.99999999 33:0.99999999 34:0.02 
0 0 8 0 2:2.6910546e-05 20:0.021568627 21:0.021568627 26:0.99999999 29:0.9372549 30:0.21568627 31:0.2 32:0.02 33:0.2 34:0.04 37:0.05 
0 0 0.086747258064225369 8 2:2.3840145e-07 20:0.011764706 21:0.011764706 26:0.99999999 29:0.51764706 30:0.02745098 31:0.05 32:0.02 33:0.05 37:0.11 
0 0 8 0 2:2.6389207e-05 20:0.02745098 21:0.02745098 26:0.99999999 29:0.95686275 30:0.2627451 31:0.27 32:0.02 33:0.27 
8 0 0 0 2:3.6467562e-06 3:9.3372947e-05 9:0.99999999 26:0.99999999 29:1 30:0.0078431373 31:0.0099999999 32:0.0099999999 
0 0 0.0091907636333299729 0 1:0.025570435 2:3.0127656e-07 3:0.00030419004 9:0.99999999 24:0.99999999 25:0.99999999 26:0.99999999 29:0.015686275 30:0.011764706 31:0.74999999 32:0.5 33:0.25 35:0.25 36:0.33 37:0.5 38:0.66999999 
0 0 0 5.2976561096344632 2:1.8338573e-08 3:4.3289329e-05 20:0.0019607843 26:0.5 27:0.99999999 29:0.41568627 30:0.019607843 31:0.05 32:0.05 33:0.0099999999 35:0.02 36:0.2 
0 8 0 0 2:2.6197961e-08 3:7.5707795e-06 9:0.99999999 26:0.99999999 29:0.0039215686 30:0.047058824 31:0.99999999 33:0.99999999 34:0.25 
0 0 0 2.2774880536249182 1:6.9992068e-05 2:2.3578165e-08 3:8.0172614e-05 26:0.99999999 29:0.75294118 30:0.015686275 31:0.0099999999 32:0.03 33:0.0099999999 34:0.5 37:0.82999999 
0 0 8 0 2:2.5281033e-06 20:0.019607843 21:0.019607843 26:0.99999999 29:1 30:0.19215686 31:0.19 32:0.02 33:0.19 
0 0 8 0 2:1.3518148e-06 3:7.7649021e-07 20:0.60196078 21:0.60196078 26:0.99999999 29:1 30:1 31:0.99999999 33:0.99999999 
0 0 0 0.74897420240530832 1:2.3330689e-05 2:1.5718777e-08 3:2.6400667e-05 20:0.0039215686 26:0.33 27:0.99999999 29:1 30:0.0078431373 31:0.0099999999 32:0.54999999 
0 0 0 0.059351916180534633 2:2.2556445e-06 3:6.3283952e-05 9:0.99999999 26:0.99999999 29:0.043137255 30:0.9372549 31:0.63999999 32:0.18 33:0.089999999 34:0.02 
0 0 0 0.1029607992931017 1:0.00083990481 2:3.8327618e-06 3:0.00080599683 7:0.38961039 9:0.99999999 19:0.99999999 26:0.99999999 29:0.0078431373 30:0.0039215686 31:0.5 32:0.99999999 33:0.5 
0 0 4.1478366981877421 0 2:5.5015719e-07 3:0.0002513887 9:0.99999999 20:0.0039215686 21:0.029411765 26:0.99999999 28:0.19 29:0.13333333 30:0.85490196 31:0.99999999 33:0.03 34:0.02 35:0.03 36:0.0099999999 37:0.38 38:0.27 
0 0 8 0 2:3.8249024e-07 26:0.99999999 29:1 30:0.0039215686 32:0.22 33:0.41 
0 0 8 0 2:3.7201105e-07 3:0.0052533445 7:0.012987013 9:0.99999999 20:0.0039215686 21:0.023529412 25:0.079999999 26:0.99999999 28:0.31 29:1 30:1 31:0.99999999 
0 0 8 0 2:6.3661046e-07 3:0.0059946985 7:0.012987013 9:0.99999999 10:0.0011312217 20:0.0058823529 21:0.0058823529 26:0.99999999 29:1 30:1 31:0.99999999 
0 0 8 0 2:1.3518148e-06 3:7.7649021e-07 20:0.38039216 21:0.38039216 26:0.99999999 29:0.76470588 30:0.76470588 31:0.99999999 33:0.99999999 
0 0 0.43308625581327514 0 2:5.8945413e-07 3:0.00043464039 9:0.99999999 20:0.0098039216 21:0.011764706 25:0.14 26:0.99999999 28:0.29 29:1 30:0.94509804 31:0.94999999 32:0.0099999999 
0 0 0 8 2:3.9558922e-07 26:0.99999999 29:0.043137255 30:0.30196078 31:0.81999999 32:0.18 33:0.81999999 34:0.03 
0 0 8 0 2:1.3518148e-06 3:7.7649021e-07 20:0.52745098 21:0.52745098 26:0.99999999 29:1 30:1 31:0.99999999 33:0.99999999 
0 0 8 0 2:5.7111556e-07 3:0.00025954185 9:0.99999999 20:0.0098039216 21:0.0098039216 26:0.99999999 29:0.10588235 30:0.10588235 31:0.99999999 33:0.04 
0 0 8 0 2:7.8593884e-08 26:0.99999999 29:0.99215686 30:0.99215686 31:0.99999999 33:0.99999999 
0 0 0 0.96380283522462429 22:0.99999999 23:0.99999999 26:0.99999999 29:0.16470588 30:0.0039215686 31:0.02 32:0.099999999 33:0.02 35:0.02 36:0.99999999 
0 2.4537663115317803 0.28331032103233922 0 20:0.0019607843 21:0.0039215686 22:0.5 23:0.33 26:0.99999999 28:0.66999999 29:0.011764706 30:0.047058824 31:0.99999999 33:0.66999999 34:0.33 35:0.33 36:0.079999999 
0 1.71124995672932 0 0 1:0.00016331482 2:4.62656e-06 9:0.99999999 26:0.99999999 29:0.82745098 30:0.0039215686 32:0.04 33:0.37 
0 1.3129018408054096 0 0 2:1.9622273e-06 26:0.99999999 29:1 30:0.16470588 31:0.16 32:0.02 33:0.16 35:0.54999999 
0 0 8 0 2:4.5584453e-07 3:0.00061323314 9:0.99999999 26:0.99999999 29:0.10196078 30:0.10196078 31:0.99999999 33:0.04 
0 0 8 0 2:1.3518148e-06 3:7.7649021e-07 20:0.97058824 21:0.97058824 26:0.99999999 29:1 30:1 31:0.99999999 33:0.99999999 
0 0 0 8 2:7.8593884e-08 26:0.99999999 29:0.20392157 30:0.51372549 31:0.99999999 33:0.99999999 34:0.31 
0 0 0 8 2:7.8593884e-08 26:0.99999999 29:0.17254902 30:0.35294118 31:0.97999999 32:0.05 33:0.97999999 34:0.28 
0 0 0 8 2:7.8593884e-08 26:0.99999999 29:0.32156863 30:0.51372549 31:0.99999999 33:0.99999999 34:0.2 
0 0 0 0.030894605520726315 2:4.5060494e-07 9:0.99999999 26:0.99999999 29:0.40784314 30:0.12156863 31:0.3 32:0.67999999 33:0.29 37:0.63999999 38:0.03 
0 0 8 0 1:0.0074191592 2:8.7501191e-07 3:5.4548437e-05 9:0.99999999 20:0.0078431373 21:0.0098039216 25:0.17 26:0.99999999 28:0.33 29:1 30:0.96470588 31:0.95999999 32:0.0099999999 37:0.02 38:0.02 
0 0 8 8 2:5.422978e-07 3:4.0183368e-05 20:0.0019607843 21:0.0019607843 26:0.99999999 29:1 30:0.83921569 31:0.83999999 32:0.0099999999 33:0.83999999 
0 0 0 1.481775639121814 20:0.0019607843 21:0.0019607843 22:0.5 23:0.5 26:0.99999999 29:0.0078431373 30:1 31:0.99999999 33:0.99999999 34:0.04 35:0.5 
0 0 0 0.63455503553703652 2:1.9596075e-06 9:0.99999999 13:0.0092307692 26:0.99999999 29:0.0078431373 30:0.41960784 31:0.5 32:0.99999999 33:0.5 34:0.03 35:0.5 
0 8 0 0 24:0.99999999 25:0.99999999 26:0.99999999 29:0.11372549 30:0.11372549 31:0.99999999 33:0.03 37:0.99999999 38:0.99999999 
0 8 0 0 2:9.7980376e-07 9:0.99999999 20:0.0039215686 21:0.0039215686 26:0.99999999 29:0.035294118 30:0.37647059 31:0.99999999 33:0.99999999 34:0.02 36:0.0099999999 
0 8 0 0 2:1.9386491e-06 9:0.99999999 13:0.0092307692 26:0.99999999 29:0.14117647 30:0.33333333 31:0.88999999 32:0.059999999 33:0.88999999 34:0.04 
0 0 0 1.6364707605765356 2:8.9073069e-08 21:0.0019607843 26:0.99999999 28:0.99999999 29:0.89803922 30:0.078431373 31:0.079999999 32:0.03 33:0.079999999 34:0.099999999 
0 0 0 0.29974650737535719 2:3.8511003e-07 3:0.0031176082 9:0.99999999 21:0.0039215686 22:0.99999999 23:0.33 26:0.99999999 28:0.99999999 29:0.0039215686 30:1 31:0.99999999 33:0.99999999 34:0.059999999 35:0.99999999 36:0.0099999999 
0 0 0 8 1:0.00097988895 2:2.6197961e-08 3:6.9884119e-06 24:0.99999999 25:0.99999999 26:0.99999999 29:1 30:0.011764706 31:0.0099999999 32:0.02 38:0.33 
0 0 8 0 2:1.2051062e-07 3:2.5624177e-05 20:0.32156863 21:0.31960784 26:0.98999999 27:0.0099999999 29:0.21176471 30:0.082352941 31:0.39 32:0.04 33:0.02 
0 8 0 0 2:3.6813375e-05 9:0.99999999 20:0.01372549 21:0.01372549 26:0.99999999 29:0.054901961 30:0.054901961 31:0.99999999 33:0.99999999 
0 0 0 4.0517922870443357 2:2.724588e-07 26:0.99999999 29:0.098039216 30:0.058823529 31:0.59999999 32:0.079999999 33:0.59999999 
0 0 8 0 2:1.9910451e-07 3:8.7355148e-06 20:0.2627451 21:0.2627451 26:0.99999999 29:1 30:0.65098039 31:0.64999999 32:0.0099999999 33:0.28 
0 4.8484372238306914 0 0 1:0.00081657412 2:3.919215e-06 3:0.00080599683 7:0.38961039 9:0.99999999 19:0.99999999 26:0.99999999 29:0.0039215686 30:0.0039215686 31:0.99999999 33:0.99999999 
0 8 0 0 1:0.00062992861 2:3.1856721e-06 3:0.00065613422 7:0.31168831 9:0.99999999 19:0.99999999 26:0.99999999 29:1 30:0.2745098 31:0.27 32:0.03 
0 0 8 0 2:6.2089168e-07 3:0.00011783239 9:0.99999999 20:0.0078431373 21:0.0078431373 22:0.2 23:0.2 26:0.99999999 29:1 30:1 31:0.99999999 37:0.0099999999 38:0.0099999999 
0 0 8 0 2:5.8683434e-07 3:0.002501075 9:0.99999999 20:0.0039215686 21:0.0039215686 26:0.99999999 29:0.61176471 30:0.61176471 31:0.99999999 33:0.0099999999 
0 0 0.64945468562850328 0 2:2.3840145e-07 21:0.0058823529 26:0.99999999 28:0.5 29:0.050980392 30:0.02745098 31:0.53999999 32:0.15 33:0.53999999 
0 0 8 0 2:3.7987044e-07 3:0.00092945878 9:0.99999999 20:0.031372549 21:0.031372549 26:0.99999999 29:0.30196078 30:0.35686275 31:0.99999999 33:0.0099999999 34:0.02 38:0.0099999999 
0 0 8 0 2:8.173764e-07 3:0.00048666524 9:0.99999999 20:0.0098039216 21:0.015686275 25:0.33 26:0.99999999 28:0.44 29:0.32941176 30:0.29411765 31:0.88999999 32:0.02 33:0.0099999999 35:0.0099999999 36:0.0099999999 
0 0 1.2662583984140572 0 20:0.0019607843 21:0.0039215686 22:0.5 23:0.33 26:0.99999999 28:0.66999999 29:0.0078431373 30:1 31:0.99999999 33:0.99999999 34:0.05 35:0.5 36:0.0099999999 
0 8 0 0 2:7.3354292e-07 3:0.00055033743 9:0.99999999 26:0.99999999 29:0.0039215686 30:0.10196078 31:0.99999999 33:0.99999999 34:0.079999999 
0 0.74472064901419133 0 0 1:0.00067658999 2:3.1201772e-06 3:0.00065477537 7:0.31168831 9:0.99999999 19:0.99999999 20:0.0019607843 26:0.5 27:0.99999999 29:1 30:0.14117647 31:0.14 32:0.079999999 35:0.02 
0 0 0 1.1331426155142212 2:8.121368e-08 21:0.0019607843 26:0.99999999 28:0.99999999 29:0.023529412 30:0.094117647 31:0.33 32:0.33 33:0.33 34:0.079999999 
0 2.9245202776077903 0 0 2:4.4012575e-07 3:0.00032496115 9:0.99999999 20:0.0019607843 21:0.019607843 22:0.5 23:0.089999999 26:0.99999999 28:0.18 29:0.0078431373 30:0.035294118 31:0.99999999 33:0.5 34:0.33 35:0.5 36:0.11 
0 0 8 8 2:1.5718777e-08 3:5.2218966e-05 26:0.99999999 29:0.90196078 30:0.0078431373 31:0.0099999999 32:0.02 37:0.82999999 
0 0 0 8 2:9.4312661e-08 20:0.011764706 21:0.011764706 26:0.99999999 29:0.078431373 30:0.30980392 31:0.99999999 33:0.99999999 34:0.03 
0 0 0 8 2:3.8511003e-06 20:0.015686275 21:0.015686275 26:0.99999999 29:0.058823529 30:0.31372549 31:0.99999999 33:0.99999999 34:0.03 
0 8 0 0 1:0.0006532593 2:3.906116e-06 3:0.00080599683 7:0.38961039 9:0.99999999 19:0.99999999 26:0.99999999 29:1 30:0.2 31:0.2 32:0.03 
0 0 0 2.2051542904080628 2:2.0120034e-06 9:0.99999999 20:0.011764706 21:0.011764706 26:0.99999999 29:1 30:0.60784314 31:0.60999999 32:0.03 33:0.61999999 36:0.0099999999 
0 0.52659688537053972 1.6879310536791539 0 22:0.99999999 23:0.99999999 26:0.99999999 29:0.082352941 30:0.011764706 31:0.14 32:0.19 33:0.05 35:0.099999999 36:0.66999999 
0 8 0 0.32637075663001924 1:0.00062992861 2:3.9270744e-06 3:0.00080599683 7:0.38961039 9:0.99999999 19:0.99999999 26:0.99999999 29:1 30:0.16470588 31:0.16 32:0.0099999999 
0 8 0 0 2:2.1411594e-05 9:0.99999999 20:0.02745098 21:0.02745098 26:0.99999999 29:0.082352941 30:0.082352941 31:0.99999999 33:0.99999999 
0 8 0 0 2:2.2889159e-05 9:0.99999999 20:0.019607843 21:0.019607843 26:0.99999999 29:0.066666667 30:0.066666667 31:0.99999999 33:0.99999999 
0 8 0 0 1:0.00072325136 2:4.0030485e-06 3:0.00080599683 7:0.32467532 9:0.99999999 19:0.99999999 26:0.99999999 29:1 30:0.16470588 31:0.16 32:0.02 
0 0 8 0 2:5.8159474e-07 3:0.00032049633 9:0.99999999 20:0.01372549 21:0.017647059 23:0.099999999 24:0.12 25:0.099999999 26:0.99999999 28:0.2 29:1 30:1 31:0.99999999 
0 2.4816095840614465 0.16717958854658377 0.31497877541588487 2:3.3952558e-06 3:6.3089829e-05 9:0.99999999 21:0.0058823529 26:0.99999999 28:0.99999999 29:0.0039215686 30:0.0039215686 31:0.99999999 33:0.99999999 
0 0 7.1381113786325345 8 2:4.0284605e-05 20:0.043137255 21:0.043137255 26:0.99999999 29:0.98431373 30:0.49803922 31:0.50999999 32:0.02 33:0.50999999 
0 0 0.10829598946271803 6.7353061280479904 2:4.3978518e-05 20:0.019607843 26:0.089999999 27:0.27 29:0.078431373 30:0.0039215686 31:0.05 32:0.2 33:0.84999999 
0 0 0 1.5665491900278896 2:1.1265123e-07 3:2.1159358e-05 20:0.0019607843 26:0.5 27:0.99999999 29:0.074509804 30:0.88627451 31:0.47 32:0.16 33:0.05 34:0.0099999999 37:0.11 
0.55445575281722859 0 0 0 2:2.6197961e-08 3:7.1825344e-06 9:0.99999999 20:0.0019607843 26:0.5 27:0.99999999 29:0.0039215686 30:0.047058824 31:0.99999999 33:0.99999999 34:0.17 
0 0 0 0.0020813978480195595 1:0.00046661378 2:6.130323e-07 3:0.00014928024 7:0.051948052 9:0.99999999 19:0.99999999 26:0.99999999 29:1 30:0.11372549 31:0.11 32:0.02 
0 0 8 0 2:1.3518148e-06 3:7.7649021e-07 20:0.55490196 21:0.55490196 26:0.99999999 29:1 30:1 31:0.99999999 33:0.99999999 
0 0 8 0 2:6.1565209e-07 3:0.00079532009 7:0.012987013 9:0.99999999 20:0.0019607843 21:0.0019607843 22:0.5 23:0.5 26:0.99999999 29:1 30:1 31:0.99999999 35:0.0099999999 36:0.0099999999 
0 0 0 8 2:2.3054206e-07 21:0.0019607843 26:0.99999999 28:0.99999999 29:0.015686275 30:0.015686275 31:0.99999999 33:0.99999999 
0 0 2.4602013579205009 0 24:0.99999999 25:0.99999999 26:0.99999999 29:0.5372549 30:0.36470588 31:0.67999999 32:0.02 33:0.0099999999 37:0.67999999 38:0.99999999 
6.9924900995021693 2.7646252606139949 0 0 1:0.013601792 2:2.2215871e-06 3:0.0049157654 7:0.012987013 9:0.99999999 10:0.12104072 11:0.99999999 12:0.5 13:0.1025641 14:0.025 26:0.99999999 29:0.0039215686 30:0.0039215686 31:0.99999999 33:0.99999999 
0 0 8 0 2:6.077927e-07 3:0.00052374264 9:0.99999999 16:0.125 20:0.0019607843 21:0.0039215686 25:0.33 26:0.99999999 28:0.66999999 29:0.21568627 30:0.21568627 31:0.99999999 33:0.02 
0 2.4248649841944823 0 0 2:5.0300086e-07 9:0.99999999 20:0.0019607843 21:0.0019607843 26:0.99999999 29:0.99607843 30:0.34117647 31:0.34 32:0.02 33:0.34 34:0.02 37:0.03 
0 0 0 2.6288471456413474 1:0.00095655826 2:2.8817758e-07 3:0.0017907805 9:0.99999999 24:0.99999999 25:0.99999999 26:0.99999999 29:0.47058824 30:0.0039215686 31:0.0099999999 32:0.079999999 33:0.0099999999 35:0.0099999999 37:0.0099999999 38:0.99999999 
0 0 8 0 2:1.3518148e-06 3:7.7649021e-07 20:0.38431373 21:0.38431373 26:0.99999999 29:0.77254902 30:0.77254902 31:0.99999999 33:0.99999999 
0 0 8 0 2:1.3518148e-06 3:7.7649021e-07 20:0.97254902 21:0.97254902 26:0.99999999 29:1 30:1 31:0.99999999 33:0.99999999 
0 0 0 0.99734221916930355 1:0.28220802 2:2.5935982e-07 3:0.00054781384 9:0.99999999 26:0.99999999 29:0.011764706 30:0.0078431373 31:0.33 32:0.66999999 33:0.33 34:0.99999999 
0 0 8 8 2:4.741831e-07 20:0.0039215686 21:0.0039215686 26:0.99999999 29:1 30:0.49803922 31:0.5 32:0.0099999999 33:0.64999999 
0 0 8 0 2:1.3518148e-06 3:7.7649021e-07 20:0.50980392 21:0.50980392 26:0.99999999 29:1 30:1 31:0.99999999 33:0.99999999 
0 0 8 0 2:1.3518148e-06 3:7.7649021e-07 20:0.86078431 21:0.86078431 26:0.99999999 29:1 30:1 31:0.99999999 33:0.99999999 
0 0 8 0 2:1.3518148e-06 3:7.7649021e-07 20:0.59607843 21:0.59607843 26:0.99999999 29:1 30:1 31:0.99999999 33:0.99999999 
0 1.3756086610419791 0 0 2:6.1827189e-07 3:0.0056683785 9:0.99999999 22:0.99999999 23:0.99999999 26:0.99999999 29:0.0039215686 30:1 31:0.99999999 33:0.99999999 34:0.04 35:0.99999999 
0 0 8 0 2:1.3518148e-06 3:7.7649021e-07 20:0.68039216 21:0.68039216 26:0.99999999 29:1 30:1 31:0.99999999 33:0.99999999 
0 0 0 8 2:1.6766695e-07 26:0.99999999 29:0.77647059 30:0.0039215686 31:0.0099999999 32:0.04 33:0.0099999999 35:0.0099999999 37:0.0099999999 
0 2.895360995348951 0 0 2:2.8817758e-08 26:0.99999999 29:1 30:0.20784314 31:0.21 32:0.02 33:0.21 35:0.4 
0 0 0 8 2:6.4185005e-07 9:0.99999999 13:0.001025641 20:0.0019607843 21:0.0019607843 26:0.99999999 29:0.3254902 30:0.23137255 31:0.079999999 32:0.85999999 33:0.069999999 34:0.03 37:0.79999999 38:0.02 
0 0 0 8 1:0.010755448 2:3.8249024e-07 3:2.0382868e-05 20:0.0019607843 21:0.0019607843 26:0.99999999 29:1 30:0.0078431373 31:0.0099999999 32:0.39 33:0.73999999 
0.42344886765088641 0 0 0 1:0.063832766 2:5.8290464e-06 3:0.0069575464 9:0.99999999 10:0.12443439 11:0.99999999 12:0.5 13:0.12410256 14:0.325 26:0.99999999 29:1 30:0.0039215686 32:0.02 
0 0 8 0 2:1.3518148e-06 3:7.7649021e-07 20:0.78823529 21:0.78823529 26:0.99999999 29:1 30:1 31:0.99999999 33:0.99999999 
0 0 1.3299094297678842 0 2:8.1999619e-07 3:0.0049538134 9:0.99999999 20:0.0019607843 21:0.0019607843 26:0.99999999 29:1 30:1 31:0.99999999 37:0.0099999999 38:0.0099999999 
0 0 0 8 2:3.8249024e-07 26:0.99999999 29:1 30:0.011764706 31:0.0099999999 32:0.4 33:0.79999999 
0 0 1.2029057222289501 0 2:5.7373535e-07 3:0.00015277445 9:0.99999999 20:0.0039215686 21:0.0039215686 22:0.33 23:0.33 26:0.99999999 29:1 30:1 31:0.99999999 
0 0 0 0.49726070367824043 21:0.0019607843 24:0.99999999 25:0.99999999 26:0.99999999 28:0.99999999 
0.44102672221879857 8 0 0 2:1.0033819e-06 9:0.99999999 26:0.99999999 29:0.011764706 30:0.011764706 31:0.99999999 33:0.99999999 
0 0 1.3082643293819887 0 2:7.8593884e-08 3:1.6112172e-05 21:0.0058823529 26:0.99999999 28:0.74999999 29:0.22352941 30:0.79607843 31:0.69999999 32:0.04 33:0.69999999 34:0.0099999999 35:0.02 37:0.23 
0 0 8 0 2:1.3518148e-06 3:7.7649021e-07 20:0.81568627 21:0.81568627 26:0.99999999 29:1 30:1 31:0.99999999 33:0.99999999 
0 0 0 5.1354220554255487 2:2.6197961e-08 3:3.3583201e-05 26:0.99999999 29:0.0078431373 30:0.0039215686 31:0.5 32:0.99999999 33:0.5 
0 0 0 8 2:3.8511003e-06 20:0.01372549 21:0.01372549 26:0.99999999 29:0.10980392 30:0.078431373 31:0.70999999 32:0.069999999 33:0.70999999 
0 1.0315805587237172 0 0 2:4.9776127e-08 9:0.99999999 20:0.0019607843 21:0.0019607843 26:0.99999999 29:0.02745098 30:0.22352941 31:0.85999999 32:0.29 33:0.85999999 34:0.04 
0 0 8 0 2:3.8249024e-07 3:8.2113839e-05 9:0.99999999 26:0.99999999 29:0.0078431373 30:0.0078431373 31:0.99999999 33:0.5 37:0.5 38:0.5 
0 0 0 8 1:0.025173814 2:2.9341717e-07 3:8.7355148e-06 20:0.0058823529 21:0.0058823529 26:0.99999999 29:0.42352941 30:0.3254902 31:0.76999999 32:0.02 33:0.76999999 
0 0 8 0 2:6.3923026e-07 3:0.00044551126 9:0.99999999 20:0.0078431373 21:0.01372549 26:0.99999999 28:0.25 29:0.58039216 30:0.58039216 31:0.99999999 33:0.0099999999 
0 0 0 8 2:7.8593884e-08 20:0.0058823529 26:0.25 27:0.5 29:1 30:0.14117647 31:0.14 32:0.0099999999 33:0.65999999 
0 0 1.4669045419431652 0 1:0.00027996827 2:0.0029504773 3:0.0031183847 9:0.99999999 26:0.99999999 29:0.039215686 30:0.035294118 31:0.89999999 32:0.2 33:0.099999999 35:0.099999999 36:0.11 37:0.099999999 38:0.11 
0 5.2629004333822005 0 0 2:3.9558922e-07 9:0.99999999 26:0.99999999 29:1 30:0.44313725 31:0.44 32:0.05 33:0.48 35:0.0099999999 36:0.02 
0 0 0 0.37634809362266985 2:1.2051062e-07 3:2.659479e-05 20:0.021568627 21:0.10784314 26:0.99999999 28:0.04 29:0.12941176 30:0.81568627 31:0.99999999 33:0.99999999 34:0.0099999999 
0 8 0 0 1:0.00072325136 2:2.2215871e-06 3:0.00050200092 7:0.23376623 9:0.99999999 19:0.99999999 26:0.99999999 29:1 30:0.14509804 31:0.15 32:0.02 
0 0 8 0 1:9.3322757e-05 2:6.6018863e-07 3:0.053101059 7:0.012987013 9:0.99999999 26:0.99999999 29:1 30:0.96862745 31:0.96999999 32:0.0099999999 
0 0 8 0 2:5.9207393e-07 3:0.00048666524 9:0.99999999 20:0.0058823529 21:0.0078431373 25:0.2 26:0.99999999 28:0.4 29:1 30:0.91764706 31:0.91999999 32:0.0099999999 35:0.0099999999 36:0.0099999999 
0 0 8 0 2:5.8159474e-07 3:0.0002513887 9:0.99999999 26:0.99999999 29:0.08627451 30:0.08627451 31:0.99999999 33:0.05 
0 8 0 0 2:1.5881204e-05 9:0.99999999 20:0.0058823529 21:0.0058823529 26:0.99999999 29:0.043137255 30:0.20392157 31:0.90999999 32:0.18 33:0.90999999 34:0.04 
0 0 0 8 2:7.8593884e-08 26:0.99999999 29:0.15294118 30:0.35294118 31:0.96999999 32:0.05 33:0.96999999 34:0.3 
0 8 0 0 2:6.4185005e-07 9:0.99999999 13:0.001025641 20:0.0019607843 21:0.0019607843 26:0.99999999 29:0.0039215686 30:0.0039215686 31:0.99999999 33:0.99999999 
0 0 0 8 2:1.3518148e-06 3:7.7649021e-07 20:0.033333333 21:0.033333333 26:0.99999999 29:0.070588235 30:0.070588235 31:0.99999999 33:0.99999999 
0 0 8 0 2:1.3518148e-06 3:7.7649021e-07 20:0.52941176 21:0.52941176 26:0.99999999 29:1 30:1 31:0.99999999 33:0.99999999 
0 0 8 0 2:5.4753739e-07 3:0.00038145081 9:0.99999999 20:0.056862745 21:0.056862745 26:0.99999999 29:1 30:1 31:0.99999999 37:0.32 38:0.32 
0 0 8 0 9:0.99999999 20:0.0019607843 21:0.0019607843 24:0.5 25:0.5 26:0.99999999 29:0.74509804 30:1 31:0.99999999 33:0.0099999999 34:0.03 37:0.02 38:0.0099999999 
0 0 0 8 2:1.2575021e-07 3:9.3178825e-06 26:0.99999999 29:0.79607843 30:0.40392157 31:0.50999999 32:0.0099999999 33:0.50999999 
0 0 0 6.6274700926596326 2:2.3578165e-08 3:5.2218966e-05 26:0.99999999 29:0.99607843 30:0.023529412 31:0.02 32:0.02 37:0.05 
0 8 0 0 2:3.1437554e-08 9:0.99999999 20:0.0019607843 21:0.0019607843 26:0.99999999 29:0.023529412 30:0.10196078 31:0.99999999 33:0.99999999 34:0.079999999 
0 0 0 8 2:7.8593884e-08 20:0.0019607843 21:0.0019607843 26:0.99999999 29:0.10980392 30:0.10980392 31:0.99999999 33:0.99999999 
0 0 0 8 1:0.00067658999 2:2.8817758e-07 3:6.4060442e-06 26:0.99999999 29:0.094117647 30:0.074509804 31:0.78999999 32:0.079999999 33:0.78999999 
0 0 8 0 2:5.9993332e-07 3:0.00020868174 9:0.99999999 20:0.011764706 21:0.011764706 26:0.99999999 29:0.3372549 30:0.31764706 31:0.93999999 32:0.02 33:0.0099999999 
0 0 8 0 2:4.2964657e-07 3:0.0015690926 9:0.99999999 20:0.011764706 21:0.011764706 26:0.99999999 29:1 30:1 31:0.99999999 37:0.29 38:0.29 
0 0 8 0 2:7.8593884e-08 20:0.0019607843 21:0.0019607843 26:0.99999999 29:1 30:0.015686275 31:0.02 32:0.0099999999 33:0.089999999 
0 0 0 8 2:2.6721921e-07 26:0.99999999 29:0.062745098 30:0.054901961 31:0.87999999 32:0.12 33:0.87999999 
0 0 0 1.6979144145151663 2:3.636277e-06 3:7.5901918e-05 9:0.99999999 20:0.0019607843 24:0.5 26:0.5 27:0.99999999 29:1 30:0.039215686 31:0.04 32:0.089999999 35:0.86999999 37:0.0099999999 
0 0 8 8 2:7.8593884e-08 20:0.0019607843 21:0.0019607843 26:0.99999999 29:0.8627451 30:0.8627451 31:0.99999999 33:0.99999999 
0 8 0 0 2:1.6792893e-06 9:0.99999999 26:0.99999999 29:0.047058824 30:0.29019608 31:0.91999999 32:0.17 33:0.91999999 34:0.04 
0 0 8 0 2:4.768029e-07 20:0.0098039216 21:0.0098039216 26:0.99999999 29:1 30:0.066666667 31:0.069999999 32:0.0099999999 33:0.089999999 
0 0 0.39578863909190098 0 20:1 25:0.99999999 29:0.91372549 30:0.76470588 31:0.83999999 32:0.0099999999 37:0.83999999 38:0.99999999 
0 0 0 8 2:7.8593884e-08 26:0.99999999 29:0.16862745 30:0.51372549 31:0.99999999 33:0.99999999 34:0.34 
0 0 0 7.1464548724268901 2:1.2575021e-07 3:1.902401e-05 20:0.0039215686 21:0.011764706 26:0.99999999 28:0.43 29:0.011764706 30:0.28627451 31:0.99999999 33:0.99999999 34:0.03 
0 0 1.4964610238232701 0 1:6.9992068e-05 2:5.2291131e-06 3:6.3866319e-05 9:0.99999999 21:0.0039215686 26:0.99999999 28:0.99999999 29:0.011764706 30:0.011764706 31:0.99999999 33:0.33 
0 7.9476669537225977 0 0 2:1.0033819e-06 9:0.99999999 20:0.0019607843 21:0.0019607843 26:0.99999999 29:0.14509804 30:0.3372549 31:0.88999999 32:0.05 33:0.88999999 34:0.03 
0 0 8 0 2:7.7283986e-07 3:0.00049132418 9:0.99999999 20:0.0039215686 21:0.0039215686 26:0.99999999 29:0.54509804 30:0.54509804 31:0.99999999 33:0.0099999999 
0 4.9317161938794296 0 1.0536109608035589 2:2.6197961e-08 3:7.1825344e-06 9:0.99999999 20:0.0019607843 26:0.5 27:0.99999999 29:0.0039215686 30:0.054901961 31:0.99999999 33:0.99999999 34:0.21 
0 8 0 0 2:2.3158998e-06 9:0.99999999 26:0.99999999 29:0.02745098 30:0.023529412 31:0.85999999 32:0.29 33:0.85999999 
1.4111993246993151 0 0 0 1:0.00013998414 2:2.724588e-07 3:0.00030166645 9:0.99999999 26:0.99999999 29:1 30:0.0039215686 32:0.02 
0 0 4.9947409105760334 0 2:6.4446985e-07 3:0.0020571167 9:0.99999999 20:0.0078431373 21:0.0078431373 26:0.99999999 29:0.066666667 30:0.066666667 31:0.99999999 33:0.059999999 
0 0 0.7322913349399911 0 1:0.1132005 2:3.8249024e-07 3:2.0382868e-05 20:0.0019607843 21:0.0019607843 26:0.99999999 29:0.035294118 30:0.0078431373 31:0.22 32:0.66999999 33:0.99999999 
0 8 0 0 1:0.0006532593 2:2.596218e-06 3:0.00059809158 7:0.28571429 9:0.99999999 19:0.99999999 26:0.99999999 29:1 30:0.18431373 31:0.18 32:0.02 37:0.059999999 38:0.13 
0 0 0 4.4908743022155315 2:3.0022864e-06 3:6.54193e-05 9:0.99999999 26:0.99999999 29:0.0078431373 30:0.50588235 31:0.5 32:0.99999999 33:0.5 34:0.02 36:0.02 
1.5705492762434761 0 4.9690845294904076 0 2:6.8638659e-07 3:0.00017975748 9:0.99999999 26:0.99999999 29:0.0078431373 30:0.0078431373 31:0.99999999 33:0.5 
0 0 8 0 2:1.5433219e-05 20:0.031372549 21:0.031372549 26:0.99999999 29:1 30:0.36078431 31:0.36 32:0.03 33:0.36 
0 0 8 0 2:7.6498047e-07 3:0.0019761676 9:0.99999999 20:0.011764706 21:0.011764706 26:0.99999999 29:0.63137255 30:0.63137255 31:0.99999999 33:0.0099999999 
0 0 0 6.5994169587320828 2:9.2203725e-05 20:0.039215686 22:0.05 26:0.05 27:0.75999999 29:1 30:0.0039215686 32:0.069999999 33:0.46 
0 0 0 8 2:7.8593884e-08 26:0.99999999 29:0.23137255 30:0.51372549 31:0.99999999 33:0.99999999 34:0.28 
0 0 0 8 2:7.8593884e-08 26:0.99999999 29:0.062745098 30:0.35686275 31:0.99999999 33:0.99999999 34:0.43 
0 8 0 0 1:0.00032662965 2:3.6677146e-07 3:0.00062546286 9:0.99999999 26:0.99999999 29:0.0039215686 30:0.015686275 31:0.99999999 33:0.99999999 34:0.74999999 38:0.25 
0 0 0 8 2:1.1527103e-07 3:2.1353481e-05 26:0.99999999 29:0.043137255 30:0.88235294 31:0.90999999 32:0.18 33:0.90999999 34:0.0099999999 
0 0 8 0 2:1.3518148e-06 3:7.7649021e-07 20:0.67254902 21:0.67254902 26:0.99999999 29:1 30:1 31:0.99999999 33:0.99999999 
0 0 8 0 2:6.9686577e-07 3:0.00014966849 9:0.99999999 20:0.021568627 21:0.023529412 26:0.99999999 28:0.15 29:1 30:1 31:0.99999999 37:0.089999999 38:0.089999999 
0 8 0 0 1:0.00062992861 2:2.3761551e-06 3:0.00050200092 7:0.23376623 9:0.99999999 19:0.99999999 26:0.99999999 29:0.99215686 30:0.18431373 31:0.19 32:0.02 37:0.05 38:0.11 
0 8 0 0 1:0.00060659792 2:2.2897018e-06 3:0.00050200092 7:0.23376623 9:0.99999999 19:0.99999999 26:0.99999999 29:0.94117647 30:0.20392157 31:0.22 32:0.02 
0 0 0 3.0769904933720653 24:0.99999999 25:0.99999999 26:0.99999999 29:1 30:0.011764706 31:0.0099999999 32:0.059999999 33:0.0099999999 35:0.62999999 37:0.03 38:0.99999999 
0 0 0 6.8780356383161934 2:3.2747452e-07 3:4.5812922e-05 9:0.99999999 26:0.99999999 29:0.35294118 30:0.31764706 31:0.22 32:0.78999999 33:0.0099999999 34:0.02 37:0.71999999 
0 2.9082638183216054 5.094539803918348 0 1:0.41768933 2:1.5273411e-05 3:0.023749535 7:1 9:0.99999999 10:0.0067873303 13:0.001025641 14:0.475 26:0.99999999 29:1 30:0.14901961 31:0.15 32:0.059999999 35:0.55999999 36:0.29 37:0.04 38:0.11 
0 0 0 8 2:7.8593884e-08 26:0.99999999 29:0.070588235 30:0.48627451 31:0.99999999 33:0.99999999 34:0.44 
0 8 0 0 1:0.00062992861 2:3.1961513e-06 3:0.00065613422 7:0.31168831 9:0.99999999 19:0.99999999 26:0.99999999 29:0.9372549 30:0.10980392 31:0.12 32:0.03 
0 0 8 0 2:5.8945413e-07 3:0.0002857484 9:0.99999999 20:0.0098039216 21:0.0098039216 26:0.99999999 29:0.074509804 30:0.074509804 31:0.99999999 33:0.05 
0 0 0.043371169281792576 2.6273002532317347 20:0.0019607843 22:0.5 23:0.99999999 26:0.5 27:0.99999999 29:1 30:0.0039215686 32:0.84999999 36:0.99999999 
0 0 4.0202420481183294 8 2:3.8511003e-07 26:0.99999999 29:0.0039215686 30:0.0039215686 31:0.99999999 33:0.99999999 
0 0 8 2.3288675122787259 2:1.3518148e-06 3:7.7649021e-07 20:0.46862745 21:0.46862745 26:0.99999999 29:0.94117647 30:0.94117647 31:0.99999999 33:0.99999999 
0 0 0 0.038238960270808739 1:0.11761 3:0.99612512 26:0.99999999 29:1 30:0.25490196 31:0.25 32:0.02 35:0.74999999 36:0.84999999 
0 8 0 0 1:0.00069992068 2:2.7429266e-06 3:0.00059809158 7:0.28571429 9:0.99999999 19:0.99999999 26:0.99999999 29:0.78039216 30:0.1372549 31:0.18 32:0.04 33:0.0099999999 35:0.02 
0 8 0 0 1:0.00067658999 2:3.9401734e-06 3:0.00080599683 7:0.38961039 9:0.99999999 19:0.99999999 26:0.99999999 29:0.70980392 30:0.078431373 31:0.11 32:0.04 33:0.0099999999 35:0.0099999999 
0 8 0 0 2:1.0185767e-05 9:0.99999999 20:0.0039215686 21:0.0039215686 26:0.99999999 29:0.011764706 30:0.27058824 31:0.99999999 33:0.99999999 34:0.03 36:0.0099999999 
0 0 8 0 2:5.0038106e-07 3:0.00011725002 9:0.99999999 20:0.0078431373 21:0.0078431373 26:0.99999999 29:0.14117647 30:0.14117647 31:0.99999999 33:0.03 
0 0 8 0 2:8.5143375e-07 3:0.002501075 9:0.99999999 20:0.0098039216 21:0.0098039216 26:0.99999999 29:0.71764706 30:0.71764706 31:0.99999999 33:0.0099999999 
0 0 0 8 2:7.8593884e-08 26:0.99999999 29:0.023529412 30:0.35686275 31:0.99999999 33:0.99999999 34:0.48 
0 0 0 0.20086617734330181 2:1.220825e-05 3:7.1825344e-05 9:0.99999999 21:0.0039215686 26:0.99999999 28:0.99999999 29:0.015686275 30:0.95294118 31:0.74999999 32:0.5 33:0.25 34:0.02 
0 0 8 0 2:4.086882e-07 3:5.9595623e-05 9:0.99999999 26:0.99999999 29:0.14117647 30:0.14117647 31:0.99999999 33:0.03 
0 0 0 8 2:5.2657902e-07 9:0.99999999 26:0.99999999 29:0.36862745 30:0.2745098 31:0.19 32:0.75999999 33:0.18 34:0.03 37:0.69999999 38:0.0099999999 
0 0 8 0 2:5.6587597e-07 3:0.00049132418 9:0.99999999 20:0.01372549 21:0.01372549 26:0.99999999 29:0.41176471 30:0.41176471 31:0.99999999 33:0.0099999999 
0 0 8 0 2:7.8855864e-07 3:0.00048666524 9:0.99999999 20:0.0078431373 21:0.0078431373 26:0.99999999 29:0.36470588 30:0.35294118 31:0.96999999 32:0.02 33:0.0099999999 
0 8 0 0 1:0.0006532593 2:2.7796037e-06 3:0.00059809158 7:0.28571429 9:0.99999999 19:0.99999999 26:0.99999999 29:1 30:0.17647059 31:0.18 32:0.03 
0 0 0.49293969589671327 0 24:0.99999999 25:0.99999999 26:0.99999999 29:0.047058824 30:0.047058824 31:0.99999999 33:0.079999999 37:0.99999999 38:0.99999999 
0 0.27770419303984045 0 0 1:0.00083990481 2:2.6355149e-06 3:0.00059809158 7:0.28571429 9:0.99999999 19:0.99999999 26:0.99999999 29:0.054901961 30:0.0039215686 31:0.069999999 32:0.14 33:0.069999999 
3.743862009241659 0 0 0 2:4.8466229e-07 3:0.0015894755 7:0.012987013 9:0.99999999 11:0.99999999 26:0.99999999 29:0.043137255 30:0.65882353 31:0.99999999 33:0.089999999 34:0.05 
0 0 8 0 2:7.9903782e-07 3:0.00096634206 9:0.99999999 20:0.017647059 21:0.017647059 26:0.99999999 29:0.41960784 30:0.45098039 31:0.99999999 33:0.0099999999 34:0.03 36:0.0099999999 
0 8 0 0 2:5.0300086e-07 9:0.99999999 20:0.0019607843 21:0.0019607843 26:0.99999999 29:0.10588235 30:0.25098039 31:0.84999999 32:0.11 33:0.84999999 34:0.05 36:0.02 
0 0 8 0 2:1.3518148e-06 3:7.7649021e-07 20:0.74509804 21:0.74509804 26:0.99999999 29:1 30:1 31:0.99999999 33:0.99999999 
0 0 8 0 1:4.6661378e-05 2:5.3684862e-05 3:0.0030213234 9:0.99999999 26:0.99999999 29:0.02745098 30:0.02745098 31:0.99999999 33:0.14 35:0.14 36:0.14 37:0.14 38:0.14 
0 0 0 8 2:3.1437554e-08 26:0.99999999 29:0.21568627 30:0.43137255 31:0.63999999 32:0.069999999 33:0.63999999 34:0.02 35:0.02 
0 0 0 8 2:7.8593884e-08 20:0.0019607843 21:0.0019607843 26:0.99999999 29:0.81568627 30:0.81568627 31:0.99999999 33:0.99999999 
0 0 0 3.1953340419388958 24:0.99999999 25:0.99999999 26:0.99999999 29:0.011764706 30:0.0078431373 31:0.66999999 32:0.66999999 33:0.33 37:0.66999999 38:0.99999999 
0 8 0 0 2:8.2261599e-07 3:0.0032624236 9:0.99999999 21:0.062745098 26:0.99999999 28:0.12 29:0.0039215686 30:0.18431373 31:0.99999999 33:0.99999999 34:0.059999999 
0 0 8 0 2:4.5322473e-07 3:0.002307923 9:0.99999999 20:0.011764706 21:0.011764706 26:0.99999999 29:0.83529412 30:0.83529412 31:0.99999999 
0 0.18633206507218975 1.1384136046787945 0 22:0.99999999 23:0.99999999 26:0.99999999 29:0.031372549 30:0.49803922 31:0.99999999 33:0.12 34:0.16 35:0.99999999 36:0.059999999 38:0.93999999 
0 0 8 0 2:1.3518148e-06 3:7.7649021e-07 20:0.78039216 21:0.78039216 26:0.99999999 29:1 30:1 31:0.99999999 33:0.99999999 
0 0 8 0 2:1.7814614e-07 3:8.3472697e-06 20:0.26078431 21:0.26078431 26:0.99999999 29:1 30:0.65098039 31:0.64999999 32:0.0099999999 33:0.28 
0 0 0 8 1:2.3330689e-05 2:2.7507859e-07 3:2.8341893e-05 20:0.0019607843 21:0.0019607843 26:0.99999999 29:0.0078431373 30:0.0078431373 31:0.99999999 33:0.99999999 
0 0 8 0 2:5.6587597e-07 3:0.00013763289 9:0.99999999 20:0.015686275 21:0.029411765 26:0.99999999 28:0.19 29:0.53333333 30:0.5372549 31:0.99999999 33:0.0099999999 34:0.0099999999 
0 0 8 0 2:4.7942269e-07 20:0.0098039216 21:0.0098039216 26:0.99999999 29:1 30:0.098039216 31:0.099999999 32:0.0099999999 33:0.11 
0 0 8 0 2:6.9686577e-07 3:0.00047055306 9:0.99999999 21:0.0039215686 25:0.66999999 26:0.99999999 28:0.99999999 29:1 30:0.92156863 31:0.91999999 32:0.02 37:0.0099999999 
0 0 8 0 2:4.8204249e-07 3:0.00032030221 9:0.99999999 20:0.0078431373 21:0.0098039216 25:0.17 26:0.99999999 28:0.33 29:1 30:0.97254902 31:0.96999999 32:0.0099999999 
0 0 0 7.3700016292710195 2:5.4753739e-07 20:0.0019607843 21:0.0019607843 26:0.99999999 29:0.023529412 30:0.050980392 31:0.66999999 32:0.33 33:0.66999999 34:0.15 36:0.079999999 
0 0 8 0 2:5.8945413e-07 3:0.00013646815 9:0.99999999 20:0.0098039216 21:0.0098039216 26:0.99999999 29:0.82745098 30:1 31:0.99999999 34:0.02 37:0.33 38:0.34 
0 0 8 0 2:7.440221e-07 3:0.00018266932 9:0.99999999 20:0.01372549 21:0.043137255 26:0.99999999 28:0.089999999 29:0.41568627 30:0.41568627 31:0.99999999 33:0.0099999999 
0 0 0 8 2:1.2575021e-07 3:9.3178825e-06 26:0.99999999 29:1 30:0.67058824 31:0.66999999 32:0.0099999999 33:0.66999999 
0 0 8 0 2:8.3309517e-07 3:0.00027196569 9:0.99999999 20:0.02745098 21:0.02745098 26:0.99999999 29:0.30980392 30:0.34117647 31:0.99999999 33:0.0099999999 34:0.03 36:0.0099999999 
0 0 0.58109177752687791 0 1:0.15286268 2:2.2477851e-06 3:0.0010682564 9:0.99999999 20:0.023529412 21:0.0098039216 24:0.38 25:0.82999999 26:0.46 27:0.15 29:0.58039216 30:0.10196078 31:0.18 32:0.02 33:0.0099999999 37:0.13 38:0.72999999 
0 0 0.38695161035589998 0 1:0.0006532593 2:2.2399257e-06 3:0.00050200092 7:0.22077922 9:0.99999999 19:0.99999999 26:0.99999999 29:0.031372549 30:0.031372549 31:0.99999999 33:0.12 
0 0 8 0 1:0.01556157 2:0.0012750548 3:0.044963442 9:0.99999999 20:0.0019607843 21:0.0019607843 26:0.99999999 29:0.015686275 30:0.015686275 31:0.99999999 33:0.25 37:0.25 38:0.25 
0 0 8 0 2:5.1348004e-07 3:0.0018028161 9:0.99999999 20:0.0078431373 21:0.0078431373 24:0.2 25:0.2 26:0.99999999 29:0.8627451 30:1 31:0.99999999 34:0.0099999999 35:0.0099999999 36:0.0099999999 
0 0 0.4933218992111289 0 24:0.99999999 25:0.99999999 26:0.99999999 29:0.34117647 30:0.22745098 31:0.66999999 32:0.069999999 33:0.0099999999 35:0.02 37:0.65999999 38:0.96999999 
0 0 8 0 2:9.6408498e-07 3:0.0011528938 9:0.99999999 20:0.02745098 21:0.033333333 24:0.069999999 25:0.059999999 26:0.99999999 28:0.17 29:0.53333333 30:0.58039216 31:0.99999999 33:0.0099999999 34:0.03 35:0.0099999999 36:0.0099999999 37:0.0099999999 38:0.0099999999 
0 0 0 8 2:1.4854244e-06 26:0.99999999 29:0.10980392 30:0.16862745 31:0.88999999 32:0.069999999 33:0.88999999 34:0.05 
0 0 8 8 2:7.8593884e-08 26:0.99999999 29:0.9254902 30:0.9254902 31:0.99999999 33:0.99999999 
0 0 8 0 2:1.3518148e-06 3:7.7649021e-07 20:0.44901961 21:0.44901961 26:0.99999999 29:0.90196078 30:0.90196078 31:0.99999999 33:0.99999999 
0 0 0 1.6753785579899159 2:4.9435553e-06 3:7.5901918e-05 9:0.99999999 20:0.0019607843 26:0.5 27:0.99999999 29:1 30:0.043137255 31:0.04 32:0.059999999 37:0.94999999 
0 0 0.90496068260461782 8 2:1.2575021e-07 3:9.3178825e-06 20:0.20980392 26:0.0099999999 27:0.02 29:1 30:0.0039215686 32:0.0099999999 
0 0 0 8 1:0.056016985 2:3.8511003e-07 3:2.0382868e-05 20:0.0078431373 26:0.2 27:0.59999999 29:1 30:0.0039215686 32:0.48 33:0.94999999 
0 0 0 8 2:2.69839e-06 20:0.01372549 21:0.01372549 26:0.99999999 29:0.031372549 30:0.36470588 31:0.99999999 33:0.99999999 34:0.02 
0 0 6.9459097021606366 0 2:9.3264743e-07 3:0.00047191192 9:0.99999999 20:0.0019607843 21:0.0019607843 26:0.99999999 29:1 30:1 31:0.99999999 37:0.0099999999 38:0.0099999999 
0 8 0 0 1:0.00062992861 2:2.4573688e-06 3:0.00052801334 7:0.24675325 9:0.99999999 19:0.99999999 26:0.99999999 29:0.80392157 30:0.24705882 31:0.31 32:0.03 
0 6.8438188903309234 0 0 1:0.00048994447 2:5.8945413e-07 3:0.000148892 7:0.051948052 9:0.99999999 19:0.99999999 26:0.99999999 29:1 30:0.2745098 31:0.27 32:0.02 
0 8 0 0 1:0.0006532593 2:2.467848e-06 3:0.00052665448 7:0.24675325 9:0.99999999 19:0.99999999 26:0.99999999 29:0.96078431 30:0.25882353 31:0.27 32:0.03 
0 0 8 0 2:9.0382967e-07 3:0.0017754449 9:0.99999999 20:0.0098039216 21:0.023529412 23:0.079999999 24:0.17 25:0.079999999 26:0.99999999 28:0.15 29:1 30:1 31:0.99999999 
0 0 0 8 1:0.29550651 2:5.0326284e-06 3:0.0020324631 24:0.99999999 25:0.99999999 26:0.99999999 29:0.031372549 30:0.0078431373 31:0.25 32:0.25 33:0.12 37:0.25 38:0.99999999 
0 0 0 8 2:1.6766695e-07 20:0.0019607843 26:0.5 27:0.99999999 29:0.83529412 30:0.0039215686 32:0.069999999 
0 0 0 8 2:7.8593884e-08 26:0.99999999 29:0.14509804 30:0.35294118 31:0.96999999 32:0.05 33:0.96999999 34:0.31 
0 0 8 0 2:6.3399067e-07 3:8.6578658e-05 9:0.99999999 20:0.01372549 21:0.01372549 26:0.99999999 29:0.26666667 30:0.26666667 31:0.99999999 33:0.0099999999 
0 8 0 0 2:6.4185005e-07 9:0.99999999 13:0.001025641 20:0.0019607843 21:0.0019607843 26:0.99999999 29:0.0078431373 30:0.0078431373 31:0.99999999 33:0.99999999 
3.1200082295614284 0 0 0.51513347223276795 1:0.0030096589 2:5.3443841e-07 3:0.0058364886 9:0.99999999 10:0.0011312217 11:0.99999999 13:0.0030769231 26:0.99999999 29:0.0039215686 30:0.011764706 31:0.99999999 33:0.99999999 34:0.99999999 
0 0 8 0 2:7.8069925e-07 3:0.002501075 9:0.99999999 20:0.0039215686 21:0.0039215686 26:0.99999999 29:0.57254902 30:0.57254902 31:0.99999999 33:0.0099999999 
0 0 8 0 2:1.3518148e-06 3:7.7649021e-07 20:0.79607843 21:0.79607843 26:0.99999999 29:1 30:1 31:0.99999999 33:0.99999999 
0 0 8 0 2:1.1265123e-07 3:2.5041809e-05 20:0.14117647 21:0.43529412 26:0.99999999 28:0.02 29:0.83529412 30:0.76862745 31:0.80999999 32:0.0099999999 33:0.72999999 34:0.0099999999 37:0.069999999 
0 8 0 0 2:7.5974088e-07 3:0.00011627941 9:0.99999999 20:0.0019607843 21:0.0019607843 26:0.99999999 29:0.0039215686 30:0.0039215686 31:0.99999999 33:0.99999999 
0 8 0 0 2:1.9622273e-06 9:0.99999999 20:0.0058823529 21:0.0058823529 26:0.99999999 29:0.047058824 30:0.039215686 31:0.82999999 32:0.17 33:0.82999999 
0 8 0 0 2:2.2965133e-05 9:0.99999999 20:0.0098039216 21:0.0098039216 26:0.99999999 29:0.047058824 30:0.38039216 31:0.99999999 33:0.99999999 34:0.02 36:0.0099999999 
0 0 8 0 2:1.3518148e-06 3:7.7649021e-07 20:0.72941176 21:0.72941176 26:0.99999999 29:1 30:1 31:0.99999999 33:0.99999999 
0 0 0 1.0939067183148032 2:4.4012575e-06 3:0.0032872713 9:0.99999999 11:0.99999999 12:1 13:0.0051282051 14:0.1 20:0.0019607843 22:0.5 23:0.99999999 24:0.5 26:0.5 27:0.99999999 29:1 30:0.011764706 31:0.0099999999 32:0.02 36:0.33 37:0.73999999 38:0.33 
0 0 1.5403344638437708 0 2:4.3226636e-07 3:0.0014611604 9:0.99999999 21:0.0039215686 26:0.99999999 28:0.99999999 29:0.32941176 30:0.96470588 31:0.99999999 33:0.0099999999 34:0.13 37:0.32 38:0.50999999 
0 0 8 0 2:6.7328761e-07 3:0.00060876832 9:0.99999999 26:0.99999999 29:0.38823529 30:0.36078431 31:0.92999999 32:0.02 33:0.0099999999 
0 0 8 0 2:1.3518148e-06 3:7.7649021e-07 20:0.74117647 21:0.74117647 26:0.99999999 29:1 30:1 31:0.99999999 33:0.99999999 
0 0 0 4.6511358969257834 2:2.6313232e-05 20:0.019607843 22:0.089999999 26:0.089999999 27:0.27 29:0.89019608 30:0.0039215686 32:0.04 33:0.4 35:0.02 
0 0 8 0 2:8.0689721e-07 3:0.00010734977 9:0.99999999 20:0.0019607843 21:0.0019607843 26:0.99999999 29:0.1254902 30:0.1372549 31:0.99999999 33:0.03 34:0.059999999 36:0.059999999 38:0.03 
0 0 2.1378999883519803 0 2:3.379537e-07 3:8.7355148e-06 20:0.56078431 21:0.55882353 26:0.99999999 27:0.0099999999 29:0.69019608 30:0.56078431 31:0.80999999 32:0.0099999999 33:0.39 
0 0 8 0 2:4.5846432e-07 3:0.0035419601 9:0.99999999 21:0.0019607843 25:0.5 26:0.99999999 28:0.99999999 29:1 30:0.97254902 31:0.96999999 32:0.0099999999 
0 0 8 0 2:6.1827189e-07 3:0.00048666524 9:0.99999999 20:0.0039215686 21:0.0058823529 25:0.25 26:0.99999999 28:0.5 29:1 30:0.94509804 31:0.94999999 32:0.02 37:0.03 38:0.03 
0 0 8 0 2:8.6191293e-07 3:0.00022887049 9:0.99999999 20:0.01372549 21:0.01372549 26:0.99999999 29:0.094117647 30:0.094117647 31:0.99999999 33:0.04 
0 8 0 0 1:0.00069992068 2:3.2144899e-06 3:0.00065613422 7:0.31168831 9:0.99999999 19:0.99999999 26:0.99999999 29:0.95294118 30:0.23529412 31:0.25 32:0.02 
0 0 8 0 2:1.3518148e-06 3:7.7649021e-07 20:0.89215686 21:0.89215686 26:0.99999999 29:1 30:1 31:0.99999999 33:0.99999999 
0 0 8 0 2:5.422978e-07 3:6.6389913e-05 9:0.99999999 20:0.039215686 21:0.047058824 24:0.05 25:0.12 26:0.99999999 28:0.079999999 29:1 30:1 31:0.99999999 
0 8 0 0 1:0.00062992861 2:3.0939792e-06 3:0.00065613422 7:0.31168831 9:0.99999999 19:0.99999999 26:0.99999999 29:1 30:0.18039216 31:0.18 32:0.03 
0 0 8 0 2:7.9903782e-07 3:0.00044551126 9:0.99999999 26:0.99999999 29:0.8745098 30:0.8745098 31:0.99999999 
0 0 0 0.070125241526883791 22:0.99999999 23:0.99999999 26:0.99999999 29:0.062745098 30:0.0078431373 31:0.059999999 32:0.25 33:0.059999999 34:0.99999999 35:0.059999999 36:0.5 
0 0 1.6272533168416994 0 2:3.7463085e-07 3:0.010060013 7:0.038961039 9:0.99999999 21:0.01372549 26:0.99999999 28:0.38 29:1 30:1 31:0.99999999 
0 8 0 0 1:0.00072325136 2:2.8162808e-06 3:0.00059809158 7:0.28571429 9:0.99999999 19:0.99999999 26:0.99999999 29:1 30:0.23529412 31:0.24 32:0.03 
0 8 0 0 2:6.759074e-07 3:0.00027060684 7:0.012987013 9:0.99999999 11:0.99999999 20:0.033333333 21:0.033333333 26:0.99999999 29:1 30:1 31:0.99999999 
0 4.1410034381438168 0 0 1:0.00060659792 2:9.4574641e-07 3:0.00022925873 7:0.090909091 9:0.99999999 19:0.99999999 26:0.99999999 29:0.0039215686 30:0.0039215686 31:0.99999999 33:0.99999999 
0 0 0 8 1:0.021884186 2:3.8511003e-07 3:2.0382868e-05 20:0.0019607843 21:0.0019607843 26:0.99999999 29:1 30:0.0078431373 31:0.0099999999 32:0.42 33:0.84999999 
0 8 0 0 2:2.2373059e-06 9:0.99999999 20:0.0058823529 21:0.0058823529 26:0.99999999 29:0.043137255 30:0.039215686 31:0.90999999 32:0.18 33:0.90999999 
0 0 0 8 2:9.4312661e-08 20:0.021568627 21:0.021568627 26:0.99999999 29:0.098039216 30:0.30980392 31:0.99999999 33:0.99999999 34:0.03 
0 0 0.2991576526064742 0 2:9.2216824e-07 3:0.00011492055 9:0.99999999 26:0.99999999 29:0.019607843 30:0.019607843 31:0.99999999 33:0.2 35:0.2 36:0.2 
0 0 0 1.431558601733337 1:0.010078858 2:6.3137087e-07 3:0.0002401296 9:0.99999999 10:0.0011312217 20:0.0019607843 24:0.5 26:0.5 27:0.99999999 29:1 30:0.1254902 31:0.13 32:0.059999999 35:0.66999999 36:0.41 37:0.03 38:0.12 
0 0 8 0 2:6.3399067e-07 3:3.3971447e-05 9:0.99999999 26:0.99999999 29:1 30:1 31:0.99999999 37:0.0099999999 38:0.0099999999 
0 0 8 0 2:5.4753739e-07 3:0.00041153981 9:0.99999999 20:0.01372549 21:0.01372549 26:0.99999999 29:1 30:1 31:0.99999999 37:0.05 38:0.05 
0 0 1.440168345091912 0 2:4.1654759e-07 7:0.012987013 9:0.99999999 24:0.99999999 25:0.99999999 26:0.99999999 29:1 30:1 31:0.99999999 
0 8 0 0 1:0.0006532593 2:3.8327618e-06 3:0.00080599683 7:0.38961039 9:0.99999999 19:0.99999999 26:0.99999999 29:0.81568627 30:0.23137255 31:0.28 32:0.02 
0 0 0.22351789291296889 0 1:0.00062992861 2:3.9794703e-06 3:0.00080599683 7:0.38961039 9:0.99999999 19:0.99999999 26:0.99999999 29:0.28235294 30:0.14901961 31:0.52999999 32:0.069999999 33:0.0099999999 
0 0 0 0.72072462172486118 1:0.00011665345 2:2.3578165e-08 3:2.7177157e-05 20:0.0019607843 26:0.5 27:0.99999999 29:0.85098039 30:0.02745098 31:0.03 32:0.03 
0 0 8 0 2:1.3518148e-06 3:7.7649021e-07 20:0.41176471 21:0.41176471 26:0.99999999 29:0.82745098 30:0.82745098 31:0.99999999 33:0.99999999 
0 0 0 0.31532826988049689 2:2.3735353e-06 3:7.9202001e-05 9:0.99999999 14:0.025 26:0.99999999 29:0.08627451 30:0.84313725 31:0.32 32:0.089999999 33:0.05 34:0.0099999999 35:0.67999999 
0 2.1562783144610851 0 0.5222582465090615 1:0.00074658205 2:4.0344861e-07 3:4.872476e-05 8:0.75 24:0.99999999 25:0.99999999 26:0.99999999 29:0.22352941 30:0.062745098 31:0.28 32:0.11 33:0.02 35:0.02 36:0.059999999 37:0.05 38:0.19 
0.39841317569718376 0 0 0 1:0.01488498 2:0.0039818282 3:0.079608105 9:0.99999999 26:0.99999999 29:1 30:0.0039215686 32:0.03 
0 0 8 0 2:7.5712108e-07 3:0.00073378324 9:0.99999999 20:0.011764706 21:0.011764706 26:0.99999999 29:0.21176471 30:0.24705882 31:0.99999999 33:0.02 34:0.079999999 37:0.02 38:0.02 
0 0 8 0 2:1.3518148e-06 3:7.7649021e-07 20:0.69411765 21:0.69411765 26:0.99999999 29:1 30:1 31:0.99999999 33:0.99999999 
0 0.079178667423895302 0 0 2:8.3571497e-07 20:0.0019607843 26:0.5 27:0.99999999 29:1 30:0.35294118 31:0.35 32:0.04 33:0.36 36:0.0099999999 
0 0.51582405403502884 0 0 2:0.00011733543 3:0.0093378771 9:0.99999999 22:0.99999999 23:0.99999999 26:0.99999999 29:0.019607843 30:0.015686275 31:0.79999999 32:0.4 33:0.2 35:0.4 36:0.5 
0 0 8 6.7837366722625525 2:7.8593884e-08 26:0.99999999 29:0.93333333 30:0.93333333 31:0.99999999 33:0.99999999 
0 0 0 8 2:3.8511003e-07 3:2.8536015e-05 20:0.0098039216 21:0.0019607843 26:0.33 27:0.5 29:1 30:0.0078431373 31:0.0099999999 32:0.42 33:0.92999999 
0 0 0 4.1947739758015716 2:1.4854244e-06 20:0.0019607843 26:0.5 27:0.99999999 29:0.090196078 30:0.074509804 31:0.82999999 32:0.13 33:0.82999999 
0 0 1.962012118003903 0 1:0.00072325136 2:3.9637516e-06 3:0.00080599683 7:0.38961039 9:0.99999999 19:0.99999999 26:0.99999999 29:0.0039215686 30:0.0039215686 31:0.99999999 33:0.99999999 
0 6.3641190175474671 0 8 2:7.8593884e-08 26:0.99999999 29:0.023529412 30:0.02745098 31:0.99999999 33:0.99999999 34:0.29 
0 0 8 0 2:1.3518148e-06 3:7.7649021e-07 20:0.53529412 21:0.53529412 26:0.99999999 29:1 30:1 31:0.99999999 33:0.99999999 
0 0 7.2324107905681485 0 2:1.9648471e-07 3:8.9296374e-06 20:0.24509804 21:0.24509804 26:0.99999999 29:1 30:0.65098039 31:0.64999999 32:0.0099999999 33:0.25 
0 8 0 0 2:3.6677146e-08 3:7.9590246e-06 9:0.99999999 26:0.99999999 29:0.0039215686 30:0.023529412 31:0.99999999 33:0.99999999 34:0.33 
0 8 0 0 1:0.0006532593 2:2.4783271e-06 3:0.00052801334 7:0.24675325 9:0.99999999 19:0.99999999 26:0.99999999 29:0.98431373 30:0.23137255 31:0.24 32:0.03 38:0.02 
0 0 8 0 2:9.085453e-06 20:0.045098039 21:0.045098039 26:0.99999999 29:0.86666667 30:0.25882353 31:0.3 32:0.02 33:0.3 
0 0 0 0.30284790214760848 1:0.24977836 2:2.6433743e-06 3:0.032325287 9:0.99999999 10:0.63122172 11:0.99999999 12:1 13:0.64512821 16:0.625 26:0.99999999 29:1 30:0.20392157 31:0.2 32:0.02 35:0.62999999 36:0.76999999 
0 0 8 0 2:8.0427741e-07 3:7.7066653e-05 9:0.99999999 20:0.0019607843 21:0.0019607843 24:0.5 25:0.5 26:0.99999999 29:1 30:1 31:0.99999999 
0 0 0 8 2:7.8593884e-08 26:0.99999999 29:0.24313725 30:0.35294118 31:0.97999999 32:0.03 33:0.97999999 34:0.18 
0 8 0 0 2:8.802515e-07 3:0.00015355094 9:0.99999999 26:0.99999999 29:0.0039215686 30:0.39607843 31:0.99999999 33:0.99999999 34:0.15 
0 0 0 0.22256074011724186 9:0.99999999 21:0.017647059 24:0.99999999 25:0.099999999 26:0.99999999 28:0.2 29:0.023529412 30:1 31:0.99999999 33:0.17 34:0.069999999 37:0.17 38:0.0099999999 
0 0 0 8 2:3.4012813e-05 20:0.0019607843 21:0.0019607843 26:0.99999999 29:0.011764706 30:0.21568627 31:0.99999999 33:0.99999999 34:0.04 
0 0 0 0.051718601453892801 1:0.00048994447 2:6.130323e-07 3:0.00014928024 7:0.051948052 9:0.99999999 19:0.99999999 21:0.0019607843 26:0.99999999 28:0.99999999 29:0.68627451 30:0.1254902 31:0.18 32:0.069999999 33:0.0099999999 35:0.02 
0 0 0 5.7275906653185382 24:0.99999999 25:0.99999999 26:0.99999999 29:0.75294118 30:0.062745098 31:0.079999999 32:0.03 33:0.0099999999 37:0.03 38:0.12 
0 0 0 8 2:1.6766695e-07 26:0.99999999 29:0.42352941 30:0.0078431373 31:0.02 32:0.04 33:0.02 35:0.0099999999 
0 0 8 0 2:5.2133943e-07 3:8.7355148e-05 9:0.99999999 20:0.0039215686 21:0.0039215686 26:0.99999999 29:0.81960784 30:0.83137255 31:0.99999999 34:0.0099999999 
0 0.28671947116742846 0 0 1:0.00074658205 2:3.9375536e-06 3:0.00080599683 7:0.38961039 9:0.99999999 19:0.99999999 21:0.0019607843 26:0.99999999 28:0.99999999 29:0.44313725 30:0.090196078 31:0.2 32:0.04 33:0.0099999999 
0 0 8 0 2:5.7373535e-07 3:0.00023838249 9:0.99999999 20:0.0019607843 21:0.0019607843 26:0.99999999 29:0.050980392 30:0.050980392 31:0.99999999 33:0.079999999 
0 0 0 8 2:2.3840145e-07 26:0.99999999 29:0.52941176 30:0.38039216 31:0.71999999 32:0.0099999999 33:0.71999999 
0 8 0 0 1:0.00062992861 2:3.1594741e-06 3:0.00065613422 7:0.31168831 9:0.99999999 19:0.99999999 26:0.99999999 29:1 30:0.14901961 31:0.15 32:0.079999999 35:0.02 
0 0 8 0 2:6.2875107e-07 3:0.0008461802 9:0.99999999 20:0.0039215686 21:0.0039215686 26:0.99999999 29:1 30:1 31:0.99999999 37:0.02 38:0.02 
0 0 0 8 2:9.4312661e-08 3:1.9606378e-05 20:0.0019607843 21:0.0019607843 26:0.99999999 29:0.0078431373 30:0.0078431373 31:0.99999999 33:0.99999999 
0 0 8 0 2:6.759074e-07 3:0.0012458785 9:0.99999999 20:0.0078431373 21:0.0098039216 25:0.17 26:0.99999999 28:0.33 29:1 30:0.98039216 31:0.97999999 32:0.0099999999 
0 0 8 0 2:6.3923026e-07 3:5.9595623e-05 9:0.99999999 26:0.99999999 29:0.31764706 30:0.31764706 31:0.99999999 33:0.0099999999 
0 0 0 8 2:7.8593884e-08 20:0.0078431373 26:0.2 27:0.59999999 29:1 30:0.15686275 31:0.16 32:0.0099999999 33:0.66999999 
0 0 8 0 2:1.3518148e-06 3:7.7649021e-07 20:0.95294118 21:0.95294118 26:0.99999999 29:1 30:1 31:0.99999999 33:0.99999999 
0 0 0 0.81581091634561154 21:0.0019607843 24:0.99999999 25:0.99999999 26:0.99999999 28:0.99999999 29:0.0039215686 30:0.98039216 31:0.99999999 33:0.99999999 34:0.02 37:0.99999999 38:0.16 
0 0 0 8 2:7.8593884e-08 26:0.99999999 29:0.25882353 30:0.51372549 31:0.99999999 33:0.99999999 34:0.26 
0 0 0 8 2:7.8593884e-08 26:0.99999999 29:0.20784314 30:0.20784314 31:0.99999999 33:0.99999999 
0 0 0 2.4839273049639168 2:3.8249024e-07 26:0.99999999 29:1 30:0.0039215686 32:0.50999999 33:0.92999999 
0 0 0 8 2:2.3840145e-07 26:0.99999999 29:0.066666667 30:0.050980392 31:0.75999999 32:0.12 33:0.75999999 
0 0 8 0 2:8.1999619e-07 3:0.00049132418 9:0.99999999 20:0.019607843 21:0.019607843 26:0.99999999 29:0.74901961 30:0.74901961 31:0.99999999 33:0.0099999999 
0 0 0 1.2212332678766622 1:0.00135318 2:6.8088502e-06 3:9.4149437e-05 9:0.99999999 20:1 29:1 30:0.015686275 31:0.02 32:0.0099999999 
0 0 0 8 2:7.8593884e-08 26:0.99999999 29:0.19215686 30:0.35294118 31:0.97999999 32:0.04 33:0.97999999 34:0.24 
0 0 8 0 2:1.3518148e-06 3:7.7649021e-07 20:0.83529412 21:0.83529412 26:0.99999999 29:1 30:1 31:0.99999999 33:0.99999999 
0 8 0 0 1:0.00018664551 2:3.5891207e-07 3:0.00031234319 9:0.99999999 26:0.99999999 29:0.0039215686 30:0.0039215686 31:0.99999999 33:0.99999999 
0 0 0 8 2:1.6766695e-07 26:0.99999999 29:0.11764706 30:0.0039215686 31:0.03 32:0.13 33:0.03 35:0.03 
0 0 0 8 2:2.3578165e-08 3:2.7177157e-05 26:0.99999999 29:0.0039215686 30:0.0039215686 31:0.99999999 33:0.99999999 
0 0 0 8 24:0.99999999 25:0.99999999 26:0.99999999 29:0.0039215686 30:1 31:0.99999999 33:0.99999999 34:0.03 36:0.02 37:0.99999999 38:0.03 
0 0 8 0 2:4.8204249e-07 3:0.00035543839 9:0.99999999 20:0.011764706 21:0.01372549 25:0.12 26:0.99999999 28:0.25 29:1 30:0.97254902 31:0.96999999 32:0.0099999999 
0 0 8 0 2:1.3518148e-06 3:7.7649021e-07 20:0.95686275 21:0.95686275 26:0.99999999 29:1 30:1 31:0.99999999 33:0.99999999 
0 0 8 0 2:1.3518148e-06 3:7.7649021e-07 20:0.60588235 21:0.60588235 26:0.99999999 29:1 30:1 31:0.99999999 33:0.99999999 
0 0 0.29118626910477391 0 21:0.0019607843 24:0.99999999 25:0.99999999 26:0.99999999 28:0.99999999 29:0.65098039 30:0.45490196 31:0.69999999 32:0.02 33:0.0099999999 37:0.69999999 38:0.99999999 
0 0 8 0 2:1.3518148e-06 3:7.7649021e-07 20:0.51960784 21:0.51960784 26:0.99999999 29:1 30:1 31:0.99999999 33:0.99999999 
0 0 1.5845048053791444 0 2:2.2792226e-07 3:2.5041809e-05 26:0.99999999 29:0.10588235 30:0.074509804 31:0.69999999 32:0.11 33:0.04 37:0.55999999 38:0.78999999 
0 8 0 0 1:0.00069992068 2:3.8746785e-06 3:0.00080463798 7:0.38961039 9:0.99999999 19:0.99999999 26:0.99999999 29:0.9254902 30:0.12156863 31:0.13 32:0.03 
0 0 0.4502288489356378 0.97258631490982939 4:0.99999999 21:0.0019607843 22:0.99999999 23:0.99999999 26:0.99999999 28:0.99999999 29:0.0039215686 30:0.019607843 31:0.99999999 33:0.99999999 34:0.99999999 35:0.99999999 36:0.99999999 
0 0 8 0 1:0.00023330689 2:6.9686577e-07 3:0.00047055306 7:0.012987013 9:0.99999999 26:0.99999999 29:1 30:0.99215686 31:0.98999999 32:0.0099999999 
0 0 0 8 2:7.8593884e-08 26:0.99999999 29:0.0039215686 30:0.0078431373 31:0.99999999 33:0.99999999 34:0.99999999 
0 0 8 0 2:4.2964657e-07 3:0.0059946985 7:0.012987013 9:0.99999999 10:0.0011312217 20:0.0078431373 21:0.0078431373 26:0.99999999 29:1 30:1 31:0.99999999 
0 0 0 8 1:0.027950166 2:3.8511003e-07 3:2.0382868e-05 20:0.0098039216 21:0.0019607843 26:0.33 27:0.5 29:1 30:0.0078431373 31:0.0099999999 32:0.39 33:0.85999999 
0 0 0 8 2:6.2875107e-08 3:1.4947436e-05 26:0.99999999 29:0.0039215686 30:0.84313725 31:0.99999999 33:0.99999999 34:0.0099999999 
0 0 0 2.1644825958118377 2:1.8338573e-08 3:0.0001308386 26:0.99999999 29:0.094117647 30:0.0078431373 31:0.04 32:0.079999999 33:0.04 34:0.99999999 
0 0 8 0 2:1.3518148e-06 3:7.7649021e-07 20:0.86470588 21:0.86470588 26:0.99999999 29:1 30:1 31:0.99999999 33:0.99999999 
0 0 8 0 2:8.5143375e-07 3:0.00049132418 9:0.99999999 20:0.017647059 21:0.017647059 26:0.99999999 29:0.18039216 30:0.18039216 31:0.99999999 33:0.02 
0 0 8 0 2:7.7545966e-07 3:0.00049132418 9:0.99999999 20:0.0078431373 21:0.0078431373 26:0.99999999 29:0.58039216 30:0.58039216 31:0.99999999 33:0.0099999999 
0 8 0 0 1:0.00062992861 2:3.906116e-06 3:0.00080599683 7:0.38961039 9:0.99999999 19:0.99999999 26:0.99999999 29:0.9254902 30:0.21568627 31:0.23 32:0.02 
0 0 8 0 2:5.2657902e-07 3:0.00030477241 9:0.99999999 20:0.021568627 21:0.021568627 26:0.99999999 29:0.33333333 30:0.33333333 31:0.99999999 33:0.0099999999 
0 0 0 8 2:9.4312661e-08 20:0.0078431373 21:0.0078431373 26:0.99999999 29:0.17254902 30:0.58039216 31:0.99999999 33:0.99999999 34:0.0099999999 
0 0 0 8 2:2.3840145e-07 26:0.99999999 29:0.49411765 30:0.0039215686 31:0.0099999999 32:0.02 33:0.0099999999 37:0.11 
0.80017936860350769 8 0 0 2:2.6881728e-05 9:0.99999999 20:0.01372549 21:0.01372549 26:0.99999999 29:0.054901961 30:0.054901961 31:0.99999999 33:0.99999999 
0 0 8 0 2:2.5281033e-06 20:0.041176471 21:0.064705882 22:0.05 23:0.03 26:0.99999999 28:0.059999999 29:1 30:0.34509804 31:0.35 32:0.03 33:0.35 36:0.0099999999 
0 0 8 0 2:6.81147e-07 3:3.6883285e-05 9:0.99999999 20:0.031372549 21:0.031372549 26:0.99999999 29:0.4745098 30:0.4745098 31:0.99999999 33:0.0099999999 
0 8 0 0 1:0.00069992068 2:2.7769839e-06 3:0.00059809158 7:0.28571429 9:0.99999999 19:0.99999999 26:0.99999999 29:0.9372549 30:0.25098039 31:0.27 32:0.02 
0 0 8 0 2:4.7942269e-07 20:0.011764706 21:0.011764706 26:0.99999999 29:1 30:0.078431373 31:0.079999999 32:0.0099999999 33:0.089999999 
0 0 0 3.1798109892450621 20:0.0039215686 21:0.0019607843 24:0.33 26:0.66999999 27:0.66999999 29:0.098039216 30:0.23921569 31:0.36 32:0.16 33:0.04 34:0.03 37:0.079999999 
0 0 0 8 24:0.99999999 25:0.99999999 26:0.99999999 29:1 30:0.019607843 31:0.02 32:0.059999999 35:0.52999999 37:0.05 38:0.99999999 
0 8 0 0 1:0.0006532593 2:4.0292465e-06 3:0.00080599683 7:0.38961039 9:0.99999999 19:0.99999999 26:0.99999999 29:0.94117647 30:0.20784314 31:0.22 32:0.03 
0 0 0 8 2:7.8593884e-08 26:0.99999999 29:0.13333333 30:0.35294118 31:0.96999999 32:0.059999999 33:0.96999999 34:0.33 
0 5.784028866565567 7.7562073615149911 0.99983175673082303 22:0.99999999 23:0.99999999 26:0.99999999 29:0.0039215686 30:0.0039215686 31:0.99999999 33:0.99999999 35:0.99999999 36:0.99999999 
0 0 0.59355880899188185 0 1:0.00023330689 2:6.3661046e-07 3:3.7077407e-05 9:0.99999999 20:0.0019607843 21:0.0019607843 22:0.5 23:0.5 26:0.99999999 29:1 30:1 31:0.99999999 
0 0 8 0 2:1.3518148e-06 3:7.7649021e-07 20:0.73333333 21:0.73333333 26:0.99999999 29:1 30:1 31:0.99999999 33:0.99999999 
0 8 0 0 2:1.1891255e-05 9:0.99999999 20:0.035294118 21:0.035294118 26:0.99999999 29:0.10196078 30:0.32941176 31:0.95999999 32:0.079999999 33:0.95999999 34:0.04 
0 8 0 0 1:0.00072325136 2:3.8065638e-06 3:0.00080599683 7:0.38961039 9:0.99999999 19:0.99999999 26:0.99999999 29:0.75294118 30:0.19607843 31:0.26 32:0.02 33:0.0099999999 
0 0 0 0.78522648208834456 20:1 25:0.99999999 29:0.9372549 30:0.78823529 31:0.83999999 32:0.0099999999 37:0.83999999 38:0.99999999 
0 0 8 0 2:4.5322473e-07 3:0.002307923 9:0.99999999 20:0.0098039216 21:0.0098039216 26:0.99999999 29:0.53333333 30:0.53333333 31:0.99999999 33:0.0099999999 
0 0 0 8 2:1.0240783e-05 20:0.0058823529 21:0.0058823529 26:0.99999999 29:0.015686275 30:0.35686275 31:0.99999999 33:0.99999999 34:0.02 
0 0 8 0 2:7.9903782e-07 3:0.00048666524 9:0.99999999 20:0.0098039216 21:0.0098039216 26:0.99999999 29:0.9372549 30:0.91372549 31:0.96999999 32:0.0099999999 37:0.059999999 38:0.059999999 
0 0 0 1.1807156427310648 2:2.3578165e-08 3:2.737128e-05 21:0.0058823529 26:0.99999999 28:0.74999999 29:0.96078431 30:0.02745098 31:0.02 32:0.0099999999 34:0.29 
0 0 8 0 2:8.4619415e-07 3:0.00093605894 9:0.99999999 20:0.045098039 21:0.045098039 26:0.99999999 29:0.2 30:0.2 31:0.99999999 33:0.02 
0 0 8 0 2:3.4843289e-07 3:8.7355148e-06 20:0.58039216 21:0.57843137 26:0.99999999 27:0.0099999999 29:0.72941176 30:0.6 31:0.81999999 32:0.0099999999 33:0.42 
0 1.6973458797451988 0 0 1:0.28370118 2:8.8811089e-07 3:0.00033563789 9:0.99999999 26:0.99999999 29:1 30:0.035294118 31:0.04 32:0.069999999 35:0.77999999 36:0.11 
0 0 0 1.8180109698225297 2:1.2575021e-07 3:9.3178825e-06 20:0.0058823529 26:0.25 27:0.5 29:1 30:0.78823529 31:0.78999999 32:0.0099999999 33:0.78999999 
0 0 0 3.7684816387584776 2:2.3578165e-08 3:5.5324927e-05 26:0.99999999 29:0.054901961 30:0.058823529 31:0.14 32:0.36 33:0.069999999 34:0.33 
0 5.2888184062721031 0 0 2:5.0300086e-07 9:0.99999999 26:0.99999999 29:1 30:0.38431373 31:0.38 32:0.079999999 33:0.44 35:0.0099999999 36:0.02 
0 0.45535847103814364 0 0 2:3.2747452e-06 3:6.3089829e-05 9:0.99999999 20:0.0019607843 21:0.0019607843 26:0.5 27:0.99999999 28:0.99999999 29:1 30:0.36470588 31:0.36 32:0.24 
0 0 1.451578462344921 8 20:0.0039215686 21:0.0039215686 24:0.99999999 25:0.99999999 26:0.99999999 29:1 30:0.015686275 31:0.02 32:0.03 37:0.02 38:0.99999999 
0 0 8 0 2:5.6325617e-07 3:0.00031311968 9:0.99999999 20:0.0039215686 21:0.060784314 26:0.99999999 28:0.16 29:0.29019608 30:0.29019608 31:0.99999999 33:0.0099999999 
0 0 0 8 2:3.8511003e-07 20:0.0078431373 26:0.2 27:0.59999999 29:1 30:0.015686275 31:0.02 32:0.50999999 33:0.94999999 
0 0 0 8 2:9.4312661e-08 20:0.017647059 21:0.021568627 26:0.99999999 28:0.25 29:0.039215686 30:0.83921569 31:0.99999999 33:0.99999999 34:0.0099999999 
0 0 8 0 2:1.3518148e-06 3:7.7649021e-07 20:0.36666667 21:0.36666667 26:0.99999999 29:0.7372549 30:0.7372549 31:0.99999999 33:0.99999999 
0 8 0 0 2:3.2186815e-05 9:0.99999999 20:0.0039215686 21:0.0058823529 26:0.99999999 28:0.5 29:0.035294118 30:0.21176471 31:0.99999999 33:0.99999999 34:0.04 
0 7.4696262674411678 0 0 1:9.3322757e-05 2:3.6677146e-07 3:0.00042105181 9:0.99999999 26:0.99999999 29:0.0039215686 30:0.011764706 31:0.99999999 33:0.99999999 34:0.66999999 38:0.33 
0 0 0 8 2:1.1527103e-07 3:2.5235932e-05 26:0.99999999 29:0.019607843 30:0.019607843 31:0.99999999 33:0.99999999 
0 0 0 8 2:1.5456797e-07 20:0.041176471 22:0.05 26:0.05 27:0.76999999 29:1 30:0.0039215686 32:0.069999999 33:0.46 
0 0 8 0 2:4.9776127e-07 3:0.00013239158 9:0.99999999 20:0.021568627 21:0.021568627 26:0.99999999 29:0.27843137 30:0.27843137 31:0.99999999 33:0.0099999999 35:0.0099999999 36:0.0099999999 
0 1.5496661386846686 0 0 2:3.2068925e-05 9:0.99999999 20:0.019607843 21:0.019607843 26:0.99999999 29:1 30:0.21960784 31:0.22 32:0.05 33:0.22 35:0.36 37:0.02 
0 0 0 0.054886737594082628 2:1.8600553e-07 26:0.99999999 29:1 30:0.0039215686 32:0.99999999 35:0.98999999 
0 1.4268952686294698 6.3341492350300914 1.4449297558695968 2:2.3578165e-08 22:0.99999999 23:0.99999999 26:0.99999999 29:0.015686275 30:0.02745098 31:0.5 32:0.5 33:0.25 34:0.43 35:0.99999999 36:0.29 
0 3.8807056038522938 0 0 7:0.012987013 20:0.0019607843 21:0.0019607843 22:0.99999999 23:0.99999999 26:0.99999999 29:0.08627451 30:0.08627451 31:0.99999999 33:0.089999999 35:0.089999999 36:0.089999999 37:0.05 38:0.05 
0 0 0 8 2:7.8593884e-08 26:0.99999999 29:0.039215686 30:0.35686275 31:0.99999999 33:0.99999999 34:0.46 
0 0 0 8 24:0.99999999 25:0.99999999 26:0.99999999 29:0.65882353 30:0.031372549 31:0.05 32:0.04 33:0.0099999999 35:0.0099999999 37:0.079999999 38:0.99999999 
0 0 0 0.62165748844033997 2:2.1809803e-05 9:0.99999999 22:0.99999999 23:0.99999999 26:0.99999999 29:0.89803922 30:0.0039215686 32:0.12 33:0.42 35:0.0099999999 36:0.99999999 
0 0 0 0.37017301379318723 2:6.2613128e-07 3:0.0014809609 9:0.99999999 26:0.99999999 29:0.0039215686 30:0.99215686 31:0.99999999 33:0.99999999 34:0.19 38:0.98999999 
0 0 0 7.7704485371527872 2:7.8593884e-08 20:0.0019607843 21:0.0019607843 26:0.99999999 29:0.81176471 30:0.81176471 31:0.99999999 33:0.99999999 
0 0 8 0 2:5.9993332e-07 3:0.00026788912 9:0.99999999 20:0.0058823529 21:0.0058823529 26:0.99999999 29:0.3254902 30:0.30588235 31:0.93999999 32:0.02 33:0.0099999999 
0 0 0 2.4058154827511067 2:1.6331809e-05 3:0.00031603151 9:0.99999999 24:0.99999999 25:0.99999999 26:0.99999999 29:0.35686275 30:0.29411765 31:0.15 32:0.77999999 33:0.0099999999 34:0.03 37:0.73999999 38:0.0099999999 
0 0 8 0 2:8.173764e-07 3:0.00023818837 9:0.99999999 20:0.0098039216 21:0.0098039216 26:0.99999999 29:0.082352941 30:0.082352941 31:0.99999999 33:0.05 
0 0 8 0 2:7.8593884e-08 26:0.99999999 29:0.99215686 30:0.99215686 31:0.99999999 33:0.99999999 
0 0 0 1.0504554121530454 1:2.3330689e-05 2:3.1961513e-07 3:4.5036432e-05 9:0.99999999 26:0.99999999 29:0.34117647 30:0.16862745 31:0.2 32:0.81999999 33:0.0099999999 34:0.05 35:0.0099999999 36:0.02 37:0.77999999 38:0.05 
0 0.89690152620865082 0 0 24:0.99999999 25:0.99999999 26:0.99999999 29:0.08627451 30:0.098039216 31:0.99999999 33:0.05 34:0.079999999 36:0.079999999 37:0.99999999 38:0.91999999 
0 8 0 0 2:3.7172287e-05 9:0.99999999 20:0.021568627 21:0.021568627 26:0.99999999 29:0.078431373 30:0.070588235 31:0.89999999 32:0.099999999 33:0.89999999 
0 0 0 7.625546679277277 2:9.6670478e-06 20:0.029411765 21:0.029411765 26:0.99999999 29:0.95686275 30:0.47058824 31:0.49 32:0.02 33:0.49 
0 8 0 0 2:3.4012813e-05 9:0.99999999 20:0.0019607843 21:0.0019607843 26:0.99999999 29:0.011764706 30:0.26666667 31:0.99999999 33:0.99999999 34:0.03 
0 0 8 8 2:1.2575021e-07 3:9.3178825e-06 26:0.99999999 29:1 30:0.82352941 31:0.81999999 32:0.0099999999 33:0.81999999 
0 0.97591910841109697 0 0 1:0.61884653 2:3.8249024e-07 3:2.0382868e-05 26:0.99999999 29:0.54117647 30:0.0039215686 31:0.0099999999 32:0.64999999 33:0.95999999 
0 0 0 0.29638230737912497 1:0.092926135 2:1.0217205e-06 3:0.0015281327 9:0.99999999 20:0.0019607843 22:0.5 23:0.99999999 26:0.5 27:0.99999999 29:0.035294118 30:0.019607843 31:0.55999999 32:0.22 33:0.11 35:0.11 36:0.2 37:0.44 38:0.79999999 
0 8 0 0 1:0.00074658205 2:3.8249024e-06 3:0.00080599683 7:0.38961039 9:0.99999999 19:0.99999999 26:0.99999999 29:0.89019608 30:0.23137255 31:0.26 32:0.02 
0 0 0 8 2:1.6766695e-07 26:0.99999999 29:0.16078431 30:0.0039215686 31:0.02 32:0.069999999 33:0.02 
0 8 0 0 2:1.2967991e-06 9:0.99999999 13:0.0051282051 26:0.99999999 29:0.0039215686 30:0.20392157 31:0.99999999 33:0.99999999 34:0.04 
0 8 0 0 2:4.909498e-06 9:0.99999999 26:0.99999999 29:0.02745098 30:0.02745098 31:0.99999999 33:0.99999999 
0 0 0 8 2:2.8817758e-07 3:8.5413923e-06 26:0.99999999 29:0.11764706 30:0.090196078 31:0.76999999 32:0.069999999 33:0.76999999 
0 0 8 0 2:6.6018863e-07 3:0.00031603151 9:0.99999999 21:0.0019607843 25:0.5 26:0.99999999 28:0.99999999 29:0.16078431 30:0.15686275 31:0.97999999 32:0.05 33:0.02 
0 0 8 0 2:5.4753739e-07 3:0.00015704514 9:0.99999999 20:0.025490196 21:0.025490196 26:0.99999999 29:1 30:1 31:0.99999999 37:0.05 38:0.05 
0 0 0 8 2:7.8593884e-08 26:0.99999999 29:0.15294118 30:0.51372549 31:0.99999999 33:0.99999999 34:0.36 
0 0 0 0.34065301363129874 2:1.130704e-05 9:0.99999999 15:0.99999999 20:0.0039215686 21:0.0039215686 26:0.99999999 29:1 30:0.31764706 31:0.32 32:0.02 33:0.32 37:0.03 
0 0 8 0 2:1.3518148e-06 3:7.7649021e-07 20:0.73529412 21:0.73529412 26:0.99999999 29:1 30:1 31:0.99999999 33:0.99999999 
0 0 8 8 2:1.3518148e-06 3:7.7649021e-07 20:0.47647059 21:0.47647059 26:0.99999999 29:0.95686275 30:0.95686275 31:0.99999999 33:0.99999999 
0 0 8 0 2:1.3518148e-06 3:7.7649021e-07 20:0.59215686 21:0.59215686 26:0.99999999 29:1 30:1 31:0.99999999 33:0.99999999 
0 8 0 0 1:0.0006532593 2:4.0161475e-06 3:0.00080599683 7:0.38961039 9:0.99999999 19:0.99999999 26:0.99999999 29:0.83921569 30:0.10588235 31:0.13 32:0.03 
0 0 7.8367920048933373 0 2:6.8376679e-07 3:0.0015172619 9:0.99999999 20:0.02745098 21:0.029411765 26:0.99999999 28:0.12 29:0.3372549 30:0.37647059 31:0.99999999 33:0.0099999999 34:0.02 
0 0 8 0 2:1.3518148e-06 3:7.7649021e-07 20:0.57647059 21:0.57647059 26:0.99999999 29:1 30:1 31:0.99999999 33:0.99999999 
0 0 8 0 2:1.3518148e-06 3:7.7649021e-07 20:0.44313725 21:0.44313725 26:0.99999999 29:0.89019608 30:0.89019608 31:0.99999999 33:0.99999999 
0 8 1.8555033398117886 0 1:0.0006532593 2:3.8825379e-06 3:0.00080599683 7:0.38961039 9:0.99999999 19:0.99999999 26:0.99999999 29:0.76078431 30:0.30980392 31:0.41 32:0.03 33:0.0099999999 
0 1.3834506374018596 0 0 2:6.104125e-07 3:0.00052374264 9:0.99999999 16:0.125 21:0.0019607843 25:0.5 26:0.99999999 28:0.99999999 29:1 30:0.94901961 31:0.94999999 32:0.02 
0 0 8 0 2:5.8683434e-07 3:0.00027468341 9:0.99999999 20:0.019607843 21:0.019607843 26:0.99999999 29:0.18823529 30:0.18823529 31:0.99999999 33:0.02 
0 0 8 0 2:3.7987044e-07 3:0.0058745367 7:0.012987013 9:0.99999999 26:0.99999999 29:1 30:1 31:0.99999999 
0 8 0 0 24:0.99999999 25:0.99999999 26:0.99999999 29:0.098039216 30:0.10980392 31:0.99999999 33:0.04 34:0.069999999 36:0.069999999 37:0.99999999 38:0.92999999 
0 3.1075164031515419 0 0 2:1.130704e-05 9:0.99999999 15:0.99999999 20:0.019607843 21:0.019607843 26:0.99999999 29:0.066666667 30:0.066666667 31:0.99999999 33:0.99999999 
0 0 4.6858907957831324 8 2:5.2395923e-08 26:0.99999999 29:0.0039215686 30:0.0039215686 31:0.99999999 33:0.99999999 
0 0 0 4.1639279844594501 2:1.4854244e-06 26:0.99999999 29:0.019607843 30:0.0039215686 31:0.2 32:0.59999999 33:0.2 
0 0 8 0 2:7.8593884e-08 20:0.0019607843 21:0.0019607843 26:0.99999999 29:0.96078431 30:0.96078431 31:0.99999999 33:0.99999999 
0 8 0 0 1:0.00074658205 2:3.9349338e-06 3:0.00080599683 7:0.38961039 9:0.99999999 19:0.99999999 26:0.99999999 29:0.65882353 30:0.18823529 31:0.29 32:0.04 33:0.0099999999 
0 0 0 8 2:3.8511003e-07 26:0.99999999 29:1 30:0.0039215686 32:0.49 33:0.91999999 
0 0 0 8 2:2.043441e-07 20:0.019607843 21:0.0019607843 26:0.18 27:0.18 29:0.54901961 30:0.0078431373 31:0.0099999999 32:0.0099999999 33:0.0099999999 
0 0 8 0 2:1.3518148e-06 3:7.7649021e-07 20:0.4254902 21:0.4254902 26:0.99999999 29:0.85490196 30:0.85490196 31:0.99999999 33:0.99999999 
0 1.2125868245233808 0 0 1:2.3330689e-05 2:3.7463085e-06 3:6.5225177e-05 9:0.99999999 20:0.0019607843 21:0.0019607843 26:0.5 27:0.99999999 28:0.99999999 29:1 30:0.47058824 31:0.47 32:0.03 33:0.0099999999 
0 0 0 3.109936872193745 2:2.8817758e-08 20:0.0019607843 21:0.0019607843 26:0.99999999 29:0.7372549 30:0.19607843 31:0.27 32:0.03 33:0.27 35:0.02 37:0.089999999 
0 0 0 8 2:1.6766695e-07 26:0.99999999 29:0.16862745 30:0.0039215686 31:0.02 32:0.089999999 33:0.02 
0 0 8 0 2:1.5433219e-05 20:0.02745098 21:0.02745098 26:0.99999999 29:0.9254902 30:0.2 31:0.22 32:0.02 33:0.22 
0 0 8 0 2:5.8683434e-07 3:0.00027468341 9:0.99999999 26:0.99999999 29:0.18823529 30:0.18823529 31:0.99999999 33:0.02 
0 0 0 4.4740937127654981 1:0.00013998414 2:1.7814614e-07 3:4.2512839e-05 26:0.99999999 29:0.15294118 30:0.0039215686 31:0.03 32:0.099999999 33:0.03 
0 3.3873212530783436 0 0 1:4.6661378e-05 2:1.5718777e-08 3:2.8536015e-05 26:0.99999999 29:1 30:0.14901961 31:0.15 32:0.02 35:0.45 36:0.78999999 
0 0 1.2635050083146999 8 2:1.0479185e-07 3:1.8053397e-05 20:0.01372549 21:0.01372549 26:0.99999999 29:0.2745098 30:0.34117647 31:0.73999999 32:0.03 33:0.73999999 34:0.02 35:0.0099999999 37:0.2 
0 0 0 8 2:2.5281033e-06 20:0.011764706 21:0.011764706 26:0.99999999 29:0.050980392 30:0.30588235 31:0.99999999 33:0.99999999 34:0.03 
0 0 0 8 2:7.8593884e-08 26:0.99999999 29:0.14509804 30:0.51372549 31:0.99999999 33:0.99999999 34:0.37 
2.0810613997849887 8 3.1715129990396846 0 2:1.362294e-07 3:0.00022576453 9:0.99999999 26:0.99999999 29:0.0039215686 30:0.0039215686 31:0.99999999 33:0.99999999 
0 0 0 8 1:0.0014698334 2:1.2575021e-07 3:9.3178825e-06 26:0.99999999 29:0.011764706 30:0.015686275 31:0.99999999 33:0.99999999 34:0.5 
0 0 8 8 2:7.8593884e-08 20:0.0019607843 21:0.0019607843 26:0.99999999 29:0.90980392 30:0.90980392 31:0.99999999 33:0.99999999 
0 0.28003378288404662 0 0.045475000637908353 1:0.31578088 2:2.7785558e-05 3:0.003454799 9:0.99999999 10:0.0045248869 13:0.0020512821 14:1 26:0.99999999 29:1 30:0.047058824 31:0.05 32:0.059999999 35:0.75999999 36:0.079999999 
0 0 8 0 2:4.1340383e-06 3:6.4060442e-05 9:0.99999999 26:0.99999999 29:0.37647059 30:0.35294118 31:0.93999999 32:0.03 33:0.0099999999 37:0.0099999999 
0 0 3.650813242261211 0 2:7.492617e-07 3:0.00027468341 9:0.99999999 20:0.0039215686 21:0.025490196 22:0.33 23:0.14 25:0.069999999 26:0.99999999 28:0.36 29:0.23529412 30:0.23529412 31:0.99999999 33:0.02 35:0.02 36:0.02 
0 0 0 8 2:7.8593884e-08 26:0.99999999 29:0.31764706 30:0.51372549 31:0.99999999 33:0.99999999 34:0.2 
0 8 0 0 1:0.00062992861 2:2.3840145e-06 3:0.00052801334 7:0.24675325 9:0.99999999 19:0.99999999 26:0.99999999 29:0.82745098 30:0.25882353 31:0.31 32:0.03 
0 0 0 8 2:7.8593884e-08 26:0.99999999 29:0.25098039 30:0.35294118 31:0.97999999 32:0.03 33:0.97999999 34:0.17 
0 0 0 6.7901697977401803 2:1.1003144e-07 3:2.0965236e-05 26:0.99999999 29:0.25882353 30:0.79607843 31:0.73999999 32:0.03 33:0.73999999 34:0.0099999999 35:0.02 37:0.2 
0 0.38153915164293051 0 0 1:0.11763333 3:0.9958417 26:0.99999999 29:1 30:0.25098039 31:0.25 32:0.02 35:0.71999999 36:0.82999999 
0 8 0 0 2:1.6792893e-06 9:0.99999999 20:0.0019607843 21:0.0019607843 26:0.99999999 29:0.15294118 30:0.34509804 31:0.89999999 32:0.05 33:0.89999999 34:0.03 
0 8 0 0 1:0.00023330689 2:6.0936458e-06 3:0.044852404 9:0.99999999 26:0.99999999 29:0.0039215686 30:0.0039215686 31:0.99999999 33:0.99999999 
0 0 0 8 3:2.9118383e-06 20:0.0058823529 24:0.25 25:0.99999999 26:0.25 27:0.5 29:1 30:0.0078431373 31:0.0099999999 32:0.03 38:0.5 
0 0 0.25231965908152792 0 1:0.28092483 2:3.4528913e-06 3:0.0018948302 20:0.0039215686 24:0.33 25:0.99999999 26:0.33 27:0.66999999 29:0.10588235 30:0.023529412 31:0.22 32:0.069999999 33:0.04 37:0.15 38:0.66999999 
0 8 0 0 2:1.9072116e-05 9:0.99999999 26:0.99999999 29:0.0039215686 30:0.27058824 31:0.99999999 33:0.99999999 34:0.03 36:0.0099999999 
0 0 8 0 2:7.1520435e-07 3:0.00028982497 9:0.99999999 20:0.0019607843 21:0.0019607843 26:0.99999999 29:0.66666667 30:0.66666667 31:0.99999999 33:0.0099999999 
0 8 0 0 2:7.3092312e-07 3:0.00041192805 9:0.99999999 26:0.99999999 29:0.0039215686 30:0.054901961 31:0.99999999 33:0.99999999 34:0.29 36:0.069999999 
0 8 0 0 2:1.0044298e-05 9:0.99999999 26:0.99999999 29:1 30:0.26666667 31:0.27 32:0.04 33:0.27 35:0.21 37:0.02 
0 0 8 0 2:1.3518148e-06 3:7.7649021e-07 20:0.63921569 21:0.63921569 26:0.99999999 29:1 30:1 31:0.99999999 33:0.99999999 
0 0 0.27419777630564685 8 2:3.0127656e-07 3:6.6001668e-06 20:0.0019607843 24:0.5 26:0.5 27:0.99999999 29:0.64313725 30:0.019607843 31:0.03 32:0.02 33:0.78999999 37:0.16 
0 0 0 0.071124550883173807 22:0.99999999 23:0.99999999 26:0.99999999 29:0.0039215686 30:0.47058824 31:0.99999999 33:0.99999999 34:0.17 35:0.99999999 36:0.0099999999 38:0.98999999 
0.61810098967991967 0 0 0 2:1.4854244e-06 9:0.99999999 13:0.0061538462 20:0.0039215686 26:0.33 27:0.66999999 29:0.0039215686 30:0.0039215686 31:0.99999999 33:0.99999999 
0 0 8 0 2:7.9117843e-07 3:0.00020868174 9:0.99999999 20:0.0098039216 21:0.011764706 25:0.14 26:0.99999999 28:0.29 29:0.73333333 30:0.69803922 31:0.94999999 32:0.0099999999 33:0.0099999999 35:0.0099999999 36:0.0099999999 
0 0 2.7559272822032712 1.4593535152751629 2:1.6766695e-07 20:0.29411765 22:0.98999999 26:0.0099999999 27:0.059999999 29:1 30:0.0039215686 32:0.089999999 35:0.65999999 37:0.0099999999 
0 0 5.6282078900125496 8 2:2.69839e-07 20:0.0019607843 21:0.0039215686 26:0.99999999 28:0.66999999 29:0.039215686 30:0.039215686 31:0.99999999 33:0.99999999 
0 0 8 0 2:7.3878251e-07 3:0.00023818837 9:0.99999999 20:0.0058823529 21:0.0058823529 26:0.99999999 29:0.65098039 30:0.65098039 31:0.99999999 33:0.0099999999 
0 0 0 0.17189556760748192 2:4.3750596e-07 3:0.0038488678 9:0.99999999 10:0.093891403 11:0.99999999 12:1 13:0.093333333 22:0.99999999 23:0.99999999 26:0.99999999 29:0.082352941 30:0.031372549 31:0.29 32:0.14 33:0.05 34:0.25 35:0.05 36:0.12 
0 8 0 0 2:1.4854244e-06 9:0.99999999 13:0.0061538462 26:0.99999999 29:0.0039215686 30:0.34509804 31:0.99999999 33:0.99999999 34:0.02 36:0.0099999999 
0 0 8 8 2:7.8593884e-08 20:0.0019607843 21:0.0019607843 26:0.99999999 29:0.83921569 30:0.83921569 31:0.99999999 33:0.99999999 
0 0 0 8 1:0.00074658205 2:2.8817758e-07 3:8.5413923e-06 20:0.01372549 21:0.01372549 26:0.99999999 29:0.37647059 30:0.29019608 31:0.76999999 32:0.02 33:0.76999999 
0 0 0 8 1:0.062316271 2:3.8511003e-07 3:2.0382868e-05 20:0.0098039216 21:0.0019607843 26:0.33 27:0.5 29:1 30:0.0078431373 31:0.0099999999 32:0.4 33:0.88999999 
0 0 8 0 2:3.5707821e-06 20:0.031372549 21:0.031372549 26:0.99999999 29:0.96470588 30:0.27058824 31:0.28 32:0.02 33:0.28 
0 0 0 8 2:6.2875107e-08 3:4.6589412e-06 26:0.99999999 29:0.0039215686 30:0.94509804 31:0.99999999 33:0.99999999 34:0.0099999999 
6.3658885562639318 8 0 0 2:4.5060494e-07 9:0.99999999 26:0.99999999 29:0.02745098 30:0.02745098 31:0.99999999 33:0.99999999 
0 0 8 0 2:6.0517291e-07 3:0.00043464039 9:0.99999999 20:0.0078431373 21:0.0098039216 25:0.17 26:0.99999999 28:0.33 29:1 30:0.99607843 31:0.99999999 32:0.0099999999 
0 0 8 0 2:6.5494903e-07 3:5.2607211e-05 9:0.99999999 20:0.0019607843 21:0.0039215686 25:0.33 26:0.99999999 28:0.66999999 29:1 30:0.97647059 31:0.97999999 32:0.0099999999 
0 0 0 3.588823812975825 1:2.3330689e-05 2:9.1692865e-08 3:2.5235932e-05 9:0.99999999 20:0.0019607843 26:0.5 27:0.99999999 29:0.49019608 30:0.0078431373 31:0.02 32:0.04 33:0.0099999999 
0 0 8 0 2:5.9207393e-07 3:0.00051073643 9:0.99999999 20:0.0039215686 21:0.0039215686 26:0.99999999 29:1 30:1 31:0.99999999 35:0.0099999999 36:0.0099999999 37:0.02 38:0.02 
0 8 0 0 2:4.1916738e-07 3:8.1725594e-05 9:0.99999999 26:0.99999999 29:0.0039215686 30:0.38431373 31:0.99999999 33:0.99999999 34:0.069999999 
0 0 0 8 2:7.8593884e-08 26:0.99999999 29:0.23529412 30:0.51372549 31:0.99999999 33:0.99999999 34:0.28 
0 0 7.052777886516056 0 2:7.9641803e-07 3:0.00052374264 9:0.99999999 16:0.125 21:0.0019607843 25:0.5 26:0.99999999 28:0.99999999 29:1 30:0.99607843 31:0.99999999 32:0.0099999999 
0 8 0 0 24:0.99999999 25:0.99999999 26:0.99999999 29:0.1254902 30:0.1254902 31:0.99999999 33:0.03 37:0.99999999 38:0.99999999 
0 0 0 8 2:2.4102124e-07 21:0.0019607843 26:0.99999999 28:0.99999999 29:0.023529412 30:0.023529412 31:0.99999999 33:0.99999999 
0 0 0 1.285336065840609 2:1.4854244e-06 9:0.99999999 13:0.0061538462 20:0.0019607843 26:0.5 27:0.99999999 29:0.078431373 30:0.29411765 31:0.05 32:0.15 33:0.05 34:0.03 
0 0 8 0 2:4.768029e-07 20:0.0098039216 21:0.0098039216 26:0.99999999 29:1 30:0.062745098 31:0.059999999 32:0.0099999999 33:0.069999999 
0 8 0 0 1:0.00062992861 2:3.9375536e-06 3:0.00080599683 7:0.38961039 9:0.99999999 19:0.99999999 26:0.99999999 29:0.89803922 30:0.18431373 31:0.21 32:0.03 
0 8 0 0 1:0.00072325136 2:3.9427932e-06 3:0.00080599683 7:0.38961039 9:0.99999999 19:0.99999999 26:0.99999999 29:1 30:0.16862745 31:0.17 32:0.02 
0 0 0 8 2:2.3840145e-07 20:0.0019607843 21:0.0019607843 26:0.99999999 29:0.69803922 30:0.4745098 31:0.67999999 32:0.0099999999 33:0.67999999 
0 0 8 0 2:1.3518148e-06 3:7.7649021e-07 20:0.70980392 21:0.70980392 26:0.99999999 29:1 30:1 31:0.99999999 33:0.99999999 
0 8 0 0 1:0.00088656619 2:3.7751262e-06 3:0.00080599683 7:0.38961039 9:0.99999999 19:0.99999999 26:0.99999999 29:0.65098039 30:0.10588235 31:0.16 32:0.02 33:0.0099999999 35:0.0099999999 
0 0 8 0 2:1.3518148e-06 3:7.7649021e-07 20:0.55882353 21:0.55882353 26:0.99999999 29:1 30:1 31:0.99999999 33:0.99999999 
0 2.3736266822283922 0 0 24:0.99999999 25:0.99999999 26:0.99999999 29:0.066666667 30:0.08627451 31:0.99999999 33:0.059999999 34:0.089999999 36:0.089999999 37:0.99999999 38:0.81999999 
0 0 0 5.9281466858944167 1:2.3330689e-05 2:0.0013145089 9:0.99999999 26:0.99999999 29:0.3254902 30:0.30588235 31:0.069999999 32:0.85999999 33:0.059999999 34:0.03 37:0.81999999 38:0.0099999999 
0 0 8 0 2:6.2875107e-07 3:0.00052374264 9:0.99999999 16:0.125 20:0.0019607843 21:0.0058823529 25:0.5 26:0.99999999 28:0.74999999 29:0.20784314 30:0.20784314 31:0.99999999 33:0.02 
0 0 8 0 2:8.0165762e-07 3:0.00026788912 9:0.99999999 20:0.0039215686 21:0.0058823529 25:0.25 26:0.99999999 28:0.5 29:1 30:0.95294118 31:0.94999999 32:0.0099999999 
0 0.059529570906373237 0 0 2:4.3978518e-05 9:0.99999999 14:0.025 20:0.021568627 22:0.079999999 26:0.079999999 27:0.5 29:0.23529412 30:0.0039215686 31:0.02 32:0.17 33:0.69999999 35:0.02 
0 0 0 8 2:1.3518148e-06 3:7.7649021e-07 20:0.021568627 21:0.021568627 26:0.99999999 29:0.047058824 30:0.047058824 31:0.99999999 33:0.99999999 
0 0 8 0 2:7.9641803e-07 3:0.00048666524 9:0.99999999 20:0.0078431373 21:0.0098039216 25:0.17 26:0.99999999 28:0.33 29:1 30:0.97254902 31:0.96999999 32:0.0099999999 
0 0 0 0.18252203395025174 2:2.8136611e-06 3:7.531955e-05 9:0.99999999 20:0.35294118 21:0.0019607843 22:0.98999999 26:0.0099999999 27:0.069999999 28:0.99999999 29:1 30:0.050980392 31:0.05 32:0.069999999 35:0.92999999 
0 0 8 0 2:6.104125e-07 3:0.00048666524 9:0.99999999 20:0.0078431373 21:0.0078431373 26:0.99999999 29:0.18039216 30:0.18039216 31:0.99999999 33:0.02 
0 0 8 0 2:4.1392779e-07 3:0.0023748953 9:0.99999999 20:0.011764706 21:0.011764706 26:0.99999999 29:0.12941176 30:0.12941176 31:0.99999999 33:0.03 
0 0 8 0 2:1.3518148e-06 3:7.7649021e-07 20:0.65882353 21:0.65882353 26:0.99999999 29:1 30:1 31:0.99999999 33:0.99999999 
0 0 0 4.094972112494677 1:0.14887313 2:2.2608841e-06 3:0.0018670707 24:0.99999999 25:0.99999999 26:0.99999999 29:0.08627451 30:0.019607843 31:0.23 32:0.14 33:0.05 37:0.23 38:0.99999999 
0 0 0 8 2:3.8511003e-07 20:0.0078431373 26:0.2 27:0.59999999 29:1 30:0.0039215686 32:0.47 33:0.92999999 
0 0 8 0 2:1.3518148e-06 3:7.7649021e-07 20:0.52352941 21:0.52352941 26:0.99999999 29:1 30:1 31:0.99999999 33:0.99999999 
0 0 1.4946855141766142 0 7:0.012987013 22:0.99999999 23:0.99999999 26:0.99999999 29:0.49803922 30:0.0078431373 31:0.02 32:0.04 33:0.0099999999 35:0.02 36:0.99999999 
0 1.1959825564807429 0 0 2:4.2833667e-06 3:6.464281e-05 9:0.99999999 20:0.0019607843 26:0.5 27:0.99999999 29:1 30:0.30980392 31:0.31 32:0.03 
0 0 8 0 2:7.9379823e-07 3:0.00026788912 9:0.99999999 20:0.0078431373 21:0.0098039216 25:0.17 26:0.99999999 28:0.33 29:1 30:1 31:0.99999999 
0 0 0 8 2:2.0958369e-08 3:2.6788912e-05 26:0.99999999 29:0.44313725 30:0.0078431373 31:0.02 32:0.04 33:0.0099999999 
0 0 8 0 1:9.3322757e-05 2:6.5494903e-07 3:0.00032651413 7:0.012987013 9:0.99999999 21:0.0019607843 25:0.5 26:0.99999999 28:0.99999999 29:0.83921569 30:0.83921569 31:0.99999999 
0 0 0 8 2:9.2203725e-05 20:0.037254902 21:0.037254902 26:0.99999999 29:0.15686275 30:0.1254902 31:0.79999999 32:0.05 33:0.79999999 
0 0 0 8 2:7.8593884e-08 26:0.99999999 29:0.011764706 30:0.015686275 31:0.99999999 33:0.99999999 34:0.5 
0 8 0 0 2:4.4903306e-06 3:6.3866319e-05 9:0.99999999 26:0.99999999 29:0.0039215686 30:0.0039215686 31:0.99999999 33:0.99999999 
0 0 0 0.23468766317820583 2:2.4364104e-06 3:6.464281e-05 9:0.99999999 20:0.0039215686 21:0.0058823529 26:0.33 27:0.99999999 28:0.99999999 29:0.38431373 30:0.62745098 31:0.78999999 32:0.04 33:0.0099999999 34:0.0099999999 
0 0 0 8 2:7.8593884e-08 26:0.99999999 29:0.090196078 30:0.50588235 31:0.99999999 33:0.99999999 34:0.42 
0 0 0 8 2:1.8338573e-08 24:0.99999999 25:0.99999999 26:0.99999999 29:0.0039215686 30:0.019607843 31:0.99999999 33:0.99999999 34:0.59999999 37:0.99999999 38:0.2 
0 0 8 0 2:4.7942269e-07 3:0.0018899772 9:0.99999999 20:0.0078431373 21:0.0078431373 24:0.2 25:0.2 26:0.99999999 29:1 30:1 31:0.99999999 35:0.0099999999 36:0.0099999999 
0 8 0 0 2:9.9552253e-08 3:2.5235932e-05 9:0.99999999 26:0.99999999 29:0.0039215686 30:0.031372549 31:0.99999999 33:0.99999999 34:0.38 
0 0 0 0.077822032832300839 24:0.99999999 25:0.99999999 26:0.99999999 29:0.0039215686 30:0.60784314 31:0.99999999 33:0.99999999 34:0.059999999 37:0.99999999 38:0.72999999 
0 0 0 8 2:3.1437554e-08 3:1.0870863e-05 26:0.99999999 29:0.0039215686 30:0.0039215686 31:0.99999999 33:0.99999999 
0 0 0 8 1:0.0014698334 2:1.2575021e-07 3:9.3178825e-06 26:0.99999999 29:0.066666667 30:0.16470588 31:0.99999999 33:0.99999999 34:0.05 
0 0 0 0.1270251669320259 1:0.31302786 2:2.583119e-06 3:0.028033432 9:0.99999999 10:0.89253394 11:0.99999999 12:1 13:0.88923077 16:0.25 26:0.99999999 29:0.87843137 30:0.14509804 31:0.17 32:0.03 36:0.03 37:0.0099999999 38:0.05 
0 8 0 0 1:0.00062992861 2:2.3185196e-06 3:0.00050200092 7:0.23376623 9:0.99999999 19:0.99999999 26:0.99999999 29:1 30:0.19215686 31:0.19 32:0.02 
0 8 0 0 2:2.6313232e-05 9:0.99999999 20:0.021568627 21:0.021568627 26:0.99999999 29:0.070588235 30:0.070588235 31:0.99999999 33:0.99999999 
0 0 0 8 2:1.9596075e-06 26:0.99999999 29:1 30:0.5254902 31:0.52999999 32:0.0099999999 33:0.52999999 36:0.0099999999 
0 0 8 0 2:1.3518148e-06 3:7.7649021e-07 20:0.63529412 21:0.63529412 26:0.99999999 29:1 30:1 31:0.99999999 33:0.99999999 
0 0 8 0 2:7.0472516e-07 3:5.5324927e-05 9:0.99999999 20:0.0058823529 21:0.0058823529 26:0.99999999 29:0.14901961 30:0.14901961 31:0.99999999 33:0.03 
0 8 0 0 1:0.0006532593 2:3.0625417e-06 3:0.00065613422 7:0.31168831 9:0.99999999 19:0.99999999 26:0.99999999 29:1 30:0.16470588 31:0.16 32:0.02 
0 0 8 0 2:1.3518148e-06 3:7.7649021e-07 20:0.57254902 21:0.57254902 26:0.99999999 29:1 30:1 31:0.99999999 33:0.99999999 
0 0 8 0 2:6.0517291e-07 3:0.00030088995 9:0.99999999 20:0.02745098 21:0.02745098 26:0.99999999 29:0.97647059 30:1 31:0.99999999 34:0.02 37:0.34 38:0.36 
0 0 8 0 2:7.7807945e-07 3:0.00049132418 9:0.99999999 20:0.011764706 21:0.011764706 26:0.99999999 29:0.26666667 30:0.26666667 31:0.99999999 33:0.0099999999 
0 0 8 0 2:4.2178718e-07 3:0.0025919243 9:0.99999999 20:0.0058823529 21:0.0058823529 26:0.99999999 29:0.26666667 30:0.26666667 31:0.99999999 33:0.0099999999 
0 0 0 8 2:0.00010608602 20:0.017647059 21:0.017647059 26:0.99999999 29:1 30:0.50980392 31:0.50999999 32:0.0099999999 33:0.50999999 36:0.0099999999 
0 0 0 8 2:3.8249024e-07 26:0.99999999 29:0.0039215686 30:0.0039215686 31:0.99999999 33:0.99999999 
0 0 0 0.21279466392108415 1:2.3330689e-05 2:2.8870153e-06 3:6.5031055e-05 9:0.99999999 20:0.047058824 26:0.04 27:0.079999999 29:0.58823529 30:0.49019608 31:0.46 32:0.04 33:0.0099999999 34:0.02 
0 8 0 0 2:1.2967991e-06 9:0.99999999 13:0.0051282051 26:0.99999999 29:0.0039215686 30:0.47058824 31:0.99999999 33:0.99999999 34:0.02 
0 0 0 8 2:1.2863199e-06 26:0.99999999 29:1 30:0.5254902 31:0.52999999 32:0.0099999999 33:0.52999999 36:0.0099999999 
0 0 0 8 2:7.8593884e-08 26:0.99999999 29:0.015686275 30:0.43137255 31:0.99999999 33:0.99999999 34:0.49 
5.464168188517216 0 0 0 2:2.7507859e-07 20:0.0019607843 21:0.0019607843 26:0.99999999 29:0.011764706 30:0.011764706 31:0.99999999 33:0.66999999 
0 0 0 8 2:9.4312661e-08 20:0.021568627 21:0.021568627 26:0.99999999 29:0.098039216 30:0.81960784 31:0.99999999 33:0.99999999 34:0.0099999999 
0 0 8 0 2:1.3518148e-06 3:7.7649021e-07 20:0.78627451 21:0.78627451 26:0.99999999 29:1 30:1 31:0.99999999 33:0.99999999 
0 0 0 0.17322646443148063 1:0.33869161 2:2.0801181e-06 3:0.029527981 9:0.99999999 10:0.58823529 11:0.99999999 12:1 13:0.58666667 16:1 26:0.99999999 29:0.031372549 30:0.011764706 31:0.38 32:0.25 33:0.12 
0 0 0 8 2:2.3028008e-06 20:0.033333333 21:0.033333333 26:0.99999999 29:0.96470588 30:0.47843137 31:0.5 32:0.02 33:0.5 
0 0 8 0 2:5.5801658e-07 3:0.00030380179 9:0.99999999 20:0.0058823529 21:0.0058823529 26:0.99999999 29:0.16078431 30:0.2745098 31:0.99999999 33:0.02 34:0.04 36:0.0099999999 38:0.069999999 
0 0 8 0 2:5.1086025e-07 3:0.00092014089 9:0.99999999 26:0.99999999 29:0.2 30:0.19607843 31:0.97999999 32:0.04 33:0.02 
1.6737500186197389 8 0 0 2:1.3934696e-05 9:0.99999999 20:0.0058823529 21:0.0058823529 26:0.99999999 29:0.039215686 30:0.039215686 31:0.99999999 33:0.99999999 
0 0.31871446443618923 0 0 2:2.7507859e-07 26:0.99999999 29:1 30:0.61960784 31:0.61999999 32:0.0099999999 
0 0 0 8 2:7.8593884e-08 26:0.99999999 29:0.015686275 30:0.35686275 31:0.99999999 33:0.99999999 34:0.49 
0 0 0 0.38351018821936828 2:7.8593884e-08 20:0.0039215686 26:0.33 27:0.99999999 29:1 30:0.011764706 31:0.0099999999 32:0.0099999999 33:0.059999999 
0 0 0 8 2:2.2373059e-06 20:0.0019607843 21:0.0019607843 26:0.99999999 29:0.047058824 30:0.30588235 31:0.82999999 32:0.17 33:0.82999999 34:0.03 
0 1.6950543731121646 0 0 2:0.0004593472 9:0.99999999 20:0.0039215686 26:0.33 27:0.66999999 29:1 30:0.37254902 31:0.37 32:0.02 33:0.37 
0 0 0 8 2:1.5718777e-08 3:6.9301751e-05 26:0.99999999 29:0.0039215686 30:0.0039215686 31:0.99999999 33:0.99999999 
0 8 0 0 1:0.0039195558 2:5.6849576e-07 3:0.0075243842 9:0.99999999 26:0.99999999 29:0.0039215686 30:0.019607843 31:0.99999999 33:0.99999999 34:0.4 
0 0 8 0 2:7.8855864e-07 3:0.0003907687 9:0.99999999 20:0.0019607843 21:0.0019607843 26:0.99999999 29:0.69019608 30:0.65882353 31:0.94999999 32:0.02 33:0.0099999999 
0 0 8 0 2:8.3571497e-07 3:7.5125427e-05 9:0.99999999 20:0.023529412 21:0.023529412 26:0.99999999 29:0.15686275 30:0.15686275 31:0.99999999 33:0.03 
0 0 0 8 2:3.8511003e-07 20:0.0078431373 26:0.2 27:0.59999999 29:1 30:0.0039215686 32:0.45 33:0.92999999 
4.1486466398657376 8 0 0 2:2.2163475e-06 3:6.3089829e-05 9:0.99999999 26:0.99999999 29:0.0039215686 30:0.3254902 31:0.99999999 33:0.99999999 34:0.02 
0 0 0 8 2:7.8593884e-08 3:1.6112172e-05 26:0.99999999 29:0.0039215686 30:0.8627451 31:0.99999999 33:0.99999999 34:0.0099999999 
0 8 0 0 2:6.4185005e-07 9:0.99999999 13:0.001025641 20:0.0019607843 21:0.0019607843 26:0.99999999 29:0.0078431373 30:0.4745098 31:0.99999999 33:0.99999999 34:0.02 
0 0 0 0.040768368923596442 2:2.1482328e-07 3:0.00046084694 9:0.99999999 22:0.99999999 23:0.99999999 26:0.99999999 29:1 30:0.039215686 31:0.04 32:0.67999999 35:0.67999999 36:0.2 
0 0 8 0 2:5.1871964e-07 3:8.7355148e-05 9:0.99999999 20:0.0058823529 21:0.0058823529 22:0.25 23:0.25 26:0.99999999 29:0.77647059 30:0.78823529 31:0.99999999 33:0.0099999999 34:0.0099999999 35:0.0099999999 
0 0 0 8 2:7.8593884e-08 26:0.99999999 29:0.12941176 30:0.35294118 31:0.96999999 32:0.059999999 33:0.96999999 34:0.33 
0 0 0 1.8753102082078947 2:1.5456797e-07 20:0.043137255 22:0.04 26:0.04 27:0.77999999 29:0.76470588 30:0.0039215686 31:0.0099999999 32:0.11 33:0.42 35:0.0099999999 
0 0 0 8 2:4.62656e-06 26:0.99999999 29:0.023529412 30:0.27843137 31:0.99999999 33:0.99999999 34:0.03 
0 0 0 8 20:0.0019607843 24:0.5 25:0.99999999 26:0.5 27:0.99999999 29:0.45098039 30:0.0039215686 31:0.0099999999 32:0.03 33:0.0099999999 37:0.0099999999 38:0.99999999 
0 1.5136377809025769 0 0 3:7.7649021e-07 26:0.99999999 29:0.082352941 30:0.082352941 31:0.99999999 33:0.05 35:0.14 36:0.14 
0 0 8 0 2:1.1891255e-05 20:0.037254902 21:0.037254902 26:0.99999999 29:1 30:0.39215686 31:0.39 32:0.02 33:0.39 
0 0 0 4.0034460670011853 2:1.0033819e-06 20:0.0019607843 21:0.0019607843 26:0.99999999 29:1 30:0.51372549 31:0.50999999 32:0.0099999999 33:0.50999999 36:0.0099999999 
0 0 0 1.441146046842821 2:4.768029e-07 20:0.0019607843 26:0.5 27:0.99999999 29:0.25490196 30:0.011764706 31:0.05 32:0.05 33:0.079999999 
0 0 0 8 20:0.0058823529 21:0.0039215686 24:0.74999999 25:0.99999999 26:0.74999999 27:0.5 29:0.47058824 30:0.023529412 31:0.05 32:0.03 33:0.0099999999 37:0.05 38:0.99999999 
0 6.4602043429998233 0 0 1:0.01964444 2:2.7743641e-06 3:0.00059809158 7:0.28571429 9:0.99999999 19:0.99999999 26:0.99999999 29:0.8745098 30:0.23137255 31:0.26 32:0.32 37:0.29 38:0.02 
0 0 8 0 2:6.7066781e-07 3:0.00087083377 9:0.99999999 21:0.0039215686 25:0.66999999 26:0.99999999 28:0.99999999 29:0.92941176 30:0.8745098 31:0.93999999 32:0.0099999999 
0 0 0 8 2:1.1789083e-07 3:1.902401e-05 20:0.017647059 21:0.017647059 26:0.99999999 29:0.28235294 30:0.34901961 31:0.74999999 32:0.03 33:0.74999999 34:0.02 35:0.0099999999 37:0.19 
0 8 0 0 1:0.00072325136 2:3.9951891e-06 3:0.00080599683 7:0.38961039 9:0.99999999 19:0.99999999 26:0.99999999 29:0.58823529 30:0.078431373 31:0.13 32:0.05 33:0.0099999999 35:0.02 
0 0 2.5992828152098149 7.510494126887135 2:3.8511003e-07 26:0.99999999 29:0.023529412 30:0.0039215686 31:0.17 32:0.66999999 33:0.82999999 
0 0 0 8 2:7.8593884e-08 26:0.99999999 29:0.043137255 30:0.35686275 31:0.99999999 33:0.99999999 34:0.45 
0 0 0 8 2:2.3840145e-07 20:0.0078431373 21:0.0078431373 26:0.99999999 29:0.50980392 30:0.019607843 31:0.04 32:0.02 33:0.04 37:0.11 
2.4628356099485762 0 0 0 2:2.7507859e-07 3:2.8536015e-05 26:0.99999999 29:0.015686275 30:0.015686275 31:0.99999999 33:0.25 
0 0 6.8804059823142856 0 9:0.99999999 24:0.99999999 25:0.99999999 26:0.99999999 29:1 30:0.94901961 31:0.94999999 32:0.0099999999 37:0.05 38:0.059999999 
0 0 0 7.4833799659551454 2:1.1003144e-07 3:8.1531472e-06 21:0.0039215686 26:0.99999999 28:0.66999999 29:0.031372549 30:0.94509804 31:0.99999999 33:0.99999999 34:0.0099999999 
0 0 8 0 2:1.3518148e-06 3:7.7649021e-07 20:0.94705882 21:0.94705882 26:0.99999999 29:1 30:1 31:0.99999999 33:0.99999999 
0 0 8 0 2:1.3518148e-06 3:7.7649021e-07 20:0.60392157 21:0.60392157 26:0.99999999 29:1 30:1 31:0.99999999 33:0.99999999 
0 0 0 8 2:7.8593884e-08 26:0.99999999 29:0.019607843 30:0.35686275 31:0.99999999 33:0.99999999 34:0.48 
0 0 0 8 1:2.3330689e-05 2:2.9079737e-07 3:6.0177991e-06 26:0.99999999 29:0.56078431 30:0.3372549 31:0.59999999 32:0.02 33:0.59999999 
0 0 8 0 2:8.8549109e-07 3:0.0002935133 9:0.99999999 20:0.0058823529 21:0.0058823529 26:0.99999999 29:0.56078431 30:0.6745098 31:0.99999999 33:0.0099999999 34:0.02 36:0.0099999999 37:0.02 38:0.05 
0 0 0 0.47928267317924167 1:6.9992068e-05 9:0.99999999 24:0.99999999 25:0.99999999 26:0.99999999 29:0.0039215686 30:1 31:0.99999999 33:0.99999999 34:0.0099999999 37:0.99999999 38:0.02 
0 0 0 7.5225816406309711 1:0.29590313 2:9.1273697e-06 3:0.0015423037 24:0.99999999 25:0.99999999 26:0.99999999 29:0.56470588 30:0.074509804 31:0.13 32:0.0099999999 33:0.0099999999 37:0.079999999 38:0.62999999 
0 0 8 0 2:1.3518148e-06 3:7.7649021e-07 20:0.91372549 21:0.91372549 26:0.99999999 29:1 30:1 31:0.99999999 33:0.99999999 
0 0 0 8 2:7.8593884e-08 26:0.99999999 29:0.21960784 30:0.51372549 31:0.99999999 33:0.99999999 34:0.3 
0 0 0 8 1:0.092786151 2:3.8511003e-07 3:2.0382868e-05 20:0.0098039216 21:0.0019607843 26:0.33 27:0.5 29:1 30:0.0078431373 31:0.0099999999 32:0.43 33:0.92999999 
0 0 0 8 2:7.8593884e-08 26:0.99999999 29:0.21176471 30:0.35294118 31:0.97999999 32:0.04 33:0.97999999 34:0.22 
0 8 0 0 1:0.002403061 2:4.6894351e-07 3:0.0047688146 9:0.99999999 26:0.99999999 29:0.0039215686 30:0.023529412 31:0.99999999 33:0.99999999 34:0.5 36:0.17 38:0.17 
0 0 8 0 2:8.0689721e-07 3:0.00062546286 9:0.99999999 20:0.0078431373 21:0.011764706 25:0.29 26:0.99999999 28:0.43 29:1 30:0.97254902 31:0.96999999 32:0.0099999999 
0 0.0055564291881544277 0 0.96590005215475383 1:6.9992068e-05 2:3.6677146e-07 3:0.00054548437 9:0.99999999 26:0.99999999 29:0.0039215686 30:0.02745098 31:0.99999999 33:0.99999999 34:0.99999999 
0 0.19506176972189621 0 0 1:0.41605618 2:1.3536487e-05 3:0.012794423 9:0.99999999 14:0.025 20:0.0019607843 26:0.5 27:0.99999999 29:1 30:0.2 31:0.2 32:0.02 35:0.63999999 36:0.77999999 
0 0 0 1.8998588111080466 1:0.00051327516 2:8.5405354e-07 3:0.00020460517 7:0.077922078 9:0.99999999 19:0.99999999 26:0.99999999 29:0.28627451 30:0.011764706 31:0.03 32:0.96999999 33:0.0099999999 34:0.66999999 37:0.88999999 38:0.66999999 
0 0 0 8 2:1.1003144e-07 3:1.7859275e-05 26:0.99999999 29:0.074509804 30:0.76078431 31:0.99999999 33:0.99999999 34:0.0099999999 
2.2299686413912165 0 0 0 1:4.6661378e-05 2:2.6721921e-07 3:0.00072621247 9:0.99999999 11:0.99999999 13:0.0020512821 26:0.99999999 29:0.054901961 30:0.0039215686 31:0.069999999 32:0.21 33:0.069999999 
0 0 8 0 2:6.7328761e-07 3:0.00010579679 9:0.99999999 20:0.0098039216 21:0.0098039216 26:0.99999999 29:0.16862745 30:0.16862745 31:0.99999999 33:0.02 
0 0 8 0 1:0.00011665345 2:8.8811089e-07 3:5.4160192e-05 7:0.012987013 9:0.99999999 26:0.99999999 29:1 30:0.99215686 31:0.98999999 32:0.0099999999 
0 0 0 8 24:0.99999999 25:0.99999999 26:0.99999999 29:0.70588235 30:0.039215686 31:0.059999999 32:0.03 33:0.0099999999 35:0.02 37:0.079999999 38:0.99999999 
0 0 0 1.2176479912249143 1:0.0013998414 2:2.2792226e-07 3:4.3677574e-05 8:0.25 26:0.99999999 29:1 30:0.0039215686 32:0.02 
0 0 6.6942559177368821 0 2:5.4753739e-07 3:0.0006619579 9:0.99999999 20:0.076470588 21:0.076470588 26:0.99999999 29:1 30:1 31:0.99999999 37:0.31 38:0.31 
0 0 0 8 2:1.5456797e-07 20:0.017647059 21:0.017647059 26:0.99999999 29:0.12156863 30:0.17254902 31:0.51999999 32:0.059999999 33:0.51999999 34:0.069999999 
0 0 0 8 2:8.121368e-08 3:1.7665152e-05 26:0.99999999 29:0.098039216 30:0.71764706 31:0.75999999 32:0.079999999 33:0.75999999 34:0.0099999999 37:0.24 
0 0 8 0 2:6.5494903e-07 3:5.2995457e-05 9:0.99999999 20:0.0019607843 21:0.0039215686 25:0.33 26:0.99999999 28:0.66999999 29:1 30:0.97647059 31:0.97999999 32:0.0099999999 
0 0 8 0 2:7.8593884e-08 26:0.99999999 29:0.98431373 30:0.98431373 31:0.99999999 33:0.99999999 
0 0 0 8 24:0.99999999 25:0.99999999 26:0.99999999 29:0.60784314 30:0.02745098 31:0.05 32:0.04 33:0.0099999999 35:0.0099999999 37:0.069999999 38:0.99999999 
0 0 0 0.48604388301170315 1:0.0006532593 2:3.9244546e-06 3:0.00080599683 7:0.38961039 9:0.99999999 19:0.99999999 20:0.0019607843 26:0.5 27:0.99999999 29:0.29803922 30:0.039215686 31:0.13 32:0.04 33:0.0099999999 
0 0 0 6.5307596307862275 2:1.362294e-07 3:2.0382868e-05 20:0.01372549 21:0.01372549 26:0.99999999 29:0.17254902 30:0.89411765 31:0.99999999 33:0.99999999 34:0.0099999999 
0 0 3.9263189571308246 0 2:3.186982e-05 20:0.01372549 21:0.01372549 26:0.99999999 29:1 30:0.19215686 31:0.19 32:0.02 33:0.19 35:0.51999999 
0 0.38539245201087208 0 0 2:7.6786225e-06 3:6.3283952e-05 9:0.99999999 20:0.0019607843 26:0.5 27:0.99999999 29:1 30:0.50196078 31:0.5 32:0.05 35:0.0099999999 
0 1.4936718012491541 0 0 1:0.34249452 2:1.2747928e-05 3:0.014126492 9:0.99999999 10:0.0045248869 14:0.5 26:0.99999999 29:1 30:0.12941176 31:0.13 32:0.34 35:0.34 36:0.12 38:0.03 
0 8 0 0 1:0.00062992861 2:3.9296942e-06 3:0.00080599683 7:0.38961039 9:0.99999999 19:0.99999999 26:0.99999999 29:0.80784314 30:0.19215686 31:0.24 32:0.02 
0 0 8 0 2:5.8159474e-07 3:0.0013992354 9:0.99999999 20:0.0019607843 21:0.0019607843 22:0.5 23:0.5 26:0.99999999 29:1 30:1 31:0.99999999 
