svm_type c_svc
kernel_type rbf
gamma 1
nr_class 2
total_sv 741
rho 1.0995239656228117
label 1 -1
nr_sv 355 386
SV
4.5982386297169437 1:0.35366992 2:9.1692865e-07 3:0.00023003522 7:0.077922078 9:0.99999999 19:0.99999999 21:0.0019607843 26:0.99999999 28:0.99999999 29:1 30:0.55686275 31:0.55999999 32:0.02 
256 2:0.00014288368 3:0.0016139349 7:0.025974026 9:0.99999999 10:0.0011312217 26:0.99999999 29:0.98431373 30:0.98431373 31:0.99999999 37:0.02 38:0.02 
256 2:2.7036296e-06 20:0.95098039 21:0.95098039 26:0.99999999 29:1 30:1 31:0.99999999 33:0.99999999 
256 2:3.2747452e-06 3:0.00047579437 7:0.36363636 9:0.99999999 19:0.99999999 26:0.99999999 29:0.92941176 30:0.25490196 31:0.27 32:0.02 37:0.0099999999 
256 2:0.00014288368 3:0.0016139349 7:0.025974026 9:0.99999999 10:0.0011312217 20:0.0058823529 21:0.0058823529 26:0.99999999 29:0.015686275 30:0.015686275 31:0.99999999 33:0.25 
215.0743201314796 2:6.4446985e-07 9:0.99999999 26:0.99999999 29:0.019607843 30:0.062745098 31:0.99999999 33:0.99999999 34:0.12 
58.694509605345921 24:0.99999999 25:0.99999999 26:0.99999999 29:0.46666667 30:0.0039215686 31:0.0099999999 32:0.13 33:0.0099999999 37:0.03 38:0.99999999 
256 2:1.362294e-06 20:0.55098039 21:0.55098039 26:0.99999999 29:1 30:1 31:0.99999999 33:0.99999999 
0.23593901717773988 20:0.34117647 21:0.0039215686 22:0.99999999 23:0.99999999 26:0.02 27:0.059999999 29:0.082352941 30:0.011764706 31:0.14 32:0.24 33:0.05 35:0.33 36:0.99999999 37:0.05 
1.5795971104010429 1:0.83248565 2:1 24:0.99999999 25:0.99999999 26:0.99999999 29:0.30588235 30:0.0078431373 31:0.03 32:0.12 33:0.079999999 37:0.079999999 38:0.5 
6.5422179010868824 2:1.5718777e-08 3:2.3877074e-05 9:0.99999999 20:0.01372549 24:0.38 26:0.12 27:0.99999999 29:0.45098039 30:0.65098039 31:0.50999999 32:0.099999999 33:0.0099999999 34:0.0099999999 36:0.0099999999 37:0.03 
256 2:5.6325617e-07 26:0.99999999 29:0.38823529 30:0.3254902 31:0.83999999 32:0.02 33:0.83999999 
256 2:1.477565e-06 26:0.99999999 29:0.0039215686 30:0.0039215686 31:0.99999999 33:0.99999999 
120.74657749727608 2:4.715633e-08 26:0.99999999 29:0.015686275 30:0.47058824 31:0.99999999 33:0.99999999 34:0.25 
256 1:4.6661378e-05 2:3.224969e-06 3:0.00047579437 7:0.36363636 9:0.99999999 19:0.99999999 26:0.99999999 29:0.82352941 30:0.14901961 31:0.18 32:0.02 37:0.0099999999 
256 2:1.362294e-06 20:0.7 21:0.7 26:0.99999999 29:1 30:1 31:0.99999999 33:0.99999999 
111.30679194926991 24:0.99999999 25:0.99999999 26:0.99999999 29:0.19215686 30:0.0039215686 31:0.02 32:0.079999999 33:0.02 35:0.12 37:0.02 38:0.99999999 
256 1:4.6661378e-05 2:3.0206249e-06 3:0.00047462964 7:0.36363636 9:0.99999999 19:0.99999999 26:0.99999999 29:0.87843137 30:0.20392157 31:0.23 32:0.02 37:0.0099999999 
12.759682983814887 26:0.99999999 29:0.23529412 30:0.035294118 31:0.02 32:0.99999999 33:0.02 34:0.22 37:0.91999999 
0.84001615492590931 20:0.098039216 21:0.0039215686 22:0.99999999 23:0.66999999 26:0.04 27:0.099999999 28:0.66999999 29:0.98039216 30:0.023529412 31:0.0099999999 32:0.059999999 34:0.33 35:0.99999999 36:0.33 
52.864145857512021 1:0.1185199 2:2.7298276e-06 3:0.00044240529 7:0.038961039 9:0.99999999 19:0.99999999 26:0.99999999 29:1 30:0.08627451 31:0.089999999 32:0.02 35:0.13 
256 2:0.00014288368 3:0.0016139349 7:0.025974026 9:0.99999999 10:0.0011312217 20:0.0019607843 21:0.0019607843 26:0.99999999 29:0.99607843 30:0.99607843 31:0.99999999 37:0.02 38:0.02 
256 2:0.00014288368 3:0.0016139349 7:0.025974026 9:0.99999999 10:0.0011312217 20:0.0039215686 21:0.0039215686 26:0.99999999 29:0.050980392 30:0.050980392 31:0.99999999 33:0.079999999 
112.59318667706894 1:2.3330689e-05 2:3.0651615e-06 3:0.00047501788 7:0.36363636 9:0.99999999 19:0.99999999 26:0.99999999 29:0.47058824 30:0.070588235 31:0.15 32:0.05 33:0.0099999999 35:0.02 37:0.069999999 
256 2:2.7036296e-06 20:0.69215686 21:0.69215686 26:0.99999999 29:1 30:1 31:0.99999999 33:0.99999999 
143.60790127225692 2:3.2223493e-06 3:0.00047540613 7:0.36363636 9:0.99999999 19:0.99999999 26:0.99999999 29:0.67843137 30:0.0039215686 31:0.0099999999 32:0.03 33:0.0099999999 35:0.0099999999 37:0.0099999999 
256 2:0.00014288368 3:0.001614129 9:0.99999999 20:0.0019607843 21:0.0019607843 22:0.5 23:0.5 26:0.99999999 29:1 30:1 31:0.99999999 37:0.04 38:0.04 
256 2:0.00014288368 3:0.0016139349 7:0.025974026 9:0.99999999 10:0.0011312217 20:0.0019607843 21:0.0019607843 26:0.99999999 29:0.96470588 30:0.96470588 31:0.99999999 37:0.02 38:0.02 
68.258935938523805 1:0.00074658205 2:2.724588e-07 3:8.7161026e-05 7:0.025974026 9:0.99999999 14:0.025 16:0.125 19:0.99999999 26:0.99999999 29:0.0039215686 30:0.0039215686 31:0.99999999 33:0.99999999 
1.227915762903576 20:0.0019607843 22:0.99999999 23:0.99999999 26:0.5 27:0.99999999 29:0.098039216 30:0.0078431373 31:0.079999999 32:0.71999999 33:0.67999999 35:0.67999999 36:0.99999999 
1.1944842050833862 20:0.0019607843 22:0.99999999 23:0.99999999 26:0.5 27:0.99999999 29:1 30:0.0039215686 32:0.99999999 33:0.99999999 35:0.05 36:0.99999999 37:0.94999999 
256 2:2.7036296e-06 20:0.60784314 21:0.60784314 26:0.99999999 29:1 30:1 31:0.99999999 33:0.99999999 
256 2:2.0958369e-08 26:0.99999999 29:0.019607843 30:0.011764706 31:0.59999999 32:0.59999999 33:0.59999999 
256 2:3.2983233e-06 3:0.00047618262 7:0.36363636 9:0.99999999 19:0.99999999 26:0.99999999 29:1 30:0.21568627 31:0.22 32:0.02 
1.6751031042799134 20:0.34117647 21:0.01372549 22:0.99999999 23:0.12 26:0.0099999999 27:0.069999999 28:0.25 29:1 30:0.0039215686 32:0.069999999 35:0.99999999 36:0.99999999 
256 2:2.7036296e-06 20:0.8745098 21:0.8745098 26:0.99999999 29:1 30:1 31:0.99999999 33:0.99999999 
2.3312050206733477 2:8.7501191e-07 9:0.99999999 20:0.0019607843 21:0.0019607843 26:0.5 27:0.99999999 28:0.99999999 29:0.023529412 30:0.094117647 31:0.82999999 32:0.33 33:0.99999999 34:0.12 
256 2:2.6197961e-07 20:0.0019607843 21:0.0019607843 26:0.99999999 29:0.14509804 30:0.02745098 31:0.19 32:0.05 33:0.19 
256 2:5.422978e-07 20:0.0019607843 21:0.0019607843 26:0.99999999 29:0.20392157 30:0.17254902 31:0.84999999 32:0.04 33:0.84999999 
0.56391734539977112 1:0.016751435 2:3.6991521e-06 3:0.0049035357 7:0.19480519 9:0.99999999 10:0.042986425 11:0.99999999 13:0.055384615 14:0.1 15:0.99999999 16:0.25 26:0.99999999 29:0.0039215686 30:0.0039215686 31:0.99999999 33:0.99999999 
256 2:4.715633e-08 26:0.99999999 29:0.015686275 30:0.29803922 31:0.99999999 33:0.99999999 34:0.25 
256 2:2.7036296e-06 20:0.94901961 21:0.94901961 26:0.99999999 29:1 30:1 31:0.99999999 33:0.99999999 
256 2:1.362294e-06 20:0.53333333 21:0.53333333 26:0.99999999 29:1 30:1 31:0.99999999 33:0.99999999 
256 2:5.6325617e-07 26:0.99999999 29:0.10588235 30:0.10588235 31:0.99999999 33:0.99999999 
2.1295007334382028 1:0.0022864075 2:1.6268934e-06 3:0.001622088 6:0.99999999 7:0.012987013 9:0.99999999 10:0.0056561086 11:0.99999999 13:0.014358974 14:0.025 26:0.99999999 29:1 30:0.015686275 31:0.02 32:0.02 
256 2:2.0958369e-08 26:0.99999999 29:0.0039215686 30:0.51372549 31:0.99999999 33:0.99999999 34:0.5 
68.6968085686444 2:0.00014288368 3:0.0016139349 9:0.99999999 20:0.0098039216 21:0.011764706 24:0.17 25:0.29 26:0.99999999 28:0.29 29:1 30:1 31:0.99999999 37:0.04 38:0.04 
135.09365163523952 1:2.3330689e-05 2:4.4798514e-06 3:7.2795957e-05 9:0.99999999 20:0.0019607843 21:0.0019607843 26:0.99999999 29:0.69803922 30:0.49019608 31:0.34 32:0.39 33:0.0099999999 34:0.02 37:0.31 
2.76931069388423 2:3.8772983e-06 5:0.33333333 20:0.0019607843 21:0.0019607843 26:0.99999999 29:0.019607843 30:0.60784314 31:0.79999999 32:0.4 33:0.79999999 34:0.0099999999 35:0.2 
256 1:4.6661378e-05 2:3.2144899e-06 3:0.00047540613 7:0.36363636 9:0.99999999 19:0.99999999 26:0.99999999 29:1 30:0.23529412 31:0.24 32:0.02 
256 2:5.2395923e-08 26:0.99999999 29:0.3372549 30:0.0078431373 31:0.02 32:0.059999999 33:0.02 
256 2:8.7501191e-07 9:0.99999999 20:0.0019607843 21:0.0019607843 26:0.99999999 29:0.054901961 30:0.098039216 31:0.99999999 33:0.99999999 34:0.079999999 
2.6729768561730651 2:5.2395923e-08 26:0.99999999 29:0.015686275 30:0.0039215686 31:0.25 32:0.5 33:0.99999999 
256 2:1.362294e-06 20:0.68431373 21:0.68431373 26:0.99999999 29:1 30:1 31:0.99999999 33:0.99999999 
256 2:2.0958369e-08 21:0.0019607843 26:0.99999999 28:0.99999999 29:0.0078431373 30:0.0078431373 31:0.99999999 33:0.99999999 
14.337909748689887 2:2.0958369e-08 21:0.0039215686 26:0.99999999 28:0.99999999 29:0.015686275 30:0.18823529 31:0.99999999 33:0.99999999 34:0.25 
256 2:2.6197961e-09 20:0.019607843 21:0.019607843 26:0.99999999 29:0.30980392 30:0.043137255 31:0.14 32:0.059999999 33:0.18 
256 2:1.362294e-06 20:0.019607843 21:0.019607843 26:0.99999999 29:1 30:1 31:0.99999999 33:0.99999999 
11.07003241839735 1:0.00011665345 3:2.9118383e-06 9:0.99999999 26:0.99999999 29:0.011764706 30:0.0039215686 31:0.33 32:0.99999999 33:0.33 37:0.66999999 
0.20299872869501812 20:0.20588235 21:0.021568627 22:0.99999999 23:0.99999999 26:0.11 27:0.069999999 29:0.015686275 30:0.0078431373 31:0.5 32:0.74999999 33:0.25 35:0.99999999 36:0.99999999 
5.8138793061353811 2:6.4446985e-07 9:0.99999999 26:0.99999999 29:0.015686275 30:0.17254902 31:0.99999999 33:0.99999999 34:0.089999999 37:0.25 38:0.02 
0.89584624860810336 20:0.0019607843 24:0.99999999 25:0.99999999 26:0.5 27:0.99999999 29:1 30:0.0039215686 32:0.15 33:0.069999999 35:0.46 37:0.069999999 38:0.99999999 
256 2:2.6197961e-07 20:0.0039215686 21:0.0039215686 26:0.99999999 29:0.50980392 30:0.078431373 31:0.15 32:0.02 33:0.15 
244.96179083781317 2:2.7036296e-06 20:0.87254902 21:0.87254902 26:0.99999999 29:1 30:1 31:0.99999999 33:0.99999999 
256 2:2.6197961e-07 20:0.0019607843 21:0.0019607843 26:0.99999999 29:0.31372549 30:0.039215686 31:0.12 32:0.03 33:0.12 
256 2:1.362294e-06 20:0.66470588 21:0.66470588 26:0.99999999 29:1 30:1 31:0.99999999 33:0.99999999 
256 2:8.7501191e-07 9:0.99999999 20:0.0019607843 21:0.0019607843 26:0.99999999 29:0.035294118 30:0.18039216 31:0.99999999 33:0.99999999 34:0.069999999 36:0.02 
256 2:8.7501191e-07 9:0.99999999 26:0.99999999 29:0.019607843 30:0.10588235 31:0.99999999 33:0.99999999 34:0.069999999 
8.9702433107721227 1:0.00016331482 20:0.0019607843 21:0.0019607843 24:0.99999999 25:0.99999999 26:0.99999999 29:0.62745098 30:0.34117647 31:0.51999999 32:0.14 33:0.25 34:0.02 37:0.25 38:0.02 
256 2:2.0958369e-08 26:0.99999999 29:0.011764706 30:0.011764706 31:0.99999999 33:0.99999999 
37.46872359369361 2:2.7036296e-06 20:0.041176471 21:0.041176471 26:0.99999999 29:1 30:0.08627451 31:0.089999999 32:0.02 33:0.089999999 
256 2:2.6197961e-09 20:0.060784314 21:0.060784314 26:0.99999999 29:0.39215686 30:0.1254902 31:0.32 32:0.05 33:0.35 
256 2:1.362294e-06 20:0.55882353 21:0.55882353 26:0.99999999 29:1 30:1 31:0.99999999 33:0.99999999 
256 3:0.0011057221 9:0.99999999 26:0.99999999 29:0.0039215686 30:0.31764706 31:0.99999999 33:0.99999999 34:0.02 
0.40491996641543226 2:3.8772983e-06 5:0.33333333 20:0.0019607843 21:0.0058823529 26:0.99999999 28:0.5 29:0.019607843 30:0.59215686 31:0.79999999 32:0.4 33:0.79999999 34:0.04 35:0.2 
256 2:2.7036296e-06 20:0.71372549 21:0.71372549 26:0.99999999 29:1 30:1 31:0.99999999 33:0.99999999 
256 2:4.715633e-08 26:0.99999999 29:0.015686275 30:0.21960784 31:0.99999999 33:0.99999999 34:0.25 
256 3:0.0011313462 9:0.99999999 20:0.0019607843 21:0.0019607843 26:0.99999999 29:0.0078431373 30:0.0078431373 31:0.99999999 33:0.99999999 
256 2:8.7501191e-07 9:0.99999999 20:0.0019607843 21:0.0019607843 26:0.99999999 29:0.023529412 30:0.21176471 31:0.99999999 33:0.99999999 34:0.089999999 
256 1:9.3322757e-05 2:1.5718777e-08 3:2.1159358e-05 20:0.0039215686 26:0.33 27:0.99999999 29:1 30:0.0039215686 32:0.03 
231.46001619294697 2:2.6197961e-09 20:0.0019607843 26:0.5 27:0.99999999 29:0.57254902 30:0.0039215686 31:0.0099999999 32:0.05 33:0.0099999999 35:0.0099999999 
256 2:5.2395923e-08 26:0.99999999 29:0.34509804 30:0.015686275 31:0.05 32:0.059999999 33:0.05 
256 2:2.6197961e-09 20:0.054901961 21:0.054901961 26:0.99999999 29:0.38039216 30:0.11372549 31:0.3 32:0.05 33:0.33 
9.1640046138014686 2:8.7501191e-07 9:0.99999999 20:0.0019607843 21:0.0019607843 26:0.99999999 29:0.066666667 30:0.19215686 31:0.93999999 32:0.12 33:0.99999999 34:0.099999999 
256 2:0.00014288368 3:0.0016139349 7:0.025974026 9:0.99999999 10:0.0011312217 20:0.0098039216 21:0.0098039216 26:0.99999999 29:1 30:1 31:0.99999999 35:0.0099999999 36:0.0099999999 37:0.02 38:0.02 
16.8306080842559 2:6.4446985e-07 9:0.99999999 20:0.0019607843 26:0.5 27:0.99999999 29:1 30:0.3254902 31:0.33 32:0.069999999 33:0.35 35:0.02 36:0.05 
9.1735582768857036 2:2.6197961e-09 20:0.031372549 26:0.059999999 27:0.18 29:1 30:0.0039215686 32:0.38 33:0.66999999 35:0.16 37:0.18 
1.1459821715050049 20:0.19607843 21:0.0019607843 24:0.99999999 25:0.99999999 26:0.02 27:0.069999999 29:0.0078431373 30:0.0078431373 31:0.99999999 33:0.5 37:0.99999999 38:0.99999999 
256 2:2.0958369e-08 26:0.99999999 29:0.0039215686 30:0.5372549 31:0.99999999 33:0.99999999 34:0.5 
127.7262250419578 2:7.6498047e-05 3:0.00056683785 7:0.012987013 9:0.99999999 20:0.0058823529 21:0.0058823529 24:0.74999999 25:0.74999999 26:0.99999999 29:1 30:1 31:0.99999999 37:0.04 38:0.04 
256 2:1.362294e-06 20:0.029411765 21:0.029411765 26:0.99999999 29:1 30:1 31:0.99999999 33:0.99999999 
71.563875187741047 2:2.6197961e-09 20:0.0078431373 21:0.0019607843 26:0.4 27:0.59999999 29:0.58431373 30:0.0078431373 31:0.0099999999 32:0.05 33:0.03 35:0.0099999999 
256 2:1.362294e-06 20:0.70980392 21:0.70980392 26:0.99999999 29:1 30:1 31:0.99999999 33:0.99999999 
256 2:2.7036296e-06 20:0.031372549 21:0.031372549 26:0.99999999 29:1 30:0.066666667 31:0.069999999 32:0.02 33:0.069999999 
0.48611047331399065 20:0.0098039216 21:0.0098039216 22:0.99999999 23:0.99999999 26:0.99999999 29:0.25882353 30:0.047058824 31:0.089999999 32:0.059999999 33:0.02 34:0.17 35:0.99999999 36:0.5 
256 2:5.2395923e-08 26:0.99999999 29:0.0039215686 30:0.0039215686 31:0.99999999 33:0.99999999 
256 2:5.422978e-07 20:0.0019607843 21:0.0019607843 26:0.99999999 29:0.29019608 30:0.25882353 31:0.88999999 32:0.03 33:0.88999999 
0.86298727493520366 1:0.00023330689 3:0.99976608 26:0.99999999 29:0.066666667 30:0.066666667 31:0.99999999 33:0.99999999 
256 2:2.7036296e-06 20:0.68823529 21:0.68823529 26:0.99999999 29:1 30:1 31:0.99999999 33:0.99999999 
1.6089058471490651 2:2.7036296e-06 20:0.090196078 21:0.090196078 26:0.99999999 29:0.94117647 30:0.57254902 31:0.60999999 32:0.03 33:0.60999999 35:0.0099999999 37:0.26 
186.88363554167415 2:0.00014288368 3:0.0016139349 7:0.025974026 9:0.99999999 10:0.0011312217 21:0.0019607843 25:0.5 26:0.99999999 28:0.99999999 29:0.70980392 30:0.70980392 31:0.99999999 33:0.0099999999 37:0.0099999999 38:0.0099999999 
0.13428803827756683 22:0.99999999 23:0.99999999 26:0.99999999 29:0.25490196 30:0.0039215686 31:0.02 32:0.84999999 33:0.87999999 35:0.87999999 36:0.99999999 
0.049615938685346188 22:0.99999999 23:0.99999999 26:0.99999999 29:1 30:0.0039215686 32:0.069999999 35:0.99999999 36:0.99999999 
256 2:2.7036296e-06 26:0.99999999 29:1 30:1 31:0.99999999 33:0.99999999 
256 1:9.3322757e-05 2:3.2485472e-06 3:0.00047540613 7:0.36363636 9:0.99999999 19:0.99999999 26:0.99999999 29:0.83529412 30:0.16078431 31:0.19 32:0.02 37:0.0099999999 
256 2:5.6325617e-07 26:0.99999999 29:0.37254902 30:0.30980392 31:0.82999999 32:0.02 33:0.82999999 
256 2:8.7501191e-07 9:0.99999999 26:0.99999999 29:0.031372549 30:0.17647059 31:0.99999999 33:0.99999999 34:0.069999999 36:0.02 
174.27047084297624 2:1.362294e-06 20:0.052941176 21:0.052941176 26:0.99999999 29:1 30:1 31:0.99999999 33:0.99999999 
256 2:3.2066305e-06 3:0.00047579437 7:0.36363636 9:0.99999999 19:0.99999999 26:0.99999999 29:0.87058824 30:0.19607843 31:0.23 32:0.02 37:0.0099999999 
0.72852275722985882 2:2.6197961e-09 3:1.9412255e-07 20:0.0058823529 26:0.25 27:0.5 29:1 30:0.0039215686 32:0.98999999 33:0.02 35:0.2 37:0.77999999 
256 2:0.00014288368 3:0.0016139349 7:0.025974026 9:0.99999999 10:0.0011312217 26:0.99999999 29:0.0039215686 30:0.0039215686 31:0.99999999 33:0.99999999 
1.9069413431675797 1:0.00013998414 3:2.9118383e-06 9:0.99999999 24:0.99999999 25:0.99999999 26:0.99999999 29:0.011764706 30:0.0039215686 31:0.33 32:0.99999999 33:0.33 37:0.99999999 38:0.99999999 
0.27655645204715035 24:0.99999999 25:0.99999999 26:0.99999999 29:0.2 30:0.0078431373 31:0.02 32:0.99999999 33:0.02 34:0.99999999 37:0.97999999 38:0.5 
256 2:1.362294e-06 20:0.01372549 21:0.01372549 26:0.99999999 29:1 30:1 31:0.99999999 33:0.99999999 
196.04648596406781 2:5.422978e-07 20:0.0019607843 21:0.0019607843 26:0.99999999 29:0.4 30:0.3372549 31:0.83999999 32:0.02 33:0.83999999 
9.5516367045519122 2:7.3354292e-08 5:0.33333333 26:0.99999999 29:1 30:0.0039215686 32:0.0099999999 
256 2:8.7501191e-07 9:0.99999999 20:0.0019607843 21:0.0019607843 26:0.99999999 29:0.015686275 30:0.18823529 31:0.99999999 33:0.99999999 34:0.079999999 
256 2:2.7036296e-06 20:0.68627451 21:0.68627451 26:0.99999999 29:1 30:1 31:0.99999999 33:0.99999999 
256 2:8.7501191e-07 9:0.99999999 26:0.99999999 29:0.011764706 30:0.035294118 31:0.99999999 33:0.99999999 34:0.44 
256 2:1.362294e-06 20:0.66078431 21:0.66078431 26:0.99999999 29:1 30:1 31:0.99999999 33:0.99999999 
256 2:8.7501191e-07 9:0.99999999 20:0.0019607843 21:0.0019607843 26:0.99999999 29:0.0078431373 30:0.058823529 31:0.99999999 33:0.99999999 34:0.13 
0.51205172346836236 1:0.00025663758 2:1.5718777e-08 7:0.012987013 20:0.99607843 22:0.02 24:0.96999999 27:0.99999999 29:1 30:0.0039215686 32:0.99999999 35:0.02 37:0.95999999 
32.056313544032967 1:0.00013998414 3:7.7649021e-07 26:0.99999999 29:0.070588235 30:0.0039215686 31:0.059999999 32:0.99999999 33:0.059999999 37:0.82999999 
256 2:5.6325617e-07 26:0.99999999 29:0.92156863 30:0.76470588 31:0.82999999 32:0.0099999999 33:0.82999999 
1.6776174681652887 20:0.22941176 21:0.029411765 24:0.99999999 25:0.99999999 26:0.14 27:0.059999999 29:0.074509804 30:0.039215686 31:0.52999999 32:0.11 33:0.05 37:0.99999999 38:0.99999999 
256 2:4.715633e-08 26:0.99999999 29:0.035294118 30:0.035294118 31:0.99999999 33:0.99999999 
6.5863301670780858 2:3.8772983e-06 5:0.33333333 20:0.0019607843 21:0.0058823529 26:0.99999999 28:0.5 29:0.015686275 30:0.59215686 31:0.99999999 33:0.99999999 34:0.05 
256 2:2.0958369e-08 26:0.99999999 29:0.0078431373 30:0.14901961 31:0.99999999 33:0.99999999 34:0.5 
6.3358345461583117 2:0.00014288368 3:0.0016139349 7:0.025974026 9:0.99999999 10:0.0011312217 20:0.0019607843 21:0.0039215686 25:0.33 26:0.99999999 28:0.66999999 29:0.17647059 30:0.17647059 31:0.99999999 33:0.02 
2.7507025630826649 1:2.3330689e-05 20:0.0098039216 21:0.0019607843 22:0.66999999 23:0.5 24:0.33 25:0.5 26:0.33 27:0.5 29:1 30:0.0078431373 31:0.0099999999 32:0.02 33:0.02 35:0.02 36:0.5 37:0.0099999999 38:0.5 
256 2:1.362294e-06 20:0.02745098 21:0.02745098 26:0.99999999 29:1 30:1 31:0.99999999 33:0.99999999 
190.42058271089715 2:2.0958369e-08 21:0.080392157 26:0.99999999 28:0.99999999 29:0.0078431373 30:0.0078431373 31:0.99999999 33:0.99999999 
0.15019476869500462 2:2.0958369e-08 21:0.0039215686 26:0.99999999 28:0.99999999 29:0.0078431373 30:0.44705882 31:0.99999999 33:0.99999999 34:0.25 
3.4942109677008149 2:2.0958369e-08 21:0.0019607843 26:0.99999999 28:0.99999999 29:0.89019608 30:0.11764706 31:0.0099999999 32:0.03 33:0.0099999999 34:0.96999999 37:0.0099999999 
14.125712433701443 1:0.11809995 2:0.013449709 7:0.038961039 9:0.99999999 26:0.99999999 29:1 30:0.27058824 31:0.27 32:0.079999999 33:0.32 35:0.0099999999 36:0.0099999999 
249.7544790569934 2:9.6932457e-08 20:0.0039215686 21:0.0039215686 26:0.99999999 29:0.023529412 30:0.011764706 31:0.5 32:0.5 33:0.66999999 
256 2:1.362294e-06 20:0.60196078 21:0.60196078 26:0.99999999 29:1 30:1 31:0.99999999 33:0.99999999 
256 2:5.6325617e-07 26:0.99999999 29:0.0039215686 30:0.0039215686 31:0.99999999 33:0.99999999 
256 2:4.715633e-08 26:0.99999999 29:0.015686275 30:0.45490196 31:0.99999999 33:0.99999999 34:0.25 
256 2:2.7036296e-06 20:0.88627451 21:0.88627451 26:0.99999999 29:1 30:1 31:0.99999999 33:0.99999999 
256 2:5.6325617e-07 26:0.99999999 29:0.22352941 30:0.19215686 31:0.85999999 32:0.04 33:0.85999999 
34.429517150674364 2:2.7036296e-06 20:0.99411765 21:0.99411765 26:0.99999999 29:1 30:1 31:0.99999999 33:0.99999999 
256 2:8.7501191e-07 9:0.99999999 20:0.0019607843 21:0.0019607843 26:0.99999999 29:1 30:0.33333333 31:0.33 32:0.069999999 33:0.35 35:0.0099999999 36:0.04 
256 2:5.6325617e-07 26:0.99999999 29:0.83529412 30:0.70980392 31:0.84999999 32:0.0099999999 33:0.84999999 
256 2:5.422978e-07 20:0.0019607843 21:0.0019607843 26:0.99999999 29:0.22745098 30:0.19607843 31:0.85999999 32:0.03 33:0.85999999 
1.4383121150503866 20:0.0058823529 21:0.0039215686 22:0.5 23:0.66999999 24:0.5 25:0.33 26:0.5 27:0.74999999 28:0.66999999 29:1 30:0.16862745 31:0.17 32:0.04 35:0.99999999 36:0.99999999 
256 1:0.1179833 2:0.013454429 9:0.99999999 26:0.99999999 29:0.0039215686 30:0.0039215686 31:0.99999999 33:0.99999999 
0.67848952966279408 2:2.0958369e-08 20:0.088235294 21:0.064705882 26:0.02 27:0.04 28:0.99999999 29:0.015686275 30:0.10980392 31:0.99999999 33:0.99999999 34:0.25 
75.347945569023054 2:5.6325617e-07 26:0.99999999 29:0.81176471 30:0.68627451 31:0.84999999 32:0.0099999999 33:0.84999999 
1.9449801139846292 2:1.336096e-07 3:0.001577634 7:0.025974026 9:0.99999999 11:0.99999999 16:0.125 21:0.0019607843 25:0.5 26:0.99999999 28:0.99999999 29:1 30:1 31:0.99999999 
5.4419110705032239 2:1.5718777e-08 3:7.7649021e-07 9:0.99999999 20:0.0019607843 24:0.5 26:0.5 27:0.99999999 29:0.47058824 30:0.0039215686 31:0.0099999999 32:0.13 33:0.0099999999 37:0.03 
106.18322634342893 2:0.00014288368 3:0.0016139349 7:0.025974026 9:0.99999999 10:0.0011312217 20:0.019607843 21:0.019607843 26:0.99999999 29:1 30:1 31:0.99999999 37:0.04 38:0.04 
1.257447013040627 2:2.6197961e-09 20:0.0039215686 21:0.0039215686 26:0.99999999 29:1 30:0.023529412 31:0.02 32:0.97999999 33:0.02 35:0.03 37:0.94999999 
256 2:0.00014288368 3:0.0016139349 7:0.025974026 9:0.99999999 10:0.0011312217 20:0.0039215686 21:0.0039215686 26:0.99999999 29:0.97647059 30:0.97647059 31:0.99999999 37:0.02 38:0.02 
256 2:0.00014288368 3:0.0016139349 7:0.025974026 9:0.99999999 10:0.0011312217 20:0.0019607843 21:0.0019607843 26:0.99999999 29:0.97254902 30:0.97254902 31:0.99999999 37:0.02 38:0.02 
27.541490352638672 26:0.99999999 29:0.28627451 30:0.59215686 31:0.23 32:0.36 33:0.34 34:0.02 35:0.079999999 36:0.03 37:0.32 
155.04459550024114 2:0.00014288368 3:0.0016139349 7:0.025974026 9:0.99999999 10:0.0011312217 21:0.0019607843 25:0.5 26:0.99999999 28:0.99999999 29:1 30:1 31:0.99999999 35:0.0099999999 36:0.0099999999 37:0.03 38:0.03 
0.38302982794008744 20:0.0019607843 22:0.99999999 23:0.99999999 26:0.5 27:0.99999999 29:1 30:0.0039215686 32:0.069999999 35:0.99999999 36:0.99999999 
0.72425439787898704 20:0.38823529 22:0.99999999 23:0.99999999 26:0.0099999999 27:0.05 29:0.011764706 30:0.0039215686 31:0.33 32:0.66999999 33:0.33 35:0.33 36:0.99999999 
0.99747127477631092 20:0.0039215686 24:0.33 25:0.99999999 26:0.33 27:0.66999999 29:1 30:0.0039215686 32:0.079999999 33:0.059999999 37:0.059999999 38:0.99999999 
5.2001910598433314 2:4.715633e-08 20:0.0019607843 24:0.5 26:0.5 27:0.99999999 29:0.054901961 30:0.96078431 31:0.29 32:0.14 33:0.29 34:0.25 37:0.069999999 
128.42311887869917 2:2.0958369e-08 26:0.99999999 29:0.015686275 30:0.0078431373 31:0.5 32:0.74999999 33:0.5 
256 2:5.6325617e-07 26:0.99999999 29:0.19215686 30:0.16078431 31:0.83999999 32:0.04 33:0.83999999 
0.41986357958391268 2:3.8772983e-06 5:0.33333333 20:0.0019607843 21:0.0019607843 26:0.99999999 29:0.3372549 30:0.0078431373 31:0.02 32:0.05 33:0.02 
256 2:2.7036296e-06 20:0.59411765 21:0.59411765 26:0.99999999 29:1 30:1 31:0.99999999 33:0.99999999 
256 1:0.016518128 2:4.5243879e-06 3:0.004674471 9:0.99999999 10:0.0067873303 13:0.0071794872 26:0.99999999 29:1 30:0.011764706 31:0.0099999999 32:0.02 
256 2:2.6197961e-07 26:0.99999999 29:0.89019608 30:0.14509804 31:0.16 32:0.0099999999 33:0.16 
49.468126348715735 2:8.7501191e-07 9:0.99999999 20:0.0019607843 21:0.0019607843 26:0.99999999 29:0.035294118 30:0.14117647 31:0.99999999 33:0.99999999 34:0.079999999 
44.511468641950543 1:0.00027996827 2:1.336096e-07 3:0.001577634 7:0.025974026 9:0.99999999 11:0.99999999 16:0.125 26:0.99999999 29:1 30:0.96470588 31:0.95999999 32:0.0099999999 
243.39915227818466 2:1.3098981e-08 20:0.24509804 26:0.0099999999 27:0.02 29:1 30:0.039215686 31:0.04 32:0.02 33:0.04 
256 2:5.422978e-07 20:0.0019607843 21:0.0019607843 26:0.99999999 29:0.30588235 30:0.2745098 31:0.89999999 32:0.03 33:0.89999999 
256 2:2.7036296e-06 20:0.71176471 21:0.71176471 26:0.99999999 29:1 30:1 31:0.99999999 33:0.99999999 
159.90740932664562 2:5.2395923e-08 26:0.99999999 29:1 30:0.0039215686 32:0.31 37:0.15 
1.9843739539859253 1:2.3330689e-05 3:2.5818299e-05 24:0.99999999 25:0.99999999 26:0.99999999 29:0.0078431373 30:0.0039215686 31:0.5 32:0.99999999 33:0.5 37:0.99999999 38:0.99999999 
256 2:8.7501191e-07 9:0.99999999 26:0.99999999 29:0.043137255 30:0.043137255 31:0.99999999 33:0.99999999 
1.9981114050477384 7:0.025974026 20:0.0058823529 21:0.24313725 22:0.5 23:0.74999999 25:0.04 26:0.99999999 28:0.36 29:0.039215686 30:0.039215686 31:0.99999999 33:0.79999999 35:0.5 36:0.5 
2.2299329916934139 2:6.4446985e-07 9:0.99999999 22:0.99999999 23:0.99999999 26:0.99999999 29:0.0039215686 30:0.22352941 31:0.99999999 33:0.99999999 34:0.12 35:0.99999999 36:0.02 
256 2:8.7501191e-07 9:0.99999999 20:0.0019607843 21:0.0019607843 26:0.99999999 29:0.015686275 30:0.015686275 31:0.99999999 33:0.99999999 
256 2:2.0958369e-08 26:0.99999999 29:0.0078431373 30:0.0078431373 31:0.99999999 33:0.99999999 
1.2892921135127582 22:0.99999999 23:0.99999999 26:0.99999999 29:1 30:0.0039215686 32:0.99999999 33:0.99999999 35:0.0099999999 36:0.99999999 37:0.98999999 
256 2:8.7501191e-07 9:0.99999999 20:0.0019607843 21:0.0019607843 26:0.99999999 29:0.023529412 30:0.14901961 31:0.66999999 32:0.33 33:0.66999999 34:0.16 
256 2:3.224969e-06 3:0.00047579437 7:0.36363636 9:0.99999999 19:0.99999999 26:0.99999999 29:0.88627451 30:0.21176471 31:0.24 32:0.02 37:0.0099999999 
0.48220907290297882 20:0.87647059 24:0.99999999 25:0.99999999 27:0.51999999 29:1 30:0.0039215686 32:0.50999999 33:0.99999999 37:0.99999999 38:0.99999999 
5.1821214975044363 2:4.715633e-08 20:0.0019607843 26:0.5 27:0.99999999 29:0.011764706 30:0.10588235 31:0.99999999 33:0.99999999 34:0.26 
11.681637857271406 2:0.00014288368 3:0.00085025678 7:0.012987013 9:0.99999999 20:0.0019607843 21:0.0019607843 22:0.5 23:0.5 26:0.99999999 29:1 30:1 31:0.99999999 37:0.04 38:0.04 
256 2:2.7036296e-06 20:0.039215686 21:0.039215686 26:0.99999999 29:1 30:1 31:0.99999999 33:0.99999999 
4.4171098880343234 20:0.0019607843 21:0.0019607843 22:0.99999999 23:0.99999999 26:0.99999999 29:0.0078431373 30:0.0078431373 31:0.99999999 33:0.5 35:0.99999999 36:0.99999999 
256 2:2.6197961e-07 20:0.0019607843 21:0.0019607843 26:0.99999999 29:0.1254902 30:0.0078431373 31:0.059999999 32:0.059999999 33:0.059999999 
25.0864996096361 1:9.3322757e-05 2:2.1796704e-06 9:0.99999999 21:0.0019607843 26:0.99999999 28:0.99999999 29:0.066666667 30:0.20392157 31:0.99999999 33:0.99999999 34:0.12 36:0.02 
12.131624362233088 2:3.3009431e-07 3:3.4747937e-05 7:0.012987013 8:0.25 20:0.0019607843 21:0.0019607843 24:0.99999999 25:0.99999999 26:0.99999999 29:0.18431373 30:0.18431373 31:0.99999999 33:0.02 35:0.04 36:0.04 37:0.95999999 38:0.95999999 
256 2:2.6197961e-07 20:0.0039215686 21:0.0039215686 26:0.99999999 29:0.69803922 30:0.10980392 31:0.16 32:0.0099999999 33:0.16 
256 2:1.362294e-06 20:0.6372549 21:0.6372549 26:0.99999999 29:1 30:1 31:0.99999999 33:0.99999999 
256 2:2.7036296e-06 20:0.70784314 21:0.70784314 26:0.99999999 29:1 30:1 31:0.99999999 33:0.99999999 
1.6875385801072353 21:0.0039215686 22:0.99999999 23:0.33 26:0.99999999 28:0.99999999 29:0.090196078 30:0.52941176 31:0.04 32:0.089999999 33:0.04 34:0.0099999999 35:0.90999999 36:0.0099999999 
256 2:2.0958369e-08 26:0.99999999 29:0.023529412 30:0.023529412 31:0.99999999 33:0.99999999 
2.8138950382789689 20:0.015686275 24:0.44 25:0.99999999 26:0.11 27:0.99999999 29:0.64313725 30:0.0039215686 31:0.0099999999 32:0.089999999 33:0.0099999999 35:0.0099999999 37:0.02 38:0.99999999 
256 2:2.0958369e-08 26:0.99999999 29:0.015686275 30:0.015686275 31:0.99999999 33:0.99999999 
1.2538360407152136 1:0.00013998414 3:2.5818299e-05 24:0.99999999 25:0.99999999 26:0.99999999 29:0.0078431373 30:0.0078431373 31:0.5 32:0.99999999 33:0.5 34:0.99999999 37:0.99999999 38:0.99999999 
256 2:2.0958369e-08 26:0.99999999 29:0.0078431373 30:0.054901961 31:0.99999999 33:0.99999999 34:0.56999999 
256 2:5.6325617e-07 26:0.99999999 29:0.2 30:0.16862745 31:0.83999999 32:0.04 33:0.83999999 
0.86762135282434671 20:0.0019607843 22:0.5 24:0.5 25:0.99999999 26:0.5 27:0.99999999 29:1 30:0.0039215686 32:0.99999999 33:0.99999999 35:0.05 37:0.94999999 38:0.99999999 
5.5854482357984185 2:0.00014288368 3:0.0016139349 7:0.025974026 9:0.99999999 10:0.0011312217 20:0.0019607843 21:0.0058823529 26:0.99999999 28:0.74999999 29:0.023529412 30:0.023529412 31:0.99999999 33:0.17 37:0.17 38:0.17 
256 2:4.715633e-08 26:0.99999999 29:0.015686275 30:0.16862745 31:0.99999999 33:0.99999999 34:0.26 
0.88298953647870315 20:1 21:0.0019607843 22:0.33 23:0.99999999 24:0.66999999 27:0.99999999 29:1 30:0.0078431373 31:0.0099999999 32:0.99999999 35:0.16 36:0.99999999 37:0.83999999 
256 2:2.0958369e-08 26:0.99999999 29:0.02745098 30:0.019607843 31:0.70999999 32:0.43 33:0.70999999 
180.87428264153698 2:1.362294e-06 20:0.85882353 21:0.85882353 26:0.99999999 29:0.90980392 30:0.90980392 31:0.99999999 33:0.99999999 
256 2:1.477565e-06 20:0.0019607843 21:0.0019607843 26:0.99999999 29:0.0078431373 30:0.0078431373 31:0.99999999 33:0.99999999 
256 1:0.00048994447 2:2.3316186e-07 3:6.697228e-05 7:0.012987013 9:0.99999999 14:0.025 26:0.99999999 29:1 30:0.0039215686 32:0.02 
256 1:0.00027996827 2:1.8456464e-05 9:0.99999999 20:0.0019607843 21:0.0019607843 26:0.99999999 29:0.0078431373 30:0.18039216 31:0.99999999 33:0.99999999 34:0.04 36:0.02 
256 2:0.00014288368 3:0.0016139349 7:0.025974026 9:0.99999999 10:0.0011312217 20:0.0019607843 21:0.0019607843 26:0.99999999 29:0.15294118 30:0.15294118 31:0.99999999 33:0.03 
0.099565317702417042 20:0.0019607843 24:0.99999999 25:0.99999999 26:0.5 27:0.99999999 29:1 30:0.0039215686 32:0.99999999 33:0.99999999 37:0.99999999 38:0.99999999 
256 2:0.00014288368 3:0.001614129 7:0.012987013 9:0.99999999 20:0.0098039216 21:0.0098039216 22:0.17 23:0.17 26:0.99999999 29:1 30:1 31:0.99999999 35:0.0099999999 36:0.0099999999 37:0.04 38:0.04 
256 2:5.422978e-07 20:0.0019607843 21:0.0019607843 26:0.99999999 29:0.023529412 30:0.023529412 31:0.99999999 33:0.99999999 
18.775617799510066 2:0.00014288368 3:0.0016139349 7:0.025974026 9:0.99999999 10:0.0011312217 20:0.0058823529 21:0.0078431373 26:0.99999999 28:0.4 29:0.22352941 30:0.22352941 31:0.99999999 33:0.02 35:0.02 36:0.02 37:0.02 38:0.02 
6.7775669773689931 2:1.362294e-06 20:0.84901961 21:0.84901961 26:0.99999999 29:0.11372549 30:0.11372549 31:0.99999999 33:0.99999999 
256 2:3.2040107e-06 3:0.00047579437 7:0.36363636 9:0.99999999 19:0.99999999 26:0.99999999 29:0.80392157 30:0.12941176 31:0.16 32:0.02 37:0.0099999999 
256 2:4.715633e-08 26:0.99999999 29:0.015686275 30:0.36078431 31:0.99999999 33:0.99999999 34:0.25 
256 2:2.0958369e-08 26:0.99999999 29:0.0078431373 30:0.16470588 31:0.99999999 33:0.99999999 34:0.5 
256 2:3.135896e-06 3:0.00047501788 7:0.36363636 9:0.99999999 19:0.99999999 26:0.99999999 29:1 30:0.26666667 31:0.27 32:0.02 
0.77822361916766247 20:0.043137255 21:0.0039215686 22:0.99999999 23:0.99999999 26:0.13 27:0.089999999 29:0.090196078 30:0.11764706 31:0.13 32:0.089999999 33:0.04 34:0.069999999 35:0.99999999 36:0.099999999 
256 2:2.7036296e-06 20:0.88823529 21:0.88823529 26:0.99999999 29:1 30:1 31:0.99999999 33:0.99999999 
256 1:0.00027996827 2:1.8456464e-05 9:0.99999999 26:0.99999999 29:1 30:0.24313725 31:0.24 32:0.13 33:0.34 35:0.02 36:0.02 
256 2:2.6197961e-07 26:0.99999999 29:0.30980392 30:0.035294118 31:0.11 32:0.03 33:0.11 
0.77379448621257352 2:2.7036296e-06 20:1 21:1 26:0.99999999 29:0.39215686 30:0.023529412 31:0.059999999 32:0.069999999 33:0.059999999 35:0.02 37:0.62999999 
21.220201400317436 2:1.3098981e-08 20:0.064705882 26:0.03 27:0.059999999 29:0.4 30:0.019607843 31:0.0099999999 32:0.059999999 33:0.0099999999 34:0.4 
256 2:1.362294e-06 20:0.54117647 21:0.54117647 26:0.99999999 29:1 30:1 31:0.99999999 33:0.99999999 
0.87790244550936269 20:0.69607843 22:0.03 23:0.99999999 24:0.94999999 27:0.99999999 29:1 30:0.0039215686 32:0.99999999 35:0.04 36:0.99999999 37:0.95999999 
256 2:2.7036296e-06 20:0.021568627 21:0.021568627 26:0.99999999 29:1 30:0.047058824 31:0.05 32:0.02 33:0.05 
2.0192060648372525 1:0.0039428865 2:4.1052205e-06 3:0.00055460813 7:0.038961039 9:0.99999999 10:0.0045248869 11:0.99999999 14:0.025 26:0.99999999 29:0.0039215686 30:0.0039215686 31:0.99999999 33:0.99999999 
2.0812302736020012 4:0.99999999 22:0.99999999 23:0.99999999 26:0.99999999 29:0.0039215686 30:0.031372549 31:0.99999999 33:0.99999999 34:0.38 35:0.99999999 36:0.12 
256 2:2.7036296e-06 20:0.54117647 21:0.54117647 26:0.99999999 29:1 30:1 31:0.99999999 33:0.99999999 
251.52908689311187 2:4.715633e-08 26:0.99999999 29:0.0039215686 30:0.054901961 31:0.99999999 33:0.99999999 34:0.99999999 
1.250938739152724 24:0.99999999 25:0.99999999 26:0.99999999 29:0.0039215686 30:0.15686275 31:0.99999999 33:0.99999999 34:0.079999999 37:0.99999999 38:0.05 
256 2:2.7036296e-06 20:0.57058824 21:0.57058824 26:0.99999999 29:1 30:1 31:0.99999999 33:0.99999999 
256 1:2.3330689e-05 2:3.3088025e-06 3:0.00047579437 7:0.36363636 9:0.99999999 19:0.99999999 26:0.99999999 29:0.94901961 30:0.2745098 31:0.29 32:0.02 37:0.0099999999 
83.960131510245887 2:4.715633e-08 26:0.99999999 29:0.011764706 30:0.24705882 31:0.99999999 33:0.99999999 34:0.25 
0.03988775995820814 20:0.0019607843 24:0.99999999 25:0.99999999 26:0.5 27:0.99999999 29:1 30:0.0039215686 32:0.99999999 33:0.99999999 37:0.99999999 38:0.99999999 
256 2:2.7036296e-06 20:0.69607843 21:0.69607843 26:0.99999999 29:1 30:1 31:0.99999999 33:0.99999999 
6.5086819291080316 24:0.99999999 25:0.99999999 26:0.99999999 29:0.0039215686 30:0.40784314 31:0.99999999 33:0.99999999 34:0.03 37:0.99999999 38:0.02 
256 2:8.7501191e-07 9:0.99999999 20:0.0019607843 21:0.0019607843 26:0.99999999 29:0.047058824 30:0.047058824 31:0.99999999 33:0.99999999 
0.37972266694499479 20:0.57254902 21:0.035294118 24:0.99999999 25:0.99999999 26:0.059999999 27:0.059999999 29:1 30:0.14509804 31:0.15 32:0.059999999 37:0.99999999 38:0.99999999 
0.20912099616005259 1:0.0012365265 2:6.8848243e-06 3:0.00074931305 7:0.038961039 9:0.99999999 10:0.0011312217 11:0.99999999 26:0.99999999 29:0.0078431373 30:0.0078431373 31:0.99999999 33:0.5 
0.7590888551738042 20:0.02745098 21:0.0019607843 22:0.99999999 23:0.99999999 26:0.13 27:0.13 29:0.16470588 30:0.011764706 31:0.05 32:0.069999999 33:0.02 34:0.66999999 35:0.99999999 36:0.66999999 
256 2:2.7036296e-06 20:0.90784314 21:0.90784314 26:0.99999999 29:1 30:1 31:0.99999999 33:0.99999999 
256 2:8.7501191e-07 9:0.99999999 26:0.99999999 29:0.011764706 30:0.02745098 31:0.99999999 33:0.99999999 34:0.29 
256 2:5.2395923e-08 26:0.99999999 29:1 30:0.0039215686 32:0.02 33:0.02 
0.16570755860189545 1:2.3330689e-05 2:0.00011857197 3:0.00085025678 7:0.012987013 9:0.99999999 20:0.0039215686 21:0.0039215686 24:0.66999999 25:0.66999999 26:0.99999999 29:0.058823529 30:0.058823529 31:0.99999999 33:0.069999999 37:0.47 38:0.47 
256 2:1.0479185e-08 20:0.0019607843 21:0.0019607843 26:0.99999999 29:0.0078431373 30:0.0078431373 31:0.99999999 33:0.5 
256 2:1.362294e-06 20:0.61372549 21:0.61372549 26:0.99999999 29:1 30:1 31:0.99999999 33:0.99999999 
256 2:2.7036296e-06 20:0.029411765 21:0.029411765 26:0.99999999 29:1 30:0.062745098 31:0.059999999 32:0.02 33:0.059999999 
256 2:1.362294e-06 20:0.5627451 21:0.5627451 26:0.99999999 29:1 30:1 31:0.99999999 33:0.99999999 
5.7929267728272951 20:0.015686275 21:0.015686275 24:0.99999999 25:0.99999999 26:0.99999999 29:1 30:0.10588235 31:0.11 32:0.059999999 37:0.99999999 38:0.99999999 
0.2147726385277561 2:2.6197961e-09 20:0.011764706 21:0.0058823529 26:0.56999999 27:0.29 29:1 30:0.015686275 31:0.02 32:0.96999999 33:0.04 35:0.03 37:0.92999999 
34.032112113954774 2:2.6197961e-09 20:0.0078431373 21:0.0039215686 26:0.59999999 27:0.59999999 29:1 30:0.011764706 31:0.0099999999 32:0.36 33:0.83999999 37:0.16 
34.21504654160217 2:2.6197961e-09 20:0.021568627 26:0.079999999 27:0.74999999 29:1 30:0.0039215686 32:0.32 33:0.99999999 
0.12953241764082254 20:0.0039215686 22:0.99999999 23:0.99999999 26:0.33 27:0.99999999 29:1 30:0.23921569 31:0.24 32:0.04 33:0.0099999999 35:0.99999999 36:0.99999999 
256 2:2.7036296e-06 20:0.68039216 21:0.68039216 26:0.99999999 29:1 30:1 31:0.99999999 33:0.99999999 
5.0303481737390134 1:0.00095655826 2:3.494808e-06 3:3.1447853e-05 26:0.99999999 29:0.019607843 30:0.019607843 31:0.99999999 33:0.2 35:0.4 36:0.4 
198.56695175303054 2:0.00014288368 3:0.0016139349 7:0.025974026 9:0.99999999 10:0.0011312217 20:0.0039215686 21:0.0039215686 26:0.99999999 29:0.043137255 30:0.043137255 31:0.99999999 33:0.089999999 
256 2:2.6197961e-07 26:0.99999999 29:0.12156863 30:0.0039215686 31:0.03 32:0.059999999 33:0.03 
256 2:1.362294e-06 20:0.63137255 21:0.63137255 26:0.99999999 29:1 30:1 31:0.99999999 33:0.99999999 
256 2:2.0958369e-08 26:0.99999999 29:0.0078431373 30:0.047058824 31:0.99999999 33:0.99999999 34:0.5 
256 2:5.6325617e-07 26:0.99999999 29:0.090196078 30:0.090196078 31:0.99999999 33:0.99999999 
256 2:3.1725731e-06 3:0.00047540613 7:0.36363636 9:0.99999999 19:0.99999999 26:0.99999999 29:0.90980392 30:0.23529412 31:0.26 32:0.02 37:0.0099999999 
1.867405442924799 20:0.0078431373 24:0.4 25:0.99999999 26:0.2 27:0.59999999 29:0.61960784 30:0.0039215686 31:0.0099999999 32:0.069999999 33:0.0099999999 35:0.0099999999 37:0.0099999999 38:0.99999999 
3.6027524483331241 2:2.7036296e-06 20:0.3254902 21:0.3254902 26:0.99999999 29:1 30:0.65490196 31:0.64999999 32:0.0099999999 33:0.64999999 
256 2:2.7036296e-06 20:0.53921569 21:0.53921569 26:0.99999999 29:1 30:1 31:0.99999999 33:0.99999999 
60.704482515477736 2:0.00014288368 3:0.0016139349 7:0.025974026 9:0.99999999 10:0.0011312217 20:0.0078431373 21:0.0098039216 25:0.17 26:0.99999999 28:0.33 29:1 30:1 31:0.99999999 37:0.02 38:0.02 
4.2120944935161369 2:1.362294e-06 20:0.72941176 21:0.72941176 26:0.99999999 29:1 30:1 31:0.99999999 33:0.99999999 
256 2:2.7036296e-06 20:0.023529412 21:0.023529412 26:0.99999999 29:1 30:1 31:0.99999999 33:0.99999999 
256 2:8.7501191e-07 9:0.99999999 20:0.0019607843 21:0.0019607843 26:0.99999999 29:0.0078431373 30:0.16470588 31:0.99999999 33:0.99999999 34:0.069999999 
2.2729664555510705 20:0.035294118 21:0.039215686 22:0.99999999 23:0.89999999 26:0.99999999 28:0.14 29:0.16078431 30:0.6 31:0.46 32:0.05 33:0.02 34:0.0099999999 35:0.94999999 36:0.12 
0.82700389406536945 1:0.00018664551 2:1.5718777e-08 9:0.99999999 20:0.99607843 22:0.02 24:0.96999999 27:0.99999999 29:1 30:0.0039215686 32:0.99999999 35:0.02 37:0.96999999 
256 2:1.362294e-06 20:0.70588235 21:0.70588235 26:0.99999999 29:1 30:1 31:0.99999999 33:0.99999999 
256 2:2.0958369e-08 26:0.99999999 29:0.0039215686 30:0.0039215686 31:0.99999999 33:0.99999999 
256 2:2.7036296e-06 20:0.92156863 21:0.92156863 26:0.99999999 29:1 30:1 31:0.99999999 33:0.99999999 
164.5248613514851 2:0.00011325903 3:0.0014170946 7:0.012987013 9:0.99999999 20:0.0078431373 21:0.0078431373 24:0.4 25:0.4 26:0.99999999 29:1 30:1 31:0.99999999 37:0.03 38:0.03 
256 2:5.6325617e-07 26:0.99999999 29:0.86666667 30:0.74117647 31:0.85999999 32:0.0099999999 33:0.85999999 
1.8334349459310049 3:0.00040222193 7:0.012987013 9:0.99999999 11:0.99999999 20:0.0058823529 21:0.0039215686 26:0.74999999 27:0.5 29:0.011764706 30:0.019607843 31:0.99999999 33:0.99999999 34:0.4 
251.52630228708534 24:0.99999999 25:0.99999999 26:0.99999999 29:1 30:0.0039215686 32:0.04 33:0.02 37:0.02 38:0.99999999 
256 2:1.362294e-06 20:0.65882353 21:0.65882353 26:0.99999999 29:1 30:1 31:0.99999999 33:0.99999999 
256 2:8.7501191e-07 9:0.99999999 20:0.0019607843 21:0.0019607843 26:0.99999999 29:0.015686275 30:0.17254902 31:0.99999999 33:0.99999999 34:0.069999999 
256 2:2.7036296e-06 20:0.037254902 21:0.037254902 26:0.99999999 29:1 30:0.078431373 31:0.079999999 32:0.02 33:0.079999999 
3.1901770794399424 2:2.6197961e-09 20:0.029411765 21:0.01372549 26:0.5 27:0.19 29:1 30:0.031372549 31:0.03 32:0.3 33:0.99999999 
256 2:2.6197961e-07 20:0.0039215686 21:0.0039215686 26:0.99999999 29:0.13333333 30:0.015686275 31:0.12 32:0.059999999 33:0.12 
256 2:2.7036296e-06 20:0.95490196 21:0.95490196 26:0.99999999 29:1 30:1 31:0.99999999 33:0.99999999 
256 2:5.2395923e-08 20:0.0058823529 21:0.0058823529 26:0.99999999 29:0.015686275 30:0.015686275 31:0.99999999 33:0.99999999 
1.3524525738986599 22:0.99999999 23:0.99999999 26:0.99999999 29:1 30:0.0039215686 32:0.99999999 33:0.99999999 35:0.99999999 36:0.99999999 
17.717084685541753 1:0.00013998414 2:0.00014288368 3:0.0016139349 7:0.025974026 9:0.99999999 10:0.0011312217 20:0.0039215686 21:0.0039215686 26:0.99999999 29:0.043137255 30:0.043137255 31:0.99999999 33:0.089999999 37:0.45 38:0.45 
1.7864252286590168 2:3.8772983e-06 5:0.33333333 21:0.0039215686 26:0.99999999 28:0.66999999 29:0.011764706 30:0.050980392 31:0.33 32:0.66999999 33:0.33 34:0.53999999 
2.1755348121137033 24:0.99999999 25:0.99999999 26:0.99999999 29:1 30:0.039215686 31:0.04 32:0.11 33:0.099999999 37:0.099999999 38:0.099999999 
2.1586506046918315 2:2.69839e-07 3:5.6683785e-05 7:0.012987013 8:1 14:0.05 19:0.99999999 26:0.99999999 29:0.45882353 30:0.0078431373 31:0.02 32:0.11 33:0.0099999999 37:0.03 
1.1309516352826519 2:3.8772983e-06 5:0.33333333 20:0.0078431373 21:0.0078431373 26:0.99999999 29:1 30:0.023529412 31:0.02 32:0.079999999 33:0.02 35:0.58999999 37:0.0099999999 
1.3759898984175667 22:0.99999999 23:0.99999999 26:0.99999999 29:0.070588235 30:0.0039215686 31:0.059999999 32:0.71999999 33:0.55999999 35:0.55999999 36:0.99999999 
256 1:2.3330689e-05 2:2.981328e-06 3:0.00047424139 7:0.36363636 9:0.99999999 19:0.99999999 26:0.99999999 29:1 30:0.2745098 31:0.27 32:0.02 
18.938459755798089 1:4.6661378e-05 2:3.1909117e-06 3:0.00047501788 7:0.36363636 9:0.99999999 19:0.99999999 26:0.99999999 29:1 30:0.27843137 31:0.28 32:0.02 
4.5770584994421739 2:0.00013939411 3:0.0014170946 7:0.012987013 9:0.99999999 20:0.0058823529 21:0.0039215686 24:0.25 25:0.33 26:0.74999999 27:0.5 29:0.28235294 30:0.28235294 31:0.99999999 33:0.0099999999 37:0.04 38:0.04 
1.7620122839608043 2:0.0001202696 3:0.0014170946 7:0.012987013 9:0.99999999 20:0.0019607843 21:0.0019607843 24:0.5 25:0.5 26:0.99999999 29:0.0078431373 30:0.0078431373 31:0.99999999 33:0.5 37:0.5 38:0.5 
1.6899280698239112 2:7.3354292e-08 5:1 20:0.20196078 21:0.0058823529 22:0.95999999 26:0.04 27:0.069999999 29:1 30:0.015686275 31:0.02 32:0.98999999 33:0.02 35:0.089999999 37:0.89999999 
256 2:8.7501191e-07 9:0.99999999 20:0.0019607843 21:0.0019607843 26:0.99999999 29:0.88627451 30:0.34117647 31:0.37 32:0.02 33:0.37 34:0.02 
256 2:5.422978e-07 20:0.0019607843 21:0.0019607843 26:0.99999999 29:0.062745098 30:0.062745098 31:0.99999999 33:0.99999999 
23.012280045937541 3:0.090843142 26:0.99999999 29:0.0078431373 30:0.0078431373 31:0.99999999 33:0.99999999 
26.393430323978649 2:0.00014288368 3:0.0016139349 7:0.025974026 9:0.99999999 10:0.0011312217 20:0.0039215686 21:0.0058823529 25:0.25 26:0.99999999 28:0.5 29:0.10196078 30:0.10196078 31:0.99999999 33:0.04 
256 2:2.7036296e-06 20:0.65490196 21:0.65490196 26:0.99999999 29:1 30:1 31:0.99999999 33:0.99999999 
2.3546184608362428 2:3.8772983e-06 5:0.33333333 20:0.0019607843 21:0.0019607843 26:0.99999999 29:0.015686275 30:0.023529412 31:0.5 32:0.5 33:0.5 34:0.5 
256 2:2.7036296e-06 20:0.97843137 21:0.97843137 26:0.99999999 29:1 30:1 31:0.99999999 33:0.99999999 
256 2:2.0958369e-08 26:0.99999999 29:0.0078431373 30:0.0078431373 31:0.99999999 33:0.99999999 
256 2:8.7501191e-07 9:0.99999999 26:0.99999999 29:0.015686275 30:0.015686275 31:0.99999999 33:0.99999999 
97.619699500368824 1:0.0069758761 2:2.9341717e-07 3:0.0001644218 26:0.99999999 29:1 30:0.18823529 31:0.19 32:0.02 35:0.22 36:0.31 
60.985535486248615 2:4.715633e-08 26:0.99999999 29:0.0078431373 30:0.023529412 31:0.99999999 33:0.99999999 34:0.33 
0.79085736390034866 20:1 22:0.0099999999 24:0.98999999 25:0.99999999 27:0.99999999 29:1 30:0.0039215686 32:0.99999999 35:0.0099999999 37:0.98999999 38:0.99999999 
1.2112041502746582 20:0.0019607843 21:0.23921569 22:0.99999999 23:0.75999999 25:0.04 26:0.99999999 28:0.37 29:0.031372549 30:0.031372549 31:0.99999999 33:0.74999999 35:0.61999999 36:0.61999999 
250.71866290814145 24:0.99999999 25:0.99999999 26:0.99999999 29:0.49019608 30:0.0039215686 31:0.0099999999 32:0.05 33:0.04 37:0.04 38:0.99999999 
256 1:4.6661378e-05 2:3.3140421e-06 3:0.00047579437 7:0.36363636 9:0.99999999 19:0.99999999 26:0.99999999 29:1 30:0.22745098 31:0.23 32:0.02 
5.4349550437273244 2:3.3009431e-07 3:3.4747937e-05 7:0.012987013 8:0.25 20:0.0019607843 21:0.0019607843 24:0.99999999 25:0.99999999 26:0.99999999 29:0.054901961 30:0.054901961 31:0.99999999 33:0.069999999 35:0.069999999 36:0.069999999 37:0.92999999 38:0.92999999 
101.91633080634558 2:5.422978e-07 20:0.0019607843 21:0.0019607843 26:0.99999999 29:0.95686275 30:0.8 31:0.83999999 32:0.0099999999 33:0.83999999 
0.77487739858764948 20:0.019607843 22:0.72999999 23:0.99999999 24:0.27 26:0.089999999 27:0.54999999 29:1 30:0.0039215686 32:0.03 33:0.04 35:0.03 36:0.99999999 37:0.0099999999 
256 2:1.3098981e-08 26:0.99999999 29:1 30:0.02745098 31:0.03 32:0.02 33:0.03 
256 2:5.6325617e-07 26:0.99999999 29:0.38039216 30:0.31764706 31:0.83999999 32:0.02 33:0.83999999 
256 2:1.362294e-06 20:0.71764706 21:0.71764706 26:0.99999999 29:1 30:1 31:0.99999999 33:0.99999999 
213.73042269503586 2:0.00014288368 3:0.0016139349 7:0.025974026 9:0.99999999 10:0.0011312217 20:0.0019607843 21:0.0019607843 26:0.99999999 29:0.019607843 30:0.019607843 31:0.99999999 33:0.2 
113.96337916353872 1:0.00027996827 2:1.8456464e-05 9:0.99999999 20:0.0019607843 21:0.0019607843 26:0.99999999 29:0.0078431373 30:0.050980392 31:0.99999999 33:0.99999999 34:0.15 
103.14924688517689 2:4.715633e-08 26:0.99999999 29:0.0039215686 30:0.42352941 31:0.99999999 33:0.99999999 34:0.99999999 
1.021274242119492 20:1 22:0.44 24:0.55999999 25:0.99999999 27:0.99999999 29:1 30:0.0039215686 32:0.99999999 35:0.51999999 37:0.48 38:0.99999999 
1.0952319091414469 22:0.99999999 23:0.99999999 26:0.99999999 29:1 30:0.0039215686 32:0.069999999 35:0.99999999 36:0.99999999 
256 2:5.422978e-07 20:0.0019607843 21:0.0019607843 26:0.99999999 29:0.36862745 30:0.30588235 31:0.82999999 32:0.02 33:0.82999999 
172.04547153608218 1:0.00027996827 2:1.8456464e-05 9:0.99999999 20:0.0039215686 21:0.0019607843 26:0.66999999 27:0.66999999 29:1 30:0.3254902 31:0.33 32:0.069999999 33:0.35 35:0.02 36:0.05 
256 2:6.4446985e-07 9:0.99999999 26:0.99999999 29:0.0039215686 30:0.18039216 31:0.99999999 33:0.99999999 34:0.04 36:0.02 
256 2:8.7501191e-07 9:0.99999999 20:0.0019607843 21:0.0019607843 26:0.99999999 29:0.0078431373 30:0.054901961 31:0.99999999 33:0.99999999 34:0.43 
10.576520085631007 2:8.7501191e-07 9:0.99999999 26:0.99999999 29:0.019607843 30:0.0039215686 31:0.2 32:0.4 33:0.99999999 
237.64008848212879 24:0.99999999 25:0.99999999 26:0.99999999 29:0.6745098 30:0.0039215686 31:0.0099999999 32:0.05 33:0.02 37:0.03 38:0.99999999 
256 2:4.715633e-08 26:0.99999999 29:0.011764706 30:0.011764706 31:0.99999999 33:0.99999999 
256 2:4.715633e-08 26:0.99999999 29:0.015686275 30:0.43921569 31:0.99999999 33:0.99999999 34:0.25 
256 2:4.715633e-08 26:0.99999999 29:0.015686275 30:0.20392157 31:0.99999999 33:0.99999999 34:0.25 
0.97746761912384372 1:0.00018664551 2:1.5718777e-08 9:0.99999999 20:0.99803922 22:0.2 24:0.78999999 27:0.99999999 29:1 30:0.0039215686 32:0.99999999 35:0.23 37:0.74999999 
256 2:2.0958369e-08 20:0.0019607843 21:0.0019607843 26:0.99999999 29:0.0078431373 30:0.0078431373 31:0.99999999 33:0.99999999 
91.956975372367751 2:2.7036296e-06 20:0.52941176 21:0.52941176 26:0.99999999 29:1 30:1 31:0.99999999 33:0.99999999 
1.531243492840922 1:4.6661378e-05 2:1.5718777e-08 3:5.4354314e-06 9:0.99999999 20:0.10784314 22:0.02 24:0.90999999 25:0.99999999 26:0.02 27:0.99999999 29:1 30:0.0039215686 32:0.25 37:0.21 38:0.99999999 
256 2:2.6197961e-07 20:0.0019607843 21:0.0019607843 26:0.99999999 29:0.31764706 30:0.043137255 31:0.14 32:0.02 33:0.14 
0.80356028781629296 20:0.28235294 22:0.059999999 23:0.99999999 24:0.93999999 26:0.0099999999 27:0.57999999 29:1 30:0.0039215686 32:0.33 33:0.56999999 35:0.04 36:0.99999999 37:0.52999999 
256 2:0.00014288368 3:0.0016139349 7:0.025974026 9:0.99999999 10:0.0011312217 20:0.0019607843 21:0.0019607843 26:0.99999999 29:0.98823529 30:0.98823529 31:0.99999999 37:0.02 38:0.02 
256 2:8.7501191e-07 9:0.99999999 26:0.99999999 29:0.011764706 30:0.16862745 31:0.99999999 33:0.99999999 34:0.069999999 
9.2266957973433303 2:2.7036296e-06 20:0.1 21:0.1 26:0.99999999 29:0.66666667 30:0.29803922 31:0.45 32:0.04 33:0.45 35:0.0099999999 37:0.37 
256 2:2.7036296e-06 20:0.57843137 21:0.57843137 26:0.99999999 29:1 30:1 31:0.99999999 33:0.99999999 
0.3846520885274391 24:0.99999999 25:0.99999999 26:0.99999999 29:0.019607843 30:0.0078431373 31:0.2 32:0.99999999 33:0.2 34:0.99999999 37:0.59999999 38:0.99999999 
0.1697840746512331 20:0.021568627 21:0.0019607843 22:0.74999999 23:0.99999999 24:0.25 26:0.17 27:0.5 29:1 30:0.0078431373 31:0.0099999999 32:0.03 33:0.05 35:0.04 36:0.99999999 37:0.0099999999 
256 2:3.1699533e-06 3:0.00047501788 7:0.36363636 9:0.99999999 19:0.99999999 26:0.99999999 29:1 30:0.17254902 31:0.17 32:0.02 35:0.05 
0.89431602677645561 2:4.715633e-08 26:0.99999999 29:0.0078431373 30:0.31372549 31:0.5 32:0.99999999 33:0.5 34:0.99999999 
0.22991404785719993 20:0.15098039 24:0.93999999 25:0.99999999 26:0.0099999999 27:0.99999999 29:0.79607843 30:0.043137255 31:0.03 32:0.43 34:0.18 36:0.089999999 37:0.37 38:0.089999999 
256 2:2.3578165e-08 3:3.804802e-05 7:0.012987013 20:0.0078431373 21:0.0078431373 26:0.99999999 29:0.60784314 30:0.02745098 31:0.05 32:0.059999999 33:0.0099999999 35:0.0099999999 
256 2:2.7036296e-06 20:0.9627451 21:0.9627451 26:0.99999999 29:1 30:1 31:0.99999999 33:0.99999999 
71.65676477403936 2:8.7501191e-07 9:0.99999999 20:0.0019607843 21:0.0019607843 26:0.99999999 29:0.0078431373 30:0.031372549 31:0.99999999 33:0.99999999 34:0.25 
1.5216437112519472 1:1 2:2.6197961e-09 20:0.0019607843 21:0.0019607843 24:0.99999999 25:0.99999999 26:0.99999999 29:0.49411765 30:0.0078431373 31:0.02 32:0.05 33:0.05 37:0.05 38:0.99999999 
2.7444626355123041 1:0.29730297 2:1.0775222e-05 3:0.01002313 9:0.99999999 10:0.0045248869 13:0.0041025641 14:0.45 26:0.99999999 29:0.28235294 30:0.011764706 31:0.03 32:0.98999999 33:0.0099999999 34:0.66999999 37:0.95999999 38:0.66999999 
256 2:1.362294e-06 20:0.58823529 21:0.58823529 26:0.99999999 29:1 30:1 31:0.99999999 33:0.99999999 
-256 2:7.8593884e-08 26:0.99999999 29:0.96862745 30:0.96862745 31:0.99999999 33:0.99999999 
-10.392490944196602 2:8.6453273e-08 20:0.01372549 21:0.01372549 26:0.99999999 29:1 30:0.14117647 31:0.14 32:0.03 33:0.14 
-256 2:7.8593884e-08 26:0.99999999 29:0.96862745 30:0.96862745 31:0.99999999 33:0.99999999 
-57.091196117322504 1:9.3322757e-05 2:3.4266933e-06 3:6.3672197e-05 9:0.99999999 26:0.99999999 29:0.0078431373 30:0.054901961 31:0.99999999 33:0.5 34:0.14 
-256 2:1.6766695e-07 26:0.99999999 29:0.0039215686 30:0.0039215686 31:0.99999999 33:0.99999999 
-256 1:0.00062992861 2:2.7953225e-06 3:0.00059809158 7:0.28571429 9:0.99999999 19:0.99999999 26:0.99999999 29:0.99607843 30:0.2745098 31:0.28 32:0.02 
-256 2:2.1482328e-07 3:1.9412255e-07 26:0.99999999 29:0.0039215686 30:0.0039215686 31:0.99999999 33:0.99999999 
-0.54313490833006384 2:8.121368e-08 21:0.0019607843 26:0.99999999 28:0.99999999 29:0.0078431373 30:0.074509804 31:0.5 32:0.99999999 33:0.5 34:0.11 
-256 2:1.2967991e-06 9:0.99999999 13:0.0051282051 26:0.99999999 29:0.0039215686 30:0.11764706 31:0.99999999 33:0.99999999 34:0.099999999 
-256 1:9.3322757e-05 3:2.9118383e-06 24:0.99999999 25:0.99999999 26:0.99999999 29:0.50980392 30:0.0039215686 31:0.0099999999 32:0.05 33:0.0099999999 37:0.0099999999 38:0.99999999 
-11.597403723919765 2:5.9993332e-07 3:0.00013239158 9:0.99999999 20:0.011764706 21:0.021568627 26:0.99999999 28:0.17 29:0.99215686 30:1 31:0.99999999 34:0.0099999999 37:0.14 38:0.15 
-256 2:8.121368e-08 3:1.7665152e-05 20:0.0039215686 21:0.0039215686 26:0.99999999 29:0.031372549 30:0.078431373 31:0.99999999 33:0.99999999 34:0.099999999 
-138.20040770350002 1:4.6661378e-05 2:0.0057494544 9:0.99999999 20:0.0019607843 21:0.0019607843 26:0.99999999 29:0.039215686 30:0.1372549 31:0.59999999 32:0.4 33:0.59999999 34:0.059999999 
-254.52129656771788 1:0.10424152 2:4.3488616e-07 3:0.0045378088 9:0.99999999 10:0.0011312217 26:0.99999999 29:0.0039215686 30:0.0039215686 31:0.99999999 33:0.99999999 
-256 2:7.8593884e-08 20:0.0019607843 21:0.0019607843 26:0.99999999 29:0.18823529 30:0.18823529 31:0.99999999 33:0.99999999 
-256 2:8.6453273e-08 3:1.8053397e-05 26:0.99999999 29:0.16078431 30:0.20392157 31:0.99999999 33:0.99999999 34:0.04 
-42.411208642036819 2:1.6766695e-07 26:0.99999999 29:0.30196078 30:0.0039215686 31:0.0099999999 32:0.93999999 33:0.0099999999 37:0.89999999 
-0.18968997654838068 1:2.3330689e-05 3:2.9118383e-06 24:0.99999999 25:0.99999999 26:0.99999999 29:0.89019608 30:0.0078431373 32:0.03 34:0.99999999 38:0.5 
-32.815287323452196 2:3.9034962e-07 3:0.0014640723 7:0.051948052 9:0.99999999 10:0.0045248869 20:0.039215686 21:0.039215686 26:0.99999999 29:0.61960784 30:1 31:0.99999999 33:0.0099999999 34:0.0099999999 
-209.44219130759151 2:2.3840145e-07 20:0.011764706 21:0.011764706 26:0.99999999 29:0.51764706 30:0.02745098 31:0.05 32:0.02 33:0.05 37:0.11 
-1.253173017885765 1:0.025570435 2:3.0127656e-07 3:0.00030419004 9:0.99999999 24:0.99999999 25:0.99999999 26:0.99999999 29:0.015686275 30:0.011764706 31:0.74999999 32:0.5 33:0.25 35:0.25 36:0.33 37:0.5 38:0.66999999 
-30.233624454915159 2:1.8338573e-08 3:4.3289329e-05 20:0.0019607843 26:0.5 27:0.99999999 29:0.41568627 30:0.019607843 31:0.05 32:0.05 33:0.0099999999 35:0.02 36:0.2 
-256 2:2.6197961e-08 3:7.5707795e-06 9:0.99999999 26:0.99999999 29:0.0039215686 30:0.047058824 31:0.99999999 33:0.99999999 34:0.25 
-256 2:1.3518148e-06 3:7.7649021e-07 20:0.60196078 21:0.60196078 26:0.99999999 29:1 30:1 31:0.99999999 33:0.99999999 
-256 2:6.3661046e-07 3:0.0059946985 7:0.012987013 9:0.99999999 10:0.0011312217 20:0.0058823529 21:0.0058823529 26:0.99999999 29:1 30:1 31:0.99999999 
-256 2:1.3518148e-06 3:7.7649021e-07 20:0.52745098 21:0.52745098 26:0.99999999 29:1 30:1 31:0.99999999 33:0.99999999 
-256 2:7.8593884e-08 26:0.99999999 29:0.99215686 30:0.99215686 31:0.99999999 33:0.99999999 
-2.6333015388301435 20:0.0019607843 21:0.0039215686 22:0.5 23:0.33 26:0.99999999 28:0.66999999 29:0.011764706 30:0.047058824 31:0.99999999 33:0.66999999 34:0.33 35:0.33 36:0.079999999 
-9.9249028621941484 1:0.00016331482 2:4.62656e-06 9:0.99999999 26:0.99999999 29:0.82745098 30:0.0039215686 32:0.04 33:0.37 
-256 2:1.3518148e-06 3:7.7649021e-07 20:0.97058824 21:0.97058824 26:0.99999999 29:1 30:1 31:0.99999999 33:0.99999999 
-0.43138311723355227 2:9.1692865e-07 3:2.7759525e-05 9:0.99999999 21:0.019607843 26:0.99999999 28:0.36 29:0.0078431373 30:0.043137255 31:0.99999999 33:0.5 34:0.45 37:0.5 38:0.90999999 
-10.793667407673057 1:0.0006532593 2:2.7219682e-06 3:0.00059809158 7:0.28571429 9:0.99999999 19:0.99999999 26:0.99999999 29:0.12941176 30:0.011764706 31:0.089999999 32:0.089999999 33:0.03 
-256 2:5.422978e-07 3:4.0183368e-05 20:0.0019607843 21:0.0019607843 26:0.99999999 29:1 30:0.83921569 31:0.83999999 32:0.0099999999 33:0.83999999 
-0.40853871176390572 20:0.0019607843 21:0.0019607843 22:0.5 23:0.5 26:0.99999999 29:0.0078431373 30:1 31:0.99999999 33:0.99999999 34:0.04 35:0.5 
-1.6545457298430557 1:0.058583361 2:3.8249024e-07 3:2.0382868e-05 20:0.0019607843 21:0.0019607843 26:0.99999999 29:0.23137255 30:0.0078431373 31:0.03 32:0.49 33:0.68999999 
-5.232779474837451 1:0.00097988895 2:2.6197961e-08 3:6.9884119e-06 24:0.99999999 25:0.99999999 26:0.99999999 29:1 30:0.011764706 31:0.0099999999 32:0.02 38:0.33 
-53.198683756098816 2:1.2051062e-07 3:2.5624177e-05 20:0.32156863 21:0.31960784 26:0.98999999 27:0.0099999999 29:0.21176471 30:0.082352941 31:0.39 32:0.04 33:0.02 
-256 2:3.6813375e-05 9:0.99999999 20:0.01372549 21:0.01372549 26:0.99999999 29:0.054901961 30:0.054901961 31:0.99999999 33:0.99999999 
-7.221885929446092 1:0.00081657412 2:3.919215e-06 3:0.00080599683 7:0.38961039 9:0.99999999 19:0.99999999 26:0.99999999 29:0.0039215686 30:0.0039215686 31:0.99999999 33:0.99999999 
-256 1:0.00062992861 2:3.1856721e-06 3:0.00065613422 7:0.31168831 9:0.99999999 19:0.99999999 26:0.99999999 29:1 30:0.2745098 31:0.27 32:0.03 
-231.43264781943452 2:6.2089168e-07 3:0.00011783239 9:0.99999999 20:0.0078431373 21:0.0078431373 22:0.2 23:0.2 26:0.99999999 29:1 30:1 31:0.99999999 37:0.0099999999 38:0.0099999999 
-6.1219451215344112 2:8.173764e-07 3:0.00048666524 9:0.99999999 20:0.0098039216 21:0.015686275 25:0.33 26:0.99999999 28:0.44 29:0.32941176 30:0.29411765 31:0.88999999 32:0.02 33:0.0099999999 35:0.0099999999 36:0.0099999999 
-256 2:7.3354292e-07 3:0.00055033743 9:0.99999999 26:0.99999999 29:0.0039215686 30:0.10196078 31:0.99999999 33:0.99999999 34:0.079999999 
-0.24871378743787334 2:1.5718777e-08 3:5.2218966e-05 26:0.99999999 29:0.90196078 30:0.0078431373 31:0.0099999999 32:0.02 37:0.82999999 
-4.515949041793176 2:6.6018863e-07 9:0.99999999 20:0.0019607843 21:0.0019607843 26:0.99999999 29:0.015686275 30:0.21960784 31:0.74999999 32:0.5 33:0.74999999 34:0.04 
-256 1:0.0006532593 2:3.906116e-06 3:0.00080599683 7:0.38961039 9:0.99999999 19:0.99999999 26:0.99999999 29:1 30:0.2 31:0.2 32:0.03 
-0.7023998736334407 22:0.99999999 23:0.99999999 26:0.99999999 29:0.082352941 30:0.011764706 31:0.14 32:0.19 33:0.05 35:0.099999999 36:0.66999999 
-9.8368874505542063 2:1.5433219e-05 9:0.99999999 20:0.02745098 21:0.02745098 22:0.069999999 23:0.069999999 26:0.99999999 29:0.95686275 30:0.29019608 31:0.3 32:0.03 33:0.32 35:0.02 36:0.04 
-256 1:0.00062992861 2:3.9270744e-06 3:0.00080599683 7:0.38961039 9:0.99999999 19:0.99999999 26:0.99999999 29:1 30:0.16470588 31:0.16 32:0.0099999999 
-0.93808092150721489 20:0.0019607843 21:0.0078431373 22:0.5 23:0.2 26:0.99999999 28:0.4 29:0.0078431373 30:1 31:0.99999999 33:0.99999999 34:0.04 35:0.5 
-132.35817755315162 2:2.2889159e-05 9:0.99999999 20:0.019607843 21:0.019607843 26:0.99999999 29:0.066666667 30:0.066666667 31:0.99999999 33:0.99999999 
-225.36895430276348 1:0.00072325136 2:4.0030485e-06 3:0.00080599683 7:0.32467532 9:0.99999999 19:0.99999999 26:0.99999999 29:1 30:0.16470588 31:0.16 32:0.02 
-10.774019748450065 2:3.3952558e-06 3:6.3089829e-05 9:0.99999999 21:0.0058823529 26:0.99999999 28:0.99999999 29:0.0039215686 30:0.0039215686 31:0.99999999 33:0.99999999 
-256 1:0.0061826326 2:1.4146899e-07 3:7.7649021e-06 26:0.99999999 29:0.070588235 30:0.070588235 31:0.99999999 33:0.88999999 
-256 2:1.3518148e-06 3:7.7649021e-07 20:0.55490196 21:0.55490196 26:0.99999999 29:1 30:1 31:0.99999999 33:0.99999999 
-256 2:6.1565209e-07 3:0.00079532009 7:0.012987013 9:0.99999999 20:0.0019607843 21:0.0019607843 22:0.5 23:0.5 26:0.99999999 29:1 30:1 31:0.99999999 35:0.0099999999 36:0.0099999999 
-256 2:2.3054206e-07 21:0.0019607843 26:0.99999999 28:0.99999999 29:0.015686275 30:0.015686275 31:0.99999999 33:0.99999999 
-2.4957740447339964 1:0.013601792 2:2.2215871e-06 3:0.0049157654 7:0.012987013 9:0.99999999 10:0.12104072 11:0.99999999 12:0.5 13:0.1025641 14:0.025 26:0.99999999 29:0.0039215686 30:0.0039215686 31:0.99999999 33:0.99999999 
-30.724834009649449 2:6.077927e-07 3:0.00052374264 9:0.99999999 16:0.125 20:0.0019607843 21:0.0039215686 25:0.33 26:0.99999999 28:0.66999999 29:0.21568627 30:0.21568627 31:0.99999999 33:0.02 
-0.25988890056888242 1:0.00095655826 2:2.8817758e-07 3:0.0017907805 9:0.99999999 24:0.99999999 25:0.99999999 26:0.99999999 29:0.47058824 30:0.0039215686 31:0.0099999999 32:0.079999999 33:0.0099999999 35:0.0099999999 37:0.0099999999 38:0.99999999 
-256 2:1.3518148e-06 3:7.7649021e-07 20:0.97254902 21:0.97254902 26:0.99999999 29:1 30:1 31:0.99999999 33:0.99999999 
-6.3292587165321716 1:0.28220802 2:2.5935982e-07 3:0.00054781384 9:0.99999999 26:0.99999999 29:0.011764706 30:0.0078431373 31:0.33 32:0.66999999 33:0.33 34:0.99999999 
-256 2:1.3518148e-06 3:7.7649021e-07 20:0.50980392 21:0.50980392 26:0.99999999 29:1 30:1 31:0.99999999 33:0.99999999 
-256 2:1.3518148e-06 3:7.7649021e-07 20:0.86078431 21:0.86078431 26:0.99999999 29:1 30:1 31:0.99999999 33:0.99999999 
-256 2:1.3518148e-06 3:7.7649021e-07 20:0.59607843 21:0.59607843 26:0.99999999 29:1 30:1 31:0.99999999 33:0.99999999 
-256 2:1.3518148e-06 3:7.7649021e-07 20:0.68039216 21:0.68039216 26:0.99999999 29:1 30:1 31:0.99999999 33:0.99999999 
-2.0102769540314194 1:0.063832766 2:5.8290464e-06 3:0.0069575464 9:0.99999999 10:0.12443439 11:0.99999999 12:0.5 13:0.12410256 14:0.325 26:0.99999999 29:1 30:0.0039215686 32:0.02 
-256 2:1.3518148e-06 3:7.7649021e-07 20:0.78823529 21:0.78823529 26:0.99999999 29:1 30:1 31:0.99999999 33:0.99999999 
-256 2:1.0033819e-06 9:0.99999999 26:0.99999999 29:0.011764706 30:0.011764706 31:0.99999999 33:0.99999999 
-256 2:1.3518148e-06 3:7.7649021e-07 20:0.81568627 21:0.81568627 26:0.99999999 29:1 30:1 31:0.99999999 33:0.99999999 
-256 2:1.6792893e-06 20:0.0019607843 21:0.0019607843 26:0.99999999 29:0.14509804 30:0.019607843 31:0.14 32:0.079999999 33:0.14 
-111.0328552222372 2:2.6197961e-08 3:3.3583201e-05 26:0.99999999 29:0.0078431373 30:0.0039215686 31:0.5 32:0.99999999 33:0.5 
-256 1:2.3330689e-05 2:4.1235591e-06 3:7.7649021e-05 9:0.99999999 26:0.99999999 29:0.015686275 30:0.015686275 31:0.99999999 33:0.25 
-256 1:0.025173814 2:2.9341717e-07 3:8.7355148e-06 20:0.0058823529 21:0.0058823529 26:0.99999999 29:0.42352941 30:0.3254902 31:0.76999999 32:0.02 33:0.76999999 
-8.2688413626041388 2:1.8370011e-05 20:0.0078431373 22:0.2 26:0.2 27:0.4 29:0.50588235 30:0.0039215686 31:0.0099999999 32:0.05 33:0.12 35:0.0099999999 
-10.508278169479368 2:1.8338573e-06 3:6.3283952e-05 9:0.99999999 20:0.0019607843 26:0.5 27:0.99999999 29:1 30:0.30980392 31:0.31 32:0.29 
-256 2:1.6792893e-06 20:0.0019607843 21:0.0019607843 26:0.99999999 29:0.2 30:0.019607843 31:0.099999999 32:0.079999999 33:0.099999999 
-205.5911950327278 2:5.8159474e-07 3:0.0002513887 9:0.99999999 26:0.99999999 29:0.08627451 30:0.08627451 31:0.99999999 33:0.05 
-20.831790337531544 2:1.5881204e-05 9:0.99999999 20:0.0058823529 21:0.0058823529 26:0.99999999 29:0.043137255 30:0.20392157 31:0.90999999 32:0.18 33:0.90999999 34:0.04 
-3.3621000016384968 2:1.3518148e-06 3:7.7649021e-07 20:0.033333333 21:0.033333333 26:0.99999999 29:0.070588235 30:0.070588235 31:0.99999999 33:0.99999999 
-256 2:1.3518148e-06 3:7.7649021e-07 20:0.52941176 21:0.52941176 26:0.99999999 29:1 30:1 31:0.99999999 33:0.99999999 
-98.683822646127595 2:2.3578165e-08 3:5.2218966e-05 26:0.99999999 29:0.99607843 30:0.023529412 31:0.02 32:0.02 37:0.05 
-7.9904070701608374 2:0.00010608602 9:0.99999999 20:0.02745098 21:0.02745098 26:0.99999999 29:1 30:0.24313725 31:0.24 32:0.02 33:0.15 35:0.28 36:0.32 
-256 2:3.1437554e-08 9:0.99999999 20:0.0019607843 21:0.0019607843 26:0.99999999 29:0.023529412 30:0.10196078 31:0.99999999 33:0.99999999 34:0.079999999 
-256 2:7.8593884e-08 20:0.0019607843 21:0.0019607843 26:0.99999999 29:0.10980392 30:0.10980392 31:0.99999999 33:0.99999999 
-256 1:0.00067658999 2:2.8817758e-07 3:6.4060442e-06 26:0.99999999 29:0.094117647 30:0.074509804 31:0.78999999 32:0.079999999 33:0.78999999 
-21.953502603210424 2:4.2964657e-07 3:0.0015690926 9:0.99999999 20:0.011764706 21:0.011764706 26:0.99999999 29:1 30:1 31:0.99999999 37:0.29 38:0.29 
-256 2:4.768029e-07 20:0.0098039216 21:0.0098039216 26:0.99999999 29:1 30:0.066666667 31:0.069999999 32:0.0099999999 33:0.089999999 
-0.40648419182818907 20:1 25:0.99999999 29:0.91372549 30:0.76470588 31:0.83999999 32:0.0099999999 37:0.83999999 38:0.99999999 
-15.774363770446822 2:4.5584453e-07 3:0.0015019262 9:0.99999999 20:0.0019607843 21:0.011764706 26:0.99999999 28:0.29 29:0.058823529 30:0.058823529 31:0.99999999 33:0.069999999 
-9.9232437088570169 2:7.7283986e-07 3:0.00049132418 9:0.99999999 20:0.0039215686 21:0.0039215686 26:0.99999999 29:0.54509804 30:0.54509804 31:0.99999999 33:0.0099999999 
-1.1346884289244761 2:2.6197961e-08 3:7.1825344e-06 9:0.99999999 20:0.0019607843 26:0.5 27:0.99999999 29:0.0039215686 30:0.054901961 31:0.99999999 33:0.99999999 34:0.21 
-256 1:0.00013998414 2:2.724588e-07 3:0.00030166645 9:0.99999999 26:0.99999999 29:1 30:0.0039215686 32:0.02 
-49.711889723661642 1:0.0006532593 2:2.596218e-06 3:0.00059809158 7:0.28571429 9:0.99999999 19:0.99999999 26:0.99999999 29:1 30:0.18431373 31:0.18 32:0.02 37:0.059999999 38:0.13 
-256 2:1.2575021e-07 3:9.3178825e-06 26:0.99999999 29:0.015686275 30:0.011764706 31:0.74999999 32:0.5 33:0.74999999 
-10.383901186599857 1:9.3322757e-05 2:0.0057494544 9:0.99999999 20:0.0058823529 21:0.0019607843 26:0.5 27:0.5 29:1 30:0.20784314 31:0.21 32:0.35 33:0.21 
-256 2:4.5060494e-07 26:0.99999999 29:0.16078431 30:0.02745098 31:0.17 32:0.069999999 33:0.17 
-256 2:1.3518148e-06 3:7.7649021e-07 20:0.67254902 21:0.67254902 26:0.99999999 29:1 30:1 31:0.99999999 33:0.99999999 
-10.074054753158597 24:0.99999999 25:0.99999999 26:0.99999999 29:1 30:0.011764706 31:0.0099999999 32:0.059999999 33:0.0099999999 35:0.62999999 37:0.03 38:0.99999999 
-1.2006166468569306 2:7.6498047e-07 3:0.0016067524 9:0.99999999 20:0.021568627 21:0.021568627 24:0.66999999 25:0.66999999 26:0.99999999 29:0.13333333 30:0.70980392 31:0.99999999 33:0.03 34:0.18 37:0.84999999 38:0.96999999 
-6.8608137440906853 1:0.41768933 2:1.5273411e-05 3:0.023749535 7:1 9:0.99999999 10:0.0067873303 13:0.001025641 14:0.475 26:0.99999999 29:1 30:0.14901961 31:0.15 32:0.059999999 35:0.55999999 36:0.29 37:0.04 38:0.11 
-11.205403858956686 1:4.6661378e-05 2:3.584929e-05 3:0.0030244294 9:0.99999999 20:0.0019607843 26:0.5 27:0.99999999 29:1 30:0.12941176 31:0.13 32:0.03 
-0.27165663054556216 20:0.0019607843 22:0.5 23:0.99999999 26:0.5 27:0.99999999 29:1 30:0.0039215686 32:0.84999999 36:0.99999999 
-256 2:3.8511003e-07 26:0.99999999 29:0.0039215686 30:0.0039215686 31:0.99999999 33:0.99999999 
-215.05630905029093 2:1.3518148e-06 3:7.7649021e-07 20:0.46862745 21:0.46862745 26:0.99999999 29:0.94117647 30:0.94117647 31:0.99999999 33:0.99999999 
-256 2:1.6792893e-06 9:0.99999999 26:0.99999999 29:1 30:0.22745098 31:0.23 32:0.069999999 33:0.29 36:0.02 
-181.65448441571428 1:0.00067658999 2:3.9401734e-06 3:0.00080599683 7:0.38961039 9:0.99999999 19:0.99999999 26:0.99999999 29:0.70980392 30:0.078431373 31:0.11 32:0.04 33:0.0099999999 35:0.0099999999 
-42.070245575051942 2:6.9183576e-05 20:0.015686275 21:0.015686275 26:0.99999999 29:0.19215686 30:0.058823529 31:0.31 32:0.059999999 33:0.31 
-256 2:1.0185767e-05 9:0.99999999 20:0.0039215686 21:0.0039215686 26:0.99999999 29:0.011764706 30:0.27058824 31:0.99999999 33:0.99999999 34:0.03 36:0.0099999999 
-21.540996375175581 2:2.043441e-07 20:0.1 21:0.021568627 26:0.23 27:0.04 29:1 30:0.10980392 31:0.11 32:0.0099999999 33:0.11 
-256 2:7.8593884e-08 26:0.99999999 29:0.023529412 30:0.35686275 31:0.99999999 33:0.99999999 34:0.48 
-0.088915937626734651 21:0.090196078 22:0.99999999 23:0.02 26:0.99999999 28:0.13 29:0.011764706 30:1 31:0.99999999 33:0.33 34:0.059999999 35:0.99999999 36:0.0099999999 
-5.7173426483140313 24:0.99999999 25:0.99999999 26:0.99999999 29:0.047058824 30:0.047058824 31:0.99999999 33:0.079999999 37:0.99999999 38:0.99999999 
-256 2:2.0801181e-05 20:0.017647059 21:0.017647059 26:0.99999999 29:0.32941176 30:0.34509804 31:0.75999999 32:0.059999999 33:0.75999999 34:0.02 
-0.60194749537169523 24:0.99999999 25:0.99999999 26:0.99999999 29:0.23921569 30:0.71764706 31:0.99999999 33:0.02 34:0.03 36:0.0099999999 37:0.99999999 38:0.72999999 
-256 2:1.3518148e-06 3:7.7649021e-07 20:0.74509804 21:0.74509804 26:0.99999999 29:1 30:1 31:0.99999999 33:0.99999999 
-6.872890070625612 1:4.6661378e-05 2:5.3684862e-05 3:0.0030213234 9:0.99999999 26:0.99999999 29:0.02745098 30:0.02745098 31:0.99999999 33:0.14 35:0.14 36:0.14 37:0.14 38:0.14 
-4.026055978233078 24:0.99999999 25:0.99999999 26:0.99999999 29:0.011764706 30:0.0078431373 31:0.66999999 32:0.66999999 33:0.33 37:0.66999999 38:0.99999999 
-39.737680899085881 2:8.2261599e-07 3:0.0032624236 9:0.99999999 21:0.062745098 26:0.99999999 28:0.12 29:0.0039215686 30:0.18431373 31:0.99999999 33:0.99999999 34:0.059999999 
-0.3694555140345579 22:0.99999999 23:0.99999999 26:0.99999999 29:0.031372549 30:0.49803922 31:0.99999999 33:0.12 34:0.16 35:0.99999999 36:0.059999999 38:0.93999999 
-256 2:1.3518148e-06 3:7.7649021e-07 20:0.78039216 21:0.78039216 26:0.99999999 29:1 30:1 31:0.99999999 33:0.99999999 
-256 1:2.3330689e-05 2:2.7507859e-07 3:2.8341893e-05 20:0.0019607843 21:0.0019607843 26:0.99999999 29:0.0078431373 30:0.0078431373 31:0.99999999 33:0.99999999 
-6.9086241472043062 2:6.4185005e-07 9:0.99999999 13:0.001025641 20:0.0039215686 21:0.0019607843 26:0.66999999 27:0.66999999 29:0.66666667 30:0.2745098 31:0.2 32:0.12 33:0.28 34:0.03 35:0.0099999999 36:0.03 
-256 2:4.7942269e-07 20:0.0098039216 21:0.0098039216 26:0.99999999 29:1 30:0.098039216 31:0.099999999 32:0.0099999999 33:0.11 
-256 2:1.6792893e-06 20:0.0019607843 21:0.0019607843 26:0.99999999 29:0.19215686 30:0.019607843 31:0.099999999 32:0.079999999 33:0.099999999 
-18.621363663533213 2:7.8593884e-07 3:0.00018189283 9:0.99999999 20:0.0098039216 21:0.0098039216 26:0.99999999 29:0.023529412 30:0.023529412 31:0.99999999 33:0.17 
-19.24553642613504 2:1.2816043e-05 20:0.033333333 21:0.033333333 26:0.99999999 29:0.61176471 30:0.18823529 31:0.31 32:0.04 33:0.31 
-20.083261869493768 2:5.4753739e-07 20:0.0019607843 21:0.0019607843 26:0.99999999 29:0.023529412 30:0.050980392 31:0.66999999 32:0.33 33:0.66999999 34:0.15 36:0.079999999 
-24.462348204845537 1:0.01556157 2:0.0012750548 3:0.044963442 9:0.99999999 20:0.0019607843 21:0.0019607843 26:0.99999999 29:0.015686275 30:0.015686275 31:0.99999999 33:0.25 37:0.25 38:0.25 
-0.19455211272867592 22:0.99999999 23:0.99999999 26:0.99999999 29:0.60392157 30:0.0078431373 31:0.0099999999 32:0.12 33:0.0099999999 35:0.0099999999 36:0.5 
-256 2:1.4854244e-06 26:0.99999999 29:0.10980392 30:0.16862745 31:0.88999999 32:0.069999999 33:0.88999999 34:0.05 
-256 2:7.8593884e-08 26:0.99999999 29:0.9254902 30:0.9254902 31:0.99999999 33:0.99999999 
-235.66041221303476 2:1.2575021e-07 3:9.3178825e-06 20:0.20980392 26:0.0099999999 27:0.02 29:1 30:0.0039215686 32:0.0099999999 
-247.30584773243197 2:1.6766695e-07 20:0.0019607843 26:0.5 27:0.99999999 29:0.83529412 30:0.0039215686 32:0.069999999 
-5.8819709992406315 2:6.3661046e-07 3:0.0042512839 9:0.99999999 22:0.99999999 23:0.99999999 26:0.99999999 29:0.50196078 30:1 31:0.99999999 33:0.0099999999 34:0.05 35:0.0099999999 37:0.23 38:0.58999999 
-17.075663835597219 2:3.405735e-07 3:4.6589412e-05 9:0.99999999 26:0.99999999 29:0.38431373 30:0.34509804 31:0.28 32:0.71999999 33:0.0099999999 34:0.02 37:0.65999999 
-3.4036189425614598 2:6.4185005e-07 20:0.0019607843 21:0.0019607843 26:0.99999999 29:0.56862745 30:0.16078431 31:0.04 32:0.03 33:0.04 34:0.05 
-173.615386579946 2:1.8338573e-08 3:4.3677574e-05 26:0.99999999 29:1 30:0.02745098 31:0.03 32:0.059999999 35:0.02 
-256 2:1.3518148e-06 3:7.7649021e-07 20:0.79607843 21:0.79607843 26:0.99999999 29:1 30:1 31:0.99999999 33:0.99999999 
-256 2:1.3518148e-06 3:7.7649021e-07 20:0.72941176 21:0.72941176 26:0.99999999 29:1 30:1 31:0.99999999 33:0.99999999 
-256 2:1.2575021e-07 3:9.3178825e-06 26:0.99999999 29:0.16470588 30:0.14117647 31:0.85999999 32:0.069999999 33:0.85999999 
-1.4334065799525735 2:4.3226636e-07 3:0.0014611604 9:0.99999999 21:0.0039215686 26:0.99999999 28:0.99999999 29:0.32941176 30:0.96470588 31:0.99999999 33:0.0099999999 34:0.13 37:0.32 38:0.50999999 
-256 2:1.3518148e-06 3:7.7649021e-07 20:0.74117647 21:0.74117647 26:0.99999999 29:1 30:1 31:0.99999999 33:0.99999999 
-256 1:0.00069992068 2:3.2144899e-06 3:0.00065613422 7:0.31168831 9:0.99999999 19:0.99999999 26:0.99999999 29:0.95294118 30:0.23529412 31:0.25 32:0.02 
-0.021454472122614816 21:0.0039215686 23:0.33 24:0.99999999 25:0.33 26:0.99999999 28:0.66999999 29:0.023529412 30:0.36470588 31:0.99999999 33:0.17 34:0.089999999 37:0.99999999 38:0.99999999 
-70.253507857260104 2:6.0255311e-07 3:0.00017490442 9:0.99999999 20:0.031372549 21:0.056862745 26:0.99999999 28:0.069999999 29:1 30:1 31:0.99999999 37:0.11 38:0.11 
-256 2:1.3518148e-06 3:7.7649021e-07 20:0.89215686 21:0.89215686 26:0.99999999 29:1 30:1 31:0.99999999 33:0.99999999 
-8.1729774530290999 2:3.0748547e-05 3:0.00030069583 9:0.99999999 26:0.99999999 29:1 30:0.47843137 31:0.48 32:0.02 35:0.36 36:0.42 
-54.579262574936934 2:3.7463085e-07 3:0.010060013 7:0.038961039 9:0.99999999 21:0.01372549 26:0.99999999 28:0.38 29:1 30:1 31:0.99999999 
-8.3707301077260006 1:0.00072325136 2:2.8162808e-06 3:0.00059809158 7:0.28571429 9:0.99999999 19:0.99999999 26:0.99999999 29:1 30:0.23529412 31:0.24 32:0.03 
-29.945715781275101 2:6.759074e-07 3:0.00027060684 7:0.012987013 9:0.99999999 11:0.99999999 20:0.033333333 21:0.033333333 26:0.99999999 29:1 30:1 31:0.99999999 
-57.377546799824692 1:0.00060659792 2:9.4574641e-07 3:0.00022925873 7:0.090909091 9:0.99999999 19:0.99999999 26:0.99999999 29:0.0039215686 30:0.0039215686 31:0.99999999 33:0.99999999 
-4.3075862575349237 1:0.010078858 2:6.3137087e-07 3:0.0002401296 9:0.99999999 10:0.0011312217 20:0.0019607843 24:0.5 26:0.5 27:0.99999999 29:1 30:0.1254902 31:0.13 32:0.059999999 35:0.66999999 36:0.41 37:0.03 38:0.12 
-256 1:0.0006532593 2:3.8327618e-06 3:0.00080599683 7:0.38961039 9:0.99999999 19:0.99999999 26:0.99999999 29:0.81568627 30:0.23137255 31:0.28 32:0.02 
-256 2:1.130704e-05 20:0.033333333 21:0.033333333 26:0.99999999 29:0.49411765 30:0.1254902 31:0.25 32:0.03 33:0.25 
-16.178225623922735 2:8.0689721e-07 3:0.00052374264 9:0.99999999 16:0.125 21:0.0019607843 25:0.5 26:0.99999999 28:0.99999999 29:1 30:0.96078431 31:0.95999999 32:0.0099999999 37:0.03 38:0.03 
-7.6804493251687322 1:0.01488498 2:0.0039818282 3:0.079608105 9:0.99999999 26:0.99999999 29:1 30:0.0039215686 32:0.03 
-256 2:1.3518148e-06 3:7.7649021e-07 20:0.69411765 21:0.69411765 26:0.99999999 29:1 30:1 31:0.99999999 33:0.99999999 
-256 2:7.8593884e-08 26:0.99999999 29:0.93333333 30:0.93333333 31:0.99999999 33:0.99999999 
-29.419899229277956 2:3.8511003e-07 3:2.8536015e-05 20:0.0098039216 21:0.0019607843 26:0.33 27:0.5 29:1 30:0.0078431373 31:0.0099999999 32:0.42 33:0.92999999 
-256 2:7.8593884e-08 26:0.99999999 29:0.023529412 30:0.02745098 31:0.99999999 33:0.99999999 34:0.29 
-256 2:1.3518148e-06 3:7.7649021e-07 20:0.53529412 21:0.53529412 26:0.99999999 29:1 30:1 31:0.99999999 33:0.99999999 
-93.465860549634158 2:2.9802801e-05 9:0.99999999 20:0.015686275 21:0.015686275 26:0.99999999 29:0.93333333 30:0.26666667 31:0.29 32:0.03 33:0.3 35:0.0099999999 36:0.03 
-0.33277429661363583 20:0.035294118 21:0.035294118 24:0.73999999 25:0.73999999 26:0.99999999 29:0.074509804 30:1 31:0.99999999 33:0.05 34:0.0099999999 37:0.73999999 38:0.069999999 
-256 2:3.6677146e-08 3:7.9590246e-06 9:0.99999999 26:0.99999999 29:0.0039215686 30:0.023529412 31:0.99999999 33:0.99999999 34:0.33 
-99.056791376823369 2:4.3095646e-06 3:6.4448687e-05 9:0.99999999 26:0.99999999 29:0.84705882 30:0.30588235 31:0.29 32:0.33 34:0.03 37:0.31 
-256 2:8.0427741e-07 3:7.7066653e-05 9:0.99999999 20:0.0019607843 21:0.0019607843 24:0.5 25:0.5 26:0.99999999 29:1 30:1 31:0.99999999 
-256 2:8.802515e-07 3:0.00015355094 9:0.99999999 26:0.99999999 29:0.0039215686 30:0.39607843 31:0.99999999 33:0.99999999 34:0.15 
-256 2:3.4012813e-05 20:0.0019607843 21:0.0019607843 26:0.99999999 29:0.011764706 30:0.21568627 31:0.99999999 33:0.99999999 34:0.04 
-2.1415804528354037 24:0.99999999 25:0.99999999 26:0.99999999 29:0.75294118 30:0.062745098 31:0.079999999 32:0.03 33:0.0099999999 37:0.03 38:0.12 
-256 2:1.6766695e-07 26:0.99999999 29:0.42352941 30:0.0078431373 31:0.02 32:0.04 33:0.02 35:0.0099999999 
-135.96543873638265 2:2.3840145e-07 20:0.0019607843 21:0.0019607843 26:0.99999999 29:0.27843137 30:0.17647059 31:0.62999999 32:0.03 33:0.62999999 
-134.38304376167767 2:2.5150043e-06 20:0.0019607843 21:0.0019607843 26:0.99999999 29:0.15686275 30:0.023529412 31:0.15 32:0.079999999 33:0.15 
-256 2:5.7373535e-07 3:0.00023838249 9:0.99999999 20:0.0019607843 21:0.0019607843 26:0.99999999 29:0.050980392 30:0.050980392 31:0.99999999 33:0.079999999 
-256 2:2.3840145e-07 26:0.99999999 29:0.52941176 30:0.38039216 31:0.71999999 32:0.0099999999 33:0.71999999 
-256 2:9.4312661e-08 3:1.9606378e-05 20:0.0019607843 21:0.0019607843 26:0.99999999 29:0.0078431373 30:0.0078431373 31:0.99999999 33:0.99999999 
-83.738500648937588 1:0.00032662965 2:2.9079737e-07 3:6.9884119e-06 26:0.99999999 29:0.015686275 30:0.011764706 31:0.74999999 32:0.5 33:0.74999999 
-256 2:1.3518148e-06 3:7.7649021e-07 20:0.95294118 21:0.95294118 26:0.99999999 29:1 30:1 31:0.99999999 33:0.99999999 
-256 2:7.8593884e-08 26:0.99999999 29:0.20784314 30:0.20784314 31:0.99999999 33:0.99999999 
-22.657259228927543 2:7.8593884e-08 20:0.0058823529 26:0.25 27:0.74999999 29:1 30:0.011764706 31:0.0099999999 32:0.0099999999 33:0.04 
-0.56077514896214786 24:0.99999999 25:0.99999999 26:0.99999999 29:0.0078431373 30:0.29019608 31:0.99999999 33:0.5 34:0.05 36:0.0099999999 37:0.99999999 38:0.98999999 
-2.5108156187364465 1:0.00135318 2:6.8088502e-06 3:9.4149437e-05 9:0.99999999 20:1 29:1 30:0.015686275 31:0.02 32:0.0099999999 
-256 2:1.3518148e-06 3:7.7649021e-07 20:0.83529412 21:0.83529412 26:0.99999999 29:1 30:1 31:0.99999999 33:0.99999999 
-18.760470298597077 1:0.00018664551 2:3.5891207e-07 3:0.00031234319 9:0.99999999 26:0.99999999 29:0.0039215686 30:0.0039215686 31:0.99999999 33:0.99999999 
-256 2:2.3578165e-08 3:2.7177157e-05 26:0.99999999 29:0.0039215686 30:0.0039215686 31:0.99999999 33:0.99999999 
-3.5886689438152652 24:0.99999999 25:0.99999999 26:0.99999999 29:0.0039215686 30:1 31:0.99999999 33:0.99999999 34:0.03 36:0.02 37:0.99999999 38:0.03 
-256 2:3.1437554e-08 20:0.0019607843 21:0.0019607843 26:0.99999999 29:0.5372549 30:0.062745098 31:0.12 32:0.03 33:0.12 35:0.0099999999 
-256 2:1.3518148e-06 3:7.7649021e-07 20:0.95686275 21:0.95686275 26:0.99999999 29:1 30:1 31:0.99999999 33:0.99999999 
-256 2:1.3518148e-06 3:7.7649021e-07 20:0.60588235 21:0.60588235 26:0.99999999 29:1 30:1 31:0.99999999 33:0.99999999 
-2.0812553476246705 2:1.9596075e-06 9:0.99999999 13:0.0092307692 26:0.99999999 29:0.39215686 30:0.22745098 31:0.0099999999 32:0.03 33:0.0099999999 34:0.03 
-256 2:1.3518148e-06 3:7.7649021e-07 20:0.51960784 21:0.51960784 26:0.99999999 29:1 30:1 31:0.99999999 33:0.99999999 
-0.14948049937768609 4:0.99999999 21:0.0019607843 22:0.99999999 23:0.99999999 26:0.99999999 28:0.99999999 29:0.0039215686 30:0.019607843 31:0.99999999 33:0.99999999 34:0.99999999 35:0.99999999 36:0.99999999 
-256 1:0.00023330689 2:6.9686577e-07 3:0.00047055306 7:0.012987013 9:0.99999999 26:0.99999999 29:1 30:0.99215686 31:0.98999999 32:0.0099999999 
-256 2:7.8593884e-08 26:0.99999999 29:0.0039215686 30:0.0078431373 31:0.99999999 33:0.99999999 34:0.99999999 
-0.1602995023932238 24:0.99999999 25:0.99999999 26:0.99999999 29:0.090196078 30:0.4745098 31:0.99999999 33:0.04 34:0.02 37:0.99999999 38:0.19 
-256 2:4.2964657e-07 3:0.0059946985 7:0.012987013 9:0.99999999 10:0.0011312217 20:0.0078431373 21:0.0078431373 26:0.99999999 29:1 30:1 31:0.99999999 
-256 2:1.3518148e-06 3:7.7649021e-07 20:0.86470588 21:0.86470588 26:0.99999999 29:1 30:1 31:0.99999999 33:0.99999999 
-256 1:0.00062992861 2:3.906116e-06 3:0.00080599683 7:0.38961039 9:0.99999999 19:0.99999999 26:0.99999999 29:0.9254902 30:0.21568627 31:0.23 32:0.02 
-256 2:2.6881728e-05 9:0.99999999 20:0.01372549 21:0.01372549 26:0.99999999 29:0.054901961 30:0.054901961 31:0.99999999 33:0.99999999 
-256 1:0.00069992068 2:2.7769839e-06 3:0.00059809158 7:0.28571429 9:0.99999999 19:0.99999999 26:0.99999999 29:0.9372549 30:0.25098039 31:0.27 32:0.02 
-256 2:4.7942269e-07 20:0.011764706 21:0.011764706 26:0.99999999 29:1 30:0.078431373 31:0.079999999 32:0.0099999999 33:0.089999999 
-256 1:0.0006532593 2:4.0292465e-06 3:0.00080599683 7:0.38961039 9:0.99999999 19:0.99999999 26:0.99999999 29:0.94117647 30:0.20784314 31:0.22 32:0.03 
-5.8046410517633165 2:9.4312661e-08 26:0.99999999 29:0.28627451 30:0.039215686 31:0.14 32:0.069999999 33:0.14 
-5.2125266409596867 22:0.99999999 23:0.99999999 26:0.99999999 29:0.0039215686 30:0.0039215686 31:0.99999999 33:0.99999999 35:0.99999999 36:0.99999999 
-256 2:1.3518148e-06 3:7.7649021e-07 20:0.73333333 21:0.73333333 26:0.99999999 29:1 30:1 31:0.99999999 33:0.99999999 
-193.97724646391941 2:1.0240783e-05 20:0.0058823529 21:0.0058823529 26:0.99999999 29:0.015686275 30:0.35686275 31:0.99999999 33:0.99999999 34:0.02 
-25.588179489904178 1:0.00055993654 2:6.3661046e-07 3:0.00015044498 7:0.051948052 9:0.99999999 19:0.99999999 26:0.99999999 29:0.62352941 30:0.02745098 31:0.04 32:0.03 33:0.0099999999 
-230.20970054005943 2:7.9903782e-07 3:0.00048666524 9:0.99999999 20:0.0098039216 21:0.0098039216 26:0.99999999 29:0.9372549 30:0.91372549 31:0.96999999 32:0.0099999999 37:0.059999999 38:0.059999999 
-55.899489803470409 2:2.043441e-07 20:0.0058823529 21:0.0058823529 26:0.99999999 29:1 30:0.066666667 31:0.069999999 32:0.0099999999 33:0.069999999 
-0.87371041612203248 2:1.2575021e-07 3:9.3178825e-06 20:0.0058823529 26:0.25 27:0.5 29:1 30:0.78823529 31:0.78999999 32:0.0099999999 33:0.78999999 
-202.73312018782363 2:5.0300086e-07 9:0.99999999 26:0.99999999 29:1 30:0.38431373 31:0.38 32:0.079999999 33:0.44 35:0.0099999999 36:0.02 
-256 20:0.0039215686 21:0.0039215686 24:0.99999999 25:0.99999999 26:0.99999999 29:1 30:0.015686275 31:0.02 32:0.03 37:0.02 38:0.99999999 
-256 2:1.1527103e-07 3:2.5235932e-05 26:0.99999999 29:0.019607843 30:0.019607843 31:0.99999999 33:0.99999999 
-256 2:1.2575021e-07 3:9.3178825e-06 26:0.99999999 29:0.015686275 30:0.0078431373 31:0.5 32:0.5 33:0.5 
-81.954498248150415 2:2.9603696e-07 20:0.064705882 21:0.062745098 26:0.96999999 27:0.059999999 29:1 30:0.12941176 31:0.13 32:0.51999999 33:0.13 
-22.773980331344184 2:2.8817758e-08 9:0.99999999 20:0.0019607843 21:0.0019607843 26:0.99999999 29:0.57647059 30:0.46666667 31:0.4 32:0.48 33:0.39 34:0.02 37:0.46 38:0.0099999999 
-10.721972486178599 2:1.1527103e-07 3:2.6012422e-05 20:0.12745098 21:0.28039216 26:0.99999999 28:0.0099999999 29:0.94901961 30:0.47843137 31:0.5 32:0.02 
-3.3313086855514431 2:2.3578165e-08 22:0.99999999 23:0.99999999 26:0.99999999 29:0.015686275 30:0.02745098 31:0.5 32:0.5 33:0.25 34:0.43 35:0.99999999 36:0.29 
-0.18312414967926988 7:0.012987013 20:0.0019607843 21:0.0019607843 22:0.99999999 23:0.99999999 26:0.99999999 29:0.08627451 30:0.08627451 31:0.99999999 33:0.089999999 35:0.089999999 36:0.089999999 37:0.05 38:0.05 
-256 2:7.8593884e-08 26:0.99999999 29:0.039215686 30:0.35686275 31:0.99999999 33:0.99999999 34:0.46 
-138.33180901205057 24:0.99999999 25:0.99999999 26:0.99999999 29:0.65882353 30:0.031372549 31:0.05 32:0.04 33:0.0099999999 35:0.0099999999 37:0.079999999 38:0.99999999 
-29.082339798167293 1:0.014978302 2:3.0127656e-06 3:0.00065613422 7:0.31168831 9:0.99999999 19:0.99999999 26:0.99999999 29:0.83921569 30:0.22352941 31:0.27 32:0.33 37:0.3 38:0.02 
-0.99711642070572681 2:1.6331809e-05 3:0.00031603151 9:0.99999999 24:0.99999999 25:0.99999999 26:0.99999999 29:0.35686275 30:0.29411765 31:0.15 32:0.77999999 33:0.0099999999 34:0.03 37:0.73999999 38:0.0099999999 
-256 2:7.8593884e-08 26:0.99999999 29:0.99215686 30:0.99215686 31:0.99999999 33:0.99999999 
-256 2:3.4012813e-05 9:0.99999999 20:0.0019607843 21:0.0019607843 26:0.99999999 29:0.011764706 30:0.26666667 31:0.99999999 33:0.99999999 34:0.03 
-256 2:1.2575021e-07 3:9.3178825e-06 26:0.99999999 29:1 30:0.82352941 31:0.81999999 32:0.0099999999 33:0.81999999 
-256 1:0.00074658205 2:3.8249024e-06 3:0.00080599683 7:0.38961039 9:0.99999999 19:0.99999999 26:0.99999999 29:0.89019608 30:0.23137255 31:0.26 32:0.02 
-256 2:1.2967991e-06 9:0.99999999 13:0.0051282051 26:0.99999999 29:0.0039215686 30:0.20392157 31:0.99999999 33:0.99999999 34:0.04 
-256 2:4.909498e-06 9:0.99999999 26:0.99999999 29:0.02745098 30:0.02745098 31:0.99999999 33:0.99999999 
-256 2:2.8817758e-07 3:8.5413923e-06 26:0.99999999 29:0.11764706 30:0.090196078 31:0.76999999 32:0.069999999 33:0.76999999 
-14.787441166600315 2:6.6018863e-07 3:0.00031603151 9:0.99999999 21:0.0019607843 25:0.5 26:0.99999999 28:0.99999999 29:0.16078431 30:0.15686275 31:0.97999999 32:0.05 33:0.02 
-256 2:1.3518148e-06 3:7.7649021e-07 20:0.73529412 21:0.73529412 26:0.99999999 29:1 30:1 31:0.99999999 33:0.99999999 
-256 2:1.3518148e-06 3:7.7649021e-07 20:0.47647059 21:0.47647059 26:0.99999999 29:0.95686275 30:0.95686275 31:0.99999999 33:0.99999999 
-256 2:1.3518148e-06 3:7.7649021e-07 20:0.59215686 21:0.59215686 26:0.99999999 29:1 30:1 31:0.99999999 33:0.99999999 
-256 2:1.3518148e-06 3:7.7649021e-07 20:0.57647059 21:0.57647059 26:0.99999999 29:1 30:1 31:0.99999999 33:0.99999999 
-3.233585471677245 1:0.2673697 2:8.4540821e-06 3:0.0071539984 7:0.012987013 9:0.99999999 14:0.425 26:0.99999999 29:0.51764706 30:0.050980392 31:0.099999999 32:0.04 33:0.0099999999 35:0.02 36:0.23 
-65.024547793133834 1:0.0006532593 2:3.8825379e-06 3:0.00080599683 7:0.38961039 9:0.99999999 19:0.99999999 26:0.99999999 29:0.76078431 30:0.30980392 31:0.41 32:0.03 33:0.0099999999 
-256 2:3.7987044e-07 3:0.0058745367 7:0.012987013 9:0.99999999 26:0.99999999 29:1 30:1 31:0.99999999 
-0.11078377600723324 2:1.130704e-05 9:0.99999999 15:0.99999999 20:0.019607843 21:0.019607843 26:0.99999999 29:0.066666667 30:0.066666667 31:0.99999999 33:0.99999999 
-0.57154700638638312 24:0.99999999 25:0.99999999 26:0.99999999 29:0.035294118 30:1 31:0.99999999 33:0.11 34:0.04 35:0.11 36:0.02 37:0.33 38:0.03 
-256 2:5.2395923e-08 26:0.99999999 29:0.0039215686 30:0.0039215686 31:0.99999999 33:0.99999999 
-256 2:7.8593884e-08 20:0.0019607843 21:0.0019607843 26:0.99999999 29:0.96078431 30:0.96078431 31:0.99999999 33:0.99999999 
-0.81620789749044254 1:0.24252251 2:6.117224e-06 3:0.0015846224 9:0.99999999 20:0.0019607843 24:0.5 25:0.99999999 26:0.5 27:0.99999999 29:0.63529412 30:0.062745098 31:0.099999999 32:0.0099999999 33:0.0099999999 37:0.069999999 38:0.74999999 
-23.193463018178964 1:4.6661378e-05 2:1.5718777e-08 3:2.8536015e-05 26:0.99999999 29:1 30:0.14901961 31:0.15 32:0.02 35:0.45 36:0.78999999 
-256 2:1.362294e-07 3:0.00022576453 9:0.99999999 26:0.99999999 29:0.0039215686 30:0.0039215686 31:0.99999999 33:0.99999999 
-256 1:0.0014698334 2:1.2575021e-07 3:9.3178825e-06 26:0.99999999 29:0.011764706 30:0.015686275 31:0.99999999 33:0.99999999 34:0.5 
-10.268623686977977 2:8.9073069e-08 20:0.0058823529 21:0.029411765 26:0.99999999 28:0.19 29:0.32156863 30:0.043137255 31:0.13 32:0.069999999 33:0.13 
-0.071813194959826063 21:0.0039215686 24:0.99999999 25:0.99999999 26:0.99999999 28:0.99999999 29:0.043137255 30:0.9254902 31:0.99999999 33:0.089999999 34:0.0099999999 37:0.99999999 38:0.069999999 
-2.2250538957704937 3:2.9118383e-06 20:0.0058823529 24:0.25 25:0.99999999 26:0.25 27:0.5 29:1 30:0.0078431373 31:0.0099999999 32:0.03 38:0.5 
-256 2:1.9072116e-05 9:0.99999999 26:0.99999999 29:0.0039215686 30:0.27058824 31:0.99999999 33:0.99999999 34:0.03 36:0.0099999999 
-28.111961358195984 2:7.1520435e-07 3:0.00028982497 9:0.99999999 20:0.0019607843 21:0.0019607843 26:0.99999999 29:0.66666667 30:0.66666667 31:0.99999999 33:0.0099999999 
-1.333790870777251 2:9.7718396e-07 9:0.99999999 21:0.0019607843 26:0.99999999 28:0.99999999 29:0.031372549 30:0.27058824 31:0.87999999 32:0.25 33:0.87999999 34:0.03 
-152.93642050738518 2:9.4312661e-08 26:0.99999999 29:0.2627451 30:0.015686275 31:0.059999999 32:0.069999999 33:0.059999999 
-7.0690604133174553 2:9.4312661e-08 3:1.7859275e-05 20:0.0019607843 21:0.0019607843 26:0.99999999 29:0.023529412 30:0.015686275 31:0.66999999 32:0.33 33:0.66999999 
-256 2:7.3092312e-07 3:0.00041192805 9:0.99999999 26:0.99999999 29:0.0039215686 30:0.054901961 31:0.99999999 33:0.99999999 34:0.29 36:0.069999999 
-14.660005841468731 2:6.81147e-08 9:0.99999999 26:0.99999999 29:0.047058824 30:0.031372549 31:0.42 32:0.25 33:0.42 34:0.25 
-256 2:1.6766695e-07 20:0.0058823529 21:0.0058823529 26:0.99999999 29:1 30:0.0078431373 31:0.0099999999 32:0.02 33:0.0099999999 
-256 2:1.3518148e-06 3:7.7649021e-07 20:0.63921569 21:0.63921569 26:0.99999999 29:1 30:1 31:0.99999999 33:0.99999999 
-4.0662160762829735 2:3.0127656e-07 3:6.6001668e-06 20:0.0019607843 24:0.5 26:0.5 27:0.99999999 29:0.64313725 30:0.019607843 31:0.03 32:0.02 33:0.78999999 37:0.16 
-0.046211601709684143 22:0.99999999 23:0.99999999 26:0.99999999 29:0.0039215686 30:0.47058824 31:0.99999999 33:0.99999999 34:0.17 35:0.99999999 36:0.0099999999 38:0.98999999 
-1.6765034366340812 2:1.6766695e-07 20:0.29411765 22:0.98999999 26:0.0099999999 27:0.059999999 29:1 30:0.0039215686 32:0.089999999 35:0.65999999 37:0.0099999999 
-1.1533167145344092 2:2.69839e-07 20:0.0019607843 21:0.0039215686 26:0.99999999 28:0.66999999 29:0.039215686 30:0.039215686 31:0.99999999 33:0.99999999 
-30.04022958095879 2:1.619034e-06 3:9.5508295e-05 9:0.99999999 26:0.99999999 29:1 30:0.011764706 31:0.0099999999 32:0.0099999999 
-256 1:0.00074658205 2:2.8817758e-07 3:8.5413923e-06 20:0.01372549 21:0.01372549 26:0.99999999 29:0.37647059 30:0.29019608 31:0.76999999 32:0.02 33:0.76999999 
-6.1742487841172879 2:3.8249024e-07 20:0.0078431373 26:0.2 27:0.4 29:0.69411765 30:0.10980392 31:0.16 32:0.02 33:0.16 
-24.877037798396582 2:6.2875107e-08 3:4.6589412e-06 26:0.99999999 29:0.0039215686 30:0.94509804 31:0.99999999 33:0.99999999 34:0.0099999999 
-256 2:4.5060494e-07 9:0.99999999 26:0.99999999 29:0.02745098 30:0.02745098 31:0.99999999 33:0.99999999 
-3.9439768947671445 24:0.99999999 25:0.99999999 26:0.99999999 29:0.1254902 30:0.1254902 31:0.99999999 33:0.03 37:0.99999999 38:0.99999999 
-203.84989165172638 2:2.4102124e-07 21:0.0019607843 26:0.99999999 28:0.99999999 29:0.023529412 30:0.023529412 31:0.99999999 33:0.99999999 
-256 2:1.2575021e-07 3:9.3178825e-06 26:0.99999999 29:0.25490196 30:0.22352941 31:0.87999999 32:0.05 33:0.87999999 
-256 2:4.768029e-07 20:0.0098039216 21:0.0098039216 26:0.99999999 29:1 30:0.062745098 31:0.059999999 32:0.0099999999 33:0.069999999 
-18.678256224629664 2:6.4185005e-07 26:0.99999999 29:0.33333333 30:0.047058824 31:0.14 32:0.059999999 33:0.14 35:0.0099999999 36:0.079999999 
-256 1:0.00062992861 2:3.9375536e-06 3:0.00080599683 7:0.38961039 9:0.99999999 19:0.99999999 26:0.99999999 29:0.89803922 30:0.18431373 31:0.21 32:0.03 
-256 1:0.00072325136 2:3.9427932e-06 3:0.00080599683 7:0.38961039 9:0.99999999 19:0.99999999 26:0.99999999 29:1 30:0.16862745 31:0.17 32:0.02 
-256 2:2.3840145e-07 20:0.0019607843 21:0.0019607843 26:0.99999999 29:0.69803922 30:0.4745098 31:0.67999999 32:0.0099999999 33:0.67999999 
-33.85365984882656 2:1.6504716e-07 9:0.99999999 26:0.99999999 29:1 30:0.2745098 31:0.27 32:0.04 33:0.27 35:0.17 37:0.02 
-59.433968146325604 2:7.8593884e-08 26:0.99999999 29:0.37647059 30:0.37647059 31:0.99999999 33:0.99999999 
-256 2:1.3518148e-06 3:7.7649021e-07 20:0.70980392 21:0.70980392 26:0.99999999 29:1 30:1 31:0.99999999 33:0.99999999 
-256 1:0.00088656619 2:3.7751262e-06 3:0.00080599683 7:0.38961039 9:0.99999999 19:0.99999999 26:0.99999999 29:0.65098039 30:0.10588235 31:0.16 32:0.02 33:0.0099999999 35:0.0099999999 
-256 2:1.3518148e-06 3:7.7649021e-07 20:0.55882353 21:0.55882353 26:0.99999999 29:1 30:1 31:0.99999999 33:0.99999999 
-0.67567421890024615 2:6.2875107e-07 3:0.00052374264 9:0.99999999 16:0.125 20:0.0019607843 21:0.0058823529 25:0.5 26:0.99999999 28:0.74999999 29:0.20784314 30:0.20784314 31:0.99999999 33:0.02 
-6.8112099443377305 2:4.1628561e-06 3:6.4836932e-05 9:0.99999999 21:0.0039215686 26:0.99999999 28:0.99999999 29:0.0039215686 30:0.40784314 31:0.99999999 33:0.99999999 34:0.02 
-256 2:1.3518148e-06 3:7.7649021e-07 20:0.021568627 21:0.021568627 26:0.99999999 29:0.047058824 30:0.047058824 31:0.99999999 33:0.99999999 
-10.804629904974814 2:5.0300086e-07 20:0.0019607843 21:0.0019607843 26:0.99999999 29:0.24705882 30:0.46666667 31:0.83999999 32:0.05 33:0.83999999 34:0.02 
-5.4460869695594374 2:3.1804325e-06 9:0.99999999 20:0.029411765 21:0.029411765 26:0.99999999 29:1 30:0.2745098 31:0.27 32:0.02 33:0.27 37:0.03 
-54.503845911538605 2:2.6389207e-05 9:0.99999999 20:0.035294118 21:0.033333333 26:0.94999999 27:0.11 29:1 30:0.1254902 31:0.13 32:0.03 33:0.13 
-256 2:1.3518148e-06 3:7.7649021e-07 20:0.65882353 21:0.65882353 26:0.99999999 29:1 30:1 31:0.99999999 33:0.99999999 
-256 2:1.3518148e-06 3:7.7649021e-07 20:0.52352941 21:0.52352941 26:0.99999999 29:1 30:1 31:0.99999999 33:0.99999999 
-0.97414720312521919 7:0.012987013 22:0.99999999 23:0.99999999 26:0.99999999 29:0.49803922 30:0.0078431373 31:0.02 32:0.04 33:0.0099999999 35:0.02 36:0.99999999 
-4.6363127328074496 2:4.2833667e-06 3:6.464281e-05 9:0.99999999 20:0.0019607843 26:0.5 27:0.99999999 29:1 30:0.30980392 31:0.31 32:0.03 
-256 1:9.3322757e-05 2:6.5494903e-07 3:0.00032651413 7:0.012987013 9:0.99999999 21:0.0019607843 25:0.5 26:0.99999999 28:0.99999999 29:0.83921569 30:0.83921569 31:0.99999999 
-256 2:7.8593884e-08 26:0.99999999 29:0.011764706 30:0.015686275 31:0.99999999 33:0.99999999 34:0.5 
-256 2:4.4903306e-06 3:6.3866319e-05 9:0.99999999 26:0.99999999 29:0.0039215686 30:0.0039215686 31:0.99999999 33:0.99999999 
-2.1804020852970361 2:1.8338573e-08 24:0.99999999 25:0.99999999 26:0.99999999 29:0.0039215686 30:0.019607843 31:0.99999999 33:0.99999999 34:0.59999999 37:0.99999999 38:0.2 
-39.926283901195866 2:4.7942269e-07 3:0.0018899772 9:0.99999999 20:0.0078431373 21:0.0078431373 24:0.2 25:0.2 26:0.99999999 29:1 30:1 31:0.99999999 35:0.0099999999 36:0.0099999999 
-256 2:9.9552253e-08 3:2.5235932e-05 9:0.99999999 26:0.99999999 29:0.0039215686 30:0.031372549 31:0.99999999 33:0.99999999 34:0.38 
-0.70317973276333079 24:0.99999999 25:0.99999999 26:0.99999999 29:0.0039215686 30:0.60784314 31:0.99999999 33:0.99999999 34:0.059999999 37:0.99999999 38:0.72999999 
-38.99195146874515 2:1.2863199e-06 9:0.99999999 13:0.0051282051 26:0.99999999 29:0.93333333 30:0.24705882 31:0.21 32:0.02 33:0.21 34:0.03 37:0.03 
-256 2:3.1437554e-08 3:1.0870863e-05 26:0.99999999 29:0.0039215686 30:0.0039215686 31:0.99999999 33:0.99999999 
-256 1:0.0014698334 2:1.2575021e-07 3:9.3178825e-06 26:0.99999999 29:0.066666667 30:0.16470588 31:0.99999999 33:0.99999999 34:0.05 
-0.62363315260789287 24:0.99999999 25:0.99999999 26:0.99999999 29:0.0078431373 30:0.12156863 31:0.99999999 33:0.5 34:0.099999999 37:0.99999999 38:0.99999999 
-256 2:1.3518148e-06 3:7.7649021e-07 20:0.63529412 21:0.63529412 26:0.99999999 29:1 30:1 31:0.99999999 33:0.99999999 
-256 2:1.3518148e-06 3:7.7649021e-07 20:0.57254902 21:0.57254902 26:0.99999999 29:1 30:1 31:0.99999999 33:0.99999999 
-256 2:3.8249024e-07 26:0.99999999 29:0.0039215686 30:0.0039215686 31:0.99999999 33:0.99999999 
-256 2:7.8593884e-08 26:0.99999999 29:0.015686275 30:0.43137255 31:0.99999999 33:0.99999999 34:0.49 
-0.084349687744234889 1:2.3330689e-05 2:5.2002953e-06 3:0.00010172022 9:0.99999999 21:0.0019607843 26:0.99999999 28:0.99999999 29:0.18039216 30:0.53333333 31:0.11 32:0.04 33:0.02 34:0.0099999999 37:0.88999999 
-187.1677557468314 2:2.7507859e-07 20:0.0019607843 21:0.0019607843 26:0.99999999 29:0.011764706 30:0.011764706 31:0.99999999 33:0.66999999 
-256 2:1.3518148e-06 3:7.7649021e-07 20:0.78627451 21:0.78627451 26:0.99999999 29:1 30:1 31:0.99999999 33:0.99999999 
-256 2:1.6766695e-07 20:0.0058823529 21:0.0058823529 26:0.99999999 29:0.72156863 30:0.015686275 31:0.02 32:0.04 33:0.02 
-256 2:1.3934696e-05 9:0.99999999 20:0.0058823529 21:0.0058823529 26:0.99999999 29:0.039215686 30:0.039215686 31:0.99999999 33:0.99999999 
-256 2:7.8593884e-08 26:0.99999999 29:0.015686275 30:0.35686275 31:0.99999999 33:0.99999999 34:0.49 
-115.1737674828743 2:2.9802801e-05 9:0.99999999 20:0.0039215686 21:0.0039215686 26:0.99999999 29:0.89411765 30:0.33333333 31:0.35 32:0.089999999 33:0.4 34:0.02 35:0.0099999999 36:0.02 
-146.26004872670251 2:7.8593884e-08 20:0.0039215686 26:0.33 27:0.99999999 29:1 30:0.011764706 31:0.0099999999 32:0.0099999999 33:0.059999999 
-3.0511074153041635 2:0.0004593472 9:0.99999999 20:0.0039215686 26:0.33 27:0.66999999 29:1 30:0.37254902 31:0.37 32:0.02 33:0.37 
-256 2:1.5718777e-08 3:6.9301751e-05 26:0.99999999 29:0.0039215686 30:0.0039215686 31:0.99999999 33:0.99999999 
-256 1:0.0039195558 2:5.6849576e-07 3:0.0075243842 9:0.99999999 26:0.99999999 29:0.0039215686 30:0.019607843 31:0.99999999 33:0.99999999 34:0.4 
-24.43098472698766 2:3.8511003e-07 20:0.0078431373 26:0.2 27:0.59999999 29:1 30:0.0039215686 32:0.45 33:0.92999999 
-127.25402345094794 1:0.00046661378 2:3.0651615e-07 3:0.0015863695 9:0.99999999 26:0.99999999 29:1 30:0.0039215686 32:0.03 
-17.143327859529851 2:1.5456797e-07 20:0.043137255 22:0.04 26:0.04 27:0.77999999 29:0.76470588 30:0.0039215686 31:0.0099999999 32:0.11 33:0.42 35:0.0099999999 
-256 2:4.62656e-06 26:0.99999999 29:0.023529412 30:0.27843137 31:0.99999999 33:0.99999999 34:0.03 
-4.9273124871003251 20:0.0019607843 24:0.5 25:0.99999999 26:0.5 27:0.99999999 29:0.45098039 30:0.0039215686 31:0.0099999999 32:0.03 33:0.0099999999 37:0.0099999999 38:0.99999999 
-256 2:1.2575021e-07 3:9.3178825e-06 26:0.99999999 29:0.16862745 30:0.14117647 31:0.83999999 32:0.069999999 33:0.83999999 
-70.060708624658858 2:4.768029e-07 20:0.0019607843 26:0.5 27:0.99999999 29:0.25490196 30:0.011764706 31:0.05 32:0.05 33:0.079999999 
-176.29732747667674 2:2.0958369e-08 3:2.6788912e-05 26:0.99999999 29:1 30:0.050980392 31:0.05 32:0.02 36:0.079999999 
-81.25259462533387 2:2.0801181e-05 26:0.99999999 29:0.45490196 30:0.082352941 31:0.18 32:0.03 33:0.18 
-16.271566014301492 2:6.7066781e-07 3:0.00087083377 9:0.99999999 21:0.0039215686 25:0.66999999 26:0.99999999 28:0.99999999 29:0.92941176 30:0.8745098 31:0.93999999 32:0.0099999999 
-9.406078431314393 2:1.1789083e-07 3:1.902401e-05 20:0.017647059 21:0.017647059 26:0.99999999 29:0.28235294 30:0.34901961 31:0.74999999 32:0.03 33:0.74999999 34:0.02 35:0.0099999999 37:0.19 
-4.0203238151727145 2:1.5718777e-08 3:2.8536015e-05 26:0.99999999 29:1 30:0.011764706 31:0.0099999999 32:0.05 35:0.55999999 37:0.0099999999 
-82.915729874218869 2:3.8511003e-07 26:0.99999999 29:0.023529412 30:0.0039215686 31:0.17 32:0.66999999 33:0.82999999 
-107.47182982604201 2:7.8593884e-08 26:0.99999999 29:0.043137255 30:0.35686275 31:0.99999999 33:0.99999999 34:0.45 
-0.21862062747913508 24:0.99999999 25:0.99999999 26:0.99999999 29:1 30:1 31:0.99999999 37:0.28 38:0.28 
-27.124533133230756 2:2.7507859e-07 3:2.8536015e-05 26:0.99999999 29:0.015686275 30:0.015686275 31:0.99999999 33:0.25 
-42.661791238534995 9:0.99999999 24:0.99999999 25:0.99999999 26:0.99999999 29:1 30:0.94901961 31:0.94999999 32:0.0099999999 37:0.05 38:0.059999999 
-256 2:1.3518148e-06 3:7.7649021e-07 20:0.94705882 21:0.94705882 26:0.99999999 29:1 30:1 31:0.99999999 33:0.99999999 
-256 2:1.3518148e-06 3:7.7649021e-07 20:0.60392157 21:0.60392157 26:0.99999999 29:1 30:1 31:0.99999999 33:0.99999999 
-256 2:7.8593884e-08 26:0.99999999 29:0.019607843 30:0.35686275 31:0.99999999 33:0.99999999 34:0.48 
-48.524648216165801 1:2.3330689e-05 2:2.9079737e-07 3:6.0177991e-06 26:0.99999999 29:0.56078431 30:0.3372549 31:0.59999999 32:0.02 33:0.59999999 
-106.63012628077821 1:0.00018664551 2:1.6792893e-06 3:6.4060442e-05 7:0.012987013 9:0.99999999 26:0.99999999 29:0.039215686 30:0.14901961 31:0.99999999 33:0.099999999 34:0.05 
-256 2:1.3518148e-06 3:7.7649021e-07 20:0.91372549 21:0.91372549 26:0.99999999 29:1 30:1 31:0.99999999 33:0.99999999 
-99.58648255426391 2:5.0300086e-07 9:0.99999999 26:0.99999999 29:0.16862745 30:0.20392157 31:0.78999999 32:0.05 33:0.78999999 34:0.04 
-38.139307897199188 2:8.0689721e-07 3:0.00062546286 9:0.99999999 20:0.0078431373 21:0.011764706 25:0.29 26:0.99999999 28:0.43 29:1 30:0.97254902 31:0.96999999 32:0.0099999999 
